DATE: 2025-03-25 UNITS: metal CONTRIBUTOR: Ting Lei, leiting@imech.ac.cn
 Reference: Wu Y, Yu W, Shen S, Materials & Design, 2023, 230: 111999.
 Reference: X. W. Zhou, R. A. Johnson, H. N. G. Wadley, Phys. Rev. B, 69, 144113(2004)
5     Hf Nb Ta Ti Zr          
2000  1.1609053881543565e+00   2000  3.1532606303151575e-03   6.3033679999999999e+00  
   72       178.49000         4.29454      bcc
   0.0000000000000000E+00  -3.8144512617563420E-01  -7.3936814844799104E-01  -1.0745525739576895E+00  -1.3877809098453509E+00
  -1.6798356632515949E+00  -1.9514993413170425E+00  -2.2035544511823151E+00  -2.4367834999880298E+00  -2.6519689948748111E+00
  -2.8498934429832756E+00  -3.0313393514540481E+00  -3.1970892274277443E+00  -3.3479255780449888E+00  -3.4846309104463988E+00
  -3.6079877317725959E+00  -3.7187785491642025E+00  -3.8177858697618361E+00  -3.9057922007061179E+00  -3.9835800491376694E+00
  -4.0519319221971095E+00  -4.1116303270250611E+00  -4.1634577707621423E+00  -4.2081967605489741E+00  -4.2466298035261767E+00
  -4.2795394068343713E+00  -4.3077080776141781E+00  -4.3319183230062173E+00  -4.3529526501511091E+00  -4.3715764768529164E+00
  -4.3870053773875659E+00  -4.3985992517190020E+00  -4.4065839679146217E+00  -4.4111853940418220E+00  -4.4126293975303268E+00
  -4.4110603238476065E+00  -4.4063156440524782E+00  -4.3981606340925419E+00  -4.3863605699153938E+00  -4.3706807274686374E+00
  -4.3525835185125485E+00  -4.3342582632824307E+00  -4.3157339733751421E+00  -4.2970256576118917E+00  -4.2781471357881307E+00
  -4.2591111525480692E+00  -4.2399294783074399E+00  -4.2206129989301191E+00  -4.2011717956096435E+00  -4.1816152161944595E+00
  -4.1619519390180848E+00  -4.1421900301461418E+00  -4.1223369948263606E+00  -4.1023998238211918E+00  -4.0823850352122717E+00
  -4.0622987121890120E+00  -4.0421465372678327E+00  -4.0219338233322093E+00  -4.0016655418353260E+00  -3.9813463484654084E+00
  -3.9609806065378028E+00  -3.9405724083466791E+00  -3.9201255946821489E+00  -3.8996437726950530E+00  -3.8791303322710884E+00
  -3.8585884610580399E+00  -3.8380211582741026E+00  -3.8174312474114855E+00  -3.7968213879373862E+00  -3.7761940860836565E+00
  -3.7555517048070968E+00  -3.7348964729939151E+00  -3.7142304939745339E+00  -3.6935557534082908E+00  -3.6728741265918194E+00
  -3.6521873852396243E+00  -3.6314972037807718E+00  -3.6108051652114628E+00  -3.5901127665395309E+00  -3.5694214238536239E+00
  -3.5487324770468178E+00  -3.5280471942217519E+00  -3.5073667758019691E+00  -3.4866923583719540E+00  -3.4660250182664631E+00
  -3.4453657749278999E+00  -3.4247155940489571E+00  -3.4040753905162653E+00  -3.3834460311695014E+00  -3.3628283373892063E+00
  -3.3422230875254955E+00  -3.3216310191788572E+00  -3.3010528313433483E+00  -3.2804891864216770E+00  -3.2599407121209367E+00
  -3.2394080032370449E+00  -3.2188916233353799E+00  -3.1983921063344685E+00  -3.1779099579991370E+00  -3.1574456573490091E+00
  -3.1369996579878094E+00  -3.1165723893585699E+00  -3.0961642579294142E+00  -3.0757756483142979E+00  -3.0554069243327553E+00
  -3.0350584300124273E+00  -3.0147304905378780E+00  -2.9944234131489580E+00  -2.9741374879917601E+00  -2.9538729889250059E+00
  -2.9336301742844930E+00  -2.9134092876080904E+00  -2.8932105583235637E+00  -2.8730342024013966E+00  -2.8528804229746139E+00
  -2.8327494109274971E+00  -2.8126413454549231E+00  -2.7925563945940328E+00  -2.7724947157297049E+00  -2.7524564560753366E+00
  -2.7324417531302667E+00  -2.7124507351150999E+00  -2.6924835213861766E+00  -2.6725402228302615E+00  -2.6526209422405147E+00
  -2.6327257746747801E+00  -2.6128548077970604E+00  -2.5930081222031123E+00  -2.5731857917309515E+00  -2.5533878837570696E+00
  -2.5336144594790762E+00  -2.5138655741854774E+00  -2.4941412775132252E+00  -2.4744416136936698E+00  -2.4547666217874777E+00
  -2.4351163359090737E+00  -2.4154907854411345E+00  -2.3958899952395858E+00  -2.3763139858296185E+00  -2.3567627735931116E+00
  -2.3372363709479118E+00  -2.3177347865193307E+00  -2.2982580253042637E+00  -2.2788060888282398E+00  -2.2593789752957774E+00
  -2.2399766797343288E+00  -2.2205991941321224E+00  -2.2012465075701995E+00  -2.1819186063488827E+00  -2.1626154741089567E+00
  -2.1433370919478008E+00  -2.1240834385306906E+00  -2.1048544901974835E+00  -2.0856502210649239E+00  -2.0664706031247340E+00
  -2.0473156063376754E+00  -2.0281851987237989E+00  -2.0090793464490049E+00  -1.9899980139080924E+00  -1.9709411638044705E+00
  -1.9519087572266376E+00  -1.9329007537216030E+00  -1.9139171113653628E+00  -1.8949577868305618E+00  -1.8760227354514671E+00
  -1.8571119112863461E+00  -1.8382252671773969E+00  -1.8193627548082889E+00  -1.8005243247594480E+00  -1.7817099265611636E+00
  -1.7629195087446161E+00  -1.7441530188909005E+00  -1.7254104036781421E+00  -1.7066916089267685E+00  -1.6879965796430227E+00
  -1.6693252600607913E+00  -1.6506775936817975E+00  -1.6320535233142552E+00  -1.6134529911100144E+00  -1.5948759386002835E+00
  -1.5763223067299570E+00  -1.5577920358906541E+00  -1.5392850659524449E+00  -1.5208013362944026E+00  -1.5023407858339357E+00
  -1.4839033530550387E+00  -1.4654889760354295E+00  -1.4470975924726641E+00  -1.4287291397092390E+00  -1.4103835547567538E+00
  -1.3920607743191198E+00  -1.3737607348149052E+00  -1.3554833723988142E+00  -1.3372286229823445E+00  -1.3189964222536650E+00
  -1.3007867056967120E+00  -1.2825994086095727E+00  -1.2644344661221600E+00  -1.2462918132131970E+00  -1.2281713847265705E+00
  -1.2100731153870363E+00  -1.1919969398153349E+00  -1.1739427925427131E+00  -1.1559106080248907E+00  -1.1379003206554952E+00
  -1.1199118647789568E+00  -1.1019451747029261E+00  -1.0840001847101868E+00  -1.0660768290701239E+00  -1.0481750420497291E+00
  -1.0302947579241826E+00  -1.0124359109870167E+00  -9.9459843555988325E-01  -9.7678226600192430E-01  -9.5898733671877956E-01
  -9.4121358217123841E-01  -9.2346093688353381E-01  -9.0572933545130840E-01  -8.8801871254927323E-01  -8.7032900293853044E-01
  -8.5266014147361480E-01  -8.3501206310924070E-01  -8.1738470290678655E-01  -7.9977799604047528E-01  -7.8219187780334276E-01
  -7.6462628361291951E-01  -7.4708114901668810E-01  -7.2955640969731428E-01  -7.1205200147763126E-01  -6.9456786032544604E-01
  -6.7710392235808892E-01  -6.5966012384681139E-01  -6.4223640122095949E-01  -6.2483269107195938E-01  -6.0744893015714452E-01
  -5.9008505540339040E-01  -5.7274100391058036E-01  -5.5541671295492823E-01  -5.3811211999211772E-01  -5.2082716266032225E-01
  -5.0356177878304154E-01  -4.8631590637183597E-01  -4.6908948362890102E-01  -4.5188244894951302E-01  -4.3469474092436550E-01
  -4.1752629834175597E-01  -4.0037706018968355E-01  -3.8324696565781929E-01  -3.6613595413935418E-01  -3.4904396523277903E-01
  -3.3197093874351841E-01  -3.1491681468549687E-01  -2.9788153328259781E-01  -2.8086503497003479E-01  -2.6386726039563452E-01
  -2.4688815042102752E-01  -2.2992764612276520E-01  -2.1298568879336433E-01  -1.9606221994224457E-01  -1.7915718129663319E-01
  -1.6227051480236945E-01  -1.4540216262465461E-01  -1.2855206714871723E-01  -1.1172017098045156E-01  -9.4906416946948541E-02
  -7.8110748096997959E-02  -6.1333107701535342E-02  -4.4573439254003436E-02  -2.7831686470703648E-02  -1.1107793291048612E-02
   5.5982961221885683E-03   2.2286637382696824E-02   3.8957285880512969E-02   5.5610296781903878E-02   7.2245725029337834E-02
   8.8863625341469910E-02   1.0546405221317413E-01   1.2204705991561761E-01   1.3861270249636767E-01   1.5516103377953100E-01
   1.7169210736593482E-01   1.8820597663332431E-01   2.0470269473662811E-01   2.2118231460819374E-01   2.3764488895811881E-01
   2.5409047027456544E-01   2.7051911082410185E-01   2.8693086265211365E-01   3.0332577758318124E-01   3.1970390722150788E-01
   3.3606530295139525E-01   3.5241001593769544E-01   3.6873809712631062E-01   3.8504959724470539E-01   4.0134456680245373E-01
   4.1762305609176659E-01   4.3388511518808792E-01   4.5013079395066047E-01   4.6636014202314596E-01   4.8257320883422844E-01
   4.9877004359826255E-01   5.1495069531590976E-01   5.3111521277480223E-01   5.4726364455022880E-01   5.6339603900579738E-01
   5.7951244429415938E-01   5.9561290835770808E-01   6.1169747892929571E-01   6.2776620353296619E-01   6.4381912948470510E-01
   6.5985630389317251E-01   6.7587777366047996E-01   6.9188358548293238E-01   7.0787378585183147E-01   7.2384842105424496E-01
   7.3980753717377701E-01   7.5575118009140063E-01   7.7167939548622133E-01   7.8759222883631652E-01   8.0348972541952923E-01
   8.1937193031428290E-01   8.3523888840043259E-01   8.5109064436005133E-01   8.6692724267829391E-01   8.8274872764422063E-01
   8.9855514335163222E-01   9.1434653369992269E-01   9.3012294239490512E-01   9.4588441294969083E-01   9.6163098868550545E-01
   9.7736271273257058E-01   9.9307962803093508E-01   1.0087817773313488E+00   1.0244692031961089E+00   1.0401419479999301E+00
   1.0558000539307921E+00   1.0714435629908143E+00   1.0870725169971067E+00   1.1026869575826352E+00   1.1182869261970994E+00
   1.1338724641077644E+00   1.1494436124003611E+00   1.1650004119799222E+00   1.1805429035716490E+00   1.1960711277217890E+00
   1.2115851247984832E+00   1.2270849349926278E+00   1.2425705983187454E+00   1.2580421546158349E+00   1.2734996435482244E+00
   1.2889431046064446E+00   1.3043725771080759E+00   1.3197881001985932E+00   1.3351897128522352E+00   1.3505774538728448E+00
   1.3659513618947197E+00   1.3813114753834652E+00   1.3966578326368346E+00   1.4119904717855676E+00   1.4273094307942458E+00
   1.4426147474621169E+00   1.4579064594239399E+00   1.4731846041508190E+00   1.4884492189510354E+00   1.5037003409708716E+00
   1.5189380071954441E+00   1.5341622544495319E+00   1.5493731193983795E+00   1.5645706385485387E+00   1.5797548482486743E+00
   1.5949257846903808E+00   1.6100834839089753E+00   1.6252279817843398E+00   1.6403593140416888E+00   1.6554775162524020E+00
   1.6705826238347998E+00   1.6856746720549500E+00   1.7007536960274541E+00   1.7158197307162442E+00   1.7308728109353670E+00
   1.7459129713497601E+00   1.7609402464760249E+00   1.7759546706832363E+00   1.7909562781936723E+00   1.8059451030836058E+00
   1.8209211792840745E+00   1.8358845405816353E+00   1.8508352206191212E+00   1.8657732528964028E+00   1.8806986707711342E+00
   1.8956115074595214E+00   1.9105117960370324E+00   1.9253995694391726E+00   1.9402748604622053E+00   1.9551377017638911E+00
   1.9699881258642220E+00   1.9848261651461412E+00   1.9996518518562749E+00   2.0144652181056553E+00   2.0292662958704248E+00
   2.0440551169925598E+00   2.0588317131805778E+00   2.0735961160102501E+00   2.0883483569252959E+00   2.1030884672380799E+00
   2.1178164781303139E+00   2.1325324206537548E+00   2.1472363257308738E+00   2.1619282241555626E+00   2.1766081465938041E+00
   2.1912761235843421E+00   2.2059321855393779E+00   2.2205763627452124E+00   2.2352086853629416E+00   2.2498291834290987E+00
   2.2644378868563209E+00   2.2790348254340080E+00   2.2936200288289754E+00   2.3081935265860984E+00   2.3227553481289651E+00
   2.3373055227604991E+00   2.3518440796636360E+00   2.3663710479019171E+00   2.3808864564201411E+00   2.3953903340450005E+00
   2.4098827094856849E+00   2.4243636113345177E+00   2.4388330680675643E+00   2.4532911080452604E+00   2.4677377595129988E+00
   2.4821730506017650E+00   2.4965970093287111E+00   2.5110096635977843E+00   2.5254110412003117E+00   2.5398011698155742E+00
   2.5541800770114436E+00   2.5685477902449203E+00   2.5829043368627476E+00   2.5972497441019780E+00   2.6115840390905527E+00
   2.6259072488478830E+00   2.6402194002854107E+00   2.6545205202071718E+00   2.6688106353103738E+00   2.6830897721859417E+00
   2.6973579573190953E+00   2.7116152170898671E+00   2.7258615777736965E+00   2.7400970655419461E+00   2.7543217064624490E+00
   2.7685355265000715E+00   2.7827385515172192E+00   2.7969308072744012E+00   2.8111123194307468E+00   2.8252831135445216E+00
   2.8394432150736804E+00   2.8535926493763824E+00   2.8677314417114803E+00   2.8818596172390798E+00   2.8959772010210272E+00
   2.9100842180214213E+00   2.9241806931071235E+00   2.9382666510482705E+00   2.9523421165187522E+00   2.9664071140967394E+00
   2.9804616682651535E+00   2.9945058034121783E+00   3.0085395438317275E+00   3.0225629137239527E+00   3.0365759371957126E+00
   3.0505786382610673E+00   3.0645710408417335E+00   3.0785531687675842E+00   3.0925250457771050E+00   3.1064866955178605E+00
   3.1204381415469835E+00   3.1343794073316142E+00   3.1483105162493641E+00   3.1622314915887912E+00   3.1761423565498381E+00
   3.1900431342442879E+00   3.2039338476962298E+00   3.2178145198424772E+00   3.2316851735330330E+00   3.2455458315315355E+00
   3.2593965165156815E+00   3.2732372510776755E+00   3.2870680577246469E+00   3.3008889588791144E+00   3.3146999768793739E+00
   3.3285011339799615E+00   3.3422924523520448E+00   3.3560739540838762E+00   3.3698456611811833E+00   3.3836075955675997E+00
   3.3973597790850847E+00   3.4111022334943164E+00   3.4248349804751141E+00   3.4385580416268438E+00   3.4522714384688156E+00
   3.4659751924406876E+00   3.4796693249028721E+00   3.4933538571369223E+00   3.5070288103459348E+00   3.5206942056549297E+00
   3.5343500641112597E+00   3.5479964066849745E+00   3.5616332542692275E+00   3.5752606276806453E+00   3.5888785476597085E+00
   3.6024870348711358E+00   3.6160861099042583E+00   3.6296757932733863E+00   3.6432561054181898E+00   3.6568270667040705E+00
   3.6703886974225095E+00   3.6839410177914580E+00   3.6974840479556779E+00   3.7110178079871212E+00   3.7245423178852675E+00
   3.7380575975775052E+00   3.7515636669194605E+00   3.7650605456953663E+00   3.7785482536184114E+00   3.7920268103310799E+00
   3.8054962354055020E+00   3.8189565483437899E+00   3.8324077685784017E+00   3.8458499154724506E+00   3.8592830083200762E+00
   3.8727070663467491E+00   3.8861221087096149E+00   3.8995281544978417E+00   3.9129252227329272E+00   3.9263133323690420E+00
   3.9396925022933456E+00   3.9530627513263155E+00   3.9664240982220802E+00   3.9797765616687064E+00   3.9931201602885524E+00
   4.0064549126385751E+00   4.0197808372106323E+00   4.0330979524318007E+00   4.0464062766646958E+00   4.0597058282077843E+00
   4.0729966252956586E+00   4.0862786860993792E+00   4.0995520287267677E+00   4.1128166712227010E+00   4.1260726315694214E+00
   4.1393199276868149E+00   4.1525585774327398E+00   4.1657885986033021E+00   4.1790100089331421E+00   4.1922228260957386E+00
   4.2054270677036945E+00   4.2186227513090309E+00   4.2318098944034652E+00   4.2449885144186936E+00   4.2581586287266866E+00
   4.2713202546399573E+00   4.2844734094118468E+00   4.2976181102368098E+00   4.3107543742506707E+00   4.3238822185309278E+00
   4.3370016600970009E+00   4.3501127159105168E+00   4.3632154028755670E+00   4.3763097378389988E+00   4.3893957375906600E+00
   4.4024734188636687E+00   4.4155427983346973E+00   4.4286038926242011E+00   4.4416567182967164E+00   4.4547012918610847E+00
   4.4677376297707356E+00   4.4807657484239334E+00   4.4937856641640348E+00   4.5067973932797489E+00   4.5198009520053617E+00
   4.5327963565210263E+00   4.5457836229529924E+00   4.5587627673738451E+00   4.5717338058027694E+00   4.5846967542057779E+00
   4.5976516284959716E+00   4.6105984445337791E+00   4.6235372181271748E+00   4.6364679650319571E+00   4.6493907009519475E+00
   4.6623054415392629E+00   4.6752122023945191E+00   4.6881109990670842E+00   4.7010018470553172E+00   4.7138847618067707E+00
   4.7267597587184529E+00   4.7396268531370369E+00   4.7524860603591073E+00   4.7653373956313523E+00   4.7781808741508307E+00
   4.7910165110651528E+00   4.8038443214727540E+00   4.8166643204230626E+00   4.8294765229167576E+00   4.8422809439059744E+00
   4.8550775982945122E+00   4.8678665009380753E+00   4.8806476666444594E+00   4.8934211101737937E+00   4.9061868462387297E+00
   4.9189448895046608E+00   4.9316952545899468E+00   4.9444379560661043E+00   4.9571730084580192E+00   4.9699004262441537E+00
   4.9826202238567658E+00   4.9953324156820873E+00   5.0080370160605536E+00   5.0207340392869888E+00   5.0334234996108203E+00
   5.0461054112362600E+00   5.0587797883225276E+00   5.0714466449840243E+00   5.0841059952905434E+00   5.0967578532674711E+00
   5.1094022328959667E+00   5.1220391481131617E+00   5.1346686128123711E+00   5.1472906408432344E+00   5.1599052460119728E+00
   5.1725124420815254E+00   5.1851122427717673E+00   5.1977046617596754E+00   5.2102897126795327E+00   5.2228674091231149E+00
   5.2354377646398538E+00   5.2480007927370389E+00   5.2605565068799987E+00   5.2731049204922593E+00   5.2856460469557733E+00
   5.2981798996110401E+00   5.3107064917573332E+00   5.3232258366528438E+00   5.3357379475148763E+00   5.3482428375200195E+00
   5.3607405198043079E+00   5.3732310074634286E+00   5.3857143135528602E+00   5.3981904510880545E+00   5.4106594330446063E+00
   5.4231212723584399E+00   5.4355759819259593E+00   5.4480235746042140E+00   5.4604640632110808E+00   5.4728974605254255E+00
   5.4853237792872509E+00   5.4977430321979064E+00   5.5101552319201881E+00   5.5225603910785512E+00   5.5349585222592550E+00
   5.5473496380105223E+00   5.5597337508427049E+00   5.5721108732284303E+00   5.5844810176027861E+00   5.5968441963634392E+00
   5.6092004218708356E+00   5.6215497064483220E+00   5.6338920623823130E+00   5.6462275019224588E+00   5.6585560372817740E+00
   5.6708776806368100E+00   5.6831924441278003E+00   5.6955003398587953E+00   5.7078013798978491E+00   5.7200955762771342E+00
   5.7323829409931157E+00   5.7446634860066759E+00   5.7569372232432698E+00   5.7692041645930985E+00   5.7814643219112023E+00
   5.7937177070176462E+00   5.8059643316976635E+00   5.8182042077017693E+00   5.8304373467459252E+00   5.8426637605116927E+00
   5.8548834606463389E+00   5.8670964587630099E+00   5.8793027664408548E+00   5.8915023952251628E+00   5.9036953566275132E+00
   5.9158816621259058E+00   5.9280613231648909E+00   5.9402343511557101E+00   5.9524007574764513E+00   5.9645605534721495E+00
   5.9767137504549446E+00   5.9888603597041987E+00   6.0010003924666568E+00   6.0131338599565307E+00   6.0252607733556820E+00
   6.0373811438137288E+00   6.0494949824481559E+00   6.0616023003444903E+00   6.0737031085563871E+00   6.0857974181057806E+00
   6.0978852399830066E+00   6.1099665851469220E+00   6.1220414645250436E+00   6.1341098890136605E+00   6.1461718694779766E+00
   6.1582274167522071E+00   6.1702765416397263E+00   6.1823192549131845E+00   6.1943555673146218E+00   6.2063854895556014E+00
   6.2184090323173189E+00   6.2304262062507290E+00   6.2424370219766718E+00   6.2544414900859762E+00   6.2664396211396021E+00
   6.2784314256687273E+00   6.2904169141748838E+00   6.3023960971300781E+00   6.3143689849769000E+00   6.3263355881286412E+00
   6.3382959169694040E+00   6.3502499818542226E+00   6.3621977931091775E+00   6.3741393610314949E+00   6.3860746958896915E+00
   6.3980038079236499E+00   6.4099267073447495E+00   6.4218434043359762E+00   6.4337539090520313E+00   6.4456582316194453E+00
   6.4575563821366764E+00   6.4694483706742263E+00   6.4813342072747639E+00   6.4932139019531938E+00   6.5050874646968069E+00
   6.5169549054653642E+00   6.5288162341912015E+00   6.5406714607793441E+00   6.5525205951076133E+00   6.5643636470267239E+00
   6.5762006263603832E+00   6.5880315429054059E+00   6.5998564064318286E+00   6.6116752266829755E+00   6.6234880133755993E+00
   6.6352947761999568E+00   6.6470955248199273E+00   6.6588902688730922E+00   6.6706790179708646E+00   6.6824617816985681E+00
   6.6942385696155338E+00   6.7060093912552148E+00   6.7177742561252778E+00   6.7295331737076793E+00   6.7412861534588142E+00
   6.7530332048095536E+00   6.7647743371653819E+00   6.7765095599064740E+00   6.7882388823878008E+00   6.7999623139392265E+00
   6.8116798638655709E+00   6.8233915414467594E+00   6.8350973559378607E+00   6.8467973165692300E+00   6.8584914325465540E+00
   6.8701797130509776E+00   6.8818621672391869E+00   6.8935388042434900E+00   6.9052096331719222E+00   6.9168746631083327E+00
   6.9285339031124646E+00   6.9401873622200494E+00   6.9518350494429200E+00   6.9634769737690636E+00   6.9751131441627185E+00
   6.9867435695644833E+00   6.9983682588913858E+00   7.0099872210369698E+00   7.0216004648713959E+00   7.0332079992415055E+00
   7.0448098329709365E+00   7.0564059748601746E+00   7.0679964336866696E+00   7.0795812182049058E+00   7.0911603371464702E+00
   7.1027337992201778E+00   7.1143016131121124E+00   7.1258637874857387E+00   7.1374203309819695E+00   7.1489712522192512E+00
   7.1605165597936500E+00   7.1720562622789314E+00   7.1835903682266462E+00   7.1951188861661937E+00   7.2066418246049224E+00
   7.2181591920282049E+00   7.2296709968995172E+00   7.2411772476605023E+00   7.2526779527310747E+00   7.2641731205094926E+00
   7.2756627593724099E+00   7.2871468776749957E+00   7.2986254837509792E+00   7.3100985859127521E+00   7.3215661924514155E+00
   7.3330283116368786E+00   7.3444849517179405E+00   7.3559361209223386E+00   7.3673818274568523E+00   7.3788220795073576E+00
   7.3902568852389203E+00   7.4016862527958480E+00   7.4131101903017882E+00   7.4245287058597809E+00   7.4359418075523465E+00
   7.4473495034415551E+00   7.4587518015690897E+00   7.4701487099563417E+00   7.4815402366044532E+00   7.4929263894944080E+00
   7.5043071765871057E+00   7.5156826058234190E+00   7.5270526851242776E+00   7.5384174223907090E+00   7.5497768255039661E+00
   7.5611309023255435E+00   7.5724796606972635E+00   7.5838231084413605E+00   7.5951612533605299E+00   7.6064941032380027E+00
   7.6178216658376110E+00   7.6291439489038755E+00   7.6404609601620423E+00   7.6517727073181794E+00   7.6630791980592132E+00
   7.6743804400530253E+00   7.6856764409485097E+00   7.6969672083756127E+00   7.7082527499454434E+00   7.7195330732503074E+00
   7.7308081858637854E+00   7.7420780953407844E+00   7.7533428092176262E+00   7.7646023350120865E+00   7.7758566802234759E+00
   7.7871058523326990E+00   7.7983498588023128E+00   7.8095887070765970E+00   7.8208224045816124E+00   7.8320509587252687E+00
   7.8432743768973783E+00   7.8544926664697305E+00   7.8657058347961453E+00   7.8769138892125294E+00   7.8881168370369483E+00
   7.8993146855696859E+00   7.9105074420933104E+00   7.9216951138727083E+00   7.9328777081551696E+00   7.9440552321704674E+00
   7.9552276931308494E+00   7.9663950982311711E+00   7.9775574546489185E+00   7.9887147695442655E+00   7.9998670500601392E+00
   8.0110143033222894E+00   8.0221565364393310E+00   8.0332937565028022E+00   8.0444259705872287E+00   8.0555531857501865E+00
   8.0666754090323494E+00   8.0777926474575477E+00   8.0889049080328217E+00   8.1000121977484874E+00   8.1111145235781930E+00
   8.1222118924789566E+00   8.1333043113912407E+00   8.1443917872390124E+00   8.1554743269297703E+00   8.1665519373546296E+00
   8.1776246253883595E+00   8.1886923978894490E+00   8.1997552617001475E+00   8.2108132236465305E+00   8.2218662905385465E+00
   8.2329144691700815E+00   8.2439577663189940E+00   8.2549961887471870E+00   8.2660297432006473E+00   8.2770584364095008E+00
   8.2880822750880814E+00   8.2991012659349508E+00   8.3101154156329837E+00   8.3211247308494034E+00   8.3321292182358224E+00
   8.3431288844283280E+00   8.3541237360474874E+00   8.3651137796984507E+00   8.3760990219709441E+00   8.3870794694393762E+00
   8.3980551286628451E+00   8.4090260061852167E+00   8.4199921085351548E+00   8.4309534422261940E+00   8.4419100137567682E+00
   8.4528618296102547E+00   8.4638088962550473E+00   8.4747512201445989E+00   8.4856888077174482E+00   8.4966216653972957E+00
   8.5075497995930327E+00   8.5184732166988066E+00   8.5293919230940567E+00   8.5403059251435600E+00   8.5512152291974797E+00
   8.5621198415914321E+00   8.5730197686464891E+00   8.5839150166692892E+00   8.5948055919520172E+00   8.6056915007724921E+00
   8.6165727493942175E+00   8.6274493440663900E+00   8.6383212910239866E+00   8.6491885964877753E+00   8.6600512666643876E+00
   8.6709093077463582E+00   8.6817627259121544E+00   8.6926115273262354E+00   8.7034557181391001E+00   8.7142953044873188E+00
   8.7251302924935814E+00   8.7359606882667578E+00   8.7467864979019030E+00   8.7576077274803605E+00   8.7684243830697515E+00
   8.7792364707240349E+00   8.7900439964835630E+00   8.8008469663751256E+00   8.8116453864119553E+00   8.8224392625938250E+00
   8.8332286009070593E+00   8.8440134073245620E+00   8.8547936878059197E+00   8.8655694482973519E+00   8.8763406947318320E+00
   8.8871074330291062E+00   8.8978696690957140E+00   8.9086274088250459E+00   8.9193806580973884E+00   8.9301294227799737E+00
   8.9408737087269721E+00   8.9516135217796080E+00   8.9623488677661207E+00   8.9730797525018833E+00   8.9838061817893902E+00
   8.9945281614182910E+00   9.0052456971654777E+00   9.0159587947950808E+00   9.0266674600585421E+00   9.0373716986946171E+00
   9.0480715164294558E+00   9.0587669189766000E+00   9.0694579120370609E+00   9.0801445012993334E+00   9.0908266924394407E+00
   9.1015044911209717E+00   9.1121779029951337E+00   9.1228469337007585E+00   9.1335115888643763E+00   9.1441718741002376E+00
   9.1548277950103447E+00   9.1654793571844877E+00   9.1761265662003133E+00   9.1867694276233287E+00   9.1974079470069263E+00
   9.2080421298924815E+00   9.2186719818093330E+00   9.2292975082748239E+00   9.2399187147943813E+00   9.2505356068615008E+00
   9.2611481899578205E+00   9.2717564695531340E+00   9.2823604511054452E+00   9.2929601400609787E+00   9.3035555418542391E+00
   9.3141466619080369E+00   9.3247335056335388E+00   9.3353160784302709E+00   9.3458943856861740E+00   9.3564684327776515E+00
   9.3670382250695745E+00   9.3776037679153497E+00   9.3881650666569225E+00   9.3987221266248273E+00   9.4092749531382189E+00
   9.4198235515049298E+00   9.4303679270214431E+00   9.4409080849730085E+00   9.4514440306335992E+00   9.4619757692659867E+00
   9.4725033061217943E+00   9.4830266464414752E+00   9.4935457954543860E+00   9.5040607583787988E+00   9.5145715404219562E+00
   9.5250781467801016E+00   9.5355805826384721E+00   9.5460788531713767E+00   9.5565729635422283E+00   9.5670629189035417E+00
   9.5775487243969888E+00   9.5880303851534432E+00   9.5985079062929728E+00   9.6089812929249216E+00   9.6194505501478975E+00
   9.6299156830498216E+00   9.6403766967079765E+00   9.6508335961890097E+00   9.6612863865489764E+00   9.6717350728333713E+00
   9.6821796600771748E+00   9.6926201533048424E+00   9.7030565575303882E+00   9.7134888777573760E+00   9.7239171189789690E+00
   9.7343412861779459E+00   9.7447613843267451E+00   9.7551774183874933E+00   9.7655893933120357E+00   9.7759973140419483E+00
   9.7864011855086019E+00   9.7968010126331588E+00   9.8071968003266292E+00   9.8175885534898590E+00   9.8279762770136276E+00
   9.8383599757786104E+00   9.8487396546554500E+00   9.8591153185047524E+00   9.8694869721771550E+00   9.8798546205133295E+00
   9.8902182683440145E+00   9.9005779204900488E+00   9.9109335817623823E+00   9.9212852569621433E+00   9.9316329508806334E+00
   9.9419766682993576E+00   9.9523164139900739E+00   9.9626521927147991E+00   9.9729840092258453E+00   9.9833118682658633E+00
   9.9936357745678350E+00   1.0003955732855125E+01   1.0014271747841530E+01   1.0024583824231245E+01   1.0034891966718945E+01
   1.0045196179989803E+01   1.0055496468719488E+01   1.0065792837574222E+01   1.0076085291210799E+01   1.0086373834276618E+01
   1.0096658471409674E+01   1.0106939207238650E+01   1.0117216046382877E+01   1.0127488993452401E+01   1.0137758053047998E+01
   1.0148023229761204E+01   1.0158284528174322E+01   1.0168541952860494E+01   1.0178795508383667E+01   1.0189045199298658E+01
   1.0199291030151173E+01   1.0209533005477839E+01   1.0219771129806203E+01   1.0230005407654792E+01   1.0240235843533103E+01
   1.0250462441941671E+01   1.0260685207372047E+01   1.0270904144306865E+01   1.0281119257219844E+01   1.0291330550575815E+01
   1.0301538028830738E+01   1.0311741696431760E+01   1.0321941557817205E+01   1.0332137617416604E+01   1.0342329879650753E+01
   1.0352518348931675E+01   1.0362703029662702E+01   1.0372883926238480E+01   1.0383061043044977E+01   1.0393234384459529E+01
   1.0403403954850861E+01   1.0413569758579083E+01   1.0423731799995782E+01   1.0433890083443949E+01   1.0444044613258086E+01
   1.0454195393764186E+01   1.0464342429279776E+01   1.0474485724113924E+01   1.0484625282567281E+01   1.0494761108932071E+01
   1.0504893207492168E+01   1.0515021582523083E+01   1.0525146238291972E+01   1.0535267179057694E+01   1.0545384409070824E+01
   1.0555497932573653E+01   1.0565607753800258E+01   1.0575713876976465E+01   1.0585816306319918E+01   1.0595915046040089E+01
   1.0606010100338281E+01   1.0616101473407676E+01   1.0626189169433360E+01   1.0636273192592306E+01   1.0646353547053437E+01
   1.0656430236977640E+01   1.0666503266517765E+01   1.0676572639818682E+01   1.0686638361017263E+01   1.0696700434242443E+01
   1.0706758863615214E+01   1.0716813653248657E+01   1.0726864807247960E+01   1.0736912329710448E+01   1.0746956224725581E+01
   1.0756996496375034E+01   1.0767033148732621E+01   1.0777066185864410E+01   1.0787095611828686E+01   1.0797121430676004E+01
   1.0807143646449195E+01   1.0817162263183377E+01   1.0827177284905998E+01   1.0837188715636843E+01   1.0847196559388060E+01
   1.0857200820164186E+01   1.0867201501962141E+01   1.0877198608771280E+01   1.0887192144573389E+01   1.0897182113342744E+01
   1.0907168519046071E+01   1.0917151365642614E+01   1.0927130657084136E+01   1.0937106397314947E+01   1.0947078590271929E+01
   1.0957047239884526E+01   1.0967012350074787E+01   1.0976973924757401E+01   1.0986931967839672E+01   1.0996886483221600E+01
   1.1006837474795823E+01   1.1016784946447721E+01   1.1026728902055359E+01   1.1036669345489555E+01   1.1046606280613885E+01
   1.1056539711284714E+01   1.1066469641351169E+01   1.1076396074655223E+01   1.1086319015031671E+01   1.1096238466308169E+01
   1.1106154432305219E+01   1.1116066916836248E+01   1.1125975923707562E+01   1.1135881456718423E+01   1.1145783519661006E+01
   1.1155682116320490E+01   1.1165577250474993E+01   1.1175468925895666E+01   1.1185357146346677E+01   1.1195241915585209E+01
   1.1205123237361537E+01   1.1215001115418977E+01   1.1224875553493948E+01   1.1234746555315995E+01   1.1244614124607766E+01
   1.1254478265085076E+01   1.1264338980456882E+01   1.1274196274425357E+01   1.1284050150685829E+01   1.1293900612926885E+01
   1.1303747664830322E+01   1.1313591310071185E+01   1.1323431552317802E+01   1.1333268395231800E+01   1.1343101842468069E+01
   1.1352931897674871E+01   1.1362758564493772E+01   1.1372581846559704E+01   1.1382401747500971E+01   1.1392218270939274E+01
   1.1402031420489710E+01   1.1411841199760810E+01   1.1421647612354530E+01   1.1431450661866318E+01   1.1441250351885060E+01
   1.1451046685993152E+01   1.1460839667766496E+01   1.1470629300774510E+01   1.1480415588580172E+01   1.1490198534739990E+01
   1.1499978142804075E+01   1.1509754416316115E+01   1.1519527358813400E+01   1.1529296973826852E+01   1.1539063264881030E+01
   1.1548826235494140E+01   1.1558585889178085E+01   1.1568342229438425E+01   1.1578095259774443E+01   1.1587844983679140E+01
   1.1597591404639237E+01   1.1607334526135231E+01   1.1617074351641364E+01   1.1626810884625687E+01   1.1636544128550025E+01
   1.1646274086870024E+01   1.1656000763035165E+01   1.1665724160488777E+01   1.1675444282668048E+01   1.1685161133004042E+01
   1.1694874714921704E+01   1.1704585031839905E+01   1.1714292087171430E+01   1.1723995884323001E+01   1.1733696426695296E+01
   1.1743393717682963E+01   1.1753087760674632E+01   1.1762778559052920E+01   1.1772466116194485E+01   1.1782150435469983E+01
   1.1791831520244132E+01   1.1801509373875701E+01   1.1811183999717546E+01   1.1820855401116583E+01   1.1830523581413859E+01
   1.1840188543944523E+01   1.1849850292037861E+01   1.1859508829017313E+01   1.1869164158200460E+01   1.1878816282899070E+01
   1.1888465206419109E+01   1.1898110932060732E+01   1.1907753463118329E+01   1.1917392802880514E+01   1.1927028954630137E+01
   1.1936661921644326E+01   1.1946291707194499E+01   1.1955918314546318E+01   1.1965541746959799E+01   1.1975162007689240E+01
   1.1984779099983284E+01   1.1994393027084929E+01   1.2004003792231513E+01   1.2013611398654772E+01   1.2023215849580803E+01
   1.2032817148230125E+01   1.2042415297817657E+01   1.2052010301552764E+01   1.2061602162639245E+01   1.2071190884275342E+01
   1.2080776469653783E+01   1.2090358921961769E+01   1.2099938244381020E+01   1.2109514440087720E+01   1.2119087512252626E+01
   1.2128657464041005E+01   1.2138224298612679E+01   1.2147788019122025E+01   1.2157348628718015E+01   1.2166906130544191E+01
   1.2176460527738714E+01   1.2186011823434347E+01   1.2195560020758494E+01   1.2205105122833192E+01   1.2214647132775134E+01
   1.2224186053695684E+01   1.2233721888700881E+01   1.2243254640891470E+01   1.2252784313362886E+01   1.2262310909205299E+01
   1.2271834431503596E+01   1.2281354883337404E+01   1.2290872267781149E+01   1.2300386587903967E+01   1.2309897846769809E+01
   1.2319406047437434E+01   1.2328911192960371E+01   1.2338413286387002E+01   1.2347912330760520E+01   1.2357408329118982E+01
   1.2366901284495269E+01   1.2376391199917173E+01   1.2385878078407346E+01   1.2395361922983316E+01   1.2404842736657564E+01
   1.2414320522437436E+01   1.2423795283325235E+01   1.2433267022318221E+01   1.2442735742408585E+01   1.2452201446583478E+01
   1.2461664137825057E+01   1.2471123819110437E+01   1.2480580493411766E+01   1.2490034163696189E+01   1.2499484832925877E+01
   1.2508932504058036E+01   1.2518377180044935E+01   1.2527818863833886E+01   1.2537257558367298E+01   1.2546693266582629E+01
   1.2556125991412474E+01   1.2565555735784491E+01   1.2574982502621499E+01   1.2584406294841409E+01   1.2593827115357310E+01
   1.2603244967077426E+01   1.2612659852905143E+01   1.2622071775739034E+01   1.2631480738472838E+01   1.2640886743995519E+01
   1.2650289795191240E+01   1.2659689894939378E+01   1.2669087046114559E+01   1.2678481251586627E+01   1.2687872514220716E+01
   1.2697260836877193E+01   1.2706646222411717E+01   1.2716028673675234E+01   1.2725408193513990E+01   1.2734784784769525E+01
   1.2744158450278729E+01   1.2753529192873797E+01   1.2762897015382286E+01   1.2772261920627081E+01   1.2781623911426465E+01
   1.2790982990594065E+01   1.2800339160938915E+01   1.2809692425265437E+01   1.2819042786373442E+01   1.2828390247058195E+01
   1.2837734810110360E+01   1.2847076478316049E+01   1.2856415254456827E+01   1.2865751141309723E+01   1.2875084141647211E+01
   1.2884414258237278E+01   1.2893741493843374E+01   1.2903065851224474E+01   1.2912387333135042E+01   1.2921705942325097E+01
   1.2931021681540148E+01   1.2940334553521273E+01   1.2949644561005112E+01   1.2958951706723836E+01   1.2968255993405212E+01
   1.2977557423772588E+01   1.2986856000544904E+01   1.2996151726436699E+01   1.3005444604158136E+01   1.3014734636414980E+01
   1.3024021825908651E+01   1.3033306175336211E+01   1.3042587687390357E+01   1.3051866364759469E+01   1.3061142210127599E+01
   1.3070415226174473E+01   1.3079685415575502E+01   1.3088952781001826E+01   1.3098217325120268E+01   1.3107479050593399E+01
   1.3116737960079513E+01   1.3125994056232617E+01   1.3135247341702524E+01   1.3144497819134761E+01   1.3153745491170646E+01
   1.3162990360447278E+01   1.3172232429597528E+01   1.3181471701250096E+01   1.3190708178029457E+01   1.3199941862555926E+01
   1.3209172757445646E+01   1.3218400865310578E+01   1.3227626188758556E+01   1.3236848730393229E+01   1.3246068492814150E+01
   1.3255285478616731E+01   1.3264499690392270E+01   1.3273711130727952E+01   1.3282919802206861E+01   1.3292125707408008E+01
   1.3301328848906296E+01   1.3310529229272593E+01   1.3319726851073675E+01   1.3328921716872271E+01   1.3338113829227083E+01
   1.3347303190692761E+01   1.3356489803819938E+01   1.3365673671155225E+01   1.3374854795241228E+01   1.3384033178616546E+01
   1.3393208823815808E+01   1.3402381733369641E+01   1.3411551909804707E+01   1.3420719355643701E+01   1.3429884073405375E+01
   1.3439046065604535E+01   1.3448205334752025E+01   1.3457361883354773E+01   1.3466515713915818E+01   1.3475666828934239E+01
   1.3484815230905237E+01   1.3493960922320126E+01   1.3503103905666318E+01   1.3512244183427359E+01   1.3521381758082917E+01
   1.3530516632108817E+01   1.3539648807977015E+01   1.3548778288155628E+01   1.3557905075108952E+01   1.3567029171297436E+01
   1.3576150579177735E+01   1.3585269301202665E+01   1.3594385339821272E+01   1.3603498697478791E+01   1.3612609376616685E+01
   1.3621717379672619E+01   1.3630822709080512E+01   1.3639925367270529E+01   1.3649025356669052E+01   1.3658122679698742E+01
   1.3667217338778539E+01   1.3676309336323616E+01   1.3685398674745471E+01   1.3694485356451866E+01   1.3703569383846849E+01
   1.3712650759330815E+01   1.3721729485300424E+01   1.3730805564148710E+01   1.3739878998264979E+01   1.3748949790034917E+01
   1.3758017941840553E+01   1.3767083456060238E+01   1.3776146335068709E+01   1.3785206581237071E+01   1.3794264196932810E+01
   1.3803319184519777E+01   1.3812371546358230E+01   1.3821421284804831E+01   1.3830468402212651E+01   1.3839512900931139E+01
   1.3848554783306238E+01   1.3857594051680252E+01   1.3866630708391970E+01   1.3875664755776613E+01   1.3884696196165857E+01
   1.3893725031887824E+01   1.3902751265267135E+01   1.3911774898624859E+01   1.3920795934278585E+01   1.3929814374542348E+01
   1.3938830221726725E+01   1.3947843478138767E+01   1.3956854146082065E+01   1.3965862227856716E+01   1.3974867725759358E+01
   1.3983870642083152E+01   1.3992870979117823E+01   1.4001868739149620E+01   1.4010863924461363E+01   1.4019856537332451E+01
   1.4028846580038849E+01   1.4037834054853100E+01   1.4046818964044329E+01   1.4055801309878253E+01   1.4064781094617224E+01
   1.4073758320520163E+01   1.4082732989842638E+01   1.4091705104836809E+01   1.4100674667751505E+01   1.4109641680832167E+01
   1.4118606146320891E+01   1.4127568066456424E+01   1.4136527443474161E+01   1.4145484279606189E+01   1.4154438577081249E+01
   1.4163390338124769E+01   1.4172339564958849E+01   1.4181286259802322E+01   1.4190230424870686E+01   1.4199172062376151E+01
   1.4208111174527662E+01   1.4217047763530871E+01   1.4225981831588170E+01   1.4234913380898664E+01   1.4243842413658234E+01
   1.4252768932059483E+01   1.4261692938291782E+01   1.4270614434541267E+01   1.4279533422990847E+01   1.4288449905820189E+01
   1.4297363885205753E+01   1.4306275363320808E+01   1.4315184342335401E+01   1.4324090824416372E+01   1.4332994811727399E+01
   1.4341896306428954E+01   1.4350795310678340E+01   1.4359691826629685E+01   1.4368585856433981E+01   1.4377477402239018E+01
   1.4386366466189475E+01   1.4395253050426867E+01   1.4404137157089567E+01   1.4413018788312844E+01   1.4421897946228796E+01
   1.4430774632966459E+01   1.4439648850651718E+01   1.4448520601407372E+01   1.4457389887353107E+01   1.4466256710605538E+01
   1.4475121073278165E+01   1.4483982977481432E+01   1.4492842425322699E+01   1.4501699418906277E+01   1.4510553960333381E+01
   1.4519406051702205E+01   1.4528255695107886E+01   1.4537102892642505E+01   1.4545947646395135E+01   1.4554789958451789E+01
   1.4563629830895481E+01   1.4572467265806194E+01   1.4581302265260909E+01   1.4590134831333600E+01   1.4598964966095238E+01
   1.4607792671613799E+01   1.4616617949954289E+01   1.4625440803178728E+01   1.4634261233346161E+01   1.4643079242512647E+01
   1.4651894832731299E+01   1.4660708006052296E+01   1.4669518764522826E+01   1.4678327110187167E+01   1.4687133045086629E+01
   1.4695936571259615E+01   1.4704737690741588E+01   1.4713536405565106E+01   1.4722332717759793E+01   1.4731126629352385E+01
   1.4739918142366694E+01   1.4748707258823655E+01   1.4757493980741311E+01   1.4766278310134805E+01   1.4775060249016418E+01
   1.4783839799395539E+01   1.4792616963278713E+01   1.4801391742669610E+01   1.4810164139569041E+01   1.4818934155974977E+01
   1.4827701793882538E+01   1.4836467055284015E+01   1.4845229942168853E+01   1.4853990456523675E+01   1.4862748600332287E+01
   1.4871504375575675E+01   1.4880257784232022E+01   1.4889008828276685E+01   1.4897757509682252E+01   1.4906503830418501E+01
   1.4915247792452423E+01   1.4923989397748235E+01   1.4932728648267357E+01   1.4941465545968464E+01   1.4950200092807449E+01
   1.4958932290737467E+01   1.4967662141708869E+01   1.4976389647669320E+01   1.4985114810563704E+01   1.4993837632334170E+01
   1.5002558114920133E+01   1.5011276260258306E+01   1.5019992070282646E+01   1.5028705546924407E+01   1.5037416692112153E+01
   1.5046125507771706E+01   1.5054831995826214E+01   1.5063536158196122E+01   1.5072237996799183E+01   1.5080937513550465E+01
   1.5089634710362366E+01   1.5098329589144610E+01   1.5107022151804241E+01   1.5115712400245645E+01   1.5124400336370559E+01
   1.5133085962078056E+01   1.5141769279264571E+01   1.5150450289823890E+01   1.5159128995647171E+01   1.5167805398622926E+01
   1.5176479500637051E+01   1.5185151303572820E+01   1.5193820809310884E+01   1.5202488019729303E+01   1.5211152936703504E+01
   1.5219815562106332E+01   1.5228475897808014E+01   1.5237133945676227E+01   1.5245789707576032E+01   1.5254443185369901E+01
   1.5263094380917758E+01   1.5271743296076938E+01   1.5280389932702228E+01   1.5289034292645828E+01   1.5297676377757417E+01
   1.5306316189884077E+01   1.5314953730870394E+01   1.5323589002558391E+01   1.5332222006787537E+01   1.5340852745394814E+01
   1.5349481220214637E+01   1.5358107433078935E+01   1.5366731385817076E+01   1.5375353080255964E+01   1.5383972518219979E+01
   1.5392589701530992E+01   1.5401204632008376E+01   1.5409817311469039E+01   1.5418427741727363E+01   1.5427035924595289E+01
   1.5435641861882248E+01   1.5444245555395209E+01   1.5452847006938681E+01   1.5461446218314714E+01   1.5470043191322867E+01
   1.5478637927760282E+01   1.5487230429421649E+01   1.5495820698099193E+01   1.5504408735582718E+01   1.5512994543659584E+01
   1.5521578124114724E+01   1.5530159478730649E+01   1.5538738609287449E+01   1.5547315517562790E+01   1.5555890205331934E+01
   1.5564462674367739E+01   1.5573032926440662E+01   1.5581600963318740E+01   1.5590166786767652E+01   1.5598730398550675E+01
   1.5607291800428687E+01   1.5615850994160205E+01   1.5624407981501362E+01   1.5632962764205939E+01   1.5641515344025313E+01
   1.5650065722708549E+01   1.5658613902002314E+01   1.5667159883650946E+01   1.5675703669396439E+01   1.5684245260978418E+01
   1.5692784660134194E+01   1.5701321868598727E+01   1.5709856888104675E+01   1.5718389720382339E+01   1.5726920367159707E+01
   1.5735448830162467E+01   1.5743975111113979E+01   1.5752499211735302E+01   1.5761021133745171E+01   1.5769540878860072E+01
   1.5778058448794138E+01   1.5786573845259246E+01   1.5795087069964993E+01   1.5803598124618656E+01   1.5812107010925274E+01
   1.5820613730587603E+01   1.5829118285306111E+01   1.5837620676779023E+01   1.5846120906702296E+01   1.5854618976769633E+01
   1.5863114888672484E+01   1.5871608644100048E+01   1.5880100244739287E+01   1.5888589692274923E+01   1.5897076988389424E+01
   1.5905562134763072E+01   1.5914045133073873E+01   1.5922525984997643E+01   1.5931004692207967E+01   1.5939481256376219E+01
   1.5947955679171548E+01   1.5956427962260927E+01   1.5964898107309114E+01   1.5973366115978653E+01   1.5981831989929919E+01
   1.5990295730821082E+01   1.5998757340308137E+01   1.6007216820044896E+01   1.6015674171682974E+01   1.6024129396871839E+01
   1.6032582497258790E+01   1.6041033474488930E+01   1.6049482330205244E+01   1.6057929066048526E+01   1.6066373683657435E+01
   1.6074816184668467E+01   1.6083256570715992E+01   1.6091694843432222E+01   1.6100131004447238E+01   1.6108565055388993E+01
   1.6116996997883291E+01   1.6125426833553849E+01   1.6133854564022222E+01   1.6142280190907861E+01   1.6150703715828126E+01
   1.6159125140398235E+01   1.6167544466231316E+01   1.6175961694938390E+01   1.6184376828128396E+01   1.6192789867408148E+01
   1.6201200814382403E+01   1.6209609670653808E+01   1.6218016437822936E+01   1.6226421117488286E+01   1.6234823711246282E+01
   1.6243224220691246E+01   1.6251622647415484E+01   1.6260018993009215E+01   1.6268413259060573E+01   1.6276805447155677E+01
   1.6285195558878581E+01   1.6293583595811267E+01   1.6301969559533692E+01   1.6310353451623790E+01   1.6318735273657431E+01
   1.6327115027208450E+01   1.6335492713848666E+01   1.6343868335147867E+01   1.6352241892673817E+01   1.6360613387992270E+01
   1.6368982822666947E+01   1.6377350198259570E+01   1.6385715516329860E+01   1.6394078778435517E+01   1.6402439986132258E+01
   1.6410799140973779E+01   1.6419156244511807E+01   1.6427511298296071E+01   1.6435864303874308E+01   1.6444215262792280E+01
   1.6452564176593768E+01   1.6460911046820584E+01   1.6469255875012539E+01   1.6477598662707525E+01   1.6485939411441425E+01
   1.6494278122748195E+01   1.6502614798159804E+01   1.6510949439206289E+01   1.6519282047415707E+01   1.6527612624314227E+01
   1.6535941171426003E+01   1.6544267690273301E+01   1.6552592182376426E+01   1.6560914649253757E+01   1.6569235092421735E+01
   1.6577553513394903E+01   1.6585869913685848E+01   1.6594184294805245E+01   1.6602496658261870E+01   1.6610807005562574E+01
   1.6619115338212303E+01   1.6627421657714095E+01   1.6635725965569076E+01   1.6644028263276507E+01   1.6652328552333707E+01
   1.6660626834236155E+01   1.6668923110477390E+01   1.6677217382549102E+01   1.6685509651941082E+01   1.6693799920141249E+01
   1.6702088188635656E+01   1.6710374458908458E+01   1.6718658732441977E+01   1.6726941010716626E+01   1.6735221295211005E+01
   1.6743499587401821E+01   1.6751775888763941E+01   1.6760050200770365E+01   1.6768322524892273E+01   1.6776592862598974E+01
   1.6784861215357939E+01   1.6793127584634817E+01   1.6801391971893402E+01   1.6809654378595653E+01   1.6817914806201738E+01
   1.6826173256169945E+01   1.6834429729956767E+01   1.6842684229016896E+01   1.6850936754803175E+01   1.6859187308766650E+01
   1.6867435892356561E+01   1.6875682507020333E+01   1.6883927154203590E+01   1.6892169835350145E+01   1.6900410551902048E+01
   1.6908649305299523E+01   1.6916886096980999E+01   1.6925120928383151E+01   1.6933353800940839E+01   1.6941584716087164E+01
   1.6949813675253424E+01   1.6958040679869171E+01   1.6966265731362167E+01   1.6974488831158400E+01   1.6982709980682099E+01
   1.6990929181355749E+01   1.6999146434600036E+01   1.7007361741833940E+01   1.7015575104474639E+01   1.7023786523937595E+01
   1.7031996001636486E+01   1.7040203538983306E+01   1.7048409137388234E+01   1.7056612798259767E+01   1.7064814523004664E+01
   1.7073014313027898E+01   1.7081212169732780E+01   1.7089408094520856E+01   1.7097602088791966E+01   1.7105794153944220E+01
   1.7113984291374006E+01   1.7122172502476019E+01   1.7130358788643207E+01   1.7138543151266859E+01   1.7146725591736519E+01
   1.7154906111440045E+01   1.7163084711763599E+01   1.7171261394091626E+01   1.7179436159806901E+01   1.7187609010290505E+01
   1.7195779946921814E+01   1.7203948971078535E+01   1.7212116084136703E+01   1.7220281287470645E+01   1.7228444582453037E+01
   1.7236605970454864E+01   1.7244765452845460E+01   1.7252923030992477E+01   1.7261078706261909E+01   1.7269232480018083E+01
   1.7277384353623674E+01   1.7285534328439699E+01   1.7293682405825518E+01   1.7301828587138843E+01   1.7309972873735742E+01
   1.7318115266970633E+01   1.7326255768196305E+01   1.7334394378763889E+01   1.7342531100022896E+01   1.7350665933321181E+01
   1.7358798880005015E+01   1.7366929941418977E+01   1.7375059118906069E+01   1.7383186413807667E+01   1.7391311827463504E+01
   1.7399435361211722E+01   1.7407557016388814E+01   1.7415676794329709E+01   1.7423794696367704E+01   1.7431910723834473E+01
   1.7440024878060111E+01   1.7448137160373108E+01   1.7456247572100345E+01   1.7464356114567142E+01   1.7472462789097172E+01
   1.7480567597012577E+01   1.7488670539633858E+01   1.7496771618279979E+01   1.7504870834268299E+01   1.7512968188914595E+01
   1.7521063683533075E+01   1.7529157319436386E+01   1.7537249097935568E+01   1.7545339020340148E+01   1.7553427087958042E+01
   1.7561513302095612E+01   1.7569597664057678E+01   1.7577680175147478E+01   1.7585760836666722E+01   1.7593839649915552E+01
   1.7601916616192554E+01   1.7609991736794786E+01   1.7618065013017752E+01   1.7626136446155407E+01   1.7634206037500160E+01
   1.7642273788342933E+01   1.7650339699973049E+01   1.7658403773678348E+01   1.7666466010745115E+01   1.7674526412458096E+01
   1.7682584980100572E+01   1.7690641714954232E+01   1.7698696618299305E+01   1.7706749691414458E+01   1.7714800935576871E+01
   1.7722850352062206E+01   1.7730897942144619E+01   1.7738943707096748E+01   1.7746987648189759E+01   1.7755029766693283E+01
   1.7763070063875460E+01   1.7771108541002953E+01   1.7779145199340906E+01   1.7787180040152993E+01   1.7795213064701382E+01
   1.7803244274246776E+01   1.7811273670048376E+01   1.7819301253363907E+01   1.7827327025449620E+01   1.7835350987560286E+01
   1.7843373140949215E+01   1.7851393486868208E+01   1.7859412026567650E+01   1.7867428761296416E+01   1.7875443692301946E+01
   1.7883456820830201E+01   1.7891468148125686E+01   1.7899477675431463E+01   1.7907485403989121E+01   1.7915491335038805E+01
   1.7923495469819215E+01   1.7931497809567595E+01   1.7939498355519753E+01   1.7947497108910063E+01   1.7955494070971422E+01
   1.7963489242935335E+01   1.7971482626031836E+01   1.7979474221489561E+01   1.7987464030535680E+01   1.7995452054395958E+01
   1.8003438294294725E+01   1.8011422751454901E+01   1.8019405427097961E+01   1.8027386322443984E+01   1.8035365438711612E+01
   1.8043342777118102E+01   1.8051318338879263E+01   1.8059292125209527E+01   1.8067264137321907E+01   1.8075234376427993E+01
   1.8083202843738011E+01   1.8091169540460744E+01   1.8099134467803612E+01   1.8107097626972621E+01   1.8115059019172385E+01
   1.8123018645606127E+01   1.8130976507475701E+01   1.8138932605981545E+01   1.8146886942322720E+01   1.8154839517696914E+01
   1.8162790333300443E+01   1.8170739390328222E+01   1.8178686689973805E+01   1.8186632233429375E+01   1.8194576021885734E+01
   1.8202518056532330E+01   1.8210458338557224E+01   1.8218396869147135E+01   1.8226333649487408E+01   1.8234268680762032E+01
   1.8242201964153622E+01   1.8250133500843468E+01   1.8258063292011496E+01   1.8265991338836258E+01   1.8273917642494990E+01
   1.8281842204163564E+01   1.8289765025016507E+01   1.8297686106227012E+01   1.8305605448966919E+01   1.8313523054406744E+01
   1.8321438923715675E+01   1.8329353058061535E+01   1.8337265458610837E+01   1.8345176126528763E+01   1.8353085062979165E+01
   1.8360992269124580E+01   1.8368897746126205E+01   1.8376801495143930E+01   1.8384703517336320E+01   1.8392603813860624E+01
   1.8400502385872773E+01   1.8408399234527394E+01   1.8416294360977805E+01   1.8424187766375997E+01   1.8432079451872678E+01
  -1.4764858810536487E+02  -1.4764858810536487E+02  -1.4764858810536487E+02  -1.4764858810536487E+02  -1.4764858810536487E+02
  -1.4764858810536487E+02  -1.4764858810536487E+02  -1.4764858810536487E+02  -1.4764858810536487E+02  -1.4764858810536487E+02
  -1.4764858810536487E+02  -1.4764858810536487E+02  -1.4764858810536487E+02  -1.4764858810536487E+02  -1.4764858810536487E+02
  -1.4764858810536487E+02  -1.4764858810536487E+02  -1.4764858810536487E+02  -1.4764858810536487E+02  -1.4764858810536487E+02
  -1.4764858810536487E+02  -1.4764858810536487E+02  -1.4764858810536487E+02  -1.4764858810536487E+02  -1.4764858810536487E+02
  -1.4764858810536487E+02  -1.4764858810536487E+02  -1.4764858810536487E+02  -1.4764858810536487E+02  -1.4764858810536487E+02
  -1.4764858810536487E+02  -1.4764858810536487E+02  -1.4764858810536487E+02  -1.4764858810536487E+02  -1.4764858810536487E+02
  -1.4764858810536487E+02  -1.4764858810536487E+02  -1.4764858810536487E+02  -1.4764858810536487E+02  -1.4764858810536487E+02
  -1.4764858810536487E+02  -1.4764858810536487E+02  -1.4764858810536487E+02  -1.4764858810536487E+02  -1.4764858810536487E+02
  -1.4764858810536487E+02  -1.4764858810536487E+02  -1.4764858810536487E+02  -1.4764858810536487E+02  -1.4764858810536487E+02
  -1.4764858810536487E+02  -1.4764858810536487E+02  -1.4764858810536487E+02  -1.4764858810536487E+02  -1.4764858810536487E+02
  -1.4764858810536487E+02  -1.4764858810536487E+02  -1.4764858810536487E+02  -1.4764858810536487E+02  -1.4764858810536487E+02
  -1.4764858810536487E+02  -1.4764858810536487E+02  -1.4764858810536487E+02  -1.4764858810536487E+02  -1.4764858810536487E+02
  -1.4764858810536487E+02  -1.4764858810536487E+02  -1.4764858810536487E+02  -1.4764858810536487E+02  -1.4764858810536487E+02
  -1.4764858810536487E+02  -1.4764858810536487E+02  -1.4764858810536487E+02  -1.4764858810536487E+02  -1.4764858810536487E+02
  -1.4764858810536487E+02  -1.4764858810536487E+02  -1.4764858810536487E+02  -1.4764858810536487E+02  -1.4764858810536487E+02
  -1.4764858810536487E+02  -1.4764858810536487E+02  -1.4764858810536487E+02  -1.4764858810536487E+02  -1.4764858810536487E+02
  -1.4764858810536487E+02  -1.4764858810536487E+02  -1.4764858810536487E+02  -1.4764858810536487E+02  -1.4764858810536487E+02
  -1.4764858810536487E+02  -1.4764858810536487E+02  -1.4764858810536487E+02  -1.4764858810536487E+02  -1.4764858810536487E+02
  -1.4764858810536487E+02  -1.4764858810536487E+02  -1.4764858810536487E+02  -1.4764858810536487E+02  -1.4764858810536487E+02
  -1.4764858810536487E+02  -1.4764858810536487E+02  -1.4764858810536487E+02  -1.4764858810536487E+02  -1.4764858810536487E+02
  -1.4764858810536487E+02  -1.4764858810536487E+02  -1.4764858810536487E+02  -1.4764858810536487E+02  -1.4764858810536487E+02
  -1.4764858810536487E+02  -1.4764858810536487E+02  -1.4764858810536487E+02  -1.4764858810536487E+02  -1.4764858810536487E+02
  -1.4764858810536487E+02  -1.4764858810536487E+02  -1.4764858810536487E+02  -1.4764858810536487E+02  -1.4764858810536487E+02
  -1.4764858810536487E+02  -1.4764858810536487E+02  -1.4764858810536487E+02  -1.4764858810536487E+02  -1.4764858810536487E+02
  -1.4764858810536487E+02  -1.4764858810536487E+02  -1.4764858810536487E+02  -1.4764858810536487E+02  -1.4764858810536487E+02
  -1.4764858810536487E+02  -1.4764858810536487E+02  -1.4764858810536487E+02  -1.4764858810536487E+02  -1.4764858810536487E+02
  -1.4764858810536487E+02  -1.4764858810536487E+02  -1.4764858810536487E+02  -1.4764858810536487E+02  -1.4764858810536487E+02
  -1.4764858810536487E+02  -1.4764858810536487E+02  -1.4764858810536487E+02  -1.4764858810536487E+02  -1.4764858810536487E+02
  -1.4764858810536487E+02  -1.4764858810536487E+02  -1.4764858810536487E+02  -1.4764858810536487E+02  -1.4764858810536487E+02
  -1.4764858810536487E+02  -1.4764858810536487E+02  -1.4764858810536487E+02  -1.4764858810536487E+02  -1.4764858810536487E+02
  -1.4764858810536487E+02  -1.4764858810536487E+02  -1.4764858810536487E+02  -1.4764858810536487E+02  -1.5674131104549227E+02
  -1.8234430391437627E+02  -2.1732286213564265E+02  -2.6797610025795399E+02  -3.4787458080504996E+02  -4.9260897417675926E+02
  -8.3493777355995030E+02  -2.6493294667205919E+03   2.3206498709205584E+03   8.1459253461660830E+02   4.9681469101347346E+02
   3.5884065865627861E+02   2.8172306384015093E+02   2.3247658172377717E+02   1.9830620850674026E+02   1.7320935377700789E+02
   1.5399663129089848E+02   1.3881664133971429E+02   1.2652094371534338E+02   1.1635934730972171E+02   1.0782105373423197E+02
   1.0054622183666204E+02   9.4274038399064665E+01   8.8810845369512819E+01   8.4009832743560608E+01   7.9757680037592166E+01
   7.5965522104644762E+01   7.2562689736254910E+01   6.9492279171702492E+01   6.6707956020855235E+01   6.4171610155220918E+01
   6.1851608462968244E+01   5.9721474892470091E+01   5.7758880649693516E+01   5.5944862729691728E+01   5.4263212734410509E+01
   5.2699994203221479E+01   5.1243157997645561E+01   4.9882233261732075E+01   4.8608077182073991E+01   4.7412670896499229E+01
   4.6288951918457720E+01   4.5230675675603692E+01   4.4232300427378846E+01   4.3288891082230869E+01   4.2396038389812006E+01
   4.1549790715235424E+01   4.0746596167622492E+01   3.9983253294848751E+01   3.9256868900800669E+01   3.8564821812980846E+01
   3.7904731643704011E+01   3.7274431759984623E+01   3.6671945815122932E+01   3.6095467306217536E+01   3.5543341712005784E+01
   3.5014050838878568E+01   3.4506199063021626E+01   3.4018501206033292E+01   3.3549771822142048E+01   3.3098915708933617E+01
   3.2664919481605608E+01   3.2246844074235668E+01   3.1843818051214249E+01   3.1455031628529326E+01   3.1079731318535611E+01
   3.0717215123648398E+01   3.0366828214417975E+01   3.0027959035972096E+01   2.9700035794095655E+01   2.9382523278450662E+01
   2.9074919985790856E+01   2.8776755510629634E+01   2.8487588174792950E+01   2.8207002870723421E+01   2.7934609096379116E+01
   2.7670039162157178E+01   2.7412946552523877E+01   2.7163004426996437E+01   2.6919904246839948E+01   2.6683354515346121E+01
   2.6453079620880850E+01   2.6228818773048211E+01   2.6010325023340812E+01   2.5797364362548286E+01   2.5589714887993480E+01
   2.5387166034371845E+01   2.5189517862594919E+01   2.4996580401596582E+01   2.4808173038553310E+01   2.4624123953412781E+01
   2.4444269594016244E+01   2.4268454188453941E+01   2.4096529291604586E+01   2.3928353363094359E+01   2.3763791374161684E+01
   2.3602714441142073E+01   2.3444999483491468E+01   2.3290528904450387E+01   2.3139190292616870E+01   2.2990876142846481E+01
   2.2845483595032359E+01   2.2702914189441099E+01   2.2563073637391344E+01   2.2425871606161653E+01   2.2291221517107026E+01
   2.2159040356044596E+01   2.2029248495046225E+01   2.1901769524842955E+01   2.1776530097109866E+01   2.1653459775956605E+01
   2.1532490898000983E+01   2.1413558440450771E+01   2.1296599896662507E+01   2.1181555158685899E+01   2.1068366406338903E+01
   2.0956978002392461E+01   2.0847336393474180E+01   2.0739390016328990E+01   2.0633089209100238E+01   2.0528386127319433E+01
   2.0425234664313688E+01   2.0323590375761626E+01   2.0223410408145874E+01   2.0124653430868413E+01   2.0027279571810670E+01
   1.9931250356135010E+01   1.9836528648137882E+01   1.9743078595977469E+01   1.9650865579110530E+01   1.9559856158283541E+01
   1.9470018027933936E+01   1.9381319970865608E+01   1.9293731815072512E+01   1.9207224392591225E+01   1.9121769500271771E+01
   1.9037339862361918E+01   1.8953909094807482E+01   1.8871451671176693E+01   1.8789942890122301E+01   1.8709358844300567E+01
   1.8629676390670859E+01   1.8550873122104299E+01   1.8472927340233934E+01   1.8395818029483284E+01   1.8319524832213137E+01
   1.8244028024930625E+01   1.8169308495507412E+01   1.8095347721356884E+01   1.8022127748523307E+01   1.7949631171638277E+01
   1.7877841114702449E+01   1.7806741212652849E+01   1.7736315593678171E+01   1.7666548862246664E+01   1.7597426082812866E+01
   1.7528932764171678E+01   1.7461054844429583E+01   1.7393778676564470E+01   1.7327091014547435E+01   1.7260979000000592E+01
   1.7195430149367109E+01   1.7130432341570199E+01   1.7065973806139528E+01   1.7002043111784221E+01   1.6938629155392992E+01
   1.6875721151442669E+01   1.6813308621797518E+01   1.6751381385882578E+01   1.6689929551214849E+01   1.6628943504277533E+01
   1.6568413901722348E+01   1.6508331661886771E+01   1.6448687956612613E+01   1.6389474203353835E+01   1.6330682057561528E+01
   1.6272303405334906E+01   1.6214330356327430E+01   1.6156755236897904E+01   1.6099570583496682E+01   1.6042769136277713E+01
   1.5986343832927446E+01   1.5930287802702159E+01   1.5874594360665649E+01   1.5819257002119301E+01   1.5764269397217527E+01
   1.5709625385761022E+01   1.5655318972161554E+01   1.5601344320571478E+01   1.5547695750171956E+01   1.5494367730613913E+01
   1.5441354877606152E+01   1.5388651948645066E+01   1.5336253838880944E+01   1.5284155577115753E+01   1.5232352321927705E+01
   1.5180839357918119E+01   1.5129612092076028E+01   1.5078666050256606E+01   1.5027996873769084E+01   1.4977600316070653E+01
   1.4927472239562317E+01   1.4877608612483455E+01   1.4828005505901460E+01   1.4778659090793292E+01   1.4729565635215842E+01
   1.4680721501561981E+01   1.4632123143899484E+01   1.4583767105390049E+01   1.4535650015785636E+01   1.4487768588999714E+01
   1.4440119620750778E+01   1.4392699986275842E+01   1.4345506638111658E+01   1.4298536603941303E+01   1.4251786984504216E+01
   1.4205254951567435E+01   1.4158937745956225E+01   1.4112832675642169E+01   1.4066937113886752E+01   1.4021248497438933E+01
   1.3975764324784727E+01   1.3930482154447446E+01   1.3885399603336717E+01   1.3840514345145063E+01   1.3795824108790288E+01
   1.3751326676902526E+01   1.3707019884354290E+01   1.3662901616832540E+01   1.3618969809451121E+01   1.3575222445402702E+01
   1.3531657554648735E+01   1.3488273212646451E+01   1.3445067539111793E+01   1.3402038696817016E+01   1.3359184890422227E+01
   1.3316504365339547E+01   1.3273995406629172E+01   1.3231656337926252E+01   1.3189485520397698E+01   1.3147481351728151E+01
   1.3105642265134069E+01   1.3063966728405285E+01   1.3022453242973171E+01   1.2981100343004609E+01   1.2939906594521076E+01
   1.2898870594542103E+01   1.2857990970252354E+01   1.2817266378191812E+01   1.2776695503468124E+01   1.2736277058990847E+01
   1.2696009784726586E+01   1.2655892446974764E+01   1.2615923837663203E+01   1.2576102773663107E+01   1.2536428096122798E+01
   1.2496898669819743E+01   1.2457513382530349E+01   1.2418271144417007E+01   1.2379170887431892E+01   1.2340211564737118E+01
   1.2301392150140725E+01   1.2262711637548060E+01   1.2224169040428210E+01   1.2185763391294914E+01   1.2147493741201762E+01
   1.2109359159251035E+01   1.2071358732116092E+01   1.2033491563576648E+01   1.1995756774066839E+01   1.1958153500235520E+01
   1.1920680894518615E+01   1.1883338124723085E+01   1.1846124373622242E+01   1.1809038838562115E+01   1.1772080731078486E+01
   1.1735249276524451E+01   1.1698543713708011E+01   1.1661963294539680E+01   1.1625507283689533E+01   1.1589174958253777E+01
   1.1552965607430236E+01   1.1516878532202815E+01   1.1480913045034489E+01   1.1445068469568710E+01   1.1409344140338883E+01
   1.1373739402485883E+01   1.1338253611483136E+01   1.1302886132869331E+01   1.1267636341988339E+01   1.1232503623736246E+01
   1.1197487372315351E+01   1.1162586990994784E+01   1.1127801891877763E+01   1.1093131495675125E+01   1.1058575231485115E+01
   1.1024132536579149E+01   1.0989802856193467E+01   1.0955585643326467E+01   1.0921480358541590E+01   1.0887486469775620E+01
   1.0853603452152193E+01   1.0819830787800472E+01   1.0786167965678747E+01   1.0752614481402889E+01   1.0719169837079486E+01
   1.0685833541143648E+01   1.0652605108201103E+01   1.0619484058874805E+01   1.0586469919655629E+01   1.0553562222757220E+01
   1.0520760505974858E+01   1.0488064312548131E+01   1.0455473191027499E+01   1.0422986695144374E+01   1.0390604383684972E+01
   1.0358325820367456E+01   1.0326150573722604E+01   1.0294078216977669E+01   1.0262108327943544E+01   1.0230240488904913E+01
   1.0198474286513578E+01   1.0166809311684595E+01   1.0135245159495408E+01   1.0103781429087661E+01   1.0072417723571789E+01
   1.0041153649934246E+01   1.0009988818947265E+01   9.9789228450811596E+00   9.9479553464190165E+00   9.9170859445737580E+00
   9.8863142646075559E+00   9.8556399349533681E+00   9.8250625873387918E+00   9.7945818567118810E+00   9.7641973811691578E+00
   9.7339088018855193E+00   9.7037157630461426E+00   9.6736179117802710E+00   9.6436148980968266E+00   9.6137063748218168E+00
   9.5838919975374974E+00   9.5541714245231919E+00   9.5245443166977815E+00   9.4950103375637767E+00   9.4655691531529733E+00
   9.4362204319735632E+00   9.4069638449587725E+00   9.3777990654168928E+00   9.3487257689827103E+00   9.3197436335702921E+00
   9.2908523393270599E+00   9.2620515685891771E+00   9.2333410058381400E+00   9.2047203376586033E+00   9.1761892526973341E+00
   9.1477474416233768E+00   9.1193945970892365E+00   9.0911304136932305E+00   9.0629545879427820E+00   9.0348668182188305E+00
   9.0068668047411666E+00   8.9789542495347465E+00   8.9511288563969362E+00   8.9233903308656650E+00   8.8957383801884546E+00
   8.8681727132923100E+00   8.8406930407544397E+00   8.8132990747737754E+00   8.7859905291433016E+00   8.7587671192230943E+00
   8.7316285619141958E+00   8.7045745756330835E+00   8.6776048802869692E+00   8.6507191972496535E+00   8.6239172493381506E+00
   8.5971987607898814E+00   8.5705634572405121E+00   8.5440110657024082E+00   8.5175413145436512E+00   8.4911539334676629E+00
   8.4648486534933447E+00   8.4386252069357788E+00   8.4124833273874486E+00   8.3864227496999781E+00   8.3604432099663111E+00
   8.3345444455034627E+00   8.3087261948356481E+00   8.2829881976779181E+00   8.2573301949201880E+00   8.2317519286117555E+00
   8.2062531419461653E+00   8.1808335792465137E+00   8.1554929859511418E+00   8.1302311085996912E+00   8.1050476948195342E+00
   8.0799424933125756E+00   8.0549152538423687E+00   8.0299657272216152E+00   8.0050936652999276E+00   7.9802988209519672E+00
   7.9555809480658661E+00   7.9309398015319434E+00   7.9063751372317101E+00   7.8818867120271792E+00   7.8574742837504088E+00
   7.8331376111933526E+00   7.8088764540979385E+00   7.7846905731464000E+00   7.7605797299518757E+00   7.7365436870491928E+00
   7.7125822078859549E+00   7.6886950568137529E+00   7.6648819990796966E+00   7.6411428008180664E+00   7.6174772290422190E+00
   7.5938850516366738E+00   7.5703660373493857E+00   7.5469199557842170E+00   7.5235465773935690E+00   7.5002456734711984E+00
   7.4770170161452150E+00   7.4538603783712185E+00   7.4307755339256047E+00   7.4077622573990434E+00   7.3848203241900672E+00
   7.3619495104988557E+00   7.3391495933211059E+00   7.3164203504420939E+00   7.2937615604308155E+00   7.2711730026343089E+00
   7.2486544571720524E+00   7.2262057049305266E+00   7.2038265275578599E+00   7.1815167074586039E+00   7.1592760277886258E+00
   7.1371042724500970E+00   7.1150012260865800E+00   7.0929666740782320E+00   7.0710004025371029E+00   7.0491021983025224E+00
   7.0272718489365751E+00   7.0055091427196832E+00   6.9838138686462532E+00   6.9621858164204253E+00   6.9406247764519007E+00
   6.9191305398518290E+00   6.8977028984288120E+00   6.8763416446849286E+00   6.8550465718118971E+00   6.8338174736872332E+00
   6.8126541448705584E+00   6.7915563805998875E+00   6.7705239767880565E+00   6.7495567300191741E+00   6.7286544375451189E+00
   6.7078168972821492E+00   6.6870439078075092E+00   6.6663352683561339E+00   6.6456907788173831E+00   6.6251102397318418E+00
   6.6045934522881584E+00   6.5841402183199511E+00   6.5637503403027235E+00   6.5434236213508905E+00   6.5231598652147680E+00
   6.5029588762776926E+00   6.4828204595530954E+00   6.4627444206816991E+00   6.4427305659286889E+00   6.4227787021809686E+00
   6.4028886369444296E+00   6.3830601783412542E+00   6.3632931351072770E+00   6.3435873165893524E+00   6.3239425327427830E+00
   6.3043585941287557E+00   6.2848353119118210E+00   6.2653724978574159E+00   6.2459699643293805E+00   6.2266275242875437E+00
   6.2073449912853205E+00   6.1881221794673209E+00   6.1689589035670096E+00   6.1498549789043810E+00   6.1308102213836655E+00
   6.1118244474910437E+00   6.0928974742924060E+00   6.0740291194311204E+00   6.0552192011258210E+00   6.0364675381682416E+00
   6.0177739499210459E+00   5.9991382563156757E+00   5.9805602778502456E+00   5.9620398355874329E+00   5.9435767511524071E+00
   5.9251708467307456E+00   5.9068219450664108E+00   5.8885298694597079E+00   5.8702944437652791E+00   5.8521154923901175E+00
   5.8339928402915788E+00   5.8159263129754235E+00   5.7979157364938736E+00   5.7799609374436880E+00   5.7620617429642369E+00
   5.7442179807355993E+00   5.7264294789766907E+00   5.7086960664433795E+00   5.6910175724266248E+00   5.6733938267506376E+00
   5.6558246597710475E+00   5.6383099023730692E+00   5.6208493859697137E+00   5.6034429424999743E+00   5.5860904044270532E+00
   5.5687916047365729E+00   5.5515463769348354E+00   5.5343545550470541E+00   5.5172159736156168E+00   5.5001304676983578E+00
   5.4830978728668445E+00   5.4661180252046462E+00   5.4491907613056645E+00   5.4323159182724101E+00   5.4154933337143598E+00
   5.3987228457462448E+00   5.3820042929864185E+00   5.3653375145551889E+00   5.3487223500731789E+00   5.3321586396596921E+00
   5.3156462239310764E+00   5.2991849439991121E+00   5.2827746414694037E+00   5.2664151584397674E+00   5.2501063374986483E+00
   5.2338480217235155E+00   5.2176400546792996E+00   5.2014822804168146E+00   5.1853745434711831E+00   5.1693166888602970E+00
   5.1533085620832555E+00   5.1373500091188165E+00   5.1214408764238684E+00   5.1055810109319086E+00   5.0897702600515000E+00
   5.0740084716647669E+00   5.0582954941258826E+00   5.0426311762595724E+00   5.0270153673596019E+00   5.0114479171872990E+00
   4.9959286759700676E+00   4.9804574943998965E+00   4.9650342236319078E+00   4.9496587152828742E+00   4.9343308214297625E+00
   4.9190503946082780E+00   4.9038172878114201E+00   4.8886313544880338E+00   4.8734924485413700E+00   4.8584004243276580E+00
   4.8433551366546830E+00   4.8283564407803485E+00   4.8134041924112729E+00   4.7984982477013816E+00   4.7836384632504929E+00
   4.7688246961029153E+00   4.7540568037460638E+00   4.7393346441090634E+00   4.7246580755613587E+00   4.7100269569113467E+00
   4.6954411474049929E+00   4.6809005067244609E+00   4.6664048949867469E+00   4.6519541727423306E+00   4.6375482009738063E+00
   4.6231868410945296E+00   4.6088699549472887E+00   4.5945974048029523E+00   4.5803690533591270E+00   4.5661847637388338E+00
   4.5520443994891835E+00   4.5379478245800415E+00   4.5238949034027192E+00   4.5098855007686609E+00   4.4959194819081301E+00
   4.4819967124688977E+00   4.4681170585149559E+00   4.4542803865252187E+00   4.4404865633922146E+00   4.4267354564208192E+00
   4.4130269333269627E+00   4.3993608622363434E+00   4.3857371116831718E+00   4.3721555506088832E+00   4.3586160483608785E+00
   4.3451184746912546E+00   4.3316626997555607E+00   4.3182485941115329E+00   4.3048760287178425E+00   4.2915448749328577E+00
   4.2782550045134036E+00   4.2650062896135097E+00   4.2517986027831940E+00   4.2386318169672199E+00   4.2255058055038823E+00
   4.2124204421237712E+00   4.1993756009485672E+00   4.1863711564898223E+00   4.1734069836477410E+00   4.1604829577099958E+00
   4.1475989543505030E+00   4.1347548496282336E+00   4.1219505199860169E+00   4.1091858422493583E+00   4.0964606936252341E+00
   4.0837749517009225E+00   4.0711284944428208E+00   4.0585212001952717E+00   4.0459529476793792E+00   4.0334236159918566E+00
   4.0209330846038549E+00   4.0084812333597926E+00   3.9960679424762184E+00   3.9836930925406402E+00   3.9713565645103803E+00
   3.9590582397114300E+00   3.9467979998373099E+00   3.9345757269479251E+00   3.9223913034684275E+00   3.9102446121880940E+00
   3.8981355362591894E+00   3.8860639591958410E+00   3.8740297648729261E+00   3.8620328375249438E+00   3.8500730617449035E+00
   3.8381503224832163E+00   3.8262645050465895E+00   3.8144154950969171E+00   3.8026031786501795E+00   3.7908274420753489E+00
   3.7790881720933012E+00   3.7673852557757108E+00   3.7557185805439790E+00   3.7440880341681413E+00   3.7324935047657886E+00
   3.7209348808009972E+00   3.7094120510832456E+00   3.6979249047663520E+00   3.6864733313474005E+00   3.6750572206656873E+00
   3.6636764629016523E+00   3.6523309485758251E+00   3.6410205685477690E+00   3.6297452140150432E+00   3.6185047765121352E+00
   3.6072991479094330E+00   3.5961282204121785E+00   3.5849918865594361E+00   3.5738900392230466E+00   3.5628225716066102E+00
   3.5517893772444507E+00   3.5407903500005906E+00   3.5298253840677365E+00   3.5188943739662579E+00   3.5079972145431664E+00
   3.4971338009711119E+00   3.4863040287473743E+00   3.4755077936928527E+00   3.4647449919510627E+00   3.4540155199871432E+00
   3.4433192745868602E+00   3.4326561528556030E+00   3.4220260522174089E+00   3.4114288704139666E+00   3.4008645055036331E+00
   3.3903328558604611E+00   3.3798338201732103E+00   3.3693672974443807E+00   3.3589331869892347E+00   3.3485313884348344E+00
   3.3381618017190764E+00   3.3278243270897203E+00   3.3175188651034366E+00   3.3072453166248517E+00   3.2970035828255848E+00
   3.2867935651833107E+00   3.2766151654807998E+00   3.2664682858049803E+00   3.2563528285459888E+00   3.2462686963962435E+00
   3.2362157923494981E+00   3.2261940196999084E+00   3.2162032820411097E+00   3.2062434832652840E+00   3.1963145275622336E+00
   3.1864163194184640E+00   3.1765487636162621E+00   3.1667117652327845E+00   3.1569052296391367E+00   3.1471290624994679E+00
   3.1373831697700663E+00   3.1276674576984447E+00   3.1179818328224513E+00   3.1083262019693616E+00   3.0987004722549814E+00
   3.0891045510827593E+00   3.0795383461428951E+00   3.0700017654114466E+00   3.0604947171494481E+00   3.0510171099020265E+00
   3.0415688524975262E+00   3.0321498540466232E+00   3.0227600239414576E+00   3.0133992718547638E+00   3.0040675077389891E+00
   2.9947646418254461E+00   2.9854905846234332E+00   2.9762452469193819E+00   2.9670285397759950E+00   2.9578403745313939E+00
   2.9486806627982660E+00   2.9395493164630078E+00   2.9304462476848863E+00   2.9213713688951906E+00   2.9123245927963821E+00
   2.9033058323612715E+00   2.8943150008321643E+00   2.8853520117200371E+00   2.8764167788036983E+00   2.8675092161289655E+00
   2.8586292380078366E+00   2.8497767590176601E+00   2.8409516940003194E+00   2.8321539580614168E+00   2.8233834665694437E+00
   2.8146401351549799E+00   2.8059238797098764E+00   2.7972346163864437E+00   2.7885722615966526E+00   2.7799367320113220E+00
   2.7713279445593244E+00   2.7627458164267784E+00   2.7541902650562626E+00   2.7456612081460134E+00   2.7371585636491340E+00
   2.7286822497728092E+00   2.7202321849775171E+00   2.7118082879762406E+00   2.7034104777336911E+00   2.6950386734655245E+00
   2.6866927946375712E+00   2.6783727609650496E+00   2.6700784924118048E+00   2.6618099091895333E+00   2.6535669317570165E+00
   2.6453494808193549E+00   2.6371574773272091E+00   2.6289908424760315E+00   2.6208494977053154E+00   2.6127333646978386E+00
   2.6046423653789064E+00   2.5965764219156009E+00   2.5885354567160359E+00   2.5805193924286107E+00   2.5725281519412584E+00
   2.5645616583807120E+00   2.5566198351117642E+00   2.5487026057365232E+00   2.5408098940936887E+00   2.5329416242578104E+00
   2.5250977205385619E+00   2.5172781074800077E+00   2.5094827098598844E+00   2.5017114526888760E+00   2.4939642612098831E+00
   2.4862410608973171E+00   2.4785417774563756E+00   2.4708663368223251E+00   2.4632146651597977E+00   2.4555866888620743E+00
   2.4479823345503773E+00   2.4404015290731631E+00   2.4328441995054253E+00   2.4253102731479856E+00   2.4177996775267965E+00
   2.4103123403922462E+00   2.4028481897184655E+00   2.3954071537026249E+00   2.3879891607642567E+00   2.3805941395445576E+00
   2.3732220189057069E+00   2.3658727279301792E+00   2.3585461959200629E+00   2.3512423523963832E+00   2.3439611270984160E+00
   2.3367024499830245E+00   2.3294662512239763E+00   2.3222524612112694E+00   2.3150610105504712E+00   2.3078918300620481E+00
   2.3007448507806960E+00   2.2936200039546786E+00   2.2865172210451683E+00   2.2794364337255888E+00   2.2723775738809486E+00
   2.2653405736071952E+00   2.2583253652105597E+00   2.2513318812069016E+00   2.2443600543210613E+00   2.2374098174862183E+00
   2.2304811038432404E+00   2.2235738467400394E+00   2.2166879797309327E+00   2.2098234365760079E+00   2.2029801512404754E+00
   2.1961580578940456E+00   2.1893570909102849E+00   2.1825771848659881E+00   2.1758182745405534E+00   2.1690802949153509E+00
   2.1623631811730952E+00   2.1556668686972236E+00   2.1489912930712789E+00   2.1423363900782846E+00   2.1357020957001271E+00
   2.1290883461169403E+00   2.1224950777064979E+00   2.1159222270435900E+00   2.1093697308994241E+00   2.1028375262410073E+00
   2.0963255502305498E+00   2.0898337402248499E+00   2.0833620337747014E+00   2.0769103686242842E+00   2.0704786827105699E+00
   2.0640669141627264E+00   2.0576750013015204E+00   2.0513028826387218E+00   2.0449504968765146E+00   2.0386177829069103E+00
   2.0323046798111553E+00   2.0260111268591459E+00   2.0197370635088432E+00   2.0134824294056979E+00   2.0072471643820582E+00
   2.0010312084565984E+00   1.9948345018337434E+00   1.9886569849030853E+00   1.9824985982388210E+00   1.9763592825991687E+00
   1.9702389789258095E+00   1.9641376283433085E+00   1.9580551721585588E+00   1.9519915518602082E+00   1.9459467091180997E+00
   1.9399205857827129E+00   1.9339131238846023E+00   1.9279242656338382E+00   1.9219539534194507E+00   1.9160021298088810E+00
   1.9100687375474235E+00   1.9041537195576752E+00   1.8982570189389874E+00   1.8923785789669227E+00   1.8865183430927004E+00
   1.8806762549426626E+00   1.8748522583177234E+00   1.8690462971928312E+00   1.8632583157164337E+00   1.8574882582099368E+00
   1.8517360691671667E+00   1.8460016932538392E+00   1.8402850753070290E+00   1.8345861603346374E+00   1.8289048935148597E+00
   1.8232412201956620E+00   1.8175950858942569E+00   1.8119664362965731E+00   1.8063552172567408E+00   1.8007613747965641E+00
   1.7951848551050031E+00   1.7896256045376615E+00   1.7840835696162656E+00   1.7785586970281488E+00   1.7730509336257410E+00
   1.7675602264260595E+00   1.7620865226101965E+00   1.7566297695228101E+00   1.7511899146716183E+00   1.7457669057268990E+00
   1.7403606905209776E+00   1.7349712170477347E+00   1.7295984334620966E+00   1.7242422880795463E+00   1.7189027293756154E+00
   1.7135797059853999E+00   1.7082731667030566E+00   1.7029830604813145E+00   1.6977093364309854E+00   1.6924519438204728E+00
   1.6872108320752817E+00   1.6819859507775330E+00   1.6767772496654831E+00   1.6715846786330357E+00   1.6664081877292594E+00
   1.6612477271579078E+00   1.6561032472769459E+00   1.6509746985980620E+00   1.6458620317862038E+00   1.6407651976590931E+00
   1.6356841471867578E+00   1.6306188314910615E+00   1.6255692018452315E+00   1.6205352096733889E+00   1.6155168065500811E+00
   1.6105139441998202E+00   1.6055265744966154E+00   1.6005546494635090E+00   1.5955981212721151E+00   1.5906569422421646E+00
   1.5857310648410385E+00   1.5808204416833185E+00   1.5759250255303234E+00   1.5710447692896627E+00   1.5661796260147762E+00
   1.5613295489044885E+00   1.5564944913025542E+00   1.5516744066972104E+00   1.5468692487207321E+00   1.5420789711489835E+00
   1.5373035279009721E+00   1.5325428730384063E+00   1.5277969607652573E+00   1.5230657454273144E+00   1.5183491815117460E+00
   1.5136472236466614E+00   1.5089598266006794E+00   1.5042869452824859E+00   1.4996285347404044E+00   1.4949845501619652E+00
   1.4903549468734678E+00   1.4857396803395595E+00   1.4811387061627990E+00   1.4765519800832367E+00   1.4719794579779815E+00
   1.4674210958607838E+00   1.4628768498816060E+00   1.4583466763262039E+00   1.4538305316157065E+00   1.4493283723061974E+00
   1.4448401550882917E+00   1.4403658367867243E+00   1.4359053743599355E+00   1.4314587248996544E+00   1.4270258456304845E+00
   1.4226066939094943E+00   1.4182012272258107E+00   1.4138094032002015E+00   1.4094311795846775E+00   1.4050665142620775E+00
   1.4007153652456674E+00   1.3963776906787380E+00   1.3920534488341993E+00   1.3877425981141787E+00   1.3834450970496215E+00
   1.3791609042998954E+00   1.3748899786523889E+00   1.3706322790221150E+00   1.3663877644513163E+00   1.3621563941090744E+00
   1.3579381272909110E+00   1.3537329234184030E+00   1.3495407420387855E+00   1.3453615428245689E+00   1.3411952855731453E+00
   1.3370419302064074E+00   1.3329014367703580E+00   1.3287737654347269E+00   1.3246588764925908E+00   1.3205567303599892E+00
   1.3164672875755414E+00   1.3123905088000696E+00   1.3083263548162203E+00   1.3042747865280879E+00   1.3002357649608356E+00
   1.2962092512603212E+00   1.2921952066927274E+00   1.2881935926441825E+00   1.2842043706203972E+00   1.2802275022462848E+00
   1.2762629492655988E+00   1.2723106735405636E+00   1.2683706370515080E+00   1.2644428018964962E+00   1.2605271302909651E+00
   1.2566235845673634E+00   1.2527321271747869E+00   1.2488527206786160E+00   1.2449853277601568E+00   1.2411299112162841E+00
   1.2372864339590799E+00   1.2334548590154804E+00   1.2296351495269164E+00   1.2258272687489613E+00   1.2220311800509773E+00
   1.2182468469157646E+00   1.2144742329392053E+00   1.2107133018299161E+00   1.2069640174089018E+00   1.2032263436092043E+00
   1.1995002444755543E+00   1.1957856841640273E+00   1.1920826269417015E+00   1.1883910371863076E+00   1.1847108793858934E+00
   1.1810421181384749E+00   1.1773847181517030E+00   1.1737386442425171E+00   1.1701038613368129E+00   1.1664803344691002E+00
   1.1628680287821680E+00   1.1592669095267514E+00   1.1556769420611956E+00   1.1520980918511206E+00   1.1485303244690914E+00
   1.1449736055942874E+00   1.1414279010121722E+00   1.1378931766141609E+00   1.1343693983972951E+00   1.1308565324639175E+00
   1.1273545450213405E+00   1.1238634023815275E+00   1.1203830709607630E+00   1.1169135172793321E+00   1.1134547079612007E+00
   1.1100066097336896E+00   1.1065691894271592E+00   1.1031424139746859E+00   1.0997262504117489E+00   1.0963206658759084E+00
   1.0929256276064916E+00   1.0895411029442790E+00   1.0861670593311885E+00   1.0828034643099613E+00   1.0794502855238510E+00
   1.0761074907163133E+00   1.0727750477306943E+00   1.0694529245099207E+00   1.0661410890961915E+00   1.0628395096306740E+00
   1.0595481543531908E+00   1.0562669916019221E+00   1.0529959898130938E+00   1.0497351175206775E+00   1.0464843433560895E+00
   1.0432436360478861E+00   1.0400129644214620E+00   1.0367922973987533E+00   1.0335816039979380E+00   1.0303808533331369E+00
   1.0271900146141160E+00   1.0240090571459910E+00   1.0208379503289342E+00   1.0176766636578753E+00   1.0145251667222139E+00
   1.0113834292055208E+00   1.0082514208852520E+00   1.0051291116324528E+00   1.0020164714114734E+00   9.9891347027967459E-01
   9.9582007838714282E-01   9.9273626597640374E-01   9.8966200338213406E-01   9.8659726103087586E-01   9.8354200944075332E-01
   9.8049621922118957E-01   9.7745986107262350E-01   9.7443290578622610E-01   9.7141532424362131E-01   9.6840708741660753E-01
   9.6540816636687332E-01   9.6241853224572527E-01   9.5943815629380513E-01   9.5646700984081579E-01   9.5350506430524584E-01
   9.5055229119409412E-01   9.4760866210259387E-01   9.4467414871394151E-01   9.4174872279902433E-01   9.3883235621614880E-01
   9.3592502091076757E-01   9.3302668891521223E-01   9.3013733234842433E-01   9.2725692341568466E-01   9.2438543440834919E-01
   9.2152283770357901E-01   9.1866910576407856E-01   9.1582421113782597E-01   9.1298812645781446E-01   9.1016082444178392E-01
   9.0734227789196131E-01   9.0453245969479923E-01   9.0173134282071432E-01   8.9893890032382640E-01   8.9615510534170006E-01
   8.9337993109508707E-01   8.9061335088766858E-01   8.8785533810579631E-01   8.8510586621823784E-01   8.8236490877592288E-01
   8.7963243941168745E-01   8.7690843184001899E-01   8.7419285985680495E-01   8.7148569733908210E-01   8.6878691824478216E-01
   8.6609649661248245E-01   8.6341440656115853E-01   8.6074062228993131E-01   8.5807511807782033E-01   8.5541786828349997E-01
   8.5276884734504566E-01   8.5012802977969470E-01   8.4749539018359676E-01   8.4487090323157099E-01   8.4225454367686381E-01
   8.3964628635090333E-01   8.3704610616305908E-01   8.3445397810040045E-01   8.3186987722745509E-01   8.2929377868597054E-01
   8.2672565769467454E-01   8.2416548954903524E-01   8.2161324962102478E-01   8.1906891335888365E-01   8.1653245628688198E-01
   8.1400385400508524E-01   8.1148308218912046E-01   8.0897011658994067E-01   8.0646493303359168E-01   8.0396750742098255E-01
   8.0147781572764887E-01   7.9899583400352447E-01   7.9652153837271211E-01   7.9405490503325060E-01   7.9159591025688958E-01
   7.8914453038885779E-01   7.8670074184763639E-01   7.8426452112473599E-01   7.8183584478446433E-01   7.7941468946370396E-01
   7.7700103187168879E-01   7.7459484878977758E-01   7.7219611707123115E-01   7.6980481364099174E-01   7.6742091549545777E-01
   7.6504439970226423E-01   7.6267524340006443E-01   7.6031342379830524E-01   7.5795891817701022E-01   7.5561170388656318E-01
   7.5327175834748672E-01   7.5093905905022640E-01   7.4861358355493579E-01   7.4629530949125711E-01   7.4398421455811126E-01
   7.4168027652347768E-01   7.3938347322418252E-01   7.3709378256568836E-01   7.3481118252187727E-01   7.3253565113484054E-01
   7.3026716651466972E-01   7.2800570683924271E-01   7.2575125035401411E-01   7.2350377537181043E-01   7.2126326027261500E-01
   7.1902968350336371E-01   7.1680302357773840E-01   7.1458325907595732E-01   7.1237036864457071E-01   7.1016433099625620E-01
   7.0796512490961250E-01   7.0577272922895484E-01   7.0358712286411507E-01   7.0140828479023321E-01   6.9923619404756054E-01
   6.9707082974125412E-01   6.9491217104117686E-01   6.9276019718169957E-01   6.9061488746149713E-01   6.8847622124335173E-01
   6.8634417795395608E-01   6.8421873708371062E-01   6.8209987818653017E-01   6.7998758087964650E-01   6.7788182484341131E-01
   6.7578258982110107E-01   6.7368985561872330E-01   6.7160360210482084E-01   6.6952380921027776E-01   6.6745045692813010E-01
   6.6538352531336786E-01   6.6332299448274656E-01   6.6126884461459623E-01   6.5922105594862856E-01   6.5717960878574888E-01
   6.5514448348786547E-01   6.5311566047770020E-01   6.5109312023860388E-01   6.4907684331436222E-01   6.4706681030901325E-01
   6.4506300188666088E-01   6.4306539877128566E-01   6.4107398174656183E-01   6.3908873165567326E-01   6.3710962940112592E-01
   6.3513665594456625E-01   6.3316979230660042E-01   6.3120901956660591E-01   6.2925431886255379E-01   6.2730567139082760E-01
   6.2536305840603890E-01   6.2342646122085066E-01   6.2149586120579547E-01   6.1957123978909678E-01   6.1765257845649102E-01
   6.1573985875104764E-01   6.1383306227299261E-01   6.1193217067953365E-01   6.1003716568467947E-01   6.0814802905906618E-01
   6.0626474262978292E-01   6.0438728828019472E-01   6.0251564794977008E-01   6.0064980363390685E-01   5.9878973738375785E-01
   5.9693543130605875E-01   5.9508686756295881E-01   5.9324402837184376E-01   5.9140689600516905E-01   5.8957545279028811E-01
   5.8774968110928205E-01   5.8592956339878988E-01   5.8411508214984098E-01   5.8230621990768416E-01   5.8050295927162410E-01
   5.7870528289484813E-01   5.7691317348426352E-01   5.7512661380033114E-01   5.7334558665689639E-01   5.7157007492102729E-01
   5.6980006151284857E-01   5.6803552940537605E-01   5.6627646162435397E-01   5.6452284124809338E-01   5.6277465140730587E-01
   5.6103187528494269E-01   5.5929449611603521E-01   5.5756249718753015E-01   5.5583586183813083E-01   5.5411457345813719E-01
   5.5239861548928393E-01   5.5068797142458281E-01   5.4898262480816562E-01   5.4728255923512115E-01   5.4558775835134132E-01
   5.4389820585336290E-01   5.4221388548820915E-01   5.4053478105323660E-01   5.3886087639597580E-01   5.3719215541397680E-01
   5.3552860205465758E-01   5.3387020031514421E-01   5.3221693424212013E-01   5.3056878793167350E-01   5.2892574552914107E-01
   5.2728779122895797E-01   5.2565490927450598E-01   5.2402708395795994E-01   5.2240429962013724E-01   5.2078654065035024E-01
   5.1917379148625076E-01   5.1756603661368406E-01   5.1596326056653929E-01   5.1436544792659911E-01   5.1277258332339248E-01
   5.1118465143404757E-01   5.0960163698314109E-01   5.0802352474255685E-01   5.0645029953133347E-01   5.0488194621552107E-01
   5.0331844970803696E-01   5.0175979496851753E-01   5.0020596700317488E-01   4.9865695086465417E-01   4.9711273165188696E-01
   4.9557329450994897E-01   4.9403862462991899E-01   4.9250870724873330E-01   4.9098352764904502E-01   4.8946307115908388E-01
   4.8794732315251210E-01   4.8643626904828635E-01   4.8492989431051631E-01   4.8342818444832436E-01   4.8193112501570640E-01
   4.8043870161139474E-01   4.7895089987871603E-01   4.7746770550545597E-01   4.7598910422372009E-01   4.7451508180979662E-01
   4.7304562408402123E-01   4.7158071691063769E-01   4.7012034619766357E-01   4.6866449789675624E-01   4.6721315800307350E-01
   4.6576631255514223E-01   4.6432394763472323E-01   4.6288604936667621E-01   4.6145260391882703E-01   4.6002359750183552E-01
   4.5859901636906075E-01   4.5717884681642967E-01   4.5576307518230608E-01   4.5435168784735736E-01   4.5294467123442417E-01
   4.5154201180839137E-01   4.5014369607605392E-01   4.4874971058599139E-01   4.4736004192843476E-01   4.4597467673513891E-01
   4.4459360167925477E-01   4.4321680347519926E-01   4.4184426887852762E-01   4.4047598468580823E-01   4.3911193773449186E-01
   4.3775211490278654E-01   4.3639650310953282E-01   4.3504508931407460E-01   4.3369786051613568E-01   4.3235480375569441E-01
   4.3101590611285773E-01   4.2968115470773688E-01   4.2835053670032586E-01   4.2702403929037336E-01   4.2570164971726232E-01
   4.2438335525988685E-01   4.2306914323652822E-01   4.2175900100473446E-01   4.2045291596119655E-01   4.1915087554162767E-01
   4.1785286722064363E-01   4.1655887851163970E-01   4.1526889696667069E-01   4.1398291017633293E-01   4.1270090576964175E-01
   4.1142287141391382E-01   4.1014879481464839E-01   4.0887866371540710E-01   4.0761246589769695E-01   4.0635018918085331E-01
   4.0509182142191957E-01   4.0383735051553188E-01   4.0258676439380281E-01   4.0134005102620274E-01   4.0009719841944530E-01
   3.9885819461737138E-01   3.9762302770083208E-01   3.9639168578757689E-01   3.9516415703213470E-01   3.9394042962570186E-01
   3.9272049179602797E-01   3.9150433180730099E-01   3.9029193796003409E-01   3.8908329859095359E-01   3.8787840207288399E-01
   3.8667723681463673E-01   3.8547979126089910E-01   3.8428605389211967E-01   3.8309601322439824E-01   3.8190965780937547E-01
   3.8072697623411977E-01   3.7954795712101802E-01   3.7837258912766586E-01   3.7720086094675592E-01   3.7603276130596880E-01
   3.7486827896786534E-01   3.7370740272977465E-01   3.7255012142368682E-01   3.7139642391614525E-01   3.7024629910813606E-01
   3.6909973593498308E-01   3.6795672336623747E-01   3.6681725040557162E-01   3.6568130609067329E-01   3.6454887949313647E-01
   3.6341995971835594E-01   3.6229453590542204E-01   3.6117259722701311E-01   3.6005413288929028E-01   3.5893913213179318E-01
   3.5782758422733302E-01   3.5671947848188873E-01   3.5561480423450331E-01   3.5451355085717712E-01   3.5341570775476533E-01
   3.5232126436487471E-01   3.5123021015775818E-01   3.5014253463621264E-01   3.4905822733547637E-01   3.4797727782312426E-01
   3.4689967569896824E-01   3.4582541059495181E-01   3.4475447217504912E-01   3.4368685013516403E-01   3.4262253420302707E-01
   3.4156151413809421E-01   3.4050377973144658E-01   3.3944932080568802E-01   3.3839812721484519E-01   3.3735018884426721E-01
   3.3630549561052431E-01   3.3526403746130767E-01   3.3422580437533139E-01   3.3319078636222976E-01   3.3215897346245948E-01
   3.3113035574720012E-01   3.3010492331825397E-01   3.2908266630794775E-01   3.2806357487903381E-01   3.2704763922459018E-01
   3.2603484956792445E-01   3.2502519616247244E-01   3.2401866929170126E-01   3.2301525926901231E-01   3.2201495643764133E-01
   3.2101775117056136E-01   3.2002363387038607E-01   3.1903259496927039E-01   3.1804462492881391E-01   3.1705971423996476E-01
   3.1607785342292022E-01   3.1509903302703041E-01   3.1412324363070254E-01   3.1315047584130207E-01   3.1218072029505695E-01
   3.1121396765696124E-01   3.1025020862067754E-01   3.0928943390844005E-01   3.0833163427096055E-01   3.0737680048732857E-01
   3.0642492336491739E-01   3.0547599373928641E-01   3.0453000247408529E-01   3.0358694046095780E-01   3.0264679861944510E-01
   3.0170956789688924E-01   3.0077523926833855E-01   2.9984380373644864E-01   2.9891525233138844E-01   2.9798957611074306E-01
   2.9706676615941680E-01   2.9614681358953782E-01   2.9522970954036148E-01   2.9431544517817354E-01   2.9340401169619296E-01
   2.9249540031447802E-01   2.9158960227982594E-01   2.9068660886567849E-01   2.8978641137202488E-01   2.8888900112530352E-01
   2.8799436947830698E-01   2.8710250781008217E-01   2.8621340752583507E-01   2.8532706005683262E-01   2.8444345686030437E-01
   2.8356258941934470E-01   2.8268444924281555E-01   2.8180902786524759E-01   2.8093631684674092E-01   2.8006630777286851E-01
   2.7919899225457451E-01   2.7833436192807665E-01   2.7747240845476723E-01   2.7661312352111150E-01   2.7575649883854897E-01
   2.7490252614339294E-01   2.7405119719672905E-01   2.7320250378431449E-01   2.7235643771647777E-01   2.7151299082801428E-01
   2.7067215497808778E-01   2.6983392205012402E-01   2.6899828395171010E-01   2.6816523261449093E-01   2.6733475999406409E-01
   2.6650685806987640E-01   2.6568151884511948E-01   2.6485873434662316E-01   2.6403849662474971E-01   2.6322079775328955E-01
   2.6240562982935095E-01   2.6159298497325451E-01   2.6078285532842499E-01   2.5997523306128117E-01   2.5917011036112741E-01
   2.5836747944004373E-01   2.5756733253277386E-01   2.5676966189661377E-01   2.5597445981130118E-01   2.5518171857889982E-01
   2.5439143052368712E-01   2.5360358799203964E-01   2.5281818335231626E-01   2.5203520899474335E-01   2.5125465733129632E-01
   2.5047652079558186E-01   2.4970079184271893E-01   2.4892746294921775E-01   2.4815652661285975E-01   2.4738797535257526E-01
   2.4662180170831932E-01   2.4585799824094792E-01   2.4509655753209331E-01   2.4433747218403579E-01   2.4358073481957712E-01
   2.4282633808191131E-01   2.4207427463449374E-01   2.4132453716091007E-01   2.4057711836474374E-01   2.3983201096944073E-01
   2.3908920771817427E-01   2.3834870137370864E-01   2.3761048471825891E-01   2.3687455055335255E-01   2.3614089169968683E-01
   2.3540950099698529E-01   2.3468037130385475E-01   2.3395349549763633E-01   2.3322886647425872E-01   2.3250647714808825E-01
   2.3178632045177638E-01   2.3106838933610624E-01   2.3035267676983781E-01   2.2963917573954967E-01   2.2892787924947919E-01
   2.2821878032136289E-01   2.2751187199427061E-01   2.2680714732444099E-01   2.2610459938511365E-01   2.2540422126635862E-01
   2.2470600607490374E-01   2.2400994693396062E-01   2.2331603698304661E-01   2.2262426937780619E-01   2.2193463728982760E-01
   2.2124713390645845E-01   2.2056175243061918E-01   2.1987848608061178E-01   2.1919732808992773E-01   2.1851827170705224E-01
   2.1784131019526509E-01   2.1716643683243975E-01   2.1649364491083917E-01   2.1582292773690717E-01   2.1515427863105804E-01
   2.1448769092746317E-01   2.1382315797383281E-01   2.1316067313119594E-01   2.1250022977367636E-01   2.1184182128826418E-01
   2.1118544107458515E-01   2.1053108254466640E-01   2.0987873912269628E-01   2.0922840424478298E-01   2.0858007135870754E-01
   2.0793373392367351E-01   2.0728938541005262E-01   2.0664701929912593E-01   2.0600662908282011E-01   2.0536820826344201E-01
   2.0473175035340438E-01   2.0409724887495118E-01   2.0346469735987638E-01   2.0283408934923772E-01   2.0220541839306611E-01
   2.0157867805007099E-01   2.0095386188733891E-01   2.0033096348002774E-01   1.9970997641105739E-01   1.9909089427079105E-01
   1.9847371065671518E-01   1.9785841917311206E-01   1.9724501343072587E-01   1.9663348704642516E-01   1.9602383364285689E-01
   1.9541604684809652E-01   1.9481012029529127E-01   1.9420604762229632E-01   1.9360382247130531E-01   1.9300343848847495E-01
   1.9240488932354172E-01   1.9180816862943220E-01   1.9121327006186767E-01   1.9062018727895924E-01   1.9002891394079824E-01
   1.8943944370903831E-01   1.8885177024646907E-01   1.8826588721658397E-01   1.8768178828313972E-01   1.8709946710970682E-01
   1.8651891735921328E-01   1.8594013269348031E-01   1.8536310677274806E-01   1.8478783325519513E-01   1.8421430579644751E-01
   1.8364251804907919E-01   1.8307246366210561E-01   1.8250413628046430E-01   1.8193752954448986E-01   1.8137263708937765E-01
   1.8080945254463801E-01   1.8024796953354069E-01   1.7968818167255018E-01   1.7913008257074944E-01   1.7857366582925391E-01
   1.7801892504061648E-01   1.7746585378821872E-01   1.7691444564565365E-01   1.7636469417609704E-01   1.7581659293166668E-01
   1.7527013545277059E-01   1.7472531526744423E-01   1.7418212589067480E-01   1.7364056082371379E-01   1.7310061355337872E-01
   1.7256227755133974E-01   1.7202554627339608E-01   1.7149041315873825E-01   1.7095687162919787E-01   1.7042491508848423E-01
   1.6989453692140644E-01   1.6936573049308309E-01   1.6883848914813812E-01   1.6831280620988096E-01   1.6778867497947397E-01
   1.6726608873508506E-01   1.6674504073102450E-01   1.6622552419686831E-01   1.6570753233656554E-01   1.6519105832752964E-01
   1.6467609531971558E-01   1.6416263643468015E-01   1.6365067476462605E-01   1.6314020337143001E-01   1.6263121528565486E-01
   1.6212370350554331E-01   1.6161766099599684E-01   1.6111308068753535E-01   1.6060995547524029E-01   1.6010827821768128E-01
   1.5960804173582163E-01   1.5910923881190925E-01   1.5861186218834736E-01   1.5811590456654667E-01   1.5762135860575899E-01
   1.5712821692189249E-01   1.5663647208630685E-01   1.5614611662458869E-01   1.5565714301530945E-01   1.5516954368875990E-01
   1.5468331102566832E-01   1.5419843735589572E-01   1.5371491495711201E-01   1.5323273605345050E-01   1.5275189281414303E-01
   1.5227237735213209E-01   1.5179418172266390E-01   1.5131729792185808E-01   1.5084171788525691E-01   1.5036743348635331E-01
   1.4989443653509524E-01   1.4942271877637012E-01   1.4895227188846580E-01   1.4848308748150937E-01   1.4801515709588431E-01
   1.4754847220062461E-01   1.4708302419178604E-01   1.4661880439079542E-01   1.4615580404277678E-01   1.4569401431485471E-01
   1.4523342629443495E-01   1.4477403098746228E-01   1.4431581931665508E-01   1.4385878211971723E-01   1.4340291014752796E-01
   1.4294819406230702E-01   1.4249462443575908E-01   1.4204219174719407E-01   1.4159088638162545E-01   1.4114069862784662E-01
   1.4069161867648375E-01   1.4024363661802722E-01   1.3979674244084161E-01   1.3935092602915281E-01   1.3890617716101444E-01
   1.3846248550625354E-01   1.3801984062439401E-01   1.3757823196256053E-01   1.3713764885336310E-01   1.3669808051275989E-01
   1.3625951603790254E-01   1.3582194440496248E-01   1.3538535446693836E-01   1.3494973495144635E-01   1.3451507445849417E-01
   1.3408136145823718E-01   1.3364858428872092E-01   1.3321673115360694E-01   1.3278579011988662E-01   1.3235574911558071E-01
   1.3192659592742670E-01   1.3149831819855626E-01   1.3107090342616226E-01   1.3064433895915559E-01   1.3021861199581661E-01
   1.2979370958143910E-01   1.2936961860596868E-01   1.2894632580163937E-01   1.2852381774060648E-01   1.2810208083257987E-01
   1.2768110132245861E-01   1.2726086528796890E-01   1.2684135863730542E-01   1.2642256710678157E-01   1.2600447625848787E-01
   1.2558707147796058E-01   1.2517033797186569E-01   1.2475426076569673E-01   1.2433882470149171E-01   1.2392401443557213E-01
   1.2350981443630306E-01   1.2309620898188181E-01   1.2268318215815585E-01   1.2227071785647242E-01   1.2185879977156469E-01
   1.2144741139947773E-01   1.2103653603553614E-01   1.2062615677235880E-01   1.2021625649792504E-01   1.1980681789369321E-01
   1.1939782343277931E-01   1.1898925537819857E-01   1.1858109578117368E-01   1.1817332647951555E-01   1.1776592909608170E-01
   1.1735888503731537E-01   1.1695217549187378E-01   1.1654578142934671E-01   1.1613968359907585E-01   1.1573386252907708E-01
   1.1532829852507273E-01   1.1492297166964127E-01   1.1451786182148928E-01   1.1411294861485270E-01   1.1370821145903520E-01
   1.1330362953809031E-01   1.1289918181065278E-01   1.1249484700993037E-01   1.1209060364386048E-01   1.1168642999544201E-01
   1.1128230412324791E-01   1.1087820386213182E-01   1.1047410682412988E-01   1.1006999039957531E-01   1.0966583175842853E-01
   1.0926160785183379E-01   1.0885729541391502E-01   1.0845287096381603E-01   1.0804831080799777E-01   1.0764359104280487E-01
   1.0723868755730562E-01   1.0683357603642467E-01   1.0642823196437243E-01   1.0602263062838489E-01   1.0561674712278751E-01
   1.0521055635339024E-01   1.0480403304222838E-01   1.0439715173266190E-01   1.0398988679484207E-01   1.0358221243156103E-01
