DATE: 2025-03-25 UNITS: metal CONTRIBUTOR: Ting Lei, leiting@imech.ac.cn
 Reference: Wu Y, Yu W, Shen S, Materials & Design, 2023, 230: 111999.
 Reference: X. W. Zhou, R. A. Johnson, H. N. G. Wadley, Phys. Rev. B, 69, 144113(2004)
5     Hf Nb Ta Ti Zr          
2000  6.1786529335121410e+00   2000  2.5746265234263331e-03   5.1466784203292395e+00  
   72       178.49000         3.50647      bcc
   0.0000000000000000E+00  -1.7695741206054552E+00  -2.9686814471358360E+00  -3.7152950580235817E+00  -4.1273870317011312E+00
  -4.3229294466009263E+00  -4.4061613017301147E+00  -4.3954974322480211E+00  -4.3049389716766777E+00  -4.2031127233599070E+00
  -4.0979488527079546E+00  -3.9905980232739569E+00  -3.8818551856505210E+00  -3.7722830026298313E+00  -3.6622873446495041E+00
  -3.5521653165916298E+00  -3.4421368287830050E+00  -3.3323659354431459E+00  -3.2229756048970017E+00  -3.1140581564740146E+00
  -3.0056827694309449E+00  -2.8979009714900488E+00  -2.7907507070980579E+00  -2.6842593905922034E+00  -2.5784462230219347E+00
  -2.4733239676491063E+00  -2.3689003226650986E+00  -2.2651789909088329E+00  -2.1621605193678914E+00  -2.0598429621658201E+00
  -1.9582224070825966E+00  -1.8572933957642039E+00  -1.7570492605341361E+00  -1.6574823953616939E+00  -1.5585844745408244E+00
  -1.4603466296192493E+00  -1.3627595928284402E+00  -1.2658138135131316E+00  -1.1694995527087728E+00  -1.0738069599674960E+00
  -9.7872613571506684E-01  -8.8424718177868866E-01  -7.9036024221796286E-01  -6.9705553618842908E-01  -6.0432338424553333E-01
  -5.1215422923927034E-01  -4.2053865274224722E-01  -3.2946738778619888E-01  -2.3893132854596622E-01  -1.4892153749901652E-01
  -5.9429250498050083E-02   2.9554119880074947E-02   1.1803698240696946E-01   2.0602756644518233E-01   2.9353392215042950E-01
   3.8056392145817269E-01   4.6712525970776680E-01   5.5322545778142529E-01   6.3887186465516921E-01   7.2407166027568981E-01
   8.0883185869101193E-01   8.9315931137466265E-01   9.7706071069285361E-01   1.0605425934725599E+00   1.1436113446353440E+00
   1.2262732008677140E+00   1.3085342543037346E+00   1.3904004561998937E+00   1.4718776205857347E+00   1.5529714278767688E+00
   1.6336874284387695E+00   1.7140310460946364E+00   1.7940075815668934E+00   1.8736222158503879E+00   1.9528800135110080E+00
   2.0317859259074180E+00   2.1103447943336540E+00   2.1885613530811847E+00   2.2664402324197530E+00   2.3439859614967751E+00
   2.4212029711555325E+00   2.4980955966728287E+00   2.5746680804169544E+00   2.6509245744271968E+00   2.7268691429161831E+00
   2.8025057646966212E+00   2.8778383355340660E+00   2.9528706704274095E+00   3.0276065058189343E+00   3.1020495017357583E+00
   3.1762032438645380E+00   3.2500712455613101E+00   3.3236569497984241E+00   3.3969637310503624E+00   3.4699948971203725E+00
   3.5427536909097683E+00   3.6152432921316668E+00   3.6874668189709889E+00   3.7594273296924361E+00   3.8311278241982025E+00
   3.9025712455370005E+00   3.9737604813661309E+00   4.0446983653680793E+00   4.1153876786232173E+00   4.1858311509400927E+00
   4.2560314621447555E+00   4.3259912433304502E+00   4.3957130780691660E+00   4.4651995035861560E+00   4.5344530118989033E+00
   4.6034760509215573E+00   4.6722710255361468E+00   4.7408402986316744E+00   4.8091861921121577E+00   4.8773109878747016E+00
   4.9452169287586463E+00   5.0129062194667249E+00   5.0803810274592074E+00   5.1476434838219616E+00   5.2146956841092722E+00
   5.2815396891623152E+00   5.3481775259040525E+00   5.4146111881114036E+00   5.4808426371653693E+00   5.5468738027799400E+00
   5.6127065837103975E+00   5.6783428484417620E+00   5.7437844358579975E+00   5.8090331558926351E+00   5.8740907901613957E+00
   5.9389590925774201E+00   6.0036397899496592E+00   6.0681345825649862E+00   6.1324451447545059E+00   6.1965731254446546E+00
   6.2605201486934785E+00   6.3242878142126484E+00   6.3878776978755747E+00   6.4512913522121700E+00   6.5145303068905687E+00
   6.5775960691862725E+00   6.6404901244391272E+00   6.7032139364984360E+00   6.7657689481566816E+00   6.8281565815720722E+00
   6.8903782386804000E+00   6.9524353015964158E+00   7.0143291330051225E+00   7.0760610765432013E+00   7.1376324571710139E+00
   7.1990445815352695E+00   7.2602987383228070E+00   7.3213961986056324E+00   7.3823382161775832E+00   7.4431260278827285E+00
   7.5037608539358889E+00   7.5642438982353903E+00   7.6245763486683362E+00   7.6847593774086294E+00   7.7447941412078789E+00
   7.8046817816794576E+00   7.8644234255759136E+00   7.9240201850598551E+00   7.9834731579685485E+00   8.0427834280724095E+00
   8.1019520653275308E+00   8.1609801261224071E+00   8.2198686535190326E+00   8.2786186774885770E+00   8.3372312151416406E+00
   8.3957072709534515E+00   8.4540478369839001E+00   8.5122538930927831E+00   8.5703264071501994E+00   8.6282663352423548E+00
   8.6860746218728195E+00   8.7437522001593972E+00   8.8012999920267223E+00   8.8587189083946694E+00   8.9160098493627071E+00
   8.9731737043903408E+00   9.0302113524736285E+00   9.0871236623179996E+00   9.1439114925073977E+00   9.2005756916698864E+00
   9.2571170986397675E+00   9.3135365426162799E+00   9.3698348433190830E+00   9.4260128111404669E+00   9.4820712472944404E+00
   9.5380109439627603E+00   9.5938326844380235E+00   9.6495372432637865E+00   9.7051253863719005E+00   9.7605978712170671E+00
   9.8159554469087098E+00   9.8711988543401752E+00   9.9263288263154088E+00   9.9813460876731366E+00   1.0036251355408542E+01
   1.0091045338792595E+01   1.0145728739489066E+01   1.0200302251669246E+01   1.0254766562124429E+01   1.0309122350376244E+01
   1.0363370288784902E+01   1.0417511042655310E+01   1.0471545270341206E+01   1.0525473623347304E+01   1.0579296746429559E+01
   1.0633015277693449E+01   1.0686629848690510E+01   1.0740141084513033E+01   1.0793549603887019E+01   1.0846856019263379E+01
   1.0900060936907490E+01   1.0953164956987125E+01   1.1006168673658713E+01   1.1059072675152095E+01   1.1111877543853709E+01
   1.1164583856388282E+01   1.1217192183699055E+01   1.1269703091126596E+01   1.1322117138486131E+01   1.1374434880143632E+01
   1.1426656865090402E+01   1.1478783637016504E+01   1.1530815734382747E+01   1.1582753690491563E+01   1.1634598033556527E+01
   1.1686349286770749E+01   1.1738007968374051E+01   1.1789574591718981E+01   1.1841049665335733E+01   1.1892433692995912E+01
   1.1943727173775248E+01   1.1994930602115238E+01   1.2046044467883718E+01   1.2097069256434477E+01   1.2148005448665812E+01
   1.2198853521078137E+01   1.2249613945830642E+01   1.2300287190796960E+01   1.2350873719619981E+01   1.2401373991765741E+01
   1.2451788462576397E+01   1.2502117583322383E+01   1.2552361801253687E+01   1.2602521559650306E+01   1.2652597297871894E+01
   1.2702589451406586E+01   1.2752498451919074E+01   1.2802324727297892E+01   1.2852068701701945E+01   1.2901730795606323E+01
   1.2951311425847356E+01   1.3000811005666987E+01   1.3050229944756442E+01   1.3099568649299231E+01   1.3148827522013411E+01
   1.3198006962193308E+01   1.3247107365750505E+01   1.3296129125254184E+01   1.3345072629970941E+01   1.3393938265903911E+01
   1.3442726415831324E+01   1.3491437459344450E+01   1.3540071772885051E+01   1.3588629729782129E+01   1.3637111700288228E+01
   1.3685518051615201E+01   1.3733849147969320E+01   1.3782105350586029E+01   1.3830287017764025E+01   1.3878394504898949E+01
   1.3926428164516524E+01   1.3974388346305206E+01   1.4022275397148366E+01   1.4070089661156043E+01   1.4117831479696145E+01
   1.4165501191425253E+01   1.4213099132319014E+01   1.4260625635701999E+01   1.4308081032277235E+01   1.4355465650155230E+01
   1.4402779814882651E+01   1.4450023849470526E+01   1.4497198074422107E+01   1.4544302807760314E+01   1.4591338365054780E+01
   1.4638305059448532E+01   1.4685203201684306E+01   1.4732033100130439E+01   1.4778795060806507E+01   1.4825489387408494E+01
   1.4872116381333671E+01   1.4918676341705151E+01   1.4965169565396028E+01   1.5011596347053308E+01   1.5057956979121355E+01
   1.5104251751865167E+01   1.5150480953393240E+01   1.5196644869680155E+01   1.5242743784588908E+01   1.5288777979892789E+01
   1.5334747735297180E+01   1.5380653328460870E+01   1.5426495035017219E+01   1.5472273128594935E+01   1.5517987880838684E+01
   1.5563639561429332E+01   1.5609228438103980E+01   1.5654754776675695E+01   1.5700218841053049E+01   1.5745620893259280E+01
   1.5790961193451349E+01   1.5836239999938678E+01   1.5881457569201588E+01   1.5926614155909620E+01   1.5971710012939543E+01
   1.6016745391393130E+01   1.6061720540614736E+01   1.6106635708208657E+01   1.6151491140056219E+01   1.6196287080332716E+01
   1.6241023771524052E+01   1.6285701454443263E+01   1.6330320368246781E+01   1.6374880750450501E+01   1.6419382836945619E+01
   1.6463826862014361E+01   1.6508213058345380E+01   1.6552541657049119E+01   1.6596812887672833E+01   1.6641026978215567E+01
   1.6685184155142792E+01   1.6729284643401041E+01   1.6773328666432221E+01   1.6817316446187775E+01   1.6861248203142807E+01
   1.6905124156309796E+01   1.6948944523252379E+01   1.6992709520098817E+01   1.7036419361555357E+01   1.7080074260919410E+01
   1.7123674430092642E+01   1.7167220079593768E+01   1.7210711418571343E+01   1.7254148654816319E+01   1.7297531994774445E+01
   1.7340861643558590E+01   1.7384137804960840E+01   1.7427360681464513E+01   1.7470530474255998E+01   1.7513647383236481E+01
   1.7556711607033503E+01   1.7599723343012418E+01   1.7642682787287693E+01   1.7685590134734095E+01   1.7728445578997743E+01
   1.7771249312507006E+01   1.7814001526483334E+01   1.7856702410951922E+01   1.7899352154752240E+01   1.7941950945548502E+01
   1.7984498969839947E+01   1.8026996412971069E+01   1.8069443459141656E+01   1.8111840291416804E+01   1.8154187091736748E+01
   1.8196484040926588E+01   1.8238731318705995E+01   1.8280929103698661E+01   1.8323077573441775E+01   1.8365176904395327E+01
   1.8407227271951303E+01   1.8449228850442825E+01   1.8491181813153183E+01   1.8533086332324707E+01   1.8574942579167583E+01
   1.8616750723868645E+01   1.8658510935599892E+01   1.8700223382527113E+01   1.8741888231818294E+01   1.8783505649651936E+01
   1.8825075801225370E+01   1.8866598850762873E+01   1.8908074961523802E+01   1.8949504295810531E+01   1.8990887014976401E+01
   1.9032223279433545E+01   1.9073513248660600E+01   1.9114757081210403E+01   1.9155954934717524E+01   1.9197106965905828E+01
   1.9238213330595837E+01   1.9279274183712104E+01   1.9320289679290457E+01   1.9361259970485204E+01   1.9402185209576217E+01
   1.9443065547976040E+01   1.9483901136236778E+01   1.9524692124057037E+01   1.9565438660288716E+01   1.9606140892943781E+01
   1.9646798969200972E+01   1.9687413035412344E+01   1.9727983237109886E+01   1.9768509719011984E+01   1.9808992625029781E+01
   1.9849432098273610E+01   1.9889828281059231E+01   1.9930181314914034E+01   1.9970491340583234E+01   2.0010758498035962E+01
   2.0050982926471278E+01   2.0091164764324148E+01   2.0131304149271401E+01   2.0171401218237477E+01   2.0211456107400391E+01
   2.0251468952197307E+01   2.0291439887330299E+01   2.0331369046771986E+01   2.0371256563771084E+01   2.0411102570857899E+01
   2.0450907199849834E+01   2.0490670581856744E+01   2.0530392847286347E+01   2.0570074125849480E+01   2.0609714546565360E+01
   2.0649314237766838E+01   2.0688873327105426E+01   2.0728391941556534E+01   2.0767870207424437E+01   2.0807308250347276E+01
   2.0846706195302069E+01   2.0886064166609554E+01   2.0925382287939087E+01   2.0964660682313433E+01   2.1003899472113531E+01
   2.1043098779083252E+01   2.1082258724334011E+01   2.1121379428349485E+01   2.1160461010990090E+01   2.1199503591497631E+01
   2.1238507288499775E+01   2.1277472220014438E+01   2.1316398503454312E+01   2.1355286255631182E+01   2.1394135592760254E+01
   2.1432946630464482E+01   2.1471719483778827E+01   2.1510454267154412E+01   2.1549151094462786E+01   2.1587810078999997E+01
   2.1626431333490718E+01   2.1665014970092333E+01   2.1703561100398890E+01   2.1742069835445168E+01   2.1780541285710594E+01
   2.1818975561123160E+01   2.1857372771063307E+01   2.1895733024367772E+01   2.1934056429333381E+01   2.1972343093720863E+01
   2.2010593124758561E+01   2.2048806629146124E+01   2.2086983713058249E+01   2.2125124482148244E+01   2.2163229041551688E+01
   2.2201297495890000E+01   2.2239329949273959E+01   2.2277326505307258E+01   2.2315287267089932E+01   2.2353212337221880E+01
   2.2391101817806213E+01   2.2428955810452710E+01   2.2466774416281122E+01   2.2504557735924546E+01   2.2542305869532719E+01
   2.2580018916775249E+01   2.2617696976844929E+01   2.2655340148460915E+01   2.2692948529871884E+01   2.2730522218859267E+01
   2.2768061312740318E+01   2.2805565908371282E+01   2.2843036102150375E+01   2.2880471990020972E+01   2.2917873667474506E+01
   2.2955241229553547E+01   2.2992574770854752E+01   2.3029874385531809E+01   2.3067140167298380E+01   2.3104372209430977E+01
   2.3141570604771861E+01   2.3178735445731849E+01   2.3215866824293212E+01   2.3252964832012420E+01   2.3290029560022909E+01
   2.3327061099037898E+01   2.3364059539353072E+01   2.3401024970849299E+01   2.3437957482995341E+01   2.3474857164850480E+01
   2.3511724105067199E+01   2.3548558391893753E+01   2.3585360113176829E+01   2.3622129356364056E+01   2.3658866208506634E+01
   2.3695570756261780E+01   2.3732243085895320E+01   2.3768883283284151E+01   2.3805491433918700E+01   2.3842067622905365E+01
   2.3878611934969019E+01   2.3915124454455338E+01   2.3951605265333228E+01   2.3988054451197215E+01   2.4024472095269736E+01
   2.4060858280403561E+01   2.4097213089084054E+01   2.4133536603431462E+01   2.4169828905203222E+01   2.4206090075796197E+01
   2.4242320196248951E+01   2.4278519347243936E+01   2.4314687609109704E+01   2.4350825061823123E+01   2.4386931785011491E+01
   2.4423007857954790E+01   2.4459053359587699E+01   2.4495068368501801E+01   2.4531052962947655E+01   2.4567007220836860E+01
   2.4602931219744193E+01   2.4638825036909559E+01   2.4674688749240154E+01   2.4710522433312367E+01   2.4746326165373858E+01
   2.4782100021345514E+01   2.4817844076823437E+01   2.4853558407080911E+01   2.4889243087070337E+01   2.4924898191425129E+01
   2.4960523794461679E+01   2.4996119970181230E+01   2.5031686792271771E+01   2.5067224334109884E+01   2.5102732668762609E+01
   2.5138211868989316E+01   2.5173662007243461E+01   2.5209083155674470E+01   2.5244475386129505E+01   2.5279838770155248E+01
   2.5315173378999681E+01   2.5350479283613812E+01   2.5385756554653501E+01   2.5421005262481085E+01   2.5456225477167184E+01
   2.5491417268492349E+01   2.5526580705948760E+01   2.5561715858741959E+01   2.5596822795792445E+01   2.5631901585737396E+01
   2.5666952296932237E+01   2.5701974997452336E+01   2.5736969755094588E+01   2.5771936637379028E+01   2.5806875711550415E+01
   2.5841787044579831E+01   2.5876670703166251E+01   2.5911526753738080E+01   2.5946355262454695E+01   2.5981156295208034E+01
   2.6015929917624060E+01   2.6050676195064320E+01   2.6085395192627391E+01   2.6120086975150432E+01   2.6154751607210617E+01
   2.6189389153126641E+01   2.6223999676960169E+01   2.6258583242517222E+01   2.6293139913349727E+01   2.6327669752756840E+01
   2.6362172823786459E+01   2.6396649189236520E+01   2.6431098911656484E+01   2.6465522053348678E+01   2.6499918676369681E+01
   2.6534288842531719E+01   2.6568632613403953E+01   2.6602950050313890E+01   2.6637241214348681E+01   2.6671506166356497E+01
   2.6705744966947769E+01   2.6739957676496566E+01   2.6774144355141875E+01   2.6808305062788886E+01   2.6842439859110236E+01
   2.6876548803547365E+01   2.6910631955311715E+01   2.6944689373385984E+01   2.6978721116525406E+01   2.7012727243258958E+01
   2.7046707811890606E+01   2.7080662880500526E+01   2.7114592506946249E+01   2.7148496748864023E+01   2.7182375663669802E+01
   2.7216229308560589E+01   2.7250057740515533E+01   2.7283861016297134E+01   2.7317639192452400E+01   2.7351392325313967E+01
   2.7385120471001269E+01   2.7418823685421710E+01   2.7452502024271723E+01   2.7486155543037945E+01   2.7519784296998299E+01
   2.7553388341223133E+01   2.7586967730576262E+01   2.7620522519716140E+01   2.7654052763096889E+01   2.7687558514969357E+01
   2.7721039829382249E+01   2.7754496760183123E+01   2.7787929361019547E+01   2.7821337685339977E+01   2.7854721786394965E+01
   2.7888081717238105E+01   2.7921417530727087E+01   2.7954729279524695E+01   2.7988017016099842E+01   2.8021280792728568E+01
   2.8054520661495015E+01   2.8087736674292472E+01   2.8120928882824327E+01   2.8154097338605023E+01   2.8187242092961096E+01
   2.8220363197032054E+01   2.8253460701771431E+01   2.8286534657947662E+01   2.8319585116145106E+01   2.8352612126764889E+01
   2.8385615740025912E+01   2.8418596005965799E+01   2.8451552974441750E+01   2.8484486695131448E+01   2.8517397217534096E+01
   2.8550284590971174E+01   2.8583148864587404E+01   2.8615990087351665E+01   2.8648808308057827E+01   2.8681603575325681E+01
   2.8714375937601766E+01   2.8747125443160272E+01   2.8779852140103895E+01   2.8812556076364700E+01   2.8845237299704973E+01
   2.8877895857718052E+01   2.8910531797829201E+01   2.8943145167296379E+01   2.8975736013211197E+01   2.9008304382499603E+01
   2.9040850321922772E+01   2.9073373878077952E+01   2.9105875097399203E+01   2.9138354026158254E+01   2.9170810710465254E+01
   2.9203245196269634E+01   2.9235657529360861E+01   2.9268047755369178E+01   2.9300415919766468E+01   2.9332762067866962E+01
   2.9365086244828074E+01   2.9397388495651064E+01   2.9429668865181903E+01   2.9461927398111996E+01   2.9494164138978885E+01
   2.9526379132167065E+01   2.9558572421908664E+01   2.9590744052284244E+01   2.9622894067223449E+01   2.9655022510505855E+01
   2.9687129425761523E+01   2.9719214856471893E+01   2.9751278845970379E+01   2.9783321437443128E+01   2.9815342673929724E+01
   2.9847342598323873E+01   2.9879321253374084E+01   2.9911278681684422E+01   2.9943214925715122E+01   2.9975130027783347E+01
   3.0007024030063810E+01   3.0038896974589438E+01   3.0070748903252124E+01   3.0102579857803313E+01   3.0134389879854709E+01
   3.0166179010878924E+01   3.0197947292210092E+01   3.0229694765044623E+01   3.0261421470441714E+01   3.0293127449324135E+01
   3.0324812742478716E+01   3.0356477390557131E+01   3.0388121434076439E+01   3.0419744913419716E+01   3.0451347868836731E+01
   3.0482930340444497E+01   3.0514492368227945E+01   3.0546033992040496E+01   3.0577555251604711E+01   3.0609056186512881E+01
   3.0640536836227572E+01   3.0671997240082305E+01   3.0703437437282158E+01   3.0734857466904245E+01   3.0766257367898415E+01
   3.0797637179087818E+01   3.0828996939169429E+01   3.0860336686714678E+01   3.0891656460169987E+01   3.0922956297857418E+01
   3.0954236237975106E+01   3.0985496318597988E+01   3.1016736577678198E+01   3.1047957053045728E+01   3.1079157782408977E+01
   3.1110338803355276E+01   3.1141500153351402E+01   3.1172641869744215E+01   3.1203763989761104E+01   3.1234866550510574E+01
   3.1265949588982807E+01   3.1297013142050115E+01   3.1328057246467534E+01   3.1359081938873306E+01   3.1390087255789481E+01
   3.1421073233622309E+01   3.1452039908662872E+01   3.1482987317087542E+01   3.1513915494958489E+01   3.1544824478224253E+01
   3.1575714302720112E+01   3.1606585004168750E+01   3.1637436618180629E+01   3.1668269180254565E+01   3.1699082725778155E+01
   3.1729877290028309E+01   3.1760652908171757E+01   3.1791409615265469E+01   3.1822147446257205E+01   3.1852866435985945E+01
   3.1883566619182393E+01   3.1914248030469448E+01   3.1944910704362655E+01   3.1975554675270683E+01   3.2006179977495854E+01
   3.2036786645234464E+01   3.2067374712577397E+01   3.2097944213510488E+01   3.2128495181915007E+01   3.2159027651568131E+01
   3.2189541656143319E+01   3.2220037229210909E+01   3.2250514404238373E+01   3.2280973214590901E+01   3.2311413693531847E+01
   3.2341835874223030E+01   3.2372239789725313E+01   3.2402625472998963E+01   3.2432992956904123E+01   3.2463342274201182E+01
   3.2493673457551274E+01   3.2523986539516635E+01   3.2554281552561086E+01   3.2584558529050376E+01   3.2614817501252709E+01
   3.2645058501339001E+01   3.2675281561383507E+01   3.2705486713363989E+01   3.2735673989162336E+01   3.2765843420564799E+01
   3.2795995039262536E+01   3.2826128876851911E+01   3.2856244964834978E+01   3.2886343334619745E+01   3.2916424017520761E+01
   3.2946487044759330E+01   3.2976532447463995E+01   3.3006560256670909E+01   3.3036570503324235E+01   3.3066563218276464E+01
   3.3096538432288895E+01   3.3126496176031935E+01   3.3156436480085546E+01   3.3186359374939528E+01   3.3216264890993990E+01
   3.3246153058559671E+01   3.3276023907858317E+01   3.3305877469023038E+01   3.3335713772098707E+01   3.3365532847042275E+01
   3.3395334723723202E+01   3.3425119431923754E+01   3.3454887001339380E+01   3.3484637461579077E+01   3.3514370842165746E+01
   3.3544087172536543E+01   3.3573786482043189E+01   3.3603468799952424E+01   3.3633134155446221E+01   3.3662782577622217E+01
   3.3692414095494037E+01   3.3722028737991664E+01   3.3751626533961662E+01   3.3781207512167704E+01   3.3810771701290747E+01
   3.3840319129929426E+01   3.3869849826600401E+01   3.3899363819738660E+01   3.3928861137697872E+01   3.3958341808750681E+01
   3.3987805861089086E+01   3.4017253322824693E+01   3.4046684221989132E+01   3.4076098586534258E+01   3.4105496444332594E+01
   3.4134877823177554E+01   3.4164242750783799E+01   3.4193591254787556E+01   3.4222923362746933E+01   3.4252239102142191E+01
   3.4281538500376101E+01   3.4310821584774210E+01   3.4340088382585201E+01   3.4369338920981157E+01   3.4398573227057852E+01
   3.4427791327835081E+01   3.4456993250256986E+01   3.4486179021192285E+01   3.4515348667434594E+01   3.4544502215702799E+01
   3.4573639692641187E+01   3.4602761124819935E+01   3.4631866538735238E+01   3.4660955960809687E+01   3.4690029417392545E+01
   3.4719086934759972E+01   3.4748128539115420E+01   3.4777154256589832E+01   3.4806164113241927E+01   3.4835158135058535E+01
   3.4864136347954826E+01   3.4893098777774632E+01   3.4922045450290639E+01   3.4950976391204819E+01   3.4979891626148508E+01
   3.5008791180682827E+01   3.5037675080298889E+01   3.5066543350418101E+01   3.5095396016392385E+01   3.5124233103504508E+01
   3.5153054636968299E+01   3.5181860641928907E+01   3.5210651143463132E+01   3.5239426166579605E+01   3.5268185736219095E+01
   3.5296929877254755E+01   3.5325658614492411E+01   3.5354371972670769E+01   3.5383069976461670E+01   3.5411752650470376E+01
   3.5440420019235887E+01   3.5469072107231021E+01   3.5497708938862807E+01   3.5526330538472685E+01   3.5554936930336773E+01
   3.5583528138666082E+01   3.5612104187606775E+01   3.5640665101240458E+01   3.5669210903584336E+01   3.5697741618591536E+01
   3.5726257270151258E+01   3.5754757882089173E+01   3.5783243478167449E+01   3.5811714082085160E+01   3.5840169717478439E+01
   3.5868610407920755E+01   3.5897036176923095E+01   3.5925447047934256E+01   3.5953843044341042E+01   3.5982224189468496E+01
   3.6010590506580151E+01   3.6038942018878210E+01   3.6067278749503878E+01   3.6095600721537416E+01   3.6123907957998540E+01
   3.6152200481846549E+01   3.6180478315980579E+01   3.6208741483239834E+01   3.6236990006403722E+01   3.6265223908192240E+01
   3.6293443211266009E+01   3.6321647938226640E+01   3.6349838111616862E+01   3.6378013753920776E+01   3.6406174887564042E+01
   3.6434321534914112E+01   3.6462453718280486E+01   3.6490571459914811E+01   3.6518674782011203E+01   3.6546763706706408E+01
   3.6574838256079985E+01   3.6602898452154584E+01   3.6630944316896098E+01   3.6658975872213873E+01   3.6686993139960940E+01
   3.6714996141934201E+01   3.6742984899874621E+01   3.6770959435467461E+01   3.6798919770342430E+01   3.6826865926073950E+01
   3.6854797924181305E+01   3.6882715786128848E+01   3.6910619533326226E+01   3.6938509187128538E+01   3.6966384768836562E+01
   3.6994246299696911E+01   3.7022093800902283E+01   3.7049927293591630E+01   3.7077746798850285E+01   3.7105552337710265E+01
   3.7133343931150378E+01   3.7161121600096479E+01   3.7188885365421555E+01   3.7216635247946044E+01   3.7244371268437931E+01
   3.7272093447612960E+01   3.7299801806134781E+01   3.7327496364615236E+01   3.7355177143614441E+01   3.7382844163640982E+01
   3.7410497445152174E+01   3.7438137008554150E+01   3.7465762874202092E+01   3.7493375062400375E+01   3.7520973593402793E+01
   3.7548558487412699E+01   3.7576129764583172E+01   3.7603687445017293E+01   3.7631231548768099E+01   3.7658762095839052E+01
   3.7686279106183960E+01   3.7713782599707287E+01   3.7741272596264281E+01   3.7768749115661151E+01   3.7796212177655242E+01
   3.7823661801955190E+01   3.7851098008221115E+01   3.7878520816064785E+01   3.7905930245049746E+01   3.7933326314691534E+01
   3.7960709044457829E+01   3.7988078453768630E+01   3.8015434561996351E+01   3.8042777388466092E+01   3.8070106952455724E+01
   3.8097423273196078E+01   3.8124726369871127E+01   3.8152016261618080E+01   3.8179292967527637E+01   3.8206556506644056E+01
   3.8233806897965387E+01   3.8261044160443589E+01   3.8288268312984684E+01   3.8315479374448906E+01   3.8342677363650928E+01
   3.8369862299359909E+01   3.8397034200299771E+01   3.8424193085149220E+01   3.8451338972541990E+01   3.8478471881067001E+01
   3.8505591829268440E+01   3.8532698835645967E+01   3.8559792918654871E+01   3.8586874096706175E+01   3.8613942388166798E+01
   3.8640997811359782E+01   3.8668040384564314E+01   3.8695070126015942E+01   3.8722087053906748E+01   3.8749091186385407E+01
   3.8776082541557457E+01   3.8803061137485301E+01   3.8830026992188451E+01   3.8856980123643680E+01   3.8883920549785032E+01
   3.8910848288504184E+01   3.8937763357650361E+01   3.8964665775030618E+01   3.8991555558409971E+01   3.9018432725511452E+01
   3.9045297294016358E+01   3.9072149281564272E+01   3.9098988705753364E+01   3.9125815584140334E+01   3.9152629934240672E+01
   3.9179431773528790E+01   3.9206221119438126E+01   3.9232997989361280E+01   3.9259762400650139E+01   3.9286514370616096E+01
   3.9313253916530030E+01   3.9339981055622580E+01   3.9366695805084177E+01   3.9393398182065305E+01   3.9420088203676414E+01
   3.9446765886988331E+01   3.9473431249032174E+01   3.9500084306799508E+01   3.9526725077242617E+01   3.9553353577274436E+01
   3.9579969823768842E+01   3.9606573833560674E+01   3.9633165623445933E+01   3.9659745210181846E+01   3.9686312610487050E+01
   3.9712867841041700E+01   3.9739410918487508E+01   3.9765941859428047E+01   3.9792460680428675E+01   3.9818967398016817E+01
   3.9845462028682000E+01   3.9871944588875984E+01   3.9898415095012943E+01   3.9924873563469482E+01   3.9951320010584887E+01
   3.9977754452661109E+01   4.0004176905962993E+01   4.0030587386718317E+01   4.0056985911118005E+01   4.0083372495316127E+01
   4.0109747155430092E+01   4.0136109907540806E+01   4.0162460767692650E+01   4.0188799751893725E+01   4.0215126876115939E+01
   4.0241442156295072E+01   4.0267745608330948E+01   4.0294037248087484E+01   4.0320317091392887E+01   4.0346585154039737E+01
   4.0372841451785028E+01   4.0399086000350430E+01   4.0425318815422209E+01   4.0451539912651519E+01   4.0477749307654420E+01
   4.0503947016011992E+01   4.0530133053270468E+01   4.0556307434941317E+01   4.0582470176501360E+01   4.0608621293392957E+01
   4.0634760801023980E+01   4.0660888714767992E+01   4.0687005049964370E+01   4.0713109821918408E+01   4.0739203045901391E+01
   4.0765284737150708E+01   4.0791354910869934E+01   4.0817413582229086E+01   4.0843460766364508E+01   4.0869496478379105E+01
   4.0895520733342437E+01   4.0921533546290789E+01   4.0947534932227285E+01   4.0973524906122059E+01   4.0999503482912196E+01
   4.1025470677502021E+01   4.1051426504763079E+01   4.1077370979534273E+01   4.1103304116621956E+01   4.1129225930800068E+01
   4.1155136436810196E+01   4.1181035649361640E+01   4.1206923583131591E+01   4.1232800252765237E+01   4.1258665672875757E+01
   4.1284519858044533E+01   4.1310362822821126E+01   4.1336194581723483E+01   4.1362015149238047E+01   4.1387824539819704E+01
   4.1413622767892079E+01   4.1439409847847415E+01   4.1465185794046896E+01   4.1490950620820549E+01   4.1516704342467449E+01
   4.1542446973255771E+01   4.1568178527422937E+01   4.1593899019175595E+01   4.1619608462689833E+01   4.1645306872111220E+01
   4.1670994261554917E+01   4.1696670645105684E+01   4.1722336036818170E+01   4.1747990450716721E+01   4.1773633900795765E+01
   4.1799266401019672E+01   4.1824887965322972E+01   4.1850498607610419E+01   4.1876098341757050E+01   4.1901687181608281E+01
   4.1927265140980076E+01   4.1952832233658881E+01   4.1978388473401871E+01   4.2003933873936930E+01   4.2029468448962803E+01
   4.2054992212149131E+01   4.2080505177136551E+01   4.2106007357536846E+01   4.2131498766932943E+01   4.2156979418879040E+01
   4.2182449326900695E+01   4.2207908504494874E+01   4.2233356965130142E+01   4.2258794722246570E+01   4.2284221789255994E+01
   4.2309638179541992E+01   4.2335043906460001E+01   4.2360438983337417E+01   4.2385823423473646E+01   4.2411197240140233E+01
   4.2436560446580827E+01   4.2461913056011447E+01   4.2487255081620432E+01   4.2512586536568534E+01   4.2537907433989034E+01
   4.2563217786987813E+01   4.2588517608643421E+01   4.2613806912007199E+01   4.2639085710103281E+01   4.2664354015928730E+01
   4.2689611842453580E+01   4.2714859202621014E+01   4.2740096109347313E+01   4.2765322575521985E+01   4.2790538614007843E+01
   4.2815744237641177E+01   4.2840939459231585E+01   4.2866124291562336E+01   4.2891298747390280E+01   4.2916462839445941E+01
   4.2941616580433632E+01   4.2966759983031523E+01   4.2991893059891694E+01   4.3017015823640214E+01   4.3042128286877251E+01
   4.3067230462177108E+01   4.3092322362088346E+01   4.3117403999133735E+01   4.3142475385810492E+01   4.3167536534590305E+01
   4.3192587457919302E+01   4.3217628168218219E+01   4.3242658677882545E+01   4.3267678999282374E+01   4.3292689144762733E+01
   4.3317689126643444E+01   4.3342678957219299E+01   4.3367658648760191E+01   4.3392628213511031E+01   4.3417587663691890E+01
   4.3442537011498153E+01   4.3467476269100445E+01   4.3492405448644831E+01   4.3517324562252760E+01   4.3542233622021264E+01
   4.3567132640022933E+01   4.3592021628306028E+01   4.3616900598894489E+01   4.3641769563788166E+01   4.3666628534962626E+01
   4.3691477524369539E+01   4.3716316543936422E+01   4.3741145605566928E+01   4.3765964721140868E+01   4.3790773902514253E+01
   4.3815573161519310E+01   4.3840362509964649E+01   4.3865141959635302E+01   4.3889911522292749E+01   4.3914671209674971E+01
   4.3939421033496608E+01   4.3964161005448993E+01   4.3988891137200092E+01   4.4013611440394747E+01   4.4038321926654667E+01
   4.4063022607578432E+01   4.4087713494741678E+01   4.4112394599697083E+01   4.4137065933974405E+01   4.4161727509080649E+01
   4.4186379336500025E+01   4.4211021427694078E+01   4.4235653794101708E+01   4.4260276447139248E+01   4.4284889398200576E+01
   4.4309492658657128E+01   4.4334086239857889E+01   4.4358670153129594E+01   4.4383244409776744E+01   4.4407809021081597E+01
   4.4432363998304304E+01   4.4456909352682992E+01   4.4481445095433720E+01   4.4505971237750600E+01   4.4530487790805907E+01
   4.4554994765750074E+01   4.4579492173711728E+01   4.4603980025797860E+01   4.4628458333093718E+01   4.4652927106663093E+01
   4.4677386357548151E+01   4.4701836096769597E+01   4.4726276335326759E+01   4.4750707084197593E+01   4.4775128354338783E+01
   4.4799540156685744E+01   4.4823942502152768E+01   4.4848335401632930E+01   4.4872718865998358E+01   4.4897092906100120E+01
   4.4921457532768322E+01   4.4945812756812188E+01   4.4970158589020123E+01   4.4994495040159762E+01   4.5018822120978008E+01
   4.5043139842201050E+01   4.5067448214534558E+01   4.5091747248663594E+01   4.5116036955252724E+01   4.5140317344946070E+01
   4.5164588428367374E+01   4.5188850216120066E+01   4.5213102718787262E+01   4.5237345946931875E+01   4.5261579911096646E+01
   4.5285804621804182E+01   4.5310020089557042E+01   4.5334226324837807E+01   4.5358423338109091E+01   4.5382611139813555E+01
   4.5406789740374094E+01   4.5430959150193729E+01   4.5455119379655777E+01   4.5479270439123916E+01   4.5503412338942084E+01
   4.5527545089434753E+01   4.5551668700906781E+01   4.5575783183643551E+01   4.5599888547911036E+01   4.5623984803955871E+01
   4.5648071962005304E+01   4.5672150032267339E+01   4.5696219024930748E+01   4.5720278950165138E+01   4.5744329818120981E+01
   4.5768371638929743E+01   4.5792404422703790E+01   4.5816428179536537E+01   4.5840442919502522E+01   4.5864448652657359E+01
   4.5888445389037884E+01   4.5912433138662117E+01   4.5936411911529405E+01   4.5960381717620436E+01   4.5984342566897183E+01
   4.6008294469303145E+01   4.6032237434763267E+01   4.6056171473183959E+01   4.6080096594453295E+01   4.6104012808440920E+01
   4.6127920124998148E+01   4.6151818553958023E+01   4.6175708105135314E+01   4.6199588788326651E+01   4.6223460613310536E+01
   4.6247323589847269E+01   4.6271177727679252E+01   4.6295023036530772E+01   4.6318859526108220E+01   4.6342687206100059E+01
   4.6366506086176905E+01   4.6390316175991536E+01   4.6414117485178984E+01   4.6437910023356572E+01   4.6461693800123932E+01
   4.6485468825063023E+01   4.6509235107738313E+01   4.6532992657696660E+01   4.6556741484467423E+01   4.6580481597562546E+01
   4.6604213006476570E+01   4.6627935720686665E+01   4.6651649749652670E+01   4.6675355102817193E+01   4.6699051789605576E+01
   4.6722739819426025E+01   4.6746419201669525E+01   4.6770089945710069E+01   4.6793752060904559E+01   4.6817405556592846E+01
   4.6841050442097895E+01   4.6864686726725708E+01   4.6888314419765429E+01   4.6911933530489335E+01   4.6935544068152943E+01
   4.6959146041995027E+01   4.6982739461237635E+01   4.7006324335086163E+01   4.7029900672729376E+01   4.7053468483339493E+01
   4.7077027776072164E+01   4.7100578560066552E+01   4.7124120844445400E+01   4.7147654638314982E+01   4.7171179950765229E+01
   4.7194696790869756E+01   4.7218205167685923E+01   4.7241705090254754E+01   4.7265196567601173E+01   4.7288679608733872E+01
   4.7312154222645397E+01   4.7335620418312317E+01   4.7359078204695031E+01   4.7382527590738043E+01   4.7405968585369877E+01
   4.7429401197503047E+01   4.7452825436034303E+01   4.7476241309844468E+01   4.7499648827798651E+01   4.7523047998746094E+01
   4.7546438831520376E+01   4.7569821334939405E+01   4.7593195517805427E+01   4.7616561388905026E+01   4.7639918957009336E+01
   4.7663268230873904E+01   4.7686609219238726E+01   4.7709941930828457E+01   4.7733266374352290E+01   4.7756582558503979E+01
   4.7779890491962099E+01   4.7803190183389802E+01   4.7826481641434981E+01   4.7849764874730354E+01   4.7873039891893498E+01
   4.7896306701526711E+01   4.7919565312217308E+01   4.7942815732537447E+01   4.7966057971044329E+01   4.7989292036280069E+01
   4.8012517936771907E+01   4.8035735681032094E+01   4.8058945277558031E+01   4.8082146734832264E+01   4.8105340061322508E+01
   4.8128525265481713E+01   4.8151702355748093E+01   4.8174871340545145E+01   4.8198032228281704E+01   4.8221185027351964E+01
   4.8244329746135534E+01   4.8267466392997463E+01   4.8290594976288254E+01   4.8313715504343932E+01   4.8336827985486060E+01
   4.8359932428021821E+01   4.8383028840243938E+01   4.8406117230430837E+01   4.8429197606846657E+01   4.8452269977741160E+01
   4.8475334351349950E+01   4.8498390735894404E+01   4.8521439139581673E+01   4.8544479570604835E+01   4.8567512037142833E+01
   4.8590536547360500E+01   4.8613553109408670E+01   4.8636561731424180E+01   4.8659562421529863E+01   4.8682555187834630E+01
   4.8705540038433497E+01   4.8728516981407580E+01   4.8751486024824217E+01   4.8774447176736849E+01   4.8797400445185254E+01
   4.8820345838195379E+01   4.8843283363779506E+01   4.8866213029936233E+01   4.8889134844650584E+01   4.8912048815893876E+01
   4.8934954951623901E+01   4.8957853259784919E+01   4.8980743748307653E+01   4.9003626425109410E+01   4.9026501298093955E+01
   4.9049368375151737E+01   4.9072227664159755E+01   4.9095079172981698E+01   4.9117922909467950E+01   4.9140758881455547E+01
   4.9163587096768339E+01   4.9186407563216910E+01   4.9209220288598679E+01   4.9232025280697918E+01   4.9254822547285762E+01
   4.9277612096120194E+01   4.9300393934946172E+01   4.9323168071495708E+01   4.9345934513487634E+01   4.9368693268627972E+01
   4.9391444344609688E+01   4.9414187749112891E+01   4.9436923489804791E+01   4.9459651574339787E+01   4.9482372010359370E+01
   4.9505084805492366E+01   4.9527789967354700E+01   4.9550487503549668E+01   4.9573177421667843E+01   4.9595859729287106E+01
   4.9618534433972705E+01   4.9641201543277276E+01   4.9663861064740900E+01   4.9686513005891079E+01   4.9709157374242785E+01
   4.9731794177298532E+01   4.9754423422548321E+01   4.9777045117469740E+01   4.9799659269528014E+01   4.9822265886175913E+01
   4.9844864974853913E+01   4.9867456542990148E+01   4.9890040598000475E+01   4.9912617147288479E+01   4.9935186198245518E+01
   4.9957747758250697E+01   4.9980301834671060E+01   5.0002848434861392E+01   5.0025387566164390E+01   5.0047919235910662E+01
   5.0070443451418775E+01   5.0092960219995199E+01   5.0115469548934470E+01   5.0137971445519085E+01   5.0160465917019607E+01
   5.0182952970694707E+01   5.0205432613791075E+01   5.0227904853543635E+01   5.0250369697175366E+01   5.0272827151897495E+01
   5.0295277224909455E+01   5.0317719923398890E+01   5.0340155254541720E+01   5.0362583225502178E+01   5.0385003843432777E+01
   5.0407417115474423E+01   5.0429823048756369E+01   5.0452221650396226E+01   5.0474612927500111E+01   5.0496996887162517E+01
   5.0519373536466517E+01   5.0541742882483540E+01   5.0564104932273679E+01   5.0586459692885533E+01   5.0608807171356254E+01
   5.0631147374711688E+01   5.0653480309966184E+01   5.0675805984122910E+01   5.0698124404173583E+01   5.0720435577098705E+01
   5.0742739509867498E+01   5.0765036209437959E+01   5.0787325682756880E+01   5.0809607936759818E+01   5.0831882978371226E+01
   5.0854150814504386E+01   5.0876411452061490E+01   5.0898664897933642E+01   5.0920911159000894E+01   5.0943150242132198E+01
   5.0965382154185626E+01   5.0987606902008146E+01   5.1009824492435804E+01   5.1032034932293733E+01   5.1054238228396116E+01
   5.1076434387546321E+01   5.1098623416536725E+01   5.1120805322149018E+01   5.1142980111153932E+01   5.1165147790311551E+01
   5.1187308366371084E+01   5.1209461846071058E+01   5.1231608236139245E+01   5.1253747543292747E+01   5.1275879774238021E+01
   5.1298004935670797E+01   5.1320123034276293E+01   5.1342234076729056E+01   5.1364338069693048E+01   5.1386435019821747E+01
   5.1408524933758052E+01   5.1430607818134362E+01   5.1452683679572615E+01   5.1474752524684277E+01   5.1496814360070381E+01
   5.1518869192321574E+01   5.1540917028018093E+01   5.1562957873729779E+01   5.1584991736016192E+01   5.1607018621426541E+01
   5.1629038536499742E+01   5.1651051487764427E+01   5.1673057481739008E+01   5.1695056524931651E+01   5.1717048623840320E+01
   5.1739033784952767E+01   5.1761012014746619E+01   5.1782983319689379E+01   5.1804947706238380E+01   5.1826905180840889E+01
   5.1848855749934131E+01   5.1870799419945243E+01   5.1892736197291363E+01   5.1914666088379569E+01   5.1936589099607019E+01
   5.1958505237360889E+01   5.1980414508018399E+01   5.2002316917946864E+01   5.2024212473503717E+01   5.2046101181036484E+01
   5.2067983046882858E+01   5.2089858077370714E+01   5.2111726278818082E+01   5.2133587657533241E+01   5.2155442219814667E+01
   5.2177289971951112E+01   5.2199130920221585E+01   5.2220965070895438E+01   5.2242792430232292E+01   5.2264613004482115E+01
   5.2286426799885241E+01   5.2308233822672378E+01   5.2330034079064653E+01   5.2351827575273596E+01   5.2373614317501172E+01
   5.2395394311939860E+01   5.2417167564772562E+01   5.2438934082172693E+01   5.2460693870304262E+01   5.2482446935321697E+01
   5.2504193283370121E+01   5.2525932920585163E+01   5.2547665853093079E+01   5.2569392087010776E+01   5.2591111628445752E+01
   5.2612824483496240E+01   5.2634530658251109E+01   5.2656230158789953E+01   5.2677922991183110E+01   5.2699609161491615E+01
   5.2721288675767298E+01   5.2742961540052804E+01   5.2764627760381572E+01   5.2786287342777833E+01   5.2807940293256650E+01
   5.2829586617824035E+01   5.2851226322476805E+01   5.2872859413202718E+01   5.2894485895980445E+01   5.2916105776779588E+01
   5.2937719061560763E+01   5.2959325756275483E+01   5.2980925866866315E+01   5.3002519399266852E+01   5.3024106359401706E+01
   5.3045686753186537E+01   5.3067260586528128E+01   5.3088827865324255E+01   5.3110388595463952E+01   5.3131942782827259E+01
   5.3153490433285448E+01   5.3175031552700936E+01   5.3196566146927282E+01   5.3218094221809373E+01   5.3239615783183176E+01
   5.3261130836876013E+01   5.3282639388706428E+01   5.3304141444484209E+01   5.3325637010010546E+01   5.3347126091077818E+01
   5.3368608693469874E+01   5.3390084822961796E+01   5.3411554485320124E+01   5.3433017686302776E+01   5.3454474431659023E+01
   5.3475924727129609E+01   5.3497368578446746E+01   5.3518805991334069E+01   5.3540236971506694E+01   5.3561661524671251E+01
   5.3583079656525875E+01   5.3604491372760258E+01   5.3625896679055643E+01   5.3647295581084798E+01   5.3668688084512112E+01
   5.3690074194993606E+01   5.3711453918176858E+01   5.3732827259701153E+01   5.3754194225197352E+01   5.3775554820288100E+01
   5.3796909050587630E+01   5.3818256921701938E+01   5.3839598439228737E+01   5.3860933608757506E+01   5.3882262435869414E+01
   5.3903584926137484E+01   5.3924901085126493E+01   5.3946210918393049E+01   5.3967514431485547E+01   5.3988811629944301E+01
   5.4010102519301434E+01   5.4031387105080938E+01   5.4052665392798758E+01   5.4073937387962673E+01   5.4095203096072467E+01
   5.4116462522619827E+01   5.4137715673088429E+01   5.4158962552953867E+01   5.4180203167683828E+01   5.4201437522737912E+01
   5.4222665623567792E+01   5.4243887475617235E+01   5.4265103084321993E+01   5.4286312455109915E+01   5.4307515593400943E+01
   5.4328712504607175E+01   5.4349903194132722E+01   5.4371087667373992E+01   5.4392265929719436E+01   5.4413437986549695E+01
   5.4434603843237646E+01   5.4455763505148333E+01   5.4476916977639029E+01   5.4498064266059238E+01   5.4519205375750751E+01
   5.4540340312047562E+01   5.4561469080276048E+01   5.4582591685754807E+01   5.4603708133794740E+01   5.4624818429699182E+01
   5.4645922578763681E+01   5.4667020586276287E+01   5.4688112457517306E+01   5.4709198197759498E+01   5.4730277812268064E+01
   5.4751351306300521E+01   5.4772418685106942E+01   5.4793479953929790E+01   5.4814535118004052E+01   5.4835584182557099E+01
   5.4856627152808912E+01   5.4877664033971946E+01   5.4898694831251170E+01   5.4919719549844118E+01   5.4940738194940877E+01
   5.4961750771724105E+01   5.4982757285369090E+01   5.5003757741043678E+01   5.5024752143908358E+01   5.5045740499116235E+01
   5.5066722811813072E+01   5.5087699087137338E+01   5.5108669330220138E+01   5.5129633546185261E+01   5.5150591740149224E+01
   5.5171543917221278E+01   5.5192490082503404E+01   5.5213430241090350E+01   5.5234364398069580E+01   5.5255292558521411E+01
   5.5276214727518870E+01   5.5297130910127855E+01   5.5318041111407119E+01   5.5338945336408180E+01   5.5359843590175437E+01
   5.5380735877746162E+01   5.5401622204150499E+01   5.5422502574411517E+01   5.5443376993545165E+01   5.5464245466560314E+01
   5.5485107998458759E+01   5.5505964594235323E+01   5.5526815258877690E+01   5.5547659997366608E+01   5.5568498814675777E+01
   5.5589331715771884E+01   5.5610158705614694E+01   5.5630979789156981E+01   5.5651794971344543E+01   5.5672604257116291E+01
   5.5693407651404179E+01   5.5714205159133208E+01   5.5734996785221590E+01   5.5755782534580568E+01   5.5776562412114536E+01
   5.5797336422721038E+01   5.5818104571290768E+01   5.5838866862707633E+01   5.5859623301848636E+01   5.5880373893584085E+01
   5.5901118642777405E+01   5.5921857554285275E+01   5.5942590632957682E+01   5.5963317883637714E+01   5.5984039311161872E+01
   5.6004754920359872E+01   5.6025464716054714E+01   5.6046168703062669E+01   5.6066866886193417E+01   5.6087559270249905E+01
   5.6108245860028404E+01   5.6128926660318605E+01   5.6149601675903497E+01   5.6170270911559506E+01   5.6190934372056432E+01
   5.6211592062157465E+01   5.6232243986619252E+01   5.6252890150191838E+01   5.6273530557618699E+01   5.6294165213636852E+01
   5.6314794122976707E+01   5.6335417290362138E+01   5.6356034720510600E+01   5.6376646418132992E+01   5.6397252387933754E+01
   5.6417852634610902E+01   5.6438447162855894E+01   5.6459035977353842E+01   5.6479619082783401E+01   5.6500196483816779E+01
   5.6520768185119856E+01   5.6541334191351972E+01   5.6561894507166308E+01   5.6582449137209437E+01   5.6602998086121765E+01
   5.6623541358537281E+01   5.6644078959083600E+01   5.6664610892382107E+01   5.6685137163047827E+01   5.6705657775689488E+01
   5.6726172734909582E+01   5.6746682045304262E+01   5.6767185711463483E+01   5.6787683737970902E+01   5.6808176129404032E+01
   5.6828662890334002E+01   5.6849144025325934E+01   5.6869619538938572E+01   5.6890089435724576E+01   5.6910553720230375E+01
   5.6931012396996330E+01   5.6951465470556514E+01   5.6971912945438973E+01   5.6992354826165545E+01   5.7012791117252029E+01
   5.7033221823208031E+01   5.7053646948537150E+01   5.7074066497736844E+01   5.7094480475298539E+01   5.7114888885707543E+01
   5.7135291733443204E+01   5.7155689022978763E+01   5.7176080758781467E+01   5.7196466945312537E+01   5.7216847587027225E+01
   5.7237222688374757E+01   5.7257592253798364E+01   5.7277956287735385E+01   5.7298314794617106E+01   5.7318667778868949E+01
   5.7339015244910378E+01   5.7359357197154914E+01   5.7379693640010139E+01   5.7400024577877851E+01   5.7420350015153808E+01
   5.7440669956228021E+01   5.7460984405484517E+01   5.7481293367301596E+01   5.7501596846051591E+01   5.7521894846101084E+01
   5.7542187371810790E+01   5.7562474427535598E+01   5.7582756017624675E+01   5.7603032146421320E+01   5.7623302818263063E+01
   5.7643568037481685E+01   5.7663827808403219E+01   5.7684082135347936E+01   5.7704331022630328E+01   5.7724574474559240E+01
   5.7744812495437756E+01   5.7765045089563252E+01   5.7785272261227405E+01   5.7805494014716288E+01   5.7825710354310168E+01
   5.7845921284283762E+01   5.7866126808906074E+01   5.7886326932440490E+01   5.7906521659144765E+01   5.7926710993270987E+01
   5.7946894939065736E+01   5.7967073500769899E+01   5.7987246682618796E+01   5.8007414488842244E+01   5.8027576923664327E+01
   5.8047733991303751E+01   5.8067885695973565E+01   5.8088032041881299E+01   5.8108173033228994E+01   5.8128308674213102E+01
   5.8148438969024660E+01   5.8168563921849120E+01   5.8188683536866520E+01   5.8208797818251341E+01   5.8228906770172713E+01
   5.8249010396794169E+01   5.8269108702273918E+01   5.8289201690764656E+01   5.8309289366413687E+01   5.8329371733362905E+01
   5.8349448795748749E+01   5.8369520557702330E+01   5.8389587023349286E+01   5.8409648196810011E+01   5.8429704082199358E+01
   5.8449754683626999E+01   5.8469800005197094E+01   5.8489840051008606E+01   5.8509874825155080E+01   5.8529904331724786E+01
   5.8549928574800667E+01   5.8569947558460370E+01   5.8589961286776244E+01   5.8609969763815414E+01   5.8629972993639633E+01
   5.8649970980305483E+01   5.8669963727864278E+01   5.8689951240362028E+01   5.8709933521839616E+01   5.8729910576332600E+01
   5.8749882407871404E+01   5.8769849020481196E+01   5.8789810418181979E+01   5.8809766604988589E+01   5.8829717584910611E+01
   5.8849663361952551E+01   5.8869603940113720E+01   5.8889539323388284E+01   5.8909469515765245E+01   5.8929394521228559E+01
   5.8949314343756960E+01   5.8969228987324144E+01   5.8989138455898711E+01   5.9009042753444056E+01   5.9028941883918669E+01
   5.9048835851275818E+01   5.9068724659463797E+01   5.9088608312425791E+01   5.9108486814099948E+01   5.9128360168419427E+01
   5.9148228379312329E+01   5.9168091450701709E+01   5.9187949386505615E+01   5.9207802190637182E+01   5.9227649867004416E+01
   5.9247492419510444E+01   5.9267329852053400E+01   5.9287162168526422E+01   5.9306989372817704E+01   5.9326811468810511E+01
   5.9346628460383144E+01   5.9366440351408997E+01   5.9386247145756535E+01   5.9406048847289298E+01   5.9425845459865940E+01
   5.9445636987340258E+01   5.9465423433561057E+01   5.9485204802372365E+01   5.9504981097613282E+01   5.9524752323118115E+01
   5.9544518482716249E+01   5.9564279580232231E+01   5.9584035619485853E+01   5.9603786604291990E+01   5.9623532538460765E+01
   5.9643273425797432E+01   5.9663009270102513E+01   5.9682740075171687E+01   5.9702465844795888E+01   5.9722186582761232E+01
   5.9741902292849119E+01   5.9761612978836119E+01   5.9781318644494171E+01   5.9801019293590386E+01   5.9820714929887124E+01
   5.9840405557142091E+01   5.9860091179108224E+01   5.9879771799533813E+01   5.9899447422162368E+01   5.9919118050732784E+01
   5.9938783688979242E+01   5.9958444340631210E+01   5.9978100009413552E+01   5.9997750699046456E+01   6.0017396413245464E+01
   6.0037037155721464E+01   6.0056672930180703E+01   6.0076303740324839E+01   6.0095929589850847E+01   6.0115550482451177E+01
   6.0135166421813608E+01   6.0154777411621410E+01   6.0174383455553162E+01   6.0193984557282924E+01   6.0213580720480216E+01
   6.0233171948809932E+01   6.0252758245932462E+01   6.0272339615503633E+01   6.0291916061174710E+01   6.0311487586592520E+01
   6.0331054195399247E+01   6.0350615891232650E+01   6.0370172677725954E+01   6.0389724558507844E+01   6.0409271537202635E+01
   6.0428813617429995E+01   6.0448350802805287E+01   6.0467883096939275E+01   6.0487410503438326E+01   6.0506933025904381E+01
   6.0526450667934860E+01   6.0545963433122793E+01   6.0565471325056812E+01   6.0584974347321072E+01   6.0604472503495380E+01
   6.0623965797155037E+01   6.0643454231871075E+01   6.0662937811210035E+01   6.0682416538734110E+01   6.0701890418001156E+01
   6.0721359452564585E+01   6.0740823645973514E+01   6.0760283001772706E+01   6.0779737523502526E+01   6.0799187214699053E+01
   6.0818632078894019E+01   6.0838072119614857E+01   6.0857507340384629E+01   6.0876937744722156E+01   6.0896363336141917E+01
   6.0915784118154100E+01   6.0935200094264651E+01   6.0954611267975153E+01   6.0974017642783032E+01   6.0993419222181359E+01
   6.1012816009658970E+01   6.1032208008700515E+01   6.1051595222786318E+01   6.1070977655392475E+01   6.1090355309990940E+01
   6.1109728190049388E+01   6.1129096299031254E+01   6.1148459640395821E+01   6.1167818217598132E+01   6.1187172034089116E+01
   6.1206521093315395E+01   6.1225865398719556E+01   6.1245204953739851E+01   6.1264539761810532E+01   6.1283869826361617E+01
   6.1303195150819022E+01   6.1322515738604402E+01   6.1341831593135396E+01   6.1361142717825544E+01   6.1380449116084101E+01
  -1.4764858810536487E+02  -1.4764858810536487E+02  -1.4764858810536487E+02  -1.4764858810536487E+02  -1.4764858810536487E+02
  -1.4764858810536487E+02  -1.4764858810536487E+02  -1.4764858810536487E+02  -1.4764858810536487E+02  -1.4764858810536487E+02
  -1.4764858810536487E+02  -1.4764858810536487E+02  -1.4764858810536487E+02  -1.4764858810536487E+02  -1.4764858810536487E+02
  -1.4764858810536487E+02  -1.4764858810536487E+02  -1.4764858810536487E+02  -1.4764858810536487E+02  -1.4764858810536487E+02
  -1.4764858810536487E+02  -1.4764858810536487E+02  -1.4764858810536487E+02  -1.4764858810536487E+02  -1.4764858810536487E+02
  -1.4764858810536487E+02  -1.4764858810536487E+02  -1.4764858810536487E+02  -1.4764858810536487E+02  -1.4764858810536487E+02
  -1.4764858810536487E+02  -1.4764858810536487E+02  -1.4764858810536487E+02  -1.4764858810536487E+02  -1.4764858810536487E+02
  -1.4764858810536487E+02  -1.4764858810536487E+02  -1.4764858810536487E+02  -1.4764858810536487E+02  -1.4764858810536487E+02
  -1.4764858810536487E+02  -1.4764858810536487E+02  -1.4764858810536487E+02  -1.4764858810536487E+02  -1.4764858810536487E+02
  -1.4764858810536487E+02  -1.4764858810536487E+02  -1.4764858810536487E+02  -1.4764858810536487E+02  -1.4764858810536487E+02
  -1.4764858810536487E+02  -1.4764858810536487E+02  -1.4764858810536487E+02  -1.4764858810536487E+02  -1.4764858810536487E+02
  -1.4764858810536487E+02  -1.4764858810536487E+02  -1.4764858810536487E+02  -1.4764858810536487E+02  -1.4764858810536487E+02
  -1.4764858810536487E+02  -1.4764858810536487E+02  -1.4764858810536487E+02  -1.4764858810536487E+02  -1.4764858810536487E+02
  -1.4764858810536487E+02  -1.4764858810536487E+02  -1.4764858810536487E+02  -1.4764858810536487E+02  -1.4764858810536487E+02
  -1.4764858810536487E+02  -1.4764858810536487E+02  -1.4764858810536487E+02  -1.4764858810536487E+02  -1.4764858810536487E+02
  -1.4764858810536487E+02  -1.4764858810536487E+02  -1.4764858810536487E+02  -1.4764858810536487E+02  -1.4764858810536487E+02
  -1.4764858810536487E+02  -1.4764858810536487E+02  -1.4764858810536487E+02  -1.4764858810536487E+02  -1.4764858810536487E+02
  -1.4764858810536487E+02  -1.4764858810536487E+02  -1.4764858810536487E+02  -1.4764858810536487E+02  -1.4764858810536487E+02
  -1.4764858810536487E+02  -1.4764858810536487E+02  -1.4764858810536487E+02  -1.4764858810536487E+02  -1.4764858810536487E+02
  -1.4764858810536487E+02  -1.4764858810536487E+02  -1.4764858810536487E+02  -1.4764858810536487E+02  -1.4764858810536487E+02
  -1.4764858810536487E+02  -1.4764858810536487E+02  -1.4764858810536487E+02  -1.4764858810536487E+02  -1.4764858810536487E+02
  -1.4764858810536487E+02  -1.4764858810536487E+02  -1.4764858810536487E+02  -1.4764858810536487E+02  -1.4764858810536487E+02
  -1.4764858810536487E+02  -1.4764858810536487E+02  -1.4764858810536487E+02  -1.4764858810536487E+02  -1.4764858810536487E+02
  -1.4764858810536487E+02  -1.4764858810536487E+02  -1.4764858810536487E+02  -1.4764858810536487E+02  -1.4764858810536487E+02
  -1.4764858810536487E+02  -1.4764858810536487E+02  -1.4764858810536487E+02  -1.4764858810536487E+02  -1.4764858810536487E+02
  -1.4764858810536487E+02  -1.4764858810536487E+02  -1.4764858810536487E+02  -1.4764858810536487E+02  -1.4764858810536487E+02
  -1.4764858810536487E+02  -1.4764858810536487E+02  -1.4764858810536487E+02  -1.4764858810536487E+02  -1.4764858810536487E+02
  -1.4764858810536487E+02  -1.4764858810536487E+02  -1.4764858810536487E+02  -1.4764858810536487E+02  -1.4764858810536487E+02
  -1.4764858810536487E+02  -1.4764858810536487E+02  -1.4764858810536487E+02  -1.4764858810536487E+02  -1.4764858810536487E+02
  -1.4764858810536487E+02  -1.4764858810536487E+02  -1.4764858810536487E+02  -1.4764858810536487E+02  -1.4764858810536487E+02
  -1.4764858810536487E+02  -1.4764858810536487E+02  -1.4764858810536487E+02  -1.4764858810536487E+02  -1.4764858810536487E+02
  -1.4764858810536487E+02  -1.4764858810536487E+02  -1.4764858810536487E+02  -1.4764858810536487E+02  -1.4764858810536487E+02
  -1.4764858810536487E+02  -1.4764858810536487E+02  -1.4764858810536487E+02  -1.4764858810536487E+02  -1.4764858810536487E+02
  -1.4764858810536487E+02  -1.4764858810536487E+02  -1.4764858810536487E+02  -1.4764858810536487E+02  -1.4764858810536487E+02
  -1.4764858810536487E+02  -1.4764858810536487E+02  -1.4764858810536487E+02  -1.4764858810536487E+02  -1.4764858810536487E+02
  -1.4764858810536487E+02  -1.4764858810536487E+02  -1.4764858810536487E+02  -1.4764858810536487E+02  -1.4764858810536487E+02
  -1.4764858810536487E+02  -1.4764858810536487E+02  -1.4764858810536487E+02  -1.4764858810536487E+02  -1.4764858810536487E+02
  -1.4764858810536487E+02  -1.4764858810536487E+02  -1.4764858810536487E+02  -1.4764858810536487E+02  -1.4764858810536487E+02
  -1.4764858810536487E+02  -1.4764858810536487E+02  -1.4764858810536487E+02  -1.4764858810536487E+02  -1.4764858810536487E+02
  -1.6169266722183571E+02  -1.8333483383372277E+02  -2.1127466544067670E+02  -2.4872668687829253E+02  -3.0154173513308956E+02
  -3.8160663112722801E+02  -5.1733313758451300E+02  -7.9767038966165956E+02  -1.7171242793887150E+03   1.2351127214090769E+04
   1.3578511184481954E+03   7.2242921662858191E+02   4.9398502831693929E+02   3.7636928326980990E+02   3.0467755995150856E+02
   2.5640794705281132E+02   2.2169527094596506E+02   1.9553243600834327E+02   1.7510779179888132E+02   1.5872071584354933E+02
   1.4528217179442379E+02   1.3406246103724277E+02   1.2455430809528988E+02   1.1639411393362242E+02   1.0931445238115774E+02
   1.0311424482859886E+02   9.7639386073338187E+01   9.2769784493169269E+01   8.8410468537761972E+01   8.4485345004554361E+01
   8.0932730305437730E+01   7.7702093719564715E+01   7.4751645724254303E+01   7.2046526176568605E+01   6.9557425207656777E+01
   6.7259520877462649E+01   6.5131651838242320E+01   6.3155666511020932E+01   6.1315906347915941E+01   5.9598792021064504E+01
   5.7992489388290309E+01   5.6486637851000808E+01   5.5072127918625924E+01   5.3740917885267308E+01   5.2485881823441318E+01
   5.1300682826163445E+01   5.0179666736448851E+01   4.9117772602378658E+01   4.8110456865118429E+01   4.7153628883975124E+01
   4.6243595868671783E+01   4.5377015655538621E+01   4.4550856054336435E+01   4.3762359723291112E+01   4.3009013714731736E+01
   4.2288522982480544E+01   4.1598787262480876E+01   4.0937880835988032E+01   4.0304034764554267E+01   3.9695621251606120E+01
   3.9111139839426606E+01   3.8549205195050874E+01   3.8008536275703364E+01   3.7487946695351503E+01   3.6986336139846514E+01
   3.6502682699863911E+01   3.6036036009174268E+01   3.5585511091252172E+01   3.5150282830359252E+01   3.4729580994392748E+01
   3.4322685746309730E+01   3.3928923589073953E+01   3.3547663696048680E+01   3.3178314584758660E+01   3.2820321097111524E+01
   3.2473161653635472E+01   3.2136345753157492E+01   3.1809411692699815E+01   3.1491924485294732E+01   3.1183473955958757E+01
   3.0883672998291992E+01   3.0592155976112323E+01   3.0308577256240291E+01   3.0032609860048211E+01   2.9763944222707142E+01
   2.9502287050227977E+01   2.9247360265419527E+01   2.8998900034796922E+01   2.8756655869277779E+01   2.8520389792219440E+01
   2.8289875568986734E+01   2.8064897992804312E+01   2.7845252222154528E+01   2.7630743165430484E+01   2.7421184908958541E+01
   2.7216400184864977E+01   2.7016219875585055E+01   2.6820482552103751E+01   2.6629034043278601E+01   2.6441727033829846E+01
   2.6258420688796154E+01   2.6078980302444137E+01   2.5903276969793598E+01   2.5731187279076018E+01   2.5562593023586437E+01
   2.5397380931515087E+01   2.5235442412463982E+01   2.5076673319456958E+01   2.4920973725349665E+01   2.4768247712631990E+01
   2.4618403175696216E+01   2.4471351634715926E+01   2.4327008060347598E+01   2.4185290708527045E+01   2.4046120964688477E+01
   2.3909423196784491E+01   2.3775124616531684E+01   2.3643155148349493E+01   2.3513447305498243E+01   2.3385936072959112E+01
   2.3260558796631070E+01   2.3137255078450071E+01   2.3015966677064338E+01   2.2896637413724633E+01   2.2779213083072335E+01
   2.2663641368530190E+01   2.2549871762020288E+01   2.2437855487753115E+01   2.2327545429847966E+01   2.2218896063561878E+01
   2.2111863389918131E+01   2.2006404873539552E+01   2.1902479383504208E+01   2.1800047137053344E+01   2.1699069645991614E+01
   2.1599509665630304E+01   2.1501331146133428E+01   2.1404499186135471E+01   2.1308979988507470E+01   2.1214740818156123E+01
   2.1121749961746904E+01   2.1029976689249750E+01   2.0939391217211071E+01   2.0849964673662235E+01   2.0761669064579667E+01
   2.0674477241816678E+01   2.0588362872432036E+01   2.0503300409344391E+01   2.0419265063245930E+01   2.0336232775712375E+01
   2.0254180193449837E+01   2.0173084643622754E+01   2.0092924110209879E+01   2.0013677211338681E+01   1.9935323177550501E+01
   1.9857841830952466E+01   1.9781213565213555E+01   1.9705419326365199E+01   1.9630440594368544E+01   1.9556259365412842E+01
   1.9482858134910838E+01   1.9410219881159431E+01   1.9338328049635010E+01   1.9267166537894855E+01   1.9196719681057111E+01
   1.9126972237833556E+01   1.9057909377090574E+01   1.8989516664914948E+01   1.8921780052162362E+01   1.8854685862467473E+01
   1.8788220780695660E+01   1.8722371841817345E+01   1.8657126420186835E+01   1.8592472219208513E+01   1.8528397261373900E+01
   1.8464889878654169E+01   1.8401938703233153E+01   1.8339532658566789E+01   1.8277660950755521E+01   1.8216313060216834E+01
   1.8155478733645708E+01   1.8095147976251351E+01   1.8035311044259100E+01   1.7975958437666815E+01   1.7917080893245831E+01
   1.7858669377776494E+01   1.7800715081509491E+01   1.7743209411843747E+01   1.7686143987212834E+01   1.7629510631171478E+01
   1.7573301366674912E+01   1.7517508410543414E+01   1.7462124168105060E+01   1.7407141228010104E+01   1.7352552357210460E+01
   1.7298350496098109E+01   1.7244528753796629E+01   1.7191080403600196E+01   1.7137998878554516E+01   1.7085277767174830E+01
   1.7032910809295608E+01   1.6980891892047616E+01   1.6929215045957541E+01   1.6877874441165815E+01   1.6826864383758625E+01
   1.6776179312209887E+01   1.6725813793929536E+01   1.6675762521914212E+01   1.6626020311497061E+01   1.6576582097192933E+01
   1.6527442929636017E+01   1.6478597972606561E+01   1.6430042500143742E+01   1.6381771893741739E+01   1.6333781639626327E+01
   1.6286067326109162E+01   1.6238624641017292E+01   1.6191449369195432E+01   1.6144537390078440E+01   1.6097884675331997E+01
   1.6051487286559006E+01   1.6005341373069747E+01   1.5959443169713696E+01   1.5913788994771016E+01   1.5868375247901913E+01
   1.5823198408151903E+01   1.5778255032011355E+01   1.5733541751527506E+01   1.5689055272467412E+01   1.5644792372530192E+01
   1.5600749899607099E+01   1.5556924770087882E+01   1.5513313967212088E+01   1.5469914539463977E+01   1.5426723599009581E+01
   1.5383738320174851E+01   1.5340955937963486E+01   1.5298373746613358E+01   1.5255989098190364E+01   1.5213799401218610E+01
   1.5171802119345891E+01   1.5129994770043350E+01   1.5088374923338412E+01   1.5046940200579998E+01   1.5005688273235128E+01
   1.4964616861715912E+01   1.4923723734236198E+01   1.4883006705696911E+01   1.4842463636599382E+01   1.4802092431985841E+01
   1.4761891040406246E+01   1.4721857452910804E+01   1.4681989702067476E+01   1.4642285861003669E+01   1.4602744042471604E+01
   1.4563362397936572E+01   1.4524139116687516E+01   1.4485072424969371E+01   1.4446160585136514E+01   1.4407401894826762E+01
   1.4368794686155368E+01   1.4330337324928568E+01   1.4292028209875985E+01   1.4253865771901578E+01   1.4215848473352517E+01
   1.4177974807305548E+01   1.4140243296870409E+01   1.4102652494509904E+01   1.4065200981376021E+01   1.4027887366661890E+01
   1.3990710286969062E+01   1.3953668405689706E+01   1.3916760412403415E+01   1.3879985022288158E+01   1.3843340975545125E+01
   1.3806827036836983E+01   1.3770441994739317E+01   1.3734184661204887E+01   1.3698053871040347E+01   1.3662048481395180E+01
   1.3626167371262454E+01   1.3590409440991213E+01   1.3554773611810127E+01   1.3519258825362181E+01   1.3483864043250076E+01
   1.3448588246592134E+01   1.3413430435588426E+01   1.3378389629096864E+01   1.3343464864219049E+01   1.3308655195895559E+01
   1.3273959696510579E+01   1.3239377455505522E+01   1.3204907579001494E+01   1.3170549189430368E+01   1.3136301425174254E+01
   1.3102163440213221E+01   1.3068134403780961E+01   1.3034213500028358E+01   1.3000399927694605E+01   1.2966692899785846E+01
   1.2933091643261063E+01   1.2899595398725086E+01   1.2866203420128537E+01   1.2832914974474566E+01   1.2799729341532162E+01
   1.2766645813556025E+01   1.2733663695012631E+01   1.2700782302312577E+01   1.2668000963548891E+01   1.2635319018241228E+01
   1.2602735817085829E+01   1.2570250721711135E+01   1.2537863104438811E+01   1.2505572348050196E+01   1.2473377845557957E+01
   1.2441278999982885E+01   1.2409275224135689E+01   1.2377365940403656E+01   1.2345550580542117E+01   1.2313828585470544E+01
   1.2282199405073275E+01   1.2250662498004608E+01   1.2219217331498323E+01   1.2187863381181421E+01   1.2156600130892043E+01
   1.2125427072501466E+01   1.2094343705740044E+01   1.2063349538027060E+01   1.2032444084304364E+01   1.2001626866873742E+01
   1.1970897415237900E+01   1.1940255265944977E+01   1.1909699962436584E+01   1.1879231054899156E+01   1.1848848100118714E+01
   1.1818550661338767E+01   1.1788338308121451E+01   1.1758210616211766E+01   1.1728167167404768E+01   1.1698207549415827E+01
   1.1668331355753701E+01   1.1638538185596492E+01   1.1608827643670297E+01   1.1579199340130677E+01   1.1549652890446648E+01
   1.1520187915287368E+01   1.1490804040411279E+01   1.1461500896557737E+01   1.1432278119341101E+01   1.1403135349147139E+01
   1.1374072231031768E+01   1.1345088414622063E+01   1.1316183554019437E+01   1.1287357307705035E+01   1.1258609338447227E+01
   1.1229939313211144E+01   1.1201346903070247E+01   1.1172831783119895E+01   1.1144393632392813E+01   1.1116032133776491E+01
   1.1087746973932385E+01   1.1059537843216946E+01   1.1031404435604424E+01   1.1003346448611410E+01   1.0975363583223031E+01
   1.0947455543820832E+01   1.0919622038112250E+01   1.0891862777061700E+01   1.0864177474823174E+01   1.0836565848674368E+01
   1.0809027618952291E+01   1.0781562508990289E+01   1.0754170245056528E+01   1.0726850556293842E+01   1.0699603174660906E+01
   1.0672427834874764E+01   1.0645324274354628E+01   1.0618292233166954E+01   1.0591331453971764E+01   1.0564441681970138E+01
   1.0537622664852906E+01   1.0510874152750542E+01   1.0484195898184085E+01   1.0457587656017280E+01   1.0431049183409709E+01
   1.0404580239771029E+01   1.0378180586716207E+01   1.0351849988021819E+01   1.0325588209583263E+01   1.0299395019373005E+01
   1.0273270187399719E+01   1.0247213485668372E+01   1.0221224688141227E+01   1.0195303570699688E+01   1.0169449911107042E+01
   1.0143663488972019E+01   1.0117944085713210E+01   1.0092291484524248E+01   1.0066705470339807E+01   1.0041185829802368E+01
   1.0015732351229726E+01   9.9903448245832376E+00   9.9650230414368046E+00   9.9397667949465252E+00   9.9145758798210792E+00
   9.8894500922927513E+00   9.8643892300891043E+00   9.8393930924053503E+00   9.8144614798772842E+00   9.7895941945548604E+00
   9.7647910398763820E+00   9.7400518206432487E+00   9.7153763429953095E+00   9.6907644143867380E+00   9.6662158435624992E+00
   9.6417304405353033E+00   9.6173080165631308E+00   9.5929483841272472E+00   9.5686513569106886E+00   9.5444167497773051E+00
   9.5202443787512046E+00   9.4961340609967344E+00   9.4720856147988499E+00   9.4480988595439896E+00   9.4241736157013598E+00
   9.4003097048046200E+00   9.3765069494340434E+00   9.3527651731990140E+00   9.3290842007210042E+00   9.3054638576168376E+00
   9.2819039704824391E+00   9.2584043668768583E+00   9.2349648753067424E+00   9.2115853252110966E+00   9.1882655469464130E+00
   9.1650053717721551E+00   9.1418046318365391E+00   9.1186631601626704E+00   9.0955807906349815E+00   9.0725573579859535E+00
   9.0495926977831864E+00   9.0266866464167350E+00   9.0038390410867137E+00   8.9810497197912369E+00   8.9583185213145669E+00
   8.9356452852155890E+00   8.9130298518165088E+00   8.8904720621918134E+00   8.8679717581574984E+00   8.8455287822605158E+00
   8.8231429777684784E+00   8.8008141886595830E+00   8.7785422596127791E+00   8.7563270359981225E+00   8.7341683638674006E+00
   8.7120660899449174E+00   8.6900200616185099E+00   8.6680301269307787E+00   8.6460961345704739E+00   8.6242179338641289E+00
   8.6023953747678288E+00   8.5806283078591967E+00   8.5589165843295607E+00   8.5372600559762617E+00   8.5156585751951788E+00
   8.4941119949733750E+00   8.4726201688819511E+00   8.4511829510690237E+00   8.4298001962528755E+00   8.4084717597152530E+00
   8.3871974972948156E+00   8.3659772653807174E+00   8.3448109209063670E+00   8.3236983213432527E+00   8.3026393246949990E+00
   8.2816337894914582E+00   8.2606815747830034E+00   8.2397825401349198E+00   8.2189365456218955E+00   8.1981434518226770E+00
   8.1774031198147998E+00   8.1567154111694720E+00   8.1360801879465239E+00   8.1154973126895076E+00   8.0949666484208862E+00
   8.0744880586373071E+00   8.0540614073050207E+00   8.0336865588553383E+00   8.0133633781802587E+00   7.9930917306281106E+00
   7.9728714819993574E+00   7.9527024985424273E+00   7.9325846469496932E+00   7.9125177943534899E+00   7.8925018083222254E+00
   7.8725365568565984E+00   7.8526219083858511E+00   7.8327577317641515E+00   7.8129438962669955E+00   7.7931802715877359E+00
   7.7734667278341325E+00   7.7538031355250174E+00   7.7341893655870084E+00   7.7146252893512601E+00   7.6951107785503536E+00
   7.6756457053151630E+00   7.6562299421718638E+00   7.6368633620389339E+00   7.6175458382242578E+00   7.5982772444222721E+00
   7.5790574547111698E+00   7.5598863435501586E+00   7.5407637857767718E+00   7.5216896566042326E+00   7.5026638316188761E+00
   7.4836861867776001E+00   7.4647565984053905E+00   7.4458749431928775E+00   7.4270410981939436E+00   7.4082549408233698E+00
   7.3895163488545386E+00   7.3708252004171708E+00   7.3521813739950996E+00   7.3335847484240970E+00   7.3150352028897379E+00
   7.2965326169252904E+00   7.2780768704096577E+00   7.2596678435653512E+00   7.2413054169565072E+00   7.2229894714869189E+00
   7.2047198883981292E+00   7.1864965492675399E+00   7.1683193360065482E+00   7.1501881308587407E+00   7.1321028163980884E+00
   7.1140632755271893E+00   7.0960693914755435E+00   7.0781210477978371E+00   7.0602181283722816E+00   7.0423605173989561E+00
   7.0245480993981930E+00   7.0067807592089864E+00   6.9890583819874079E+00   6.9713808532050834E+00   6.9537480586476539E+00
   6.9361598844132963E+00   6.9186162169112420E+00   6.9011169428603196E+00   6.8836619492875446E+00   6.8662511235266894E+00
   6.8488843532169206E+00   6.8315615263014111E+00   6.8142825310260102E+00   6.7970472559379154E+00   6.7798555898843480E+00
   6.7627074220112915E+00   6.7456026417621926E+00   6.7285411388767304E+00   6.7115228033895642E+00   6.6945475256291251E+00
   6.6776151962164025E+00   6.6607257060637668E+00   6.6438789463737926E+00   6.6270748086380973E+00   6.6103131846362144E+00
   6.5935939664344456E+00   6.5769170463847662E+00   6.5602823171237157E+00   6.5436896715713155E+00   6.5271390029299976E+00
   6.5106302046835340E+00   6.4941631705960097E+00   6.4777377947107633E+00   6.4613539713493866E+00   6.4450115951106923E+00
   6.4287105608697352E+00   6.4124507637768042E+00   6.3962320992564523E+00   6.3800544630065295E+00   6.3639177509972233E+00
   6.3478218594701126E+00   6.3317666849372305E+00   6.3157521241801344E+00   6.2997780742489917E+00   6.2838444324616631E+00
   6.2679510964028129E+00   6.2520979639230081E+00   6.2362849331378429E+00   6.2205119024270532E+00   6.2047787704336681E+00
   6.1890854360631282E+00   6.1734317984824605E+00   6.1578177571194184E+00   6.1422432116616434E+00   6.1267080620558572E+00
   6.1112122085070109E+00   6.0957555514775068E+00   6.0803379916863554E+00   6.0649594301083996E+00   6.0496197679735113E+00
   6.0343189067658045E+00   6.0190567482228508E+00   6.0038331943349110E+00   5.9886481473441595E+00   5.9735015097439286E+00
   5.9583931842779299E+00   5.9433230739395420E+00   5.9282910819710102E+00   5.9132971118627609E+00   5.8983410673526171E+00
   5.8834228524251015E+00   5.8685423713106877E+00   5.8536995284851008E+00   5.8388942286685737E+00   5.8241263768251672E+00
   5.8093958781620305E+00   5.7947026381287312E+00   5.7800465624165263E+00   5.7654275569576958E+00   5.7508455279248292E+00
   5.7363003817301639E+00   5.7217920250248806E+00   5.7073203646984521E+00   5.6928853078779387E+00   5.6784867619273536E+00
   5.6641246344469653E+00   5.6497988332726612E+00   5.6355092664752773E+00   5.6212558423599388E+00   5.6070384694654276E+00
   5.5928570565635125E+00   5.5787115126583213E+00   5.5646017469856917E+00   5.5505276690125420E+00   5.5364891884362235E+00
   5.5224862151839105E+00   5.5085186594119406E+00   5.4945864315052289E+00   5.4806894420766099E+00   5.4668276019662461E+00
   5.4530008222409885E+00   5.4392090141937883E+00   5.4254520893430609E+00   5.4117299594321029E+00   5.3980425364284628E+00
   5.3843897325233652E+00   5.3707714601310839E+00   5.3571876318883671E+00   5.3436381606538292E+00   5.3301229595073689E+00
   5.3166419417495696E+00   5.3031950209011214E+00   5.2897821107022303E+00   5.2764031251120418E+00   5.2630579783080549E+00
   5.2497465846855507E+00   5.2364688588570063E+00   5.2232247156515426E+00   5.2100140701143269E+00   5.1968368375060292E+00
   5.1836929333022361E+00   5.1705822731928999E+00   5.1575047730817714E+00   5.1444603490858354E+00   5.1314489175347635E+00
   5.1184703949703438E+00   5.1055246981459472E+00   5.0926117440259446E+00   5.0797314497851955E+00   5.0668837328084644E+00
   5.0540685106898993E+00   5.0412857012324697E+00   5.0285352224474398E+00   5.0158169925538125E+00   5.0031309299778073E+00
   4.9904769533523048E+00   4.9778549815163302E+00   4.9652649335145025E+00   4.9527067285965201E+00   4.9401802862166129E+00
   4.9276855260330308E+00   4.9152223679075018E+00   4.9027907319047248E+00   4.8903905382918236E+00   4.8780217075378527E+00
   4.8656841603132506E+00   4.8533778174893429E+00   4.8411026001378126E+00   4.8288584295301913E+00   4.8166452271373386E+00
   4.8044629146289468E+00   4.7923114138730050E+00   4.7801906469353188E+00   4.7681005360789790E+00   4.7560410037638698E+00
   4.7440119726461605E+00   4.7320133655778012E+00   4.7200451056060277E+00   4.7081071159728554E+00   4.6961993201145820E+00
   4.6843216416612909E+00   4.6724740044363653E+00   4.6606563324559724E+00   4.6488685499285971E+00   4.6371105812545279E+00
   4.6253823510253875E+00   4.6136837840236282E+00   4.6020148052220531E+00   4.5903753397833285E+00   4.5787653130595043E+00
   4.5671846505915195E+00   4.5556332781087372E+00   4.5441111215284478E+00   4.5326181069554083E+00   4.5211541606813457E+00
   4.5097192091844951E+00   4.4983131791291182E+00   4.4869359973650358E+00   4.4755875909271445E+00   4.4642678870349632E+00
   4.4529768130921417E+00   4.4417142966860155E+00   4.4304802655871187E+00   4.4192746477487361E+00   4.4080973713064182E+00
   4.3969483645775425E+00   4.3858275560608275E+00   4.3747348744358892E+00   4.3636702485627801E+00   4.3526336074815157E+00
   4.3416248804116355E+00   4.3306439967517392E+00   4.3196908860790320E+00   4.3087654781488727E+00   4.2978677028943224E+00
   4.2869974904256889E+00   4.2761547710300869E+00   4.2653394751709737E+00   4.2545515334877226E+00   4.2437908767951544E+00
   4.2330574360831115E+00   4.2223511425159987E+00   4.2116719274323575E+00   4.2010197223444026E+00   4.1903944589376056E+00
   4.1797960690702336E+00   4.1692244847729309E+00   4.1586796382482651E+00   4.1481614618703038E+00   4.1376698881841731E+00
   4.1272048499056284E+00   4.1167662799206166E+00   4.1063541112848521E+00   4.0959682772233768E+00   4.0856087111301456E+00
   4.0752753465675813E+00   4.0649681172661651E+00   4.0546869571239936E+00   4.0444318002063708E+00   4.0342025807453687E+00
   4.0239992331394241E+00   4.0138216919528951E+00   4.0036698919156590E+00   3.9935437679226848E+00   3.9834432550336145E+00
   3.9733682884723533E+00   3.9633188036266405E+00   3.9532947360476531E+00   3.9432960214495725E+00   3.9333225957091882E+00
   3.9233743948654745E+00   3.9134513551191894E+00   3.9035534128324518E+00   3.8936805045283549E+00   3.8838325668905296E+00
   3.8740095367627685E+00   3.8642113511485965E+00   3.8544379472108807E+00   3.8446892622714191E+00   3.8349652338105442E+00
   3.8252657994667176E+00   3.8155908970361350E+00   3.8059404644723176E+00   3.7963144398857254E+00   3.7867127615433511E+00
   3.7771353678683317E+00   3.7675821974395429E+00   3.7580531889912177E+00   3.7485482814125404E+00   3.7390674137472706E+00
   3.7296105251933289E+00   3.7201775551024356E+00   3.7107684429796941E+00   3.7013831284832217E+00   3.6920215514237533E+00
   3.6826836517642589E+00   3.6733693696195586E+00   3.6640786452559335E+00   3.6548114190907519E+00   3.6455676316920740E+00
   3.6363472237782859E+00   3.6271501362177045E+00   3.6179763100282121E+00   3.6088256863768620E+00   3.5996982065795211E+00
   3.5905938121004741E+00   3.5815124445520610E+00   3.5724540456942946E+00   3.5634185574344945E+00   3.5544059218269051E+00
   3.5454160810723359E+00   3.5364489775177761E+00   3.5275045536560410E+00   3.5185827521253876E+00   3.5096835157091602E+00
   3.5008067873354110E+00   3.4919525100765454E+00   3.4831206271489479E+00   3.4743110819126257E+00   3.4655238178708347E+00
   3.4567587786697334E+00   3.4480159080980011E+00   3.4392951500864979E+00   3.4305964487078882E+00   3.4219197481762933E+00
   3.4132649928469254E+00   3.4046321272157400E+00   3.3960210959190698E+00   3.3874318437332778E+00   3.3788643155743960E+00
   3.3703184564977806E+00   3.3617942116977524E+00   3.3532915265072440E+00   3.3448103463974634E+00   3.3363506169775201E+00
   3.3279122839941024E+00   3.3194952933311090E+00   3.3110995910093148E+00   3.3027251231860135E+00   3.2943718361546885E+00
   3.2860396763446480E+00   3.2777285903207001E+00   3.2694385247827977E+00   3.2611694265657039E+00   3.2529212426386440E+00
   3.2446939201049729E+00   3.2364874062018330E+00   3.2283016482998126E+00   3.2201365939026099E+00   3.2119921906467068E+00
   3.2038683863010093E+00   3.1957651287665394E+00   3.1876823660760811E+00   3.1796200463938602E+00   3.1715781180152005E+00
   3.1635565293662022E+00   3.1555552290034035E+00   3.1475741656134586E+00   3.1396132880127992E+00   3.1316725451473153E+00
   3.1237518860920193E+00   3.1158512600507282E+00   3.1079706163557295E+00   3.1001099044674638E+00   3.0922690739741925E+00
   3.0844480745916818E+00   3.0766468561628799E+00   3.0688653686575873E+00   3.0611035621721459E+00   3.0533613869291107E+00
   3.0456387932769378E+00   3.0379357316896605E+00   3.0302521527665749E+00   3.0225880072319216E+00   3.0149432459345702E+00
   3.0073178198477017E+00   2.9997116800685015E+00   2.9921247778178337E+00   2.9845570644399415E+00   2.9770084914021235E+00
   2.9694790102944335E+00   2.9619685728293565E+00   2.9544771308415148E+00   2.9470046362873474E+00   2.9395510412448052E+00
   2.9321162979130442E+00   2.9247003586121205E+00   2.9173031757826795E+00   2.9099247019856596E+00   2.9025648899019769E+00
   2.8952236923322308E+00   2.8879010621963968E+00   2.8805969525335269E+00   2.8733113165014448E+00   2.8660441073764513E+00
   2.8587952785530168E+00   2.8515647835434939E+00   2.8443525759778026E+00   2.8371586096031516E+00   2.8299828382837289E+00
   2.8228252160004081E+00   2.8156856968504580E+00   2.8085642350472426E+00   2.8014607849199318E+00   2.7943753009132046E+00
   2.7873077375869619E+00   2.7802580496160285E+00   2.7732261917898704E+00   2.7662121190122950E+00   2.7592157863011759E+00
   2.7522371487881454E+00   2.7452761617183263E+00   2.7383327804500306E+00   2.7314069604544824E+00   2.7244986573155234E+00
   2.7176078267293393E+00   2.7107344245041634E+00   2.7038784065600034E+00   2.6970397289283539E+00   2.6902183477519142E+00
   2.6834142192843071E+00   2.6766272998898022E+00   2.6698575460430294E+00   2.6631049143287067E+00   2.6563693614413566E+00
   2.6496508441850319E+00   2.6429493194730318E+00   2.6362647443276401E+00   2.6295970758798317E+00   2.6229462713690115E+00
   2.6163122881427321E+00   2.6096950836564252E+00   2.6030946154731232E+00   2.5965108412631959E+00   2.5899437188040699E+00
   2.5833932059799602E+00   2.5768592607816068E+00   2.5703418413059946E+00   2.5638409057560931E+00   2.5573564124405834E+00
   2.5508883197735974E+00   2.5444365862744367E+00   2.5380011705673282E+00   2.5315820313811379E+00   2.5251791275491198E+00
   2.5187924180086445E+00   2.5124218618009411E+00   2.5060674180708293E+00   2.4997290460664643E+00   2.4934067051390660E+00
   2.4871003547426684E+00   2.4808099544338513E+00   2.4745354638714869E+00   2.4682768428164765E+00   2.4620340511314969E+00
   2.4558070487807369E+00   2.4495957958296515E+00   2.4434002524446883E+00   2.4372203788930520E+00   2.4310561355424327E+00
   2.4249074828607653E+00   2.4187743814159628E+00   2.4126567918756772E+00   2.4065546750070337E+00   2.4004679916763911E+00
   2.3943967028490816E+00   2.3883407695891670E+00   2.3823001530591852E+00   2.3762748145199013E+00   2.3702647153300616E+00
   2.3642698169461425E+00   2.3582900809221083E+00   2.3523254689091577E+00   2.3463759426554844E+00   2.3404414640060263E+00
   2.3345219949022260E+00   2.3286174973817824E+00   2.3227279335784110E+00   2.3168532657215963E+00   2.3109934561363557E+00
   2.3051484672429914E+00   2.2993182615568553E+00   2.2935028016881032E+00   2.2877020503414607E+00   2.2819159703159770E+00
   2.2761445245047955E+00   2.2703876758949062E+00   2.2646453875669139E+00   2.2589176226948027E+00   2.2532043445456953E+00
   2.2475055164796180E+00   2.2418211019492711E+00   2.2361510644997877E+00   2.2304953677685067E+00   2.2248539754847276E+00
   2.2192268514694984E+00   2.2136139596353601E+00   2.2080152639861317E+00   2.2024307286166742E+00   2.1968603177126607E+00
   2.1913039955503422E+00   2.1857617264963269E+00   2.1802334750073453E+00   2.1747192056300255E+00   2.1692188830006653E+00
   2.1637324718449999E+00   2.1582599369779865E+00   2.1528012433035699E+00   2.1473563558144622E+00   2.1419252395919099E+00
   2.1365078598054872E+00   2.1311041817128511E+00   2.1257141706595357E+00   2.1203377920787223E+00   2.1149750114910186E+00
   2.1096257945042356E+00   2.1042901068131732E+00   2.0989679141993949E+00   2.0936591825310105E+00   2.0883638777624527E+00
   2.0830819659342676E+00   2.0778134131728896E+00   2.0725581856904283E+00   2.0673162497844455E+00   2.0620875718377483E+00
   2.0568721183181666E+00   2.0516698557783410E+00   2.0464807508555065E+00   2.0413047702712821E+00   2.0361418808314498E+00
   2.0309920494257518E+00   2.0258552430276704E+00   2.0207314286942220E+00   2.0156205735657364E+00   2.0105226448656595E+00
   2.0054376099003313E+00   2.0003654360587833E+00   1.9953060908125282E+00   1.9902595417153435E+00   1.9852257564030802E+00
   1.9802047025934355E+00   1.9751963480857613E+00   1.9702006607608491E+00   1.9652176085807291E+00   1.9602471595884576E+00
   1.9552892819079215E+00   1.9503439437436267E+00   1.9454111133804988E+00   1.9404907591836733E+00   1.9355828495983010E+00
   1.9306873531493394E+00   1.9258042384413554E+00   1.9209334741583171E+00   1.9160750290634017E+00   1.9112288719987893E+00
   1.9063949718854658E+00   1.9015732977230175E+00   1.8967638185894466E+00   1.8919665036409545E+00   1.8871813221117573E+00
   1.8824082433138842E+00   1.8776472366369812E+00   1.8728982715481106E+00   1.8681613175915632E+00   1.8634363443886572E+00
   1.8587233216375456E+00   1.8540222191130182E+00   1.8493330066663141E+00   1.8446556542249235E+00   1.8399901317923968E+00
   1.8353364094481515E+00   1.8306944573472803E+00   1.8260642457203613E+00   1.8214457448732626E+00   1.8168389251869579E+00
   1.8122437571173331E+00   1.8076602111949978E+00   1.8030882580250931E+00   1.7985278682871091E+00   1.7939790127346924E+00
   1.7894416621954610E+00   1.7849157875708126E+00   1.7804013598357447E+00   1.7758983500386643E+00   1.7714067293012039E+00
   1.7669264688180308E+00   1.7624575398566753E+00   1.7579999137573306E+00   1.7535535619326799E+00   1.7491184558677100E+00
   1.7446945671195282E+00   1.7402818673171776E+00   1.7358803281614594E+00   1.7314899214247494E+00   1.7271106189508181E+00
   1.7227423926546448E+00   1.7183852145222458E+00   1.7140390566104893E+00   1.7097038910469191E+00   1.7053796900295703E+00
   1.7010664258267987E+00   1.6967640707770983E+00   1.6924725972889259E+00   1.6881919778405183E+00   1.6839221849797277E+00
   1.6796631913238351E+00   1.6754149695593763E+00   1.6711774924419709E+00   1.6669507327961455E+00   1.6627346635151592E+00
   1.6585292575608270E+00   1.6543344879633528E+00   1.6501503278211507E+00   1.6459767503006764E+00   1.6418137286362486E+00
   1.6376612361298903E+00   1.6335192461511405E+00   1.6293877321368979E+00   1.6252666675912428E+00   1.6211560260852711E+00
   1.6170557812569184E+00   1.6129659068108009E+00   1.6088863765180381E+00   1.6048171642160902E+00   1.6007582438085848E+00
   1.5967095892651548E+00   1.5926711746212701E+00   1.5886429739780696E+00   1.5846249615021937E+00   1.5806171114256242E+00
   1.5766193980455132E+00   1.5726317957240235E+00   1.5686542788881563E+00   1.5646868220296000E+00   1.5607293997045508E+00
   1.5567819865335624E+00   1.5528445572013776E+00   1.5489170864567663E+00   1.5449995491123658E+00   1.5410919200445132E+00
   1.5371941741930937E+00   1.5333062865613716E+00   1.5294282322158355E+00   1.5255599862860332E+00   1.5217015239644172E+00
   1.5178528205061832E+00   1.5140138512291128E+00   1.5101845915134098E+00   1.5063650168015537E+00   1.5025551025981279E+00
   1.4987548244696745E+00   1.4949641580445312E+00   1.4911830790126785E+00   1.4874115631255784E+00   1.4836495861960266E+00
   1.4798971240979908E+00   1.4761541527664603E+00   1.4724206481972875E+00   1.4686965864470383E+00   1.4649819436328360E+00
   1.4612766959322099E+00   1.4575808195829374E+00   1.4538942908829016E+00   1.4502170861899277E+00   1.4465491819216401E+00
   1.4428905545553068E+00   1.4392411806276915E+00   1.4356010367348975E+00   1.4319700995322249E+00   1.4283483457340169E+00
   1.4247357521135113E+00   1.4211322955026884E+00   1.4175379527921290E+00   1.4139527009308601E+00   1.4103765169262112E+00
   1.4068093778436643E+00   1.4032512608067054E+00   1.3997021429966856E+00   1.3961620016526630E+00   1.3926308140712667E+00
   1.3891085576065458E+00   1.3855952096698276E+00   1.3820907477295681E+00   1.3785951493112123E+00   1.3751083919970475E+00
   1.3716304534260615E+00   1.3681613112937945E+00   1.3647009433522026E+00   1.3612493274095103E+00   1.3578064413300714E+00
   1.3543722630342221E+00   1.3509467704981462E+00   1.3475299417537283E+00   1.3441217548884166E+00   1.3407221880450779E+00
   1.3373312194218649E+00   1.3339488272720670E+00   1.3305749899039778E+00   1.3272096856807547E+00   1.3238528930202780E+00
   1.3205045903950128E+00   1.3171647563318740E+00   1.3138333694120847E+00   1.3105104082710428E+00   1.3071958515981785E+00
   1.3038896781368225E+00   1.3005918666840708E+00   1.2973023960906416E+00   1.2940212452607458E+00   1.2907483931519512E+00
   1.2874838187750457E+00   1.2842275011939011E+00   1.2809794195253441E+00   1.2777395529390183E+00   1.2745078806572521E+00
   1.2712843819549229E+00   1.2680690361593285E+00   1.2648618226500516E+00   1.2616627208588296E+00   1.2584717102694181E+00
   1.2552887704174653E+00   1.2521138808903780E+00   1.2489470213271900E+00   1.2457881714184307E+00   1.2426373109060009E+00
   1.2394944195830333E+00   1.2363594772937712E+00   1.2332324639334351E+00   1.2301133594480953E+00   1.2270021438345409E+00
   1.2238987971401556E+00   1.2208032994627858E+00   1.2177156309506170E+00   1.2146357718020400E+00   1.2115637022655321E+00
   1.2084994026395239E+00   1.2054428532722778E+00   1.2023940345617559E+00   1.1993529269555012E+00   1.1963195109505078E+00
   1.1932937670930970E+00   1.1902756759787929E+00   1.1872652182521972E+00   1.1842623746068663E+00   1.1812671257851846E+00
   1.1782794525782452E+00   1.1752993358257238E+00   1.1723267564157573E+00   1.1693616952848185E+00   1.1664041334175979E+00
   1.1634540518468786E+00   1.1605114316534175E+00   1.1575762539658185E+00   1.1546484999604212E+00   1.1517281508611674E+00
   1.1488151879394926E+00   1.1459095925141984E+00   1.1430113459513365E+00   1.1401204296640857E+00   1.1372368251126361E+00
   1.1343605138040695E+00   1.1314914772922400E+00   1.1286296971776537E+00   1.1257751551073558E+00   1.1229278327748082E+00
   1.1200877119197756E+00   1.1172547743282040E+00   1.1144290018321084E+00   1.1116103763094547E+00   1.1087988796840429E+00
   1.1059944939253896E+00   1.1031972010486188E+00   1.1004069831143366E+00   1.0976238222285255E+00   1.0948477005424246E+00
   1.0920786002524154E+00   1.0893165035999108E+00   1.0865613928712352E+00   1.0838132503975180E+00   1.0810720585545754E+00
   1.0783377997627999E+00   1.0756104564870443E+00   1.0728900112365136E+00   1.0701764465646504E+00   1.0674697450690225E+00
   1.0647698893912128E+00   1.0620768622167074E+00   1.0593906462747831E+00   1.0567112243383998E+00   1.0540385792240869E+00
   1.0513726937918364E+00   1.0487135509449872E+00   1.0460611336301229E+00   1.0434154248369572E+00   1.0407764075982273E+00
   1.0381440649895823E+00   1.0355183801294785E+00   1.0328993361790684E+00   1.0302869163420940E+00   1.0276811038647762E+00
   1.0250818820357146E+00   1.0224892341857699E+00   1.0199031436879662E+00   1.0173235939573799E+00   1.0147505684510341E+00
   1.0121840506677913E+00   1.0096240241482506E+00   1.0070704724746400E+00   1.0045233792707109E+00   1.0019827282016349E+00
   9.9944850297389520E-01   9.9692068733518791E-01   9.9439926507431242E-01   9.9188422002107157E-01   9.8937553604616291E-01
   9.8687319706108301E-01   9.8437718701801491E-01   9.8188748990973262E-01   9.7940408976949567E-01   9.7692697067094669E-01
   9.7445611672800814E-01   9.7199151209478318E-01   9.6953314096545218E-01   9.6708098757417227E-01   9.6463503619497393E-01
   9.6219527114166392E-01   9.5976167676772151E-01   9.5733423746620083E-01   9.5491293766962582E-01   9.5249776184989898E-01
   9.5008869451819178E-01   9.4768572022485309E-01   9.4528882355930599E-01   9.4289798914995138E-01   9.4051320166406582E-01
   9.3813444580770788E-01   9.3576170632561695E-01   9.3339496800111654E-01   9.3103421565601474E-01   9.2867943415051035E-01
   9.2633060838309300E-01   9.2398772329044832E-01   9.2165076384735811E-01   9.1931971506660703E-01   9.1699456199888807E-01
   9.1467528973270007E-01   9.1236188339425861E-01   9.1005432814739784E-01   9.0775260919347589E-01   9.0545671177127862E-01
   9.0316662115692725E-01   9.0088232266378232E-01   8.9860380164235110E-01   8.9633104348019010E-01   8.9406403360181586E-01
   8.9180275746860860E-01   8.8954720057872061E-01   8.8729734846698038E-01   8.8505318670480393E-01   8.8281470090009939E-01
   8.8058187669717614E-01   8.7835469977665026E-01   8.7613315585535612E-01   8.7391723068625460E-01   8.7170691005833700E-01
   8.6950217979653988E-01   8.6730302576164919E-01   8.6510943385021544E-01   8.6292138999445600E-01   8.6073888016217148E-01
   8.5856189035664976E-01   8.5639040661658372E-01   8.5422441501597290E-01   8.5206390166404200E-01   8.4990885270514493E-01
   8.4775925431868349E-01   8.4561509271901247E-01   8.4347635415535227E-01   8.4134302491170554E-01   8.3921509130676120E-01
   8.3709253969381492E-01   8.3497535646067422E-01   8.3286352802957875E-01   8.3075704085710544E-01   8.2865588143408786E-01
   8.2656003628552455E-01   8.2446949197049924E-01   8.2238423508208636E-01   8.2030425224727221E-01   8.1822953012686339E-01
   8.1616005541540748E-01   8.1409581484110261E-01   8.1203679516571392E-01   8.0998298318448769E-01   8.0793436572607080E-01
   8.0589092965242215E-01   8.0385266185872750E-01   8.0181954927331989E-01   7.9979157885759211E-01   7.9776873760591527E-01
   7.9575101254555280E-01   7.9373839073658059E-01   7.9173085927180153E-01   7.8972840527666410E-01   7.8773101590917816E-01
   7.8573867835983402E-01   7.8375137985152177E-01   7.8176910763944518E-01   7.7979184901104226E-01   7.7781959128590483E-01
   7.7585232181569741E-01   7.7389002798407169E-01   7.7193269720659086E-01   7.6998031693064628E-01   7.6803287463537828E-01
   7.6609035783159296E-01   7.6415275406168581E-01   7.6222005089956124E-01   7.6029223595055018E-01   7.5836929685133192E-01
   7.5645122126985598E-01   7.5453799690526346E-01   7.5262961148780472E-01   7.5072605277876514E-01   7.4882730857038104E-01
   7.4693336668576882E-01   7.4504421497883966E-01   7.4315984133422675E-01   7.4128023366720364E-01   7.3940537992361122E-01
   7.3753526807977521E-01   7.3566988614243412E-01   7.3380922214865718E-01   7.3195326416577433E-01   7.3010200029129135E-01
   7.2825541865282140E-01   7.2641350740800281E-01   7.2457625474442788E-01   7.2274364887956433E-01   7.2091567806067969E-01
   7.1909233056476596E-01   7.1727359469846785E-01   7.1545945879800299E-01   7.1364991122908872E-01   7.1184494038686918E-01
   7.1004453469583939E-01   7.0824868260977158E-01   7.0645737261163843E-01   7.0467059321354575E-01   7.0288833295665087E-01
   7.0111058041109564E-01   6.9933732417592742E-01   6.9756855287903219E-01   6.9580425517705746E-01   6.9404441975533904E-01
   6.9228903532783082E-01   6.9053809063703209E-01   6.8879157445391415E-01   6.8704947557784857E-01   6.8531178283653615E-01
   6.8357848508593444E-01   6.8184957121018763E-01   6.8012503012155234E-01   6.7840485076032975E-01   6.7668902209479398E-01
   6.7497753312111952E-01   6.7327037286331115E-01   6.7156753037313599E-01   6.6986899473005135E-01   6.6817475504113366E-01
   6.6648480044101122E-01   6.6479912009179098E-01   6.6311770318299501E-01   6.6144053893148314E-01   6.5976761658139094E-01
   6.5809892540405568E-01   6.5643445469795247E-01   6.5477419378861978E-01   6.5311813202859559E-01   6.5146625879734843E-01
   6.4981856350120681E-01   6.4817503557329281E-01   6.4653566447345479E-01   6.4490043968820121E-01   6.4326935073062785E-01
   6.4164238714035748E-01   6.4001953848346582E-01   6.3840079435242203E-01   6.3678614436601522E-01   6.3517557816929260E-01
   6.3356908543348889E-01   6.3196665585596568E-01   6.3036827916013904E-01   6.2877394509541917E-01   6.2718364343713950E-01
   6.2559736398649690E-01   6.2401509657048049E-01   6.2243683104181058E-01   6.2086255727887074E-01   6.1929226518564628E-01
   6.1772594469165609E-01   6.1616358575188890E-01   6.1460517834674067E-01   6.1305071248194842E-01   6.1150017818852709E-01
   6.0995356552270408E-01   6.0841086456585824E-01   6.0687206542445404E-01   6.0533715822997891E-01   6.0380613313887921E-01
   6.0227898033249794E-01   6.0075569001701301E-01   5.9923625242337109E-01   5.9772065780722650E-01   5.9620889644888131E-01
   5.9470095865321948E-01   5.9319683474964524E-01   5.9169651509202259E-01   5.9019999005861268E-01   5.8870725005201208E-01
   5.8721828549909050E-01   5.8573308685093051E-01   5.8425164458276646E-01   5.8277394919392256E-01   5.8129999120775089E-01
   5.7982976117157359E-01   5.7836324965662045E-01   5.7690044725796785E-01   5.7544134459447915E-01   5.7398593230874495E-01
   5.7253420106702357E-01   5.7108614155917825E-01   5.6964174449862137E-01   5.6820100062225121E-01   5.6676390069039695E-01
   5.6533043548675388E-01   5.6390059581832974E-01   5.6247437251538068E-01   5.6105175643135852E-01   5.5963273844284456E-01
   5.5821730944949854E-01   5.5680546037399403E-01   5.5539718216196554E-01   5.5399246578194694E-01   5.5259130222531372E-01
   5.5119368250622613E-01   5.4979959766157305E-01   5.4840903875091207E-01   5.4702199685641129E-01   5.4563846308279729E-01
   5.4425842855729112E-01   5.4288188442955732E-01   5.4150882187164262E-01   5.4013923207792414E-01   5.3877310626504760E-01
   5.3741043567187563E-01   5.3605121155942725E-01   5.3469542521082669E-01   5.3334306793124353E-01   5.3199413104783844E-01
   5.3064860590970664E-01   5.2930648388782497E-01   5.2796775637499405E-01   5.2663241478578282E-01   5.2530045055647556E-01
   5.2397185514501621E-01   5.2264662003095219E-01   5.2132473671538093E-01   5.2000619672089599E-01   5.1869099159153154E-01
   5.1737911289270877E-01   5.1607055221118070E-01   5.1476530115497965E-01   5.1346335135336374E-01   5.1216469445676105E-01
   5.1086932213671721E-01   5.0957722608584244E-01   5.0828839801775905E-01   5.0700282966704524E-01   5.0572051278918562E-01
   5.0444143916051454E-01   5.0316560057816884E-01   5.0189298886002864E-01   5.0062359584466976E-01   4.9935741339130985E-01
   4.9809443337975551E-01   4.9683464771035057E-01   4.9557804830392460E-01   4.9432462710174163E-01   4.9307437606544602E-01
   4.9182728717701402E-01   4.9058335243869911E-01   4.8934256387298469E-01   4.8810491352252827E-01   4.8687039345011485E-01
   4.8563899573860175E-01   4.8441071249087286E-01   4.8318553582978196E-01   4.8196345789810796E-01   4.8074447085849975E-01
   4.7952856689343054E-01   4.7831573820514262E-01   4.7710597701560192E-01   4.7589927556644435E-01   4.7469562611893007E-01
   4.7349502095388996E-01   4.7229745237167792E-01   4.7110291269212085E-01   4.6991139425447126E-01   4.6872288941735596E-01
   4.6753739055872667E-01   4.6635489007581349E-01   4.6517538038507422E-01   4.6399885392214685E-01   4.6282530314179937E-01
   4.6165472051788292E-01   4.6048709854328379E-01   4.5932242972987353E-01   4.5816070660846159E-01   4.5700192172874887E-01
   4.5584606765927771E-01   4.5469313698738534E-01   4.5354312231915556E-01   4.5239601627937293E-01   4.5125181151147409E-01
   4.5011050067749991E-01   4.4897207645805010E-01   4.4783653155223541E-01   4.4670385867763052E-01   4.4557405057022709E-01
   4.4444709998438808E-01   4.4332299969280170E-01   4.4220174248643196E-01   4.4108332117447568E-01   4.3996772858431460E-01
   4.3885495756147141E-01   4.3774500096955976E-01   4.3663785169024300E-01   4.3553350262318430E-01   4.3443194668600582E-01
   4.3333317681423822E-01   4.3223718596127880E-01   4.3114396709834379E-01   4.3005351321442670E-01   4.2896581731624889E-01
   4.2788087242821787E-01   4.2679867159238044E-01   4.2571920786838097E-01   4.2464247433341257E-01   4.2356846408217563E-01
   4.2249717022683375E-01   4.2142858589696647E-01   4.2036270423952882E-01   4.1929951841880364E-01   4.1823902161636145E-01
   4.1718120703101313E-01   4.1612606787876866E-01   4.1507359739279148E-01   4.1402378882335805E-01   4.1297663543780988E-01
   4.1193213052051514E-01   4.1089026737282103E-01   4.0985103931301509E-01   4.0881443967627784E-01   4.0778046181464361E-01
   4.0674909909695434E-01   4.0572034490882092E-01   4.0469419265257711E-01   4.0367063574723805E-01   4.0264966762845927E-01
   4.0163128174849250E-01   4.0061547157614552E-01   3.9960223059673733E-01   3.9859155231205923E-01   3.9758343024033116E-01
   3.9657785791616046E-01   3.9557482889049961E-01   3.9457433673060532E-01   3.9357637501999815E-01   3.9258093735841842E-01
   3.9158801736178667E-01   3.9059760866216242E-01   3.8960970490770380E-01   3.8862429976262447E-01   3.8764138690715477E-01
   3.8666096003749972E-01   3.8568301286579937E-01   3.8470753912008665E-01   3.8373453254424866E-01   3.8276398689798541E-01
   3.8179589595676927E-01   3.8083025351180466E-01   3.7986705336998855E-01   3.7890628935387127E-01   3.7794795530161374E-01
   3.7699204506694978E-01   3.7603855251914609E-01   3.7508747154296351E-01   3.7413879603861400E-01   3.7319251992172525E-01
   3.7224863712329814E-01   3.7130714158967060E-01   3.7036802728247448E-01   3.6943128817859977E-01   3.6849691827015307E-01
   3.6756491156442139E-01   3.6663526208383007E-01   3.6570796386590648E-01   3.6478301096323928E-01   3.6386039744344256E-01
   3.6294011738911364E-01   3.6202216489779820E-01   3.6110653408194826E-01   3.6019321906888807E-01   3.5928221400077215E-01
   3.5837351303454890E-01   3.5746711034192197E-01   3.5656300010931308E-01   3.5566117653782342E-01   3.5476163384319498E-01
   3.5386436625577555E-01   3.5296936802047724E-01   3.5207663339674211E-01   3.5118615665850239E-01   3.5029793209414500E-01
   3.4941195400647262E-01   3.4852821671266648E-01   3.4764671454424945E-01   3.4676744184704972E-01   3.4589039298116242E-01
   3.4501556232091235E-01   3.4414294425481834E-01   3.4327253318555573E-01   3.4240432352991901E-01   3.4153830971878546E-01
   3.4067448619707874E-01   3.3981284742373169E-01   3.3895338787165047E-01   3.3809610202767659E-01   3.3724098439255196E-01
   3.3638802948088264E-01   3.3553723182110062E-01   3.3468858595542900E-01   3.3384208643984536E-01   3.3299772784404674E-01
   3.3215550475141087E-01   3.3131541175896312E-01   3.3047744347733726E-01   3.2964159453074354E-01   3.2880785955692871E-01
   3.2797623320714320E-01   3.2714671014610286E-01   3.2631928505195601E-01   3.2549395261624475E-01   3.2467070754387117E-01
