DATE: 2025-03-25 UNITS: metal CONTRIBUTOR: Ting Lei, leiting@imech.ac.cn
 Reference: Wu Y, Yu W, Shen S, Materials & Design, 2023, 230: 111999.
 Reference: X. W. Zhou, R. A. Johnson, H. N. G. Wadley, Phys. Rev. B, 69, 144113(2004)
5     Hf Nb Ta Ti Zr          
2000  1.5055112571731604e+00   2000  2.2296919745444150e-03   4.4571542571142855e+00  
   72       178.49000         2.62986      bcc
   0.0000000000000000E+00  -4.9011127476913074E-01  -9.4105440647312033E-01  -1.3545370662741689E+00  -1.7322659253344794E+00
  -2.0759476548162521E+00  -2.3872889258816890E+00  -2.6679964096929925E+00  -2.9197767774123657E+00  -3.1443367002020075E+00
  -3.3433828492241200E+00  -3.5186218956409063E+00  -3.6717605106145679E+00  -3.8045053653073064E+00  -3.9185631308813234E+00
  -4.0156404784988204E+00  -4.0974440793219982E+00  -4.1656806045130610E+00  -4.2220567252342089E+00  -4.2682791126476438E+00
  -4.3060544379155683E+00  -4.3370893722001824E+00  -4.3630905866636898E+00  -4.3846221206717662E+00  -4.3997827918656736E+00
  -4.4089207660720460E+00  -4.4125286682102969E+00  -4.4110140131712559E+00  -4.4041514254610403E+00  -4.3914303431785564E+00
  -4.3723388262397940E+00  -4.3488965731965399E+00  -4.3250393924581019E+00  -4.3008602131313101E+00  -4.2763900832070734E+00
  -4.2516569427590207E+00  -4.2266859975054754E+00  -4.2015000393589297E+00  -4.1761197226263915E+00  -4.1505638029276248E+00
  -4.1248493446281040E+00  -4.0989919015665315E+00  -4.0730056750377610E+00  -4.0469036523287905E+00  -4.0206977285655849E+00
  -3.9943988141867672E+00  -3.9680169299971704E+00  -3.9415612914543923E+00  -3.9150403835928813E+00  -3.8884620277829907E+00
  -3.8618334413493725E+00  -3.8351612909278128E+00  -3.8084517403172460E+00  -3.7817104934803374E+00  -3.7549428332583377E+00
  -3.7281536562913122E+00  -3.7013475045712907E+00  -3.6745285940013637E+00  -3.6477008402870923E+00  -3.6208678824463254E+00
  -3.5940331041889060E+00  -3.5671996533876742E+00  -3.5403704598362058E+00  -3.5135482514661045E+00  -3.4867355691769513E+00
  -3.4599347804148528E+00  -3.4331480916204504E+00  -3.4063775596541093E+00  -3.3796251022943715E+00  -3.3528925078956018E+00
  -3.3261814442817341E+00  -3.2994934669451146E+00  -3.2728300266123798E+00  -3.2461924762330829E+00  -3.2195820774412796E+00
  -3.1930000065353030E+00  -3.1664473600166501E+00  -3.1399251597249216E+00  -3.1134343576023054E+00  -3.0869758401179599E+00
  -3.0605504323798423E+00  -3.0341589019590178E+00  -3.0078019624492494E+00  -2.9814802767825790E+00  -2.9551944603198685E+00
  -2.9289450837335287E+00  -2.9027326756982332E+00  -2.8765577254040640E+00  -2.8504206849052682E+00  -2.8243219713167647E+00
  -2.7982619688695118E+00  -2.7722410308348979E+00  -2.7462594813275643E+00  -2.7203176169952767E+00  -2.6944157086037466E+00
  -2.6685540025237615E+00  -2.6427327221273029E+00  -2.6169520690989563E+00  -2.5912122246682543E+00  -2.5655133507683541E+00
  -2.5398555911259022E+00  -2.5142390722866343E+00  -2.4886639045809655E+00  -2.4631301830333956E+00  -2.4376379882194250E+00
  -2.4121873870732831E+00  -2.3867784336496065E+00  -2.3614111698419848E+00  -2.3360856260610254E+00  -2.3108018218744921E+00
  -2.2855597666118141E+00  -2.2603594599351635E+00  -2.2352008923791202E+00  -2.2100840458608149E+00  -2.1850088941623134E+00
  -2.1599754033868970E+00  -2.1349835323907649E+00  -2.1100332331916110E+00  -2.0851244513554148E+00  -2.0602571263626963E+00
  -2.0354311919554333E+00  -2.0106465764657151E+00  -1.9859032031272070E+00  -1.9612009903703500E+00  -1.9365398521022341E+00
  -1.9119196979720026E+00  -1.8873404336225563E+00  -1.8628019609293383E+00  -1.8383041782269038E+00  -1.8138469805239250E+00
  -1.7894302597072627E+00  -1.7650539047356941E+00  -1.7407178018238478E+00  -1.7164218346168725E+00  -1.6921658843563099E+00
  -1.6679498300376649E+00  -1.6437735485600795E+00  -1.6196369148685352E+00  -1.5955398020889691E+00  -1.5714820816566719E+00
  -1.5474636234383057E+00  -1.5234842958478683E+00  -1.4995439659569241E+00  -1.4756424995993678E+00  -1.4517797614710224E+00
  -1.4279556152243131E+00  -1.4041699235582696E+00  -1.3804225483040864E+00  -1.3567133505064646E+00  -1.3330421905009364E+00
  -1.3094089279873828E+00  -1.2858134220999184E+00  -1.2622555314733208E+00  -1.2387351143061704E+00  -1.2152520284208934E+00
  -1.1918061313207851E+00  -1.1683972802442484E+00  -1.1450253322162993E+00  -1.1216901440975207E+00  -1.0983915726305771E+00
  -1.0751294744843840E+00  -1.0519037062960688E+00  -1.0287141247108158E+00  -1.0055605864196910E+00  -9.8244294819555633E-01
  -9.5936106692713330E-01  -9.3631479965134790E-01  -9.1330400358398467E-01  -8.9032853614877583E-01  -8.6738825500495598E-01
  -8.4448301807338821E-01  -8.2161268356130701E-01  -7.9877710998575102E-01  -7.7597615619573213E-01  -7.5320968139322131E-01
  -7.3047754515298113E-01  -7.0777960744131729E-01  -6.8511572863379011E-01  -6.6248576953192684E-01  -6.3988959137899537E-01
  -6.1732705587485837E-01  -5.9479802518999136E-01  -5.7230236197865170E-01  -5.4983992939126880E-01  -5.2741059108608390E-01
  -5.0501421124008117E-01  -4.8265065455921596E-01  -4.6031978628800319E-01  -4.3802147221848331E-01  -4.1575557869857549E-01
  -3.9352197263988303E-01  -3.7132052152494061E-01  -3.4915109341394851E-01  -3.2701355695100909E-01  -3.0490778136989943E-01
  -2.8283363649937548E-01  -2.6079099276805862E-01  -2.3877972120891280E-01  -2.1679969346331238E-01  -1.9485078178475723E-01
  -1.7293285904221714E-01  -1.5104579872313159E-01  -1.2918947493608893E-01  -1.0736376241321141E-01  -8.5568536512202656E-02
  -6.3803673218157997E-02  -4.2069049145078349E-02  -2.0364541537126555E-02   1.3099717303431697E-03   2.2954612150015725E-02
   4.4569500582032150E-02   6.6154757253661697E-02   8.7710501759141649E-02   1.0923685305973203E-01   1.3073392948393470E-01
   1.5220184872789583E-01   1.7364072785599194E-01   1.9505068330153633E-01   2.1643183086767165E-01   2.3778428572837923E-01
   2.5910816242964707E-01   2.8040357489074086E-01   3.0167063640562902E-01   3.2290945964449014E-01   3.4412015665536011E-01
   3.6530283886585613E-01   3.8645761708504073E-01   4.0758460150532183E-01   4.2868390170449783E-01   4.4975562664785157E-01
   4.7079988469033940E-01   4.9181678357884212E-01   5.1280643045451058E-01   5.3376893185515295E-01   5.5470439371769420E-01
   5.7561292138069364E-01   5.9649461958693317E-01   6.1734959248603272E-01   6.3817794363712721E-01   6.5897977601159685E-01
   6.7975519199582557E-01   7.0050429339400833E-01   7.2122718143099229E-01   7.4192395675516809E-01   7.6259471944135393E-01
   7.8323956899375391E-01   8.0385860434893086E-01   8.2445192387878363E-01   8.4501962539356390E-01   8.6556180614492506E-01
   8.8607856282896857E-01   9.0656999158933349E-01   9.2703618802025589E-01   9.4747724716970483E-01   9.6789326354248040E-01
   9.8828433110334934E-01   1.0086505432801689E+00   1.0289919929670484E+00   1.0493087725274881E+00   1.0696009737975396E+00
   1.0898686880889756E+00   1.1101120061924281E+00   1.1303310183805877E+00   1.1505258144113406E+00   1.1706964835309546E+00
   1.1908431144772349E+00   1.2109657954826820E+00   1.2310646142776709E+00   1.2511396580935865E+00   1.2711910136659830E+00
   1.2912187672377342E+00   1.3112230045621640E+00   1.3312038109061886E+00   1.3511612710534322E+00   1.3710954693073631E+00
   1.3910064894943808E+00   1.4108944149669234E+00   1.4307593286065658E+00   1.4506013128270829E+00   1.4704204495775350E+00
   1.4902168203453141E+00   1.5099905061591972E+00   1.5297415875923710E+00   1.5494701447654604E+00   1.5691762573495389E+00
   1.5888600045691115E+00   1.6085214652051114E+00   1.6281607175978634E+00   1.6477778396500231E+00   1.6673729088295466E+00
   1.6869460021725839E+00   1.7064971962864108E+00   1.7260265673523105E+00   1.7455341911284667E+00   1.7650201429528147E+00
   1.7844844977458878E+00   1.8039273300136789E+00   1.8233487138504199E+00   1.8427487229413970E+00   1.8621274305657525E+00
   1.8814849095992230E+00   1.9008212325169140E+00   1.9201364713960221E+00   1.9394306979185645E+00   1.9587039833740700E+00
   1.9779563986622752E+00   1.9971880142957781E+00   2.0163989004027054E+00   2.0355891267293331E+00   2.0547587626427193E+00
   2.0739078771332866E+00   2.0930365388174210E+00   2.1121448159400305E+00   2.1312327763770895E+00   2.1503004876381890E+00
   2.1693480168690331E+00   2.1883754308539425E+00   2.2073827960183423E+00   2.2263701784312144E+00   2.2453376438075558E+00
   2.2642852575108043E+00   2.2832130845552521E+00   2.3021211896084322E+00   2.3210096369935158E+00   2.3398784906916630E+00
   2.3587278143443688E+00   2.3775576712557949E+00   2.3963681243950821E+00   2.4151592363986416E+00   2.4339310695724432E+00
   2.4526836858942667E+00   2.4714171470159503E+00   2.4901315142656308E+00   2.5088268486499419E+00   2.5275032108562194E+00
   2.5461606612546905E+00   2.5647992599006133E+00   2.5834190665364472E+00   2.6020201405939853E+00   2.6206025411964591E+00
   2.6391663271606483E+00   2.6577115569989629E+00   2.6762382889215153E+00   2.6947465808381703E+00   2.7132364903605950E+00
   2.7317080748042568E+00   2.7501613911904697E+00   2.7685964962483487E+00   2.7870134464168141E+00   2.8054122978465461E+00
   2.8237931064019217E+00   2.8421559276629691E+00   2.8605008169272708E+00   2.8788278292118687E+00   2.8971370192551587E+00
   2.9154284415187579E+00   2.9337021501893767E+00   2.9519581991806545E+00   2.9701966421349892E+00   2.9884175324253692E+00
   3.0066209231571621E+00   3.0248068671699131E+00   3.0429754170391243E+00   3.0611266250780016E+00   3.0792605433392195E+00
   3.0973772236166641E+00   3.1154767174471130E+00   3.1335590761120056E+00   3.1516243506390804E+00   3.1696725918041002E+00
   3.1877038501324995E+00   3.2057181759010431E+00   3.2237156191394822E+00   3.2416962296321654E+00   3.2596600569196741E+00
   3.2776071503004203E+00   3.2955375588322413E+00   3.3134513313339853E+00   3.3313485163870773E+00   3.3492291623370662E+00
   3.3670933172951854E+00   3.3849410291398789E+00   3.4027723455183123E+00   3.4205873138479035E+00   3.4383859813177984E+00
   3.4561683948903736E+00   3.4739346013026910E+00   3.4916846470679852E+00   3.5094185784770957E+00   3.5271364415999109E+00
   3.5448382822868072E+00   3.5625241461700550E+00   3.5801940786652358E+00   3.5978481249726229E+00   3.6154863300785944E+00
   3.6331087387569774E+00   3.6507153955704275E+00   3.6683063448717901E+00   3.6858816308054192E+00   3.7034412973085402E+00
   3.7209853881125547E+00   3.7385139467443493E+00   3.7560270165276082E+00   3.7735246405841028E+00   3.7910068618349797E+00
   3.8084737230020087E+00   3.8259252666088801E+00   3.8433615349824408E+00   3.8607825702539276E+00   3.8781884143602214E+00
   3.8955791090450531E+00   3.9129546958602406E+00   3.9303152161668655E+00   3.9476607111365003E+00   3.9649912217523742E+00
   3.9823067888105532E+00   3.9996074529211318E+00   4.0168932545093581E+00   4.0341642338168144E+00   4.0514204309025459E+00
   4.0686618856441994E+00   4.0858886377391510E+00   4.1031007267056125E+00   4.1202981918837578E+00   4.1374810724368025E+00
   4.1546494073521139E+00   4.1718032354422778E+00   4.1889425953461989E+00   4.2060675255301367E+00   4.2231780642887795E+00
   4.2402742497463075E+00   4.2573561198574179E+00   4.2744237124083675E+00   4.2914770650179896E+00   4.3085162151387495E+00
   4.3255412000577023E+00   4.3425520568975475E+00   4.3595488226175991E+00   4.3765315340147719E+00   4.3935002277245916E+00
   4.4104549402221345E+00   4.4273957078230204E+00   4.4443225666843640E+00   4.4612355528057304E+00   4.4781347020300757E+00
   4.4950200500446913E+00   4.5118916323821381E+00   4.5287494844211658E+00   4.5455936413876357E+00   4.5624241383554338E+00
   4.5792410102473680E+00   4.5960442918360682E+00   4.6128340177448921E+00   4.6296102224487914E+00   4.6463729402751994E+00
   4.6631222054048962E+00   4.6798580518728894E+00   4.6965805135692547E+00   4.7132896242400077E+00   4.7299854174879261E+00
   4.7466679267734211E+00   4.7633371854153408E+00   4.7799932265918263E+00   4.7966360833411086E+00   4.8132657885623482E+00
   4.8298823750164273E+00   4.8464858753267581E+00   4.8630763219800954E+00   4.8796537473273069E+00   4.8962181835841836E+00
   4.9127696628321997E+00   4.9293082170192983E+00   4.9458338779606716E+00   4.9623466773395029E+00   4.9788466467077468E+00
   4.9953338174868689E+00   5.0118082209686019E+00   5.0282698883156822E+00   5.0447188505625915E+00   5.0611551386162974E+00
   5.0775787832569597E+00   5.0939898151386673E+00   5.1103882647901555E+00   5.1267741626155061E+00   5.1431475388948735E+00
   5.1595084237851578E+00   5.1758568473207269E+00   5.1921928394141004E+00   5.2085164298566289E+00   5.2248276483191862E+00
   5.2411265243528353E+00   5.2574130873895157E+00   5.2736873667426876E+00   5.2899493916080287E+00   5.3061991910640520E+00
   5.3224367940727957E+00   5.3386622294804482E+00   5.3548755260180041E+00   5.3710767123018925E+00   5.3872658168346259E+00
   5.4034428680054338E+00   5.4196078940908663E+00   5.4357609232554367E+00   5.4519019835522364E+00   5.4680311029235442E+00
   5.4841483092014363E+00   5.5002536301083920E+00   5.5163470932578864E+00   5.5324287261550182E+00   5.5484985561970541E+00
   5.5645566106740576E+00   5.5806029167694513E+00   5.5966375015606120E+00   5.6126603920194373E+00   5.6286716150129124E+00
   5.6446711973037038E+00   5.6606591655506859E+00   5.6766355463095426E+00   5.6926003660332984E+00   5.7085536510728732E+00
   5.7244954276776356E+00   5.7404257219959645E+00   5.7563445600757595E+00   5.7722519678650048E+00   5.7881479712122923E+00
   5.8040325958673558E+00   5.8199058674815989E+00   5.8357678116086200E+00   5.8516184537047264E+00   5.8674578191294602E+00
   5.8832859331461087E+00   5.8991028209222014E+00   5.9149085075300389E+00   5.9307030179471898E+00   5.9464863770569707E+00
   5.9622586096489689E+00   5.9780197404195183E+00   5.9937697939722048E+00   6.0095087948183314E+00   6.0252367673774287E+00
   6.0409537359776975E+00   6.0566597248565293E+00   6.0723547581609578E+00   6.0880388599481137E+00   6.1037120541857242E+00
   6.1193743647525629E+00   6.1350258154389046E+00   6.1506664299469884E+00   6.1662962318914856E+00   6.1819152447999377E+00
   6.1975234921131950E+00   6.2131209971859009E+00   6.2287077832868949E+00   6.2442838735996737E+00   6.2598492912228298E+00
   6.2754040591704809E+00   6.2909482003727017E+00   6.3064817376759574E+00   6.3220046938435237E+00   6.3375170915559202E+00
   6.3530189534113175E+00   6.3685103019259772E+00   6.3839911595346361E+00   6.3994615485909554E+00   6.4149214913678954E+00
   6.4303710100581561E+00   6.4458101267745525E+00   6.4612388635504425E+00   6.4766572423401048E+00   6.4920652850191569E+00
   6.5074630133849318E+00   6.5228504491568762E+00   6.5382276139769528E+00   6.5535945294099953E+00   6.5689512169441402E+00
   6.5842976979911665E+00   6.5996339938868989E+00   6.6149601258915665E+00   6.6302761151902097E+00   6.6455819828930220E+00
   6.6608777500357226E+00   6.6761634375799561E+00   6.6914390664136141E+00   6.7067046573512350E+00   6.7219602311343332E+00
   6.7372058084317974E+00   6.7524414098402064E+00   6.7676670558842122E+00   6.7828827670168685E+00   6.7980885636200155E+00
   6.8132844660045864E+00   6.8284704944109755E+00   6.8436466690093969E+00   6.8588130099001852E+00   6.8739695371141725E+00
   6.8891162706129965E+00   6.9042532302894664E+00   6.9193804359678621E+00   6.9344979074042961E+00   6.9496056642870183E+00
   6.9647037262367659E+00   6.9797921128070559E+00   6.9948708434845486E+00   7.0099399376893237E+00   7.0249994147752437E+00
   7.0400492940302417E+00   7.0550895946766357E+00   7.0701203358714695E+00   7.0851415367067920E+00   7.1001532162099732E+00
   7.1151553933440379E+00   7.1301480870079388E+00   7.1451313160368635E+00   7.1601050992025685E+00   7.1750694552136336E+00
   7.1900244027157969E+00   7.2049699602922344E+00   7.2199061464638534E+00   7.2348329796895952E+00   7.2497504783667104E+00
   7.2646586608310715E+00   7.2795575453574344E+00   7.2944471501597494E+00   7.3093274933914234E+00   7.3241985931456135E+00
   7.3390604674555071E+00   7.3539131342946149E+00   7.3687566115770018E+00   7.3835909171576288E+00   7.3984160688325655E+00
   7.4132320843393140E+00   7.4280389813570400E+00   7.4428367775068631E+00   7.4576254903521217E+00   7.4724051373986375E+00
   7.4871757360949704E+00   7.5019373038327108E+00   7.5166898579466999E+00   7.5314334157153233E+00   7.5461679943607578E+00
   7.5608936110492202E+00   7.5756102828912315E+00   7.5903180269418833E+00   7.6050168602010624E+00   7.6197067996137209E+00
   7.6343878620701160E+00   7.6490600644060729E+00   7.6637234234032077E+00   7.6783779557891991E+00   7.6930236782380188E+00
   7.7076606073701663E+00   7.7222887597529173E+00   7.7369081519005789E+00   7.7515188002746980E+00   7.7661207212843237E+00
   7.7807139312862237E+00   7.7952984465851243E+00   7.8098742834339614E+00   7.8244414580340838E+00   7.8389999865354962E+00
   7.8535498850370979E+00   7.8680911695868812E+00   7.8826238561821986E+00   7.8971479607699502E+00   7.9116634992468287E+00
   7.9261704874595331E+00   7.9406689412049953E+00   7.9551588762305974E+00   7.9696403082343839E+00   7.9841132528652929E+00
   7.9985777257233650E+00   8.0130337423599496E+00   8.0274813182779283E+00   8.0419204689319379E+00   8.0563512097285592E+00
   8.0707735560265306E+00   8.0851875231369839E+00   8.0995931263236134E+00   8.1139903808029121E+00   8.1283793017443635E+00
   8.1427599042706476E+00   8.1571322034578451E+00   8.1714962143356473E+00   8.1858519518875354E+00   8.2001994310510060E+00
   8.2145386667177576E+00   8.2288696737338789E+00   8.2431924669000605E+00   8.2575070609717898E+00   8.2718134706595414E+00
   8.2861117106289583E+00   8.3004017955010578E+00   8.3146837398524323E+00   8.3289575582154090E+00   8.3432232650782705E+00
   8.3574808748854288E+00   8.3717304020376151E+00   8.3859718608920382E+00   8.4002052657626312E+00   8.4144306309201813E+00
   8.4286479705925235E+00   8.4428572989647517E+00   8.4570586301793522E+00   8.4712519783364133E+00   8.4854373574938258E+00
   8.4996147816674039E+00   8.5137842648311093E+00   8.5279458209172105E+00   8.5420994638164451E+00   8.5562452073782307E+00
   8.5703830654108089E+00   8.5845130516814070E+00   8.5986351799164371E+00   8.6127494638016628E+00   8.6268559169823593E+00
   8.6409545530634801E+00   8.6550453856098279E+00   8.6691284281462320E+00   8.6832036941576920E+00   8.6972711970895737E+00
   8.7113309503477350E+00   8.7253829672987244E+00   8.7394272612699275E+00   8.7534638455497262E+00   8.7674927333876642E+00
   8.7815139379946050E+00   8.7955274725428936E+00   8.8095333501665198E+00   8.8235315839612607E+00   8.8375221869848435E+00
   8.8515051722571005E+00   8.8654805527601521E+00   8.8794483414384970E+00   8.8934085511992329E+00   8.9073611949121787E+00
   8.9213062854100009E+00   8.9352438354884267E+00   8.9491738579063256E+00   8.9630963653859261E+00   8.9770113706128996E+00
   8.9909188862365568E+00   9.0048189248699586E+00   9.0187114990901023E+00   9.0325966214380351E+00   9.0464743044189966E+00
   9.0603445605025943E+00   9.0742074021229193E+00   9.0880628416786795E+00   9.1019108915333948E+00   9.1157515640154667E+00
   9.1295848714183805E+00   9.1434108260007978E+00   9.1572294399867360E+00   9.1710407255656605E+00   9.1848446948926767E+00
   9.1986413600886081E+00   9.2124307332401880E+00   9.2262128264001433E+00   9.2399876515873949E+00   9.2537552207871094E+00
   9.2675155459508893E+00   9.2812686389969024E+00   9.2950145118099918E+00   9.3087531762418081E+00   9.3224846441109737E+00
   9.3362089272031650E+00   9.3499260372712829E+00   9.3636359860355522E+00   9.3773387851836691E+00   9.3910344463709059E+00
   9.4047229812202637E+00   9.4184044013226078E+00   9.4320787182367241E+00   9.4457459434895341E+00   9.4594060885761522E+00
   9.4730591649600484E+00   9.4867051840731556E+00   9.5003441573159879E+00   9.5139760960577764E+00   9.5276010116365590E+00
   9.5412189153593552E+00   9.5548298185022364E+00   9.5684337323104689E+00   9.5820306679986107E+00   9.5956206367506773E+00
   9.6092036497202020E+00   9.6227797180303831E+00   9.6363488527741978E+00   9.6499110650145283E+00   9.6634663657842470E+00
   9.6770147660863479E+00   9.6905562768940818E+00   9.7040909091510219E+00   9.7176186737712342E+00   9.7311395816393471E+00
   9.7446536436106630E+00   9.7581608705113041E+00   9.7716612731382906E+00   9.7851548622596702E+00   9.7986416486146073E+00
   9.8121216429135139E+00   9.8255948558381618E+00   9.8390612980417469E+00   9.8525209801490572E+00   9.8659739127565409E+00
   9.8794201064324216E+00   9.8928595717167962E+00   9.9062923191217784E+00   9.9197183591315383E+00   9.9331377022024689E+00
   9.9465503587632504E+00   9.9599563392149957E+00   9.9733556539312840E+00   9.9867483132583477E+00   1.0000134327515097E+01
   1.0013513706993265E+01   1.0026886461957520E+01   1.0040252602645531E+01   1.0053612139268074E+01   1.0066965082009157E+01
   1.0080311441026099E+01   1.0093651226449614E+01   1.0106984448383971E+01   1.0120311116906992E+01   1.0133631242070246E+01
   1.0146944833899093E+01   1.0160251902392794E+01   1.0173552457524588E+01   1.0186846509241843E+01   1.0200134067466076E+01
   1.0213415142093101E+01   1.0226689742993100E+01   1.0239957880010733E+01   1.0253219562965214E+01   1.0266474801650403E+01
   1.0279723605834926E+01   1.0292965985262226E+01   1.0306201949650699E+01   1.0319431508693734E+01   1.0332654672059849E+01
   1.0345871449392771E+01   1.0359081850311490E+01   1.0372285884410404E+01   1.0385483561259369E+01   1.0398674890403797E+01
   1.0411859881364743E+01   1.0425038543639010E+01   1.0438210886699201E+01   1.0451376919993850E+01   1.0464536652947473E+01
   1.0477690094960657E+01   1.0490837255410181E+01   1.0503978143649046E+01   1.0517112769006607E+01   1.0530241140788636E+01
   1.0543363268277401E+01   1.0556479160731779E+01   1.0569588827387301E+01   1.0582692277456257E+01   1.0595789520127779E+01
   1.0608880564567905E+01   1.0621965419919691E+01   1.0635044095303266E+01   1.0648116599815936E+01   1.0661182942532232E+01
   1.0674243132504010E+01   1.0687297178760552E+01   1.0700345090308607E+01   1.0713386876132510E+01   1.0726422545194195E+01
   1.0739452106433358E+01   1.0752475568767474E+01   1.0765492941091908E+01   1.0778504232279980E+01   1.0791509451183003E+01
   1.0804508606630463E+01   1.0817501707429987E+01   1.0830488762367457E+01   1.0843469780207137E+01   1.0856444769691656E+01
   1.0869413739542145E+01   1.0882376698458319E+01   1.0895333655118494E+01   1.0908284618179721E+01   1.0921229596277819E+01
   1.0934168598027476E+01   1.0947101632022312E+01   1.0960028706834949E+01   1.0972949831017058E+01   1.0985865013099504E+01
   1.0998774261592333E+01   1.1011677584984911E+01   1.1024574991745943E+01   1.1037466490323579E+01   1.1050352089145463E+01
   1.1063231796618823E+01   1.1076105621130530E+01   1.1088973571047164E+01   1.1101835654715098E+01   1.1114691880460525E+01
   1.1127542256589596E+01   1.1140386791388426E+01   1.1153225493123207E+01   1.1166058370040224E+01   1.1178885430365993E+01
   1.1191706682307249E+01   1.1204522134051095E+01   1.1217331793764986E+01   1.1230135669596859E+01   1.1242933769675167E+01
   1.1255726102108964E+01   1.1268512674987951E+01   1.1281293496382549E+01   1.1294068574343965E+01   1.1306837916904266E+01
   1.1319601532076421E+01   1.1332359427854382E+01   1.1345111612213138E+01   1.1357858093108819E+01   1.1370598878478665E+01
   1.1383333976241206E+01   1.1396063394296213E+01   1.1408787140524863E+01   1.1421505222789728E+01   1.1434217648934847E+01
   1.1446924426785841E+01   1.1459625564149894E+01   1.1472321068815880E+01   1.1485010948554399E+01   1.1497695211117838E+01
   1.1510373864240394E+01   1.1523046915638234E+01   1.1535714373009442E+01   1.1548376244034149E+01   1.1561032536374565E+01
   1.1573683257675047E+01   1.1586328415562152E+01   1.1598968017644699E+01   1.1611602071513838E+01   1.1624230584743080E+01
   1.1636853564888382E+01   1.1649471019488193E+01   1.1662082956063507E+01   1.1674689382117933E+01   1.1687290305137740E+01
   1.1699885732591913E+01   1.1712475671932227E+01   1.1725060130593278E+01   1.1737639115992566E+01   1.1750212635530508E+01
   1.1762780696590552E+01   1.1775343306539179E+01   1.1787900472726008E+01   1.1800452202483783E+01   1.1812998503128496E+01
   1.1825539381959402E+01   1.1838074846259094E+01   1.1850604903293528E+01   1.1863129560312114E+01   1.1875648824547739E+01
   1.1888162703216832E+01   1.1900671203519423E+01   1.1913174332639176E+01   1.1925672097743480E+01   1.1938164505983432E+01
   1.1950651564493977E+01   1.1963133280393897E+01   1.1975609660785871E+01   1.1988080712756547E+01   1.2000546443376599E+01
   1.2013006859700729E+01   1.2025461968767766E+01   1.2037911777600703E+01   1.2050356293206745E+01   1.2062795522577350E+01
   1.2075229472688306E+01   1.2087658150499747E+01   1.2100081562956222E+01   1.2112499716986735E+01   1.2124912619504816E+01
   1.2137320277408550E+01   1.2149722697580613E+01   1.2162119886888345E+01   1.2174511852183809E+01   1.2186898600303792E+01
   1.2199280138069904E+01   1.2211656472288578E+01   1.2224027609751174E+01   1.2236393557233971E+01   1.2248754321498238E+01
   1.2261109909290303E+01   1.2273460327341557E+01   1.2285805582368523E+01   1.2298145681072908E+01   1.2310480630141647E+01
   1.2322810436246927E+01   1.2335135106046266E+01   1.2347454646182536E+01   1.2359769063284014E+01   1.2372078363964421E+01
   1.2384382554823000E+01   1.2396681642444491E+01   1.2408975633399269E+01   1.2421264534243315E+01   1.2433548351518276E+01
   1.2445827091751548E+01   1.2458100761456254E+01   1.2470369367131354E+01   1.2482632915261640E+01   1.2494891412317809E+01
   1.2507144864756485E+01   1.2519393279020280E+01   1.2531636661537840E+01   1.2543875018723854E+01   1.2556108356979147E+01
   1.2568336682690669E+01   1.2580560002231588E+01   1.2592778321961285E+01   1.2604991648225438E+01   1.2617199987356047E+01
   1.2629403345671452E+01   1.2641601729476420E+01   1.2653795145062144E+01   1.2665983598706317E+01   1.2678167096673150E+01
   1.2690345645213421E+01   1.2702519250564524E+01   1.2714687918950499E+01   1.2726851656582067E+01   1.2739010469656684E+01
   1.2751164364358589E+01   1.2763313346858805E+01   1.2775457423315222E+01   1.2787596599872607E+01   1.2799730882662677E+01
   1.2811860277804081E+01   1.2823984791402511E+01   1.2836104429550675E+01   1.2848219198328383E+01   1.2860329103802568E+01
   1.2872434152027314E+01   1.2884534349043918E+01   1.2896629700880895E+01   1.2908720213554064E+01   1.2920805893066531E+01
   1.2932886745408767E+01   1.2944962776558638E+01   1.2957033992481430E+01   1.2969100399129891E+01   1.2981162002444268E+01
   1.2993218808352372E+01   1.3005270822769553E+01   1.3017318051598803E+01   1.3029360500730732E+01   1.3041398176043673E+01
   1.3053431083403659E+01   1.3065459228664478E+01   1.3077482617667725E+01   1.3089501256242817E+01   1.3101515150207044E+01
   1.3113524305365583E+01   1.3125528727511572E+01   1.3137528422426096E+01   1.3149523395878264E+01   1.3161513653625230E+01
   1.3173499201412213E+01   1.3185480044972548E+01   1.3197456190027742E+01   1.3209427642287444E+01   1.3221394407449548E+01
   1.3233356491200196E+01   1.3245313899213810E+01   1.3257266637153126E+01   1.3269214710669244E+01   1.3281158125401653E+01
   1.3293096886978246E+01   1.3305031001015395E+01   1.3316960473117936E+01   1.3328885308879249E+01   1.3340805513881243E+01
   1.3352721093694443E+01   1.3364632053877973E+01   1.3376538399979625E+01   1.3388440137535868E+01   1.3400337272071891E+01
   1.3412229809101632E+01   1.3424117754127824E+01   1.3436001112642009E+01   1.3447879890124574E+01   1.3459754092044779E+01
   1.3471623723860827E+01   1.3483488791019822E+01   1.3495349298957882E+01   1.3507205253100103E+01   1.3519056658860629E+01
   1.3530903521642687E+01   1.3542745846838587E+01   1.3554583639829776E+01   1.3566416905986861E+01   1.3578245650669651E+01
   1.3590069879227173E+01   1.3601889596997717E+01   1.3613704809308844E+01   1.3625515521477435E+01   1.3637321738809721E+01
   1.3649123466601324E+01   1.3660920710137246E+01   1.3672713474691930E+01   1.3684501765529303E+01   1.3696285587902770E+01
   1.3708064947055265E+01   1.3719839848219285E+01   1.3731610296616902E+01   1.3743376297459807E+01   1.3755137855949332E+01
   1.3766894977276481E+01   1.3778647666621955E+01   1.3790395929156194E+01   1.3802139770039389E+01   1.3813879194421510E+01
   1.3825614207442374E+01   1.3837344814231606E+01   1.3849071019908711E+01   1.3860792829583124E+01   1.3872510248354168E+01
   1.3884223281311154E+01   1.3895931933533355E+01   1.3907636210090070E+01   1.3919336116040647E+01   1.3931031656434476E+01
   1.3942722836311066E+01   1.3954409660700035E+01   1.3966092134621169E+01   1.3977770263084405E+01   1.3989444051089906E+01
   1.4001113503628078E+01   1.4012778625679539E+01   1.4024439422215243E+01   1.4036095898196425E+01   1.4047748058574676E+01
   1.4059395908291961E+01   1.4071039452280591E+01   1.4082678695463356E+01   1.4094313642753450E+01   1.4105944299054547E+01
   1.4117570669260846E+01   1.4129192758257014E+01   1.4140810570918324E+01   1.4152424112110586E+01   1.4164033386690223E+01
   1.4175638399504297E+01   1.4187239155390499E+01   1.4198835659177218E+01   1.4210427915683519E+01   1.4222015929719241E+01
   1.4233599706084926E+01   1.4245179249571930E+01   1.4256754564962391E+01   1.4268325657029287E+01   1.4279892530536440E+01
   1.4291455190238564E+01   1.4303013640881261E+01   1.4314567887201090E+01   1.4326117933925502E+01   1.4337663785772994E+01
   1.4349205447453004E+01   1.4360742923666045E+01   1.4372276219103650E+01   1.4383805338448427E+01   1.4395330286374081E+01
   1.4406851067545455E+01   1.4418367686618508E+01   1.4429880148240407E+01   1.4441388457049468E+01   1.4452892617675246E+01
   1.4464392634738541E+01   1.4475888512851398E+01   1.4487380256617167E+01   1.4498867870630493E+01   1.4510351359477362E+01
   1.4521830727735109E+01   1.4533305979972440E+01   1.4544777120749492E+01   1.4556244154617803E+01   1.4567707086120354E+01
   1.4579165919791624E+01   1.4590620660157549E+01   1.4602071311735605E+01   1.4613517879034795E+01   1.4624960366555687E+01
   1.4636398778790436E+01   1.4647833120222780E+01   1.4659263395328114E+01   1.4670689608573458E+01   1.4682111764417522E+01
   1.4693529867310689E+01   1.4704943921695060E+01   1.4716353932004511E+01   1.4727759902664605E+01   1.4739161838092741E+01
   1.4750559742698115E+01   1.4761953620881718E+01   1.4773343477036404E+01   1.4784729315546896E+01   1.4796111140789792E+01
   1.4807488957133605E+01   1.4818862768938788E+01   1.4830232580557716E+01   1.4841598396334765E+01   1.4852960220606283E+01
   1.4864318057700649E+01   1.4875671911938259E+01   1.4887021787631562E+01   1.4898367689085116E+01   1.4909709620595530E+01
   1.4921047586451554E+01   1.4932381590934085E+01   1.4943711638316140E+01   1.4955037732862959E+01   1.4966359878831950E+01
   1.4977678080472737E+01   1.4988992342027201E+01   1.5000302667729473E+01   1.5011609061805949E+01   1.5022911528475351E+01
   1.5034210071948703E+01   1.5045504696429347E+01   1.5056795406113014E+01   1.5068082205187803E+01   1.5079365097834213E+01
   1.5090644088225126E+01   1.5101919180525915E+01   1.5113190378894352E+01   1.5124457687480724E+01   1.5135721110427804E+01
   1.5146980651870857E+01   1.5158236315937700E+01   1.5169488106748684E+01   1.5180736028416748E+01   1.5191980085047408E+01
   1.5203220280738803E+01   1.5214456619581663E+01   1.5225689105659404E+01   1.5236917743048087E+01   1.5248142535816450E+01
   1.5259363488025940E+01   1.5270580603730728E+01   1.5281793886977702E+01   1.5293003341806543E+01   1.5304208972249659E+01
   1.5315410782332302E+01   1.5326608776072490E+01   1.5337802957481097E+01   1.5348993330561838E+01   1.5360179899311294E+01
   1.5371362667718921E+01   1.5382541639767094E+01   1.5393716819431090E+01   1.5404888210679127E+01   1.5416055817472371E+01
   1.5427219643764984E+01   1.5438379693504105E+01   1.5449535970629855E+01   1.5460688479075422E+01   1.5471837222767022E+01
   1.5482982205623903E+01   1.5494123431558426E+01   1.5505260904476049E+01   1.5516394628275293E+01   1.5527524606847871E+01
   1.5538650844078594E+01   1.5549773343845462E+01   1.5560892110019642E+01   1.5572007146465507E+01   1.5583118457040626E+01
   1.5594226045595827E+01   1.5605329915975165E+01   1.5616430072015961E+01   1.5627526517548826E+01   1.5638619256397664E+01
   1.5649708292379678E+01   1.5660793629305438E+01   1.5671875270978813E+01   1.5682953221197073E+01   1.5694027483750860E+01
   1.5705098062424199E+01   1.5716164960994531E+01   1.5727228183232747E+01   1.5738287732903157E+01   1.5749343613763529E+01
   1.5760395829565139E+01   1.5771444384052733E+01   1.5782489280964558E+01   1.5793530524032406E+01   1.5804568116981597E+01
   1.5815602063531006E+01   1.5826632367393094E+01   1.5837659032273898E+01   1.5848682061873061E+01   1.5859701459883839E+01
   1.5870717229993133E+01   1.5881729375881498E+01   1.5892737901223128E+01   1.5903742809685935E+01   1.5914744104931499E+01
   1.5925741790615124E+01   1.5936735870385833E+01   1.5947726347886398E+01   1.5958713226753352E+01   1.5969696510616993E+01
   1.5980676203101398E+01   1.5991652307824475E+01   1.6002624828397913E+01   1.6013593768427256E+01   1.6024559131511904E+01
   1.6035520921245091E+01   1.6046479141213940E+01   1.6057433794999486E+01   1.6068384886176638E+01   1.6079332418314241E+01
   1.6090276394975078E+01   1.6101216819715880E+01   1.6112153696087340E+01   1.6123087027634138E+01   1.6134016817894931E+01
   1.6144943070402402E+01   1.6155865788683240E+01   1.6166784976258192E+01   1.6177700636642033E+01   1.6188612773343628E+01
   1.6199521389865879E+01   1.6210426489705835E+01   1.6221328076354606E+01   1.6232226153297461E+01   1.6243120724013774E+01
   1.6254011791977074E+01   1.6264899360655072E+01   1.6275783433509655E+01   1.6286664013996869E+01   1.6297541105566996E+01
   1.6308414711664522E+01   1.6319284835728165E+01   1.6330151481190907E+01   1.6341014651479970E+01   1.6351874350016846E+01
   1.6362730580217320E+01   1.6373583345491500E+01   1.6384432649243752E+01   1.6395278494872837E+01   1.6406120885771799E+01
   1.6416959825328071E+01   1.6427795316923429E+01   1.6438627363934042E+01   1.6449455969730479E+01   1.6460281137677690E+01
   1.6471102871135077E+01   1.6481921173456442E+01   1.6492736047990068E+01   1.6503547498078653E+01   1.6514355527059418E+01
   1.6525160138264003E+01   1.6535961335018627E+01   1.6546759120643948E+01   1.6557553498455189E+01   1.6568344471762071E+01
   1.6579132043868903E+01   1.6589916218074542E+01   1.6600696997672411E+01   1.6611474385950512E+01   1.6622248386191469E+01
   1.6633019001672512E+01   1.6643786235665466E+01   1.6654550091436839E+01   1.6665310572247758E+01   1.6676067681354009E+01
   1.6686821422006069E+01   1.6697571797449086E+01   1.6708318810922908E+01   1.6719062465662105E+01   1.6729802764895965E+01
   1.6740539711848495E+01   1.6751273309738476E+01   1.6762003561779423E+01   1.6772730471179642E+01   1.6783454041142207E+01
   1.6794174274864986E+01   1.6804891175540671E+01   1.6815604746356762E+01   1.6826314990495586E+01   1.6837021911134325E+01
   1.6847725511445002E+01   1.6858425794594510E+01   1.6869122763744627E+01   1.6879816422052013E+01   1.6890506772668232E+01
   1.6901193818739760E+01   1.6911877563407998E+01   1.6922558009809290E+01   1.6933235161074915E+01   1.6943909020331130E+01
   1.6954579590699126E+01   1.6965246875295112E+01   1.6975910877230298E+01   1.6986571599610858E+01   1.6997229045538003E+01
   1.7007883218107978E+01   1.7018534120412074E+01   1.7029181755536598E+01   1.7039826126562946E+01   1.7050467236567595E+01
   1.7061105088622060E+01   1.7071739685793013E+01   1.7082371031142170E+01   1.7092999127726419E+01   1.7103623978597735E+01
   1.7114245586803243E+01   1.7124863955385234E+01   1.7135479087381135E+01   1.7146090985823562E+01   1.7156699653740315E+01
   1.7167305094154369E+01   1.7177907310083903E+01   1.7188506304542337E+01   1.7199102080538296E+01   1.7209694641075650E+01
   1.7220283989153501E+01   1.7230870127766220E+01   1.7241453059903442E+01   1.7252032788550089E+01   1.7262609316686362E+01
   1.7273182647287761E+01   1.7283752783325113E+01   1.7294319727764535E+01   1.7304883483567494E+01   1.7315444053690797E+01
   1.7326001441086621E+01   1.7336555648702454E+01   1.7347106679481211E+01   1.7357654536361164E+01   1.7368199222275965E+01
   1.7378740740154697E+01   1.7389279092921832E+01   1.7399814283497292E+01   1.7410346314796410E+01   1.7420875189729948E+01
   1.7431400911204175E+01   1.7441923482120767E+01   1.7452442905376909E+01   1.7462959183865262E+01   1.7473472320473949E+01
   1.7483982318086660E+01   1.7494489179582541E+01   1.7504992907836275E+01   1.7515493505718112E+01   1.7525990976093791E+01
   1.7536485321824642E+01   1.7546976545767542E+01   1.7557464650774946E+01   1.7567949639694895E+01   1.7578431515370998E+01
   1.7588910280642491E+01   1.7599385938344216E+01   1.7609858491306621E+01   1.7620327942355804E+01   1.7630794294313478E+01
   1.7641257549997025E+01   1.7651717712219487E+01   1.7662174783789567E+01   1.7672628767511622E+01   1.7683079666185723E+01
   1.7693527482607653E+01   1.7703972219568861E+01   1.7714413879856529E+01   1.7724852466253562E+01   1.7735287981538601E+01
   1.7745720428486024E+01   1.7756149809865970E+01   1.7766576128444335E+01   1.7776999386982762E+01   1.7787419588238716E+01
   1.7797836734965411E+01   1.7808250829911891E+01   1.7818661875822972E+01   1.7829069875439316E+01   1.7839474831497402E+01
   1.7849876746729532E+01   1.7860275623863846E+01   1.7870671465624358E+01   1.7881064274730921E+01   1.7891454053899285E+01
   1.7901840805841037E+01   1.7912224533263675E+01   1.7922605238870592E+01   1.7932982925361106E+01   1.7943357595430406E+01
   1.7953729251769630E+01   1.7964097897065827E+01   1.7974463534002005E+01   1.7984826165257111E+01   1.7995185793506064E+01
   1.8005542421419729E+01   1.8015896051664949E+01   1.8026246686904546E+01   1.8036594329797349E+01   1.8046938982998178E+01
   1.8057280649157835E+01   1.8067619330923200E+01   1.8077955030937115E+01   1.8088287751838486E+01   1.8098617496262257E+01
   1.8108944266839430E+01   1.8119268066197044E+01   1.8129588896958236E+01   1.8139906761742171E+01   1.8150221663164160E+01
   1.8160533603835546E+01   1.8170842586363818E+01   1.8181148613352551E+01   1.8191451687401429E+01   1.8201751811106273E+01
   1.8212048987059042E+01   1.8222343217847818E+01   1.8232634506056868E+01   1.8242922854266567E+01   1.8253208265053487E+01
   1.8263490740990370E+01   1.8273770284646126E+01   1.8284046898585881E+01   1.8294320585370922E+01   1.8304591347558766E+01
   1.8314859187703153E+01   1.8325124108354014E+01   1.8335386112057520E+01   1.8345645201356103E+01   1.8355901378788396E+01
   1.8366154646889321E+01   1.8376405008190051E+01   1.8386652465218017E+01   1.8396897020496937E+01   1.8407138676546808E+01
   1.8417377435883910E+01   1.8427613301020862E+01   1.8437846274466526E+01   1.8448076358726127E+01   1.8458303556301203E+01
   1.8468527869689602E+01   1.8478749301385541E+01   1.8488967853879544E+01   1.8499183529658531E+01   1.8509396331205739E+01
   1.8519606261000817E+01   1.8529813321519747E+01   1.8540017515234915E+01   1.8550218844615092E+01   1.8560417312125463E+01
   1.8570612920227589E+01   1.8580805671379473E+01   1.8590995568035513E+01   1.8601182612646543E+01   1.8611366807659842E+01
   1.8621548155519118E+01   1.8631726658664530E+01   1.8641902319532694E+01   1.8652075140556693E+01   1.8662245124166077E+01
   1.8672412272786882E+01   1.8682576588841627E+01   1.8692738074749307E+01   1.8702896732925442E+01   1.8713052565782057E+01
   1.8723205575727647E+01   1.8733355765167289E+01   1.8743503136502564E+01   1.8753647692131576E+01   1.8763789434448977E+01
   1.8773928365845986E+01   1.8784064488710356E+01   1.8794197805426421E+01   1.8804328318375074E+01   1.8814456029933780E+01
   1.8824580942476612E+01   1.8834703058374217E+01   1.8844822379993836E+01   1.8854938909699314E+01   1.8865052649851140E+01
   1.8875163602806381E+01   1.8885271770918752E+01   1.8895377156538601E+01   1.8905479762012902E+01   1.8915579589685283E+01
   1.8925676641896025E+01   1.8935770920982062E+01   1.8945862429277021E+01   1.8955951169111167E+01   1.8966037142811452E+01
   1.8976120352701539E+01   1.8986200801101770E+01   1.8996278490329164E+01   1.9006353422697480E+01   1.9016425600517174E+01
   1.9026495026095429E+01   1.9036561701736137E+01   1.9046625629739960E+01   1.9056686812404251E+01   1.9066745252023139E+01
   1.9076800950887495E+01   1.9086853911284969E+01   1.9096904135499944E+01   1.9106951625813604E+01   1.9116996384503889E+01
   1.9127038413845533E+01   1.9137077716110067E+01   1.9147114293565799E+01   1.9157148148477880E+01   1.9167179283108236E+01
   1.9177207699715606E+01   1.9187233400555591E+01   1.9197256387880572E+01   1.9207276663939815E+01   1.9217294230979373E+01
   1.9227309091242198E+01   1.9237321246968076E+01   1.9247330700393647E+01   1.9257337453752417E+01   1.9267341509274782E+01
   1.9277342869188008E+01   1.9287341535716230E+01   1.9297337511080507E+01   1.9307330797498757E+01   1.9317321397185847E+01
   1.9327309312353517E+01   1.9337294545210426E+01   1.9347277097962184E+01   1.9357256972811300E+01   1.9367234171957222E+01
   1.9377208697596348E+01   1.9387180551922022E+01   1.9397149737124511E+01   1.9407116255391099E+01   1.9417080108905967E+01
   1.9427041299850327E+01   1.9436999830402314E+01   1.9446955702737071E+01   1.9456908919026748E+01   1.9466859481440462E+01
   1.9476807392144309E+01   1.9486752653301437E+01   1.9496695267071988E+01   1.9506635235613118E+01   1.9516572561078988E+01
   1.9526507245620820E+01   1.9536439291386863E+01   1.9546368700522375E+01   1.9556295475169716E+01   1.9566219617468242E+01
   1.9576141129554397E+01   1.9586060013561685E+01   1.9595976271620675E+01   1.9605889905859012E+01   1.9615800918401426E+01
   1.9625709311369707E+01   1.9635615086882787E+01   1.9645518247056650E+01   1.9655418794004397E+01   1.9665316729836242E+01
   1.9675212056659511E+01   1.9685104776578651E+01   1.9694994891695227E+01   1.9704882404107941E+01   1.9714767315912631E+01
   1.9724649629202279E+01   1.9734529346067017E+01   1.9744406468594104E+01   1.9754280998867998E+01   1.9764152938970280E+01
   1.9774022290979733E+01   1.9783889056972310E+01   1.9793753239021118E+01   1.9803614839196470E+01   1.9813473859565878E+01
   1.9823330302194041E+01   1.9833184169142850E+01   1.9843035462471406E+01   1.9852884184236025E+01   1.9862730336490259E+01
   1.9872573921284864E+01   1.9882414940667815E+01   1.9892253396684342E+01   1.9902089291376907E+01   1.9911922626785199E+01
   1.9921753404946191E+01   1.9931581627894079E+01   1.9941407297660319E+01   1.9951230416273674E+01   1.9961050985760124E+01
   1.9970869008142948E+01   1.9980684485442719E+01   1.9990497419677268E+01   2.0000307812861738E+01   2.0010115667008552E+01
   2.0019920984127445E+01   2.0029723766225462E+01   2.0039524015306952E+01   2.0049321733373574E+01   2.0059116922424320E+01
   2.0068909584455522E+01   2.0078699721460801E+01   2.0088487335431154E+01   2.0098272428354903E+01   2.0108055002217721E+01
   2.0117835059002616E+01   2.0127612600690000E+01   2.0137387629257592E+01   2.0147160146680505E+01   2.0156930154931224E+01
   2.0166697655979590E+01   2.0176462651792860E+01   2.0186225144335658E+01   2.0195985135569991E+01   2.0205742627455272E+01
   2.0215497621948316E+01   2.0225250121003342E+01   2.0235000126571979E+01   2.0244747640603276E+01   2.0254492665043703E+01
   2.0264235201837142E+01   2.0273975252924910E+01   2.0283712820245778E+01   2.0293447905735945E+01   2.0303180511329028E+01
   2.0312910638956133E+01   2.0322638290545814E+01   2.0332363468024049E+01   2.0342086173314314E+01   2.0351806408337556E+01
   2.0361524175012175E+01   2.0371239475254050E+01   2.0380952310976539E+01   2.0390662684090522E+01   2.0400370596504327E+01
   2.0410076050123799E+01   2.0419779046852277E+01   2.0429479588590624E+01   2.0439177677237168E+01   2.0448873314687816E+01
   2.0458566502835946E+01   2.0468257243572467E+01   2.0477945538785850E+01   2.0487631390362040E+01   2.0497314800184558E+01
   2.0506995770134477E+01   2.0516674302090404E+01   2.0526350397928486E+01   2.0536024059522418E+01   2.0545695288743499E+01
   2.0555364087460553E+01   2.0565030457539979E+01   2.0574694400845761E+01   2.0584355919239471E+01   2.0594015014580226E+01
   2.0603671688724766E+01   2.0613325943527400E+01   2.0622977780840060E+01   2.0632627202512232E+01   2.0642274210391058E+01
   2.0651918806321252E+01   2.0661560992145155E+01   2.0671200769702743E+01   2.0680838140831575E+01   2.0690473107366874E+01
   2.0700105671141461E+01   2.0709735833985839E+01   2.0719363597728087E+01   2.0728988964193970E+01   2.0738611935206901E+01
   2.0748232512587943E+01   2.0757850698155782E+01   2.0767466493726815E+01   2.0777079901115069E+01   2.0786690922132248E+01
   2.0796299558587748E+01   2.0805905812288614E+01   2.0815509685039597E+01   2.0825111178643120E+01   2.0834710294899306E+01
   2.0844307035605940E+01   2.0853901402558577E+01   2.0863493397550389E+01   2.0873083022372313E+01   2.0882670278812988E+01
   2.0892255168658743E+01   2.0901837693693651E+01   2.0911417855699511E+01   2.0920995656455833E+01   2.0930571097739858E+01
   2.0940144181326577E+01   2.0949714908988721E+01   2.0959283282496738E+01   2.0968849303618860E+01   2.0978412974121053E+01
   2.0987974295767039E+01   2.0997533270318293E+01   2.1007089899534083E+01   2.1016644185171415E+01   2.1026196128985070E+01
   2.1035745732727616E+01   2.1045292998149396E+01   2.1054837926998541E+01   2.1064380521020972E+01   2.1073920781960386E+01
   2.1083458711558301E+01   2.1092994311554019E+01   2.1102527583684630E+01   2.1112058529685061E+01   2.1121587151288033E+01
   2.1131113450224099E+01   2.1140637428221623E+01   2.1150159087006770E+01   2.1159678428303568E+01   2.1169195453833854E+01
   2.1178710165317309E+01   2.1188222564471449E+01   2.1197732653011627E+01   2.1207240432651048E+01   2.1216745905100787E+01
   2.1226249072069717E+01   2.1235749935264636E+01   2.1245248496390165E+01   2.1254744757148782E+01   2.1264238719240875E+01
   2.1273730384364654E+01   2.1283219754216262E+01   2.1292706830489667E+01   2.1302191614876744E+01   2.1311674109067276E+01
   2.1321154314748913E+01   2.1330632233607190E+01   2.1340107867325578E+01   2.1349581217585431E+01   2.1359052286065999E+01
   2.1368521074444445E+01   2.1377987584395871E+01   2.1387451817593259E+01   2.1396913775707546E+01   2.1406373460407565E+01
   2.1415830873360107E+01   2.1425286016229865E+01   2.1434738890679494E+01   2.1444189498369568E+01   2.1453637840958606E+01
   2.1463083920103092E+01   2.1472527737457447E+01   2.1481969294674027E+01   2.1491408593403168E+01   2.1500845635293192E+01
   2.1510280421990320E+01   2.1519712955138800E+01   2.1529143236380815E+01   2.1538571267356541E+01   2.1547997049704122E+01
   2.1557420585059692E+01   2.1566841875057378E+01   2.1576260921329272E+01   2.1585677725505480E+01   2.1595092289214090E+01
   2.1604504614081200E+01   2.1613914701730916E+01   2.1623322553785322E+01   2.1632728171864549E+01   2.1642131557586712E+01
   2.1651532712567953E+01   2.1660931638422429E+01   2.1670328336762346E+01   2.1679722809197912E+01   2.1689115057337361E+01
   2.1698505082786976E+01   2.1707892887151075E+01   2.1717278472032014E+01   2.1726661839030179E+01   2.1736042989744046E+01
   2.1745421925770074E+01   2.1754798648702852E+01   2.1764173160134959E+01   2.1773545461657072E+01   2.1782915554857937E+01
   2.1792283441324358E+01   2.1801649122641187E+01   2.1811012600391383E+01   2.1820373876155966E+01   2.1829732951514053E+01
   2.1839089828042802E+01   2.1848444507317517E+01   2.1857796990911549E+01   2.1867147280396367E+01   2.1876495377341520E+01
   2.1885841283314672E+01   2.1895184999881579E+01   2.1904526528606102E+01   2.1913865871050223E+01   2.1923203028774033E+01
   2.1932538003335743E+01   2.1941870796291678E+01   2.1951201409196276E+01   2.1960529843602124E+01   2.1969856101059928E+01
   2.1979180183118519E+01   2.1988502091324861E+01   2.1997821827224094E+01   2.2007139392359441E+01   2.2016454788272309E+01
   2.2025768016502255E+01   2.2035079078586968E+01   2.2044387976062300E+01   2.2053694710462267E+01   2.2062999283319041E+01
   2.2072301696162942E+01   2.2081601950522490E+01   2.2090900047924350E+01   2.2100195989893365E+01   2.2109489777952554E+01
   2.2118781413623129E+01   2.2128070898424458E+01   2.2137358233874117E+01   2.2146643421487870E+01   2.2155926462779654E+01
   2.2165207359261618E+01   2.2174486112444100E+01   2.2183762723835642E+01   2.2193037194942992E+01   2.2202309527271105E+01
   2.2211579722323140E+01   2.2220847781600472E+01   2.2230113706602680E+01   2.2239377498827601E+01   2.2248639159771237E+01
   2.2257898690927860E+01   2.2267156093789946E+01   2.2276411369848223E+01   2.2285664520591624E+01   2.2294915547507333E+01
   2.2304164452080791E+01   2.2313411235795641E+01   2.2322655900133821E+01   2.2331898446575465E+01   2.2341138876599000E+01
   2.2350377191681087E+01   2.2359613393296662E+01   2.2368847482918888E+01   2.2378079462019222E+01   2.2387309332067371E+01
   2.2396537094531322E+01   2.2405762750877322E+01   2.2414986302569904E+01   2.2424207751071854E+01   2.2433427097844280E+01
   2.2442644344346533E+01   2.2451859492036267E+01   2.2461072542369418E+01   2.2470283496800235E+01   2.2479492356781243E+01
   2.2488699123763254E+01   2.2497903799195409E+01   2.2507106384525127E+01   2.2516306881198130E+01   2.2525505290658472E+01
   2.2534701614348503E+01   2.2543895853708900E+01   2.2553088010178634E+01   2.2562278085195011E+01   2.2571466080193666E+01
   2.2580651996608538E+01   2.2589835835871906E+01   2.2599017599414385E+01   2.2608197288664918E+01   2.2617374905050784E+01
   2.2626550449997595E+01   2.2635723924929312E+01   2.2644895331268245E+01   2.2654064670435027E+01   2.2663231943848690E+01
   2.2672397152926557E+01   2.2681560299084357E+01   2.2690721383736140E+01   2.2699880408294330E+01   2.2709037374169739E+01
   2.2718192282771511E+01   2.2727345135507154E+01   2.2736495933782585E+01   2.2745644679002069E+01   2.2754791372568242E+01
   2.2763936015882145E+01   2.2773078610343173E+01   2.2782219157349111E+01   2.2791357658296150E+01   2.2800494114578857E+01
   2.2809628527590199E+01   2.2818760898721511E+01   2.2827891229362557E+01   2.2837019520901507E+01   2.2846145774724889E+01
  -1.4764858810536487E+02  -1.4764858810536487E+02  -1.4764858810536487E+02  -1.4764858810536487E+02  -1.4764858810536487E+02
  -1.4764858810536487E+02  -1.4764858810536487E+02  -1.4764858810536487E+02  -1.4764858810536487E+02  -1.4764858810536487E+02
  -1.4764858810536487E+02  -1.4764858810536487E+02  -1.4764858810536487E+02  -1.4764858810536487E+02  -1.4764858810536487E+02
  -1.4764858810536487E+02  -1.4764858810536487E+02  -1.4764858810536487E+02  -1.4764858810536487E+02  -1.4764858810536487E+02
  -1.4764858810536487E+02  -1.4764858810536487E+02  -1.4764858810536487E+02  -1.4764858810536487E+02  -1.4764858810536487E+02
  -1.4764858810536487E+02  -1.4764858810536487E+02  -1.4764858810536487E+02  -1.4764858810536487E+02  -1.4764858810536487E+02
  -1.4764858810536487E+02  -1.4764858810536487E+02  -1.4764858810536487E+02  -1.4764858810536487E+02  -1.4764858810536487E+02
  -1.4764858810536487E+02  -1.4764858810536487E+02  -1.4764858810536487E+02  -1.4764858810536487E+02  -1.4764858810536487E+02
  -1.4764858810536487E+02  -1.4764858810536487E+02  -1.4764858810536487E+02  -1.4764858810536487E+02  -1.4764858810536487E+02
  -1.4764858810536487E+02  -1.4764858810536487E+02  -1.4764858810536487E+02  -1.4764858810536487E+02  -1.4764858810536487E+02
  -1.4764858810536487E+02  -1.4764858810536487E+02  -1.4764858810536487E+02  -1.4764858810536487E+02  -1.4764858810536487E+02
  -1.4764858810536487E+02  -1.4764858810536487E+02  -1.4764858810536487E+02  -1.4764858810536487E+02  -1.4764858810536487E+02
  -1.4764858810536487E+02  -1.4764858810536487E+02  -1.4764858810536487E+02  -1.4764858810536487E+02  -1.4764858810536487E+02
  -1.4764858810536487E+02  -1.4764858810536487E+02  -1.4764858810536487E+02  -1.4764858810536487E+02  -1.4764858810536487E+02
  -1.4764858810536487E+02  -1.4764858810536487E+02  -1.4764858810536487E+02  -1.4764858810536487E+02  -1.4764858810536487E+02
  -1.4764858810536487E+02  -1.4764858810536487E+02  -1.4764858810536487E+02  -1.4764858810536487E+02  -1.4764858810536487E+02
  -1.4764858810536487E+02  -1.4764858810536487E+02  -1.4764858810536487E+02  -1.4764858810536487E+02  -1.4764858810536487E+02
  -1.4764858810536487E+02  -1.4764858810536487E+02  -1.4764858810536487E+02  -1.4764858810536487E+02  -1.4764858810536487E+02
  -1.4764858810536487E+02  -1.4764858810536487E+02  -1.4764858810536487E+02  -1.4764858810536487E+02  -1.4764858810536487E+02
  -1.4764858810536487E+02  -1.4764858810536487E+02  -1.4764858810536487E+02  -1.4764858810536487E+02  -1.4764858810536487E+02
  -1.4764858810536487E+02  -1.4764858810536487E+02  -1.4764858810536487E+02  -1.4764858810536487E+02  -1.4764858810536487E+02
  -1.4764858810536487E+02  -1.4764858810536487E+02  -1.4764858810536487E+02  -1.4764858810536487E+02  -1.4764858810536487E+02
  -1.4764858810536487E+02  -1.4764858810536487E+02  -1.4764858810536487E+02  -1.4764858810536487E+02  -1.4764858810536487E+02
  -1.4764858810536487E+02  -1.4764858810536487E+02  -1.4764858810536487E+02  -1.4764858810536487E+02  -1.4764858810536487E+02
  -1.4764858810536487E+02  -1.4764858810536487E+02  -1.4764858810536487E+02  -1.4764858810536487E+02  -1.4764858810536487E+02
  -1.4764858810536487E+02  -1.4764858810536487E+02  -1.4764858810536487E+02  -1.4764858810536487E+02  -1.4764858810536487E+02
  -1.4764858810536487E+02  -1.4764858810536487E+02  -1.4764858810536487E+02  -1.4764858810536487E+02  -1.4764858810536487E+02
  -1.4764858810536487E+02  -1.4764858810536487E+02  -1.4764858810536487E+02  -1.4764858810536487E+02  -1.4764858810536487E+02
  -1.4764858810536487E+02  -1.4764858810536487E+02  -1.4764858810536487E+02  -1.4764858810536487E+02  -1.4764858810536487E+02
  -1.4764858810536487E+02  -1.4764858810536487E+02  -1.4764858810536487E+02  -1.4764858810536487E+02  -1.4764858810536487E+02
  -1.4764858810536487E+02  -1.4764858810536487E+02  -1.4764858810536487E+02  -1.4764858810536487E+02  -1.4764858810536487E+02
  -1.4764858810536487E+02  -1.4764858810536487E+02  -1.4764858810536487E+02  -1.4764858810536487E+02  -1.4764858810536487E+02
  -1.4764858810536487E+02  -1.4764858810536487E+02  -1.4764858810536487E+02  -1.4764858810536487E+02  -1.4764858810536487E+02
  -1.4764858810536487E+02  -1.4764858810536487E+02  -1.4764858810536487E+02  -1.4764858810536487E+02  -1.4764858810536487E+02
  -1.4764858810536487E+02  -1.4764858810536487E+02  -1.4764858810536487E+02  -1.4764858810536487E+02  -1.4764858810536487E+02
  -1.4764858810536487E+02  -1.4764858810536487E+02  -1.4764858810536487E+02  -1.4764858810536487E+02  -1.4764858810536487E+02
  -1.4764858810536487E+02  -1.4764858810536487E+02  -1.4764858810536487E+02  -1.4764858810536487E+02  -1.4764858810536487E+02
  -1.4764858810536487E+02  -1.4764858810536487E+02  -1.4764858810536487E+02  -1.4764858810536487E+02  -1.4764858810536487E+02
  -1.4764858810536487E+02  -1.4764858810536487E+02  -1.4764858810536487E+02  -1.4764858810536487E+02  -1.4764858810536487E+02
  -1.4764858810536487E+02  -1.4764858810536487E+02  -1.4764858810536487E+02  -1.4764858810536487E+02  -1.4764858810536487E+02
  -1.4764858810536487E+02  -1.4764858810536487E+02  -1.4764858810536487E+02  -1.4764858810536487E+02  -1.4764858810536487E+02
  -1.4764858810536487E+02  -1.4764858810536487E+02  -1.4764858810536487E+02  -1.4764858810536487E+02  -1.4764858810536487E+02
  -1.4764858810536487E+02  -1.4764858810536487E+02  -1.4764858810536487E+02  -1.4764858810536487E+02  -1.4764858810536487E+02
  -1.4764858810536487E+02  -1.4764858810536487E+02  -1.4764858810536487E+02  -1.4764858810536487E+02  -1.4764858810536487E+02
  -1.4764858810536487E+02  -1.4764858810536487E+02  -1.4764858810536487E+02  -1.4764858810536487E+02  -1.4764858810536487E+02
  -1.5896635935004610E+02  -1.7677944401618754E+02  -1.9882780270174788E+02  -2.2682442353047273E+02  -2.6355003682656098E+02
  -3.1383862033378881E+02  -3.8690153244787450E+02  -5.0273237420722921E+02  -7.1440985454128270E+02  -1.2248221289837047E+03
  -4.1819416919815858E+03   3.0095170030891477E+03   1.1137930844700104E+03   6.8605607924573826E+02   4.9709948856965707E+02
   3.9061132843654042E+02   3.2227567169438009E+02   2.7470503874497393E+02   2.3968405202163632E+02   2.1282611161976661E+02
   1.9157565419366267E+02   1.7434305005473976E+02   1.6008763302052463E+02   1.4809955941062370E+02   1.3787802782011156E+02
   1.2905960470207967E+02   1.2137414751965422E+02   1.1461667584456843E+02   1.0862884125241520E+02   1.0328638021421854E+02
   9.8490411319574434E+01   9.4161269411413770E+01   9.0234053828644193E+01   8.6655359433181104E+01   8.3380839339123099E+01
   8.0373362514954749E+01   7.7601603488625344E+01   7.5038950370492543E+01   7.2662650410911127E+01   7.0453134919559886E+01
   6.8393481105168604E+01   6.6468979496342840E+01   6.4666783542498294E+01   6.2975623739544780E+01   6.1385572830757553E+01
   5.9887851744562205E+01   5.8474668255284691E+01   5.7139082105424883E+01   5.5874891660851787E+01   5.4676538192239263E+01
   5.3539024665636170E+01   5.2457846539534074E+01   5.1428932547271600E+01   5.0448593823327869E+01   4.9513480033358363E+01
   4.8620541408308654E+01   4.7766995775934433E+01   4.6950299838764991E+01   4.6168124073809629E+01   4.5418330732169963E+01
   4.4698954500919115E+01   4.4008185458824649E+01   4.3344354014631321E+01   4.2705917563977835E+01   4.2091448640425995E+01
   4.1499624368990190E+01   4.0929217058131819E+01   4.0379085789374997E+01   3.9848168883270340E+01   3.9335477136991308E+01
   3.8840087742908977E+01   3.8361138809462076E+01   3.7897824415860292E+01   3.7449390140910751E+01   3.7015129013768984E+01
   3.6594377840883851E+01   3.6186513868982885E+01   3.5790951748767966E+01   3.5407140768176788E+01   3.5034562327694161E+01
   3.4672727633364303E+01   3.4321175585913537E+01   3.3979470846804659E+01   3.3647202064161064E+01   3.3323980243350313E+01
   3.3009437248651139E+01   3.2703224423862700E+01   3.2405011320984812E+01   3.2114484527218096E+01   3.1831346581525121E+01
   3.1555314972875884E+01   3.1286121213080669E+01   3.1023509977811152E+01   3.0767238310029761E+01   3.0517074880599790E+01
   3.0272799301345003E+01   3.0034201486267623E+01   2.9801081057032082E+01   2.9573246789175563E+01   2.9350516095827761E+01
   2.9132714546008323E+01   2.8919675414829737E+01   2.8711239263167236E+01   2.8507253544567622E+01   2.8307572237359050E+01
   2.8112055500097259E+01   2.7920569348638338E+01   2.7732985353271346E+01   2.7549180354470860E+01   2.7369036195948059E+01
   2.7192439473783740E+01   2.7019281300524113E+01   2.6849457083208286E+01   2.6682866314376778E+01   2.6519412375183460E+01
   2.6359002349800953E+01   2.6201546850370800E+01   2.6046959851805376E+01   2.5895158535800803E+01   2.5746063143466944E+01
   2.5599596836023920E+01   2.5455685563054370E+01   2.5314257937837507E+01   2.5175245119324735E+01   2.5038580700347136E+01
   2.4904200601674155E+01   2.4772042971569327E+01   2.4642048090512674E+01   2.4514158280782009E+01   2.4388317820606773E+01
   2.4264472862626135E+01   2.4142571356401785E+01   2.4022562974751878E+01   2.3904399043687675E+01   2.3788032475749251E+01
   2.3673417706548509E+01   2.3560510634341515E+01   2.3449268562461963E+01   2.3339650144458986E+01   2.3231615331792181E+01
   2.3125125323945465E+01   2.3020142520830117E+01   2.2916630477355273E+01   2.2814553860051436E+01   2.2713878405639235E+01
   2.2614570881442226E+01   2.2516599047548866E+01   2.2419931620633491E+01   2.2324538239352133E+01   2.2230389431233711E+01
   2.2137456580991273E+01   2.2045711900182891E+01   2.1955128398155122E+01   2.1865679854206512E+01   2.1777340790911158E+01
   2.1690086448546403E+01   2.1603892760571657E+01   2.1518736330107892E+01   2.1434594407370547E+01   2.1351444868010660E+01
   2.1269266192322185E+01   2.1188037445274645E+01   2.1107738257333398E+01   2.1028348806031271E+01   2.0949849798257361E+01
   2.0872222453230258E+01   2.0795448486125352E+01   2.0719510092326601E+01   2.0644389932275232E+01   2.0570071116888798E+01
   2.0496537193525977E+01   2.0423772132472866E+01   2.0351760313928498E+01   2.0280486515467931E+01   2.0209935899962655E+01
   2.0140094003938565E+01   2.0070946726353380E+01   2.0002480317775618E+01   1.9934681369948464E+01   1.9867536805722562E+01
   1.9801033869342440E+01   1.9735160117072269E+01   1.9669903408146819E+01   1.9605251896034630E+01   1.9541194020000937E+01
   1.9477718496957905E+01   1.9414814313591286E+01   1.9352470718752166E+01   1.9290677216103429E+01   1.9229423557011195E+01
   1.9168699733671328E+01   1.9108495972462311E+01   1.9048802727515422E+01   1.8989610674494141E+01   1.8930910704574835E+01
   1.8872693918620758E+01   1.8814951621542647E+01   1.8757675316838448E+01   1.8700856701305749E+01   1.8644487659920475E+01
   1.8588560260875699E+01   1.8533066750774797E+01   1.8477999549973177E+01   1.8423351248063302E+01   1.8369114599497923E+01
   1.8315282519346351E+01   1.8261848079179167E+01   1.8208804503076948E+01   1.8156145163758289E+01   1.8103863578823294E+01
   1.8051953407108240E+01   1.8000408445147766E+01   1.7949222623740717E+01   1.7898390004616129E+01   1.7847904777196039E+01
   1.7797761255451626E+01   1.7747953874849649E+01   1.7698477189386256E+01   1.7649325868704988E+01   1.7600494695296316E+01
   1.7551978561776060E+01   1.7503772468240001E+01   1.7455871519692185E+01   1.7408270923544524E+01   1.7360965987185569E+01
   1.7313952115615763E+01   1.7267224809147560E+01   1.7220779661168013E+01   1.7174612355961933E+01   1.7128718666593681E+01
   1.7083094452845799E+01   1.7037735659212668E+01   1.6992638312947395E+01   1.6947798522160433E+01   1.6903212473968217E+01
   1.6858876432690355E+01   1.6814786738093744E+01   1.6770939803682424E+01   1.6727332115031547E+01   1.6683960228164331E+01
   1.6640820767970407E+01   1.6597910426664832E+01   1.6555225962285974E+01   1.6512764197231540E+01   1.6470522016831456E+01
   1.6428496367956548E+01   1.6386684257661933E+01   1.6345082751864240E+01   1.6303688974051507E+01   1.6262500104025012E+01
   1.6221513376671869E+01   1.6180726080767872E+01   1.6140135557809316E+01   1.6099739200873302E+01   1.6059534453505574E+01
   1.6019518808635169E+01   1.5979689807515046E+01   1.5940045038688135E+01   1.5900582136977949E+01   1.5861298782503201E+01
   1.5822192699715595E+01   1.5783261656460480E+01   1.5744503463059358E+01   1.5705915971413965E+01   1.5667497074131166E+01
   1.5629244703668222E+01   1.5591156831497777E+01   1.5553231467292155E+01   1.5515466658126346E+01   1.5477860487699328E+01
   1.5440411075573023E+01   1.5403116576428763E+01   1.5365975179340445E+01   1.5328985107064181E+01   1.5292144615343982E+01
   1.5255451992233006E+01   1.5218905557429981E+01   1.5182503661630502E+01   1.5146244685892698E+01   1.5110127041017053E+01
   1.5074149166939824E+01   1.5038309532139996E+01   1.5002606633059155E+01   1.4967038993534121E+01   1.4931605164242018E+01
   1.4896303722157423E+01   1.4861133270021311E+01   1.4826092435821520E+01   1.4791179872284498E+01   1.4756394256377972E+01
   1.4721734288824285E+01   1.4687198693624309E+01   1.4652786217591400E+01   1.4618495629895399E+01   1.4584325721616315E+01
   1.4550275305307521E+01   1.4516343214568185E+01   1.4482528303624717E+01   1.4448829446921168E+01   1.4415245538718098E+01
   1.4381775492699989E+01   1.4348418241590835E+01   1.4315172736777798E+01   1.4282037947942696E+01   1.4249012862701187E+01
   1.4216096486249455E+01   1.4183287841018231E+01   1.4150585966333919E+01   1.4117989918086849E+01   1.4085498768406232E+01
   1.4053111605341920E+01   1.4020827532552619E+01   1.3988645669000592E+01   1.3956565148652503E+01   1.3924585120186480E+01
   1.3892704746705069E+01   1.3860923205454133E+01   1.3829239687547325E+01   1.3797653397696344E+01   1.3766163553946493E+01
   1.3734769387417670E+01   1.3703470142050579E+01   1.3672265074358087E+01   1.3641153453181534E+01   1.3610134559452018E+01
   1.3579207685956403E+01   1.3548372137108117E+01   1.3517627228722420E+01   1.3486972287796299E+01   1.3456406652292689E+01
   1.3425929670928992E+01   1.3395540702969866E+01   1.3365239118024110E+01   1.3335024295845592E+01   1.3304895626138130E+01
   1.3274852508364257E+01   1.3244894351557791E+01   1.3215020574140057E+01   1.3185230603739850E+01   1.3155523877016856E+01
   1.3125899839488607E+01   1.3096357945360856E+01   1.3066897657361290E+01   1.3037518446576501E+01   1.3008219792292190E+01
   1.2979001181836491E+01   1.2949862110426416E+01   1.2920802081017248E+01   1.2891820604154933E+01   1.2862917197831379E+01
   1.2834091387342546E+01   1.2805342705149343E+01   1.2776670690741252E+01   1.2748074890502586E+01   1.2719554857581400E+01
   1.2691110151760915E+01   1.2662740339333517E+01   1.2634444992977146E+01   1.2606223691634128E+01   1.2578076020392377E+01
   1.2550001570368877E+01   1.2521999938595483E+01   1.2494070727906882E+01   1.2466213546830788E+01   1.2438428009480226E+01
   1.2410713735447949E+01   1.2383070349702894E+01   1.2355497482488621E+01   1.2327994769223764E+01   1.2300561850404389E+01
   1.2273198371508244E+01   1.2245903982900908E+01   1.2218678339743679E+01   1.2191521101903334E+01   1.2164431933863566E+01
   1.2137410504638211E+01   1.2110456487686085E+01   1.2083569560827497E+01   1.2056749406162396E+01   1.2029995709990084E+01
   1.2003308162730505E+01   1.1976686458846993E+01   1.1950130296770617E+01   1.1923639378825905E+01   1.1897213411158033E+01
   1.1870852103661447E+01   1.1844555169909830E+01   1.1818322327087444E+01   1.1792153295921777E+01   1.1766047800617542E+01
   1.1740005568791902E+01   1.1714026331410967E+01   1.1688109822727517E+01   1.1662255780219949E+01   1.1636463944532395E+01
   1.1610734059415934E+01   1.1585065871671086E+01   1.1559459131091268E+01   1.1533913590407435E+01   1.1508429005233765E+01
   1.1483005134014402E+01   1.1457641737971201E+01   1.1432338581052532E+01   1.1407095429883043E+01   1.1381912053714419E+01
   1.1356788224377034E+01   1.1331723716232647E+01   1.1306718306127905E+01   1.1281771773348828E+01   1.1256883899576106E+01
   1.1232054468841350E+01   1.1207283267484087E+01   1.1182570084109676E+01   1.1157914709547992E+01   1.1133316936812951E+01
   1.1108776561062740E+01   1.1084293379560945E+01   1.1059867191638302E+01   1.1035497798655296E+01   1.1011185003965405E+01
   1.0986928612879128E+01   1.0962728432628648E+01   1.0938584272333232E+01   1.0914495942965281E+01   1.0890463257317045E+01
   1.0866486029967957E+01   1.0842564077252680E+01   1.0818697217229678E+01   1.0794885269650463E+01   1.0771128055929426E+01
   1.0747425399114256E+01   1.0723777123856920E+01   1.0700183056385217E+01   1.0676643024474915E+01   1.0653156857422397E+01
   1.0629724386017815E+01   1.0606345442518855E+01   1.0583019860624935E+01   1.0559747475451932E+01   1.0536528123507406E+01
   1.0513361642666315E+01   1.0490247872147187E+01   1.0467186652488754E+01   1.0444177825527087E+01   1.0421221234373109E+01
   1.0398316723390611E+01   1.0375464138174666E+01   1.0352663325530456E+01   1.0329914133452554E+01   1.0307216411104559E+01
   1.0284570008799186E+01   1.0261974777978702E+01   1.0239430571195742E+01   1.0216937242094572E+01   1.0194494645392604E+01
   1.0172102636862402E+01   1.0149761073313920E+01   1.0127469812577180E+01   1.0105228713485241E+01   1.0083037635857513E+01
   1.0060896440483427E+01   1.0038804989106360E+01   1.0016763144407964E+01   9.9947707699927104E+00   9.9728277303728134E+00
   9.9509338909534186E+00   9.9290891180180747E+00   9.9072932787145049E+00   9.8855462410406538E+00   9.8638478738310127E+00
   9.8421980467432135E+00   9.8205966302448733E+00   9.7990434956007224E+00   9.7775385148599572E+00   9.7560815608438833E+00
   9.7346725071337463E+00   9.7133112280588438E+00   9.6919975986848748E+00   9.6707314948024798E+00   9.6495127929160578E+00
   9.6283413702327572E+00   9.6072171046517045E+00   9.5861398747534565E+00   9.5651095597896578E+00   9.5441260396728609E+00
   9.5231891949666014E+00   9.5022989068756534E+00   9.4814550572364613E+00   9.4606575285077703E+00   9.4399062037614438E+00
   9.4192009666734595E+00   9.3985417015150823E+00   9.3779282931442207E+00   9.3573606269969414E+00   9.3368385890791412E+00
   9.3163620659584225E+00   9.2959309447560834E+00   9.2755451131393016E+00   9.2552044593134557E+00   9.2349088720145858E+00
   9.2146582405020308E+00   9.1944524545511914E+00   9.1742914044464445E+00   9.1541749809741848E+00   9.1341030754160286E+00
   9.1140755795421207E+00   9.0940923856045881E+00   9.0741533863311368E+00   9.0542584749187398E+00   9.0344075450274914E+00
   9.0146004907745443E+00   8.9948372067281799E+00   8.9751175879020160E+00   8.9554415297492920E+00   8.9358089281572948E+00
   8.9162196794418751E+00   8.8966736803420901E+00   8.8771708280149237E+00   8.8577110200301465E+00   8.8382941543652525E+00
   8.8189201294004800E+00   8.7995888439139858E+00   8.7803001970770467E+00   8.7610540884493897E+00   8.7418504179746357E+00
   8.7226890859757678E+00   8.7035699931507580E+00   8.6844930405682277E+00   8.6654581296632109E+00   8.6464651622330297E+00
   8.6275140404331836E+00   8.6086046667733758E+00   8.5897369441135982E+00   8.5709107756602840E+00   8.5521260649625539E+00
   8.5333827159085089E+00   8.5146806327216176E+00   8.4960197199571645E+00   8.4773998824987569E+00   8.4588210255549328E+00
   8.4402830546557848E+00   8.4217858756496877E+00   8.4033293947000747E+00   8.3849135182822678E+00   8.3665381531803984E+00
   8.3482032064843477E+00   8.3299085855867609E+00   8.3116541981801362E+00   8.2934399522539390E+00   8.2752657560918053E+00
   8.2571315182687623E+00   8.2390371476485171E+00   8.2209825533808125E+00   8.2029676448988003E+00   8.1849923319164972E+00
   8.1670565244262736E+00   8.1491601326963679E+00   8.1313030672684903E+00   8.1134852389554375E+00   8.0957065588387760E+00
   8.0779669382665489E+00   8.0602662888510253E+00   8.0426045224665099E+00   8.0249815512471852E+00   8.0073972875849737E+00
   7.9898516441274836E+00   7.9723445337759298E+00   7.9548758696831552E+00   7.9374455652516600E+00   7.9200535341316494E+00
   7.9026996902191531E+00   7.8853839476541498E+00   7.8681062208187429E+00   7.8508664243353694E+00   7.8336644730650145E+00
   7.8165002821055021E+00   7.7993737667897713E+00   7.7822848426842226E+00   7.7652334255870619E+00   7.7482194315266906E+00
   7.7312427767601237E+00   7.7143033777714267E+00   7.6974011512702001E+00   7.6805360141900509E+00   7.6637078836871382E+00
   7.6469166771387140E+00   7.6301623121416853E+00   7.6134447065112409E+00   7.5967637782794410E+00   7.5801194456938799E+00
   7.5635116272163501E+00   7.5469402415215381E+00   7.5304052074957353E+00   7.5139064442355652E+00   7.4974438710467473E+00
   7.4810174074428684E+00   7.4646269731441857E+00   7.4482724880764408E+00   7.4319538723696885E+00   7.4156710463571605E+00
   7.3994239305741312E+00   7.3832124457568158E+00   7.3670365128412820E+00   7.3508960529623639E+00   7.3347909874526138E+00
   7.3187212378412667E+00   7.3026867258532082E+00   7.2866873734079807E+00   7.2707231026187724E+00   7.2547938357914541E+00
   7.2388994954236194E+00   7.2230400042036313E+00   7.2072152850096955E+00   7.1914252609089369E+00   7.1756698551564968E+00
   7.1599489911946472E+00   7.1442625926519048E+00   7.1286105833421765E+00   7.1129928872638937E+00   7.0974094285991836E+00
   7.0818601317130394E+00   7.0663449211524991E+00   7.0508637216458494E+00   7.0354164581018210E+00   7.0200030556088251E+00
   7.0046234394341615E+00   6.9892775350232688E+00   6.9739652679989845E+00   6.9586865641607787E+00   6.9434413494840577E+00
   6.9282295501194122E+00   6.9130510923919246E+00   6.8979059028004759E+00   6.8827939080170264E+00   6.8677150348859630E+00
   6.8526692104234019E+00   6.8376563618165358E+00   6.8226764164229747E+00   6.8077293017700962E+00   6.7928149455544009E+00
   6.7779332756408852E+00   6.7630842200624093E+00   6.7482677070190933E+00   6.7334836648776886E+00   6.7187320221709887E+00
   6.7040127075972267E+00   6.6893256500194873E+00   6.6746707784651305E+00   6.6600480221252019E+00   6.6454573103538834E+00
   6.6308985726679150E+00   6.6163717387460377E+00   6.6018767384284631E+00   6.5874135017163020E+00   6.5729819587710514E+00
   6.5585820399140387E+00   6.5442136756259055E+00   6.5298767965461009E+00   6.5155713334723337E+00   6.5012972173600927E+00
   6.4870543793221174E+00   6.4728427506279074E+00   6.4586622627032364E+00   6.4445128471296407E+00   6.4303944356439491E+00
   6.4163069601378009E+00   6.4022503526571501E+00   6.3882245454018287E+00   6.3742294707250400E+00   6.3602650611329246E+00
   6.3463312492840833E+00   6.3324279679891315E+00   6.3185551502102442E+00   6.3047127290607046E+00   6.2909006378044712E+00
   6.2771188098557262E+00   6.2633671787784539E+00   6.2496456782859902E+00   6.2359542422406120E+00   6.2222928046531001E+00
   6.2086612996823192E+00   6.1950596616348141E+00   6.1814878249643623E+00   6.1679457242715960E+00   6.1544332943035842E+00
   6.1409504699534070E+00   6.1274971862597845E+00   6.1140733784066494E+00   6.1006789817227691E+00   6.0873139316813480E+00
   6.0739781638996293E+00   6.0606716141385162E+00   6.0473942183021832E+00   6.0341459124376851E+00   6.0209266327345938E+00
   6.0077363155246077E+00   5.9945748972811774E+00   5.9814423146191489E+00   5.9683385042943637E+00   5.9552634032033192E+00
   5.9422169483827902E+00   5.9291990770094696E+00   5.9162097263996092E+00   5.9032488340086458E+00   5.8903163374308720E+00
   5.8774121743990548E+00   5.8645362827841030E+00   5.8516886005947120E+00   5.8388690659770015E+00   5.8260776172141933E+00
   5.8133141927262466E+00   5.8005787310695265E+00   5.7878711709364676E+00   5.7751914511552123E+00   5.7625395106893071E+00
   5.7499152886373430E+00   5.7373187242326296E+00   5.7247497568428720E+00   5.7122083259698178E+00   5.6996943712489641E+00
   5.6872078324491921E+00   5.6747486494724741E+00   5.6623167623535382E+00   5.6499121112595327E+00   5.6375346364897307E+00
   5.6251842784751993E+00   5.6128609777784755E+00   5.6005646750932661E+00   5.5882953112441145E+00   5.5760528271861087E+00
   5.5638371640045561E+00   5.5516482629146706E+00   5.5394860652612836E+00   5.5273505125185061E+00   5.5152415462894488E+00
   5.5031591083059102E+00   5.4911031404280628E+00   5.4790735846441692E+00   5.4670703830702534E+00   5.4550934779498359E+00
   5.4431428116536082E+00   5.4312183266791454E+00   5.4193199656506117E+00   5.4074476713184563E+00   5.3956013865591306E+00
   5.3837810543747917E+00   5.3719866178930040E+00   5.3602180203664620E+00   5.3484752051726776E+00   5.3367581158137218E+00
   5.3250666959159156E+00   5.3134008892295492E+00   5.3017606396286023E+00   5.2901458911104440E+00   5.2785565877955714E+00
   5.2669926739273123E+00   5.2554540938715437E+00   5.2439407921164181E+00   5.2324527132720862E+00   5.2209898020703989E+00
   5.2095520033646592E+00   5.1981392621293185E+00   5.1867515234597183E+00   5.1753887325718138E+00   5.1640508348018814E+00
   5.1527377756062718E+00   5.1414495005611185E+00   5.1301859553620810E+00   5.1189470858240638E+00   5.1077328378809392E+00
   5.0965431575853035E+00   5.0853779911081842E+00   5.0742372847387891E+00   5.0631209848842333E+00   5.0520290380692643E+00
   5.0409613909360180E+00   5.0299179902437352E+00   5.0188987828685105E+00   5.0079037158030308E+00   4.9969327361562943E+00
   4.9859857911533743E+00   4.9750628281351474E+00   4.9641637945580319E+00   4.9532886379937358E+00   4.9424373061289879E+00
   4.9316097467652948E+00   4.9208059078186777E+00   4.9100257373194083E+00   4.8992691834117696E+00   4.8885361943537866E+00
   4.8778267185169826E+00   4.8671407043861263E+00   4.8564781005589710E+00   4.8458388557460053E+00   4.8352229187702083E+00
   4.8246302385667965E+00   4.8140607641829725E+00   4.8035144447776750E+00   4.7929912296213306E+00   4.7824910680956112E+00
   4.7720139096931797E+00   4.7615597040174524E+00   4.7511284007823420E+00   4.7407199498120187E+00   4.7303343010406680E+00
   4.7199714045122443E+00   4.7096312103802287E+00   4.6993136689073784E+00   4.6890187304654987E+00   4.6787463455351865E+00
   4.6684964647056049E+00   4.6582690386742334E+00   4.6480640182466280E+00   4.6378813543361836E+00   4.6277209979638965E+00
   4.6175829002581281E+00   4.6074670124543697E+00   4.5973732858949905E+00   4.5873016720290209E+00   4.5772521224119123E+00
   4.5672245887052911E+00   4.5572190226767395E+00   4.5472353761995432E+00   4.5372736012524815E+00   4.5273336499195755E+00
   4.5174154743898649E+00   4.5075190269571772E+00   4.4976442600198840E+00   4.4877911260806913E+00   4.4779595777463967E+00
   4.4681495677276564E+00   4.4583610488387695E+00   4.4485939739974327E+00   4.4388482962245313E+00   4.4291239686439008E+00
   4.4194209444820975E+00   4.4097391770681860E+00   4.4000786198334927E+00   4.3904392263114023E+00   4.3808209501371218E+00
   4.3712237450474554E+00   4.3616475648805899E+00   4.3520923635758564E+00   4.3425580951735245E+00   4.3330447138145738E+00
   4.3235521737404667E+00   4.3140804292929351E+00   4.3046294349137622E+00   4.2951991451445455E+00   4.2857895146265017E+00
   4.2764004981002302E+00   4.2670320504055006E+00   4.2576841264810392E+00   4.2483566813642959E+00   4.2390496701912532E+00
   4.2297630481961797E+00   4.2204967707114411E+00   4.2112507931672711E+00   4.2020250710915512E+00   4.1928195601096094E+00
   4.1836342159439992E+00   4.1744689944142870E+00   4.1653238514368436E+00   4.1561987430246177E+00   4.1470936252869430E+00
   4.1380084544293094E+00   4.1289431867531690E+00   4.1198977786557105E+00   4.1108721866296536E+00   4.1018663672630433E+00
   4.0928802772390362E+00   4.0839138733356970E+00   4.0749671124257869E+00   4.0660399514765482E+00   4.0571323475495138E+00
   4.0482442578002864E+00   4.0393756394783376E+00   4.0305264499268070E+00   4.0216966465822779E+00   4.0128861869745975E+00
   4.0040950287266570E+00   3.9953231295541873E+00   3.9865704472655668E+00   3.9778369397615982E+00   3.9691225650353292E+00
   3.9604272811718357E+00   3.9517510463480185E+00   3.9430938188324149E+00   3.9344555569849815E+00   3.9258362192569045E+00
   3.9172357641904028E+00   3.9086541504185126E+00   3.9000913366649073E+00   3.8915472817436809E+00   3.8830219445591663E+00
   3.8745152841057271E+00   3.8660272594675611E+00   3.8575578298185085E+00   3.8491069544218468E+00   3.8406745926301049E+00
   3.8322607038848626E+00   3.8238652477165509E+00   3.8154881837442676E+00   3.8071294716755690E+00   3.7987890713062913E+00
   3.7904669425203483E+00   3.7821630452895372E+00   3.7738773396733531E+00   3.7656097858187847E+00   3.7573603439601362E+00
   3.7491289744188312E+00   3.7409156376032158E+00   3.7327202940083746E+00   3.7245429042159421E+00   3.7163834288939022E+00
   3.7082418287964134E+00   3.7001180647636076E+00   3.6920120977214124E+00   3.6839238886813570E+00   3.6758533987403781E+00
   3.6678005890806493E+00   3.6597654209693791E+00   3.6517478557586336E+00   3.6437478548851483E+00   3.6357653798701355E+00
   3.6278003923191133E+00   3.6198528539217056E+00   3.6119227264514731E+00   3.6040099717657150E+00   3.5961145518052917E+00
   3.5882364285944486E+00   3.5803755642406179E+00   3.5725319209342530E+00   3.5647054609486344E+00   3.5568961466396916E+00
   3.5491039404458276E+00   3.5413288048877281E+00   3.5335707025681917E+00   3.5258295961719406E+00   3.5181054484654477E+00
   3.5103982222967542E+00   3.5027078805952945E+00   3.4950343863717128E+00   3.4873777027176862E+00   3.4797377928057505E+00
   3.4721146198891217E+00   3.4645081473015198E+00   3.4569183384569881E+00   3.4493451568497209E+00   3.4417885660538881E+00
   3.4342485297234604E+00   3.4267250115920320E+00   3.4192179754726477E+00   3.4117273852576284E+00   3.4042532049183971E+00
   3.3967953985053070E+00   3.3893539301474704E+00   3.3819287640525748E+00   3.3745198645067296E+00   3.3671271958742763E+00
   3.3597507225976293E+00   3.3523904091971017E+00   3.3450462202707247E+00   3.3377181204940980E+00   3.3304060746201971E+00
   3.3231100474792212E+00   3.3158300039784177E+00   3.3085659091019060E+00   3.3013177279105235E+00   3.2940854255416454E+00
   3.2868689672090250E+00   3.2796683182026234E+00   3.2724834438884369E+00   3.2653143097083408E+00   3.2581608811799190E+00
   3.2510231238962919E+00   3.2439010035259632E+00   3.2367944858126396E+00   3.2297035365750810E+00   3.2226281217069284E+00
   3.2155682071765366E+00   3.2085237590268214E+00   3.2014947433750822E+00   3.1944811264128510E+00   3.1874828744057253E+00
   3.1804999536932037E+00   3.1735323306885288E+00   3.1665799718785173E+00   3.1596428438234105E+00   3.1527209131567053E+00
   3.1458141465849940E+00   3.1389225108878098E+00   3.1320459729174570E+00   3.1251844995988618E+00   3.1183380579294115E+00
   3.1115066149787869E+00   3.1046901378888183E+00   3.0978885938733085E+00   3.0911019502178974E+00   3.0843301742798874E+00
   3.0775732334880925E+00   3.0708310953426836E+00   3.0641037274150302E+00   3.0573910973475389E+00   3.0506931728535118E+00
   3.0440099217169743E+00   3.0373413117925341E+00   3.0306873110052202E+00   3.0240478873503247E+00   3.0174230088932585E+00
   3.0108126437693898E+00   3.0042167601838954E+00   2.9976353264116082E+00   2.9910683107968548E+00   2.9845156817533183E+00
   2.9779774077638761E+00   2.9714534573804516E+00   2.9649437992238639E+00   2.9584484019836714E+00   2.9519672344180301E+00
   2.9455002653535347E+00   2.9390474636850752E+00   2.9326087983756852E+00   2.9261842384563872E+00   2.9197737530260537E+00
   2.9133773112512498E+00   2.9069948823660905E+00   2.9006264356720926E+00   2.8942719405380166E+00   2.8879313663997395E+00
   2.8816046827600852E+00   2.8752918591886965E+00   2.8689928653218804E+00   2.8627076708624557E+00   2.8564362455796219E+00
   2.8501785593088034E+00   2.8439345819515047E+00   2.8377042834751740E+00   2.8314876339130448E+00   2.8252846033640058E+00
   2.8190951619924505E+00   2.8129192800281309E+00   2.8067569277660218E+00   2.8006080755661680E+00   2.7944726938535545E+00
   2.7883507531179528E+00   2.7822422239137845E+00   2.7761470768599792E+00   2.7700652826398304E+00   2.7639968120008587E+00
   2.7579416357546691E+00   2.7518997247768087E+00   2.7458710500066328E+00   2.7398555824471535E+00   2.7338532931649140E+00
   2.7278641532898407E+00   2.7218881340151060E+00   2.7159252065969932E+00   2.7099753423547486E+00   2.7040385126704582E+00
   2.6981146889888983E+00   2.6922038428174018E+00   2.6863059457257243E+00   2.6804209693458985E+00   2.6745488853721104E+00
   2.6686896655605534E+00   2.6628432817292946E+00   2.6570097057581430E+00   2.6511889095885084E+00   2.6453808652232702E+00
   2.6395855447266441E+00   2.6338029202240421E+00   2.6280329639019460E+00   2.6222756480077658E+00   2.6165309448497123E+00
   2.6107988267966618E+00   2.6050792662780196E+00   2.5993722357835960E+00   2.5936777078634652E+00   2.5879956551278362E+00
   2.5823260502469259E+00   2.5766688659508183E+00   2.5710240750293423E+00   2.5653916503319354E+00   2.5597715647675132E+00
   2.5541637913043447E+00   2.5485683029699144E+00   2.5429850728507986E+00   2.5374140740925322E+00   2.5318552798994807E+00
   2.5263086635347149E+00   2.5207741983198746E+00   2.5152518576350489E+00   2.5097416149186405E+00   2.5042434436672427E+00
   2.4987573174355115E+00   2.4932832098360374E+00   2.4878210945392185E+00   2.4823709452731322E+00   2.4769327358234117E+00
   2.4715064400331221E+00   2.4660920318026269E+00   2.4606894850894676E+00   2.4552987739082406E+00   2.4499198723304660E+00
   2.4445527544844667E+00   2.4391973945552481E+00   2.4338537667843627E+00   2.4285218454697968E+00   2.4232016049658411E+00
   2.4178930196829715E+00   2.4125960640877229E+00   2.4073107127025635E+00   2.4020369401057824E+00   2.3967747209313544E+00
   2.3915240298688296E+00   2.3862848416632048E+00   2.3810571311148010E+00   2.3758408730791492E+00   2.3706360424668627E+00
   2.3654426142435194E+00   2.3602605634295433E+00   2.3550898651000751E+00   2.3499304943848682E+00   2.3447824264681527E+00
   2.3396456365885268E+00   2.3345201000388363E+00   2.3294057921660478E+00   2.3243026883711417E+00   2.3192107641089863E+00
   2.3141299948882201E+00   2.3090603562711389E+00   2.3040018238735707E+00   2.2989543733647664E+00   2.2939179804672785E+00
   2.2888926209568421E+00   2.2838782706622665E+00   2.2788749054653055E+00   2.2738825013005584E+00   2.2689010341553408E+00
   2.2639304800695714E+00   2.2589708151356653E+00   2.2540220154984061E+00   2.2490840573548416E+00   2.2441569169541666E+00
   2.2392405705976026E+00   2.2343349946382935E+00   2.2294401654811860E+00   2.2245560595829152E+00   2.2196826534516978E+00
   2.2148199236472079E+00   2.2099678467804780E+00   2.2051263995137744E+00   2.2002955585604926E+00   2.1954753006850449E+00
   2.1906656027027407E+00   2.1858664414796856E+00   2.1810777939326642E+00   2.1762996370290302E+00   2.1715319477865962E+00
   2.1667747032735201E+00   2.1620278806081998E+00   2.1572914569591615E+00   2.1525654095449451E+00   2.1478497156340035E+00
   2.1431443525445832E+00   2.1384492976446241E+00   2.1337645283516458E+00   2.1290900221326403E+00   2.1244257565039644E+00
   2.1197717090312258E+00   2.1151278573291861E+00   2.1104941790616443E+00   2.1058706519413297E+00   2.1012572537298024E+00
   2.0966539622373346E+00   2.0920607553228154E+00   2.0874776108936368E+00   2.0829045069055900E+00   2.0783414213627616E+00
   2.0737883323174193E+00   2.0692452178699186E+00   2.0647120561685899E+00   2.0601888254096310E+00   2.0556755038370111E+00
   2.0511720697423566E+00   2.0466785014648541E+00   2.0421947773911424E+00   2.0377208759552095E+00   2.0332567756382880E+00
   2.0288024549687544E+00   2.0243578925220205E+00   2.0199230669204371E+00   2.0154979568331837E+00   2.0110825409761732E+00
   2.0066767981119473E+00   2.0022807070495685E+00   1.9978942466445260E+00   1.9935173957986316E+00   1.9891501334599166E+00
   1.9847924386225324E+00   1.9804442903266455E+00   1.9761056676583444E+00   1.9717765497495294E+00   1.9674569157778212E+00
   1.9631467449664570E+00   1.9588460165841852E+00   1.9545547099451763E+00   1.9502728044089157E+00   1.9460002793801070E+00
   1.9417371143085735E+00   1.9374832886891544E+00   1.9332387820616166E+00   1.9290035740105431E+00   1.9247776441652464E+00
   1.9205609721996661E+00   1.9163535378322656E+00   1.9121553208259447E+00   1.9079663009879355E+00   1.9037864581697068E+00
   1.8996157722668698E+00   1.8954542232190741E+00   1.8913017910099199E+00   1.8871584556668588E+00   1.8830241972610924E+00
   1.8788989959074867E+00   1.8747828317644648E+00   1.8706756850339219E+00   1.8665775359611239E+00   1.8624883648346153E+00
   1.8584081519861195E+00   1.8543368777904516E+00   1.8502745226654185E+00   1.8462210670717285E+00   1.8421764915128906E+00
   1.8381407765351314E+00   1.8341139027272897E+00   1.8300958507207328E+00   1.8260866011892585E+00   1.8220861348490043E+00
   1.8180944324583492E+00   1.8141114748178306E+00   1.8101372427700442E+00   1.8061717171995557E+00   1.8022148790328048E+00
   1.7982667092380200E+00   1.7943271888251198E+00   1.7903962988456275E+00   1.7864740203925762E+00   1.7825603346004213E+00
   1.7786552226449426E+00   1.7747586657431633E+00   1.7708706451532532E+00   1.7669911421744429E+00   1.7631201381469257E+00
   1.7592576144517791E+00   1.7554035525108682E+00   1.7515579337867557E+00   1.7477207397826182E+00   1.7438919520421499E+00
   1.7400715521494812E+00   1.7362595217290857E+00   1.7324558424456924E+00   1.7286604960042000E+00   1.7248734641495822E+00
   1.7210947286668092E+00   1.7173242713807546E+00   1.7135620741561060E+00   1.7098081188972845E+00   1.7060623875483498E+00
   1.7023248620929206E+00   1.6985955245540834E+00   1.6948743569943070E+00   1.6911613415153588E+00   1.6874564602582118E+00
   1.6837596954029670E+00   1.6800710291687646E+00   1.6763904438136938E+00   1.6727179216347166E+00   1.6690534449675729E+00
   1.6653969961867037E+00   1.6617485577051614E+00   1.6581081119745273E+00   1.6544756414848261E+00   1.6508511287644434E+00
   1.6472345563800372E+00   1.6436259069364620E+00   1.6400251630766753E+00   1.6364323074816627E+00   1.6328473228703515E+00
   1.6292701919995236E+00   1.6257008976637397E+00   1.6221394226952517E+00   1.6185857499639213E+00   1.6150398623771394E+00
   1.6115017428797382E+00   1.6079713744539181E+00   1.6044487401191567E+00   1.6009338229321339E+00   1.5974266059866487E+00
   1.5939270724135330E+00   1.5904352053805788E+00   1.5869509880924508E+00   1.5834744037906086E+00   1.5800054357532258E+00
   1.5765440672951061E+00   1.5730902817676102E+00   1.5696440625585673E+00   1.5662053930922024E+00   1.5627742568290539E+00
   1.5593506372658903E+00   1.5559345179356374E+00   1.5525258824072954E+00   1.5491247142858595E+00   1.5457309972122442E+00
   1.5423447148631977E+00   1.5389658509512327E+00   1.5355943892245427E+00   1.5322303134669213E+00   1.5288736074976921E+00
   1.5255242551716215E+00   1.5221822403788492E+00   1.5188475470448066E+00   1.5155201591301397E+00   1.5122000606306334E+00
   1.5088872355771308E+00   1.5055816680354621E+00   1.5022833421063646E+00   1.4989922419254043E+00   1.4957083516629057E+00
   1.4924316555238673E+00   1.4891621377478941E+00   1.4858997826091158E+00   1.4826445744161150E+00   1.4793964975118488E+00
   1.4761555362735737E+00   1.4729216751127734E+00   1.4696948984750815E+00   1.4664751908402047E+00   1.4632625367218550E+00
   1.4600569206676655E+00   1.4568583272591249E+00   1.4536667411114990E+00   1.4504821468737568E+00   1.4473045292284978E+00
   1.4441338728918784E+00   1.4409701626135356E+00   1.4378133831765187E+00   1.4346635193972104E+00   1.4315205561252586E+00
   1.4283844782435022E+00   1.4252552706678947E+00   1.4221329183474378E+00   1.4190174062641046E+00   1.4159087194327684E+00
   1.4128068429011327E+00   1.4097117617496540E+00   1.4066234610914776E+00   1.4035419260723578E+00   1.4004671418705936E+00
   1.3973990936969547E+00   1.3943377667946064E+00   1.3912831464390460E+00   1.3882352179380268E+00   1.3851939666314887E+00
   1.3821593778914893E+00   1.3791314371221293E+00   1.3761101297594880E+00   1.3730954412715475E+00   1.3700873571581282E+00
   1.3670858629508167E+00   1.3640909442128926E+00   1.3611025865392656E+00   1.3581207755564029E+00   1.3551454969222596E+00
   1.3521767363262092E+00   1.3492144794889775E+00   1.3462587121625726E+00   1.3433094201302163E+00   1.3403665892062726E+00
   1.3374302052361866E+00   1.3345002540964082E+00   1.3315767216943313E+00   1.3286595939682220E+00   1.3257488568871525E+00
   1.3228444964509303E+00   1.3199464986900367E+00   1.3170548496655554E+00   1.3141695354691068E+00   1.3112905422227792E+00
   1.3084178560790662E+00   1.3055514632207952E+00   1.3026913498610646E+00   1.2998375022431767E+00   1.2969899066405708E+00
   1.2941485493567555E+00   1.2913134167252469E+00   1.2884844951095002E+00   1.2856617709028453E+00   1.2828452305284181E+00
   1.2800348604391012E+00   1.2772306471174517E+00   1.2744325770756431E+00   1.2716406368553961E+00   1.2688548130279125E+00
   1.2660750921938166E+00   1.2633014609830850E+00   1.2605339060549852E+00   1.2577724140980111E+00   1.2550169718298163E+00
   1.2522675659971549E+00   1.2495241833758153E+00   1.2467868107705540E+00   1.2440554350150381E+00   1.2413300429717755E+00
   1.2386106215320571E+00   1.2358971576158910E+00   1.2331896381719389E+00   1.2304880501774571E+00   1.2277923806382272E+00
   1.2251026165885011E+00   1.2224187450909347E+00   1.2197407532365239E+00   1.2170686281445477E+00   1.2144023569625007E+00
   1.2117419268660357E+00   1.2090873250588996E+00   1.2064385387728727E+00   1.2037955552677075E+00   1.2011583618310648E+00
   1.1985269457784566E+00   1.1959012944531846E+00   1.1932813952262735E+00   1.1906672354964201E+00   1.1880588026899219E+00
   1.1854560842606261E+00   1.1828590676898638E+00   1.1802677404863908E+00   1.1776820901863283E+00   1.1751021043531029E+00
   1.1725277705773847E+00   1.1699590764770320E+00   1.1673960096970257E+00   1.1648385579094160E+00   1.1622867088132602E+00
   1.1597404501345614E+00   1.1571997696262140E+00   1.1546646550679414E+00   1.1521350942662392E+00   1.1496110750543156E+00
   1.1470925852920313E+00   1.1445796128658454E+00   1.1420721456887519E+00   1.1395701717002260E+00   1.1370736788661644E+00
   1.1345826551788256E+00   1.1320970886567754E+00   1.1296169673448271E+00   1.1271422793139847E+00   1.1246730126613866E+00
   1.1222091555102440E+00   1.1197506960097909E+00   1.1172976223352196E+00   1.1148499226876296E+00   1.1124075852939692E+00
   1.1099705984069752E+00   1.1075389503051227E+00   1.1051126292925639E+00   1.1026916236990740E+00   1.1002759218799949E+00
   1.0978655122161773E+00   1.0954603831139280E+00   1.0930605230049519E+00   1.0906659203462963E+00   1.0882765636202976E+00
   1.0858924413345217E+00   1.0835135420217139E+00   1.0811398542397401E+00   1.0787713665715333E+00   1.0764080676250380E+00
   1.0740499460331545E+00   1.0716969904536870E+00   1.0693491895692879E+00   1.0670065320873998E+00   1.0646690067402083E+00
   1.0623366022845795E+00   1.0600093075020138E+00   1.0576871111985868E+00   1.0553700022048971E+00   1.0530579693760131E+00
   1.0507510015914168E+00   1.0484490877549544E+00   1.0461522167947805E+00   1.0438603776633035E+00   1.0415735593371369E+00
   1.0392917508170401E+00   1.0370149411278713E+00   1.0347431193185319E+00   1.0324762744619140E+00   1.0302143956548480E+00
   1.0279574720180509E+00   1.0257054926960711E+00   1.0234584468572416E+00   1.0212163236936216E+00   1.0189791124209497E+00
   1.0167468022785899E+00   1.0145193825294778E+00   1.0122968424600731E+00   1.0100791713803057E+00   1.0078663586235244E+00
   1.0056583935464447E+00   1.0034552655290998E+00   1.0012569639747892E+00   9.9906347831002451E-01   9.9687479798448297E-01
   9.9469091247095498E-01   9.9251181126529120E-01   9.9033748388635578E-01   9.8816791987597397E-01   9.8600310879888242E-01
   9.8384304024267688E-01   9.8168770381776571E-01   9.7953708915731807E-01   9.7739118591721230E-01   9.7524998377598993E-01
   9.7311347243480339E-01   9.7098164161736611E-01   9.6885448106990546E-01   9.6673198056111165E-01   9.6461412988208928E-01
   9.6250091884630662E-01   9.6039233728954909E-01   9.5828837506986908E-01   9.5618902206753753E-01   9.5409426818499332E-01
   9.5200410334679908E-01   9.4991851749958700E-01   9.4783750061201566E-01   9.4576104267471905E-01   9.4368913370025975E-01
   9.4162176372307793E-01   9.3955892279944764E-01   9.3750060100742627E-01   9.3544678844680840E-01   9.3339747523907535E-01
   9.3135265152735192E-01   9.2931230747635440E-01   9.2727643327234721E-01   9.2524501912309420E-01   9.2321805525780964E-01
   9.2119553192711456E-01   9.1917743940298768E-01   9.1716376797871957E-01   9.1515450796886566E-01   9.1314964970919799E-01
   9.1114918355666308E-01   9.0915309988932991E-01   9.0716138910634869E-01   9.0517404162790227E-01   9.0319104789515858E-01
   9.0121239837022837E-01   8.9923808353611634E-01   8.9726809389667683E-01   8.9530241997656812E-01   8.9334105232120442E-01
   8.9138398149671461E-01   8.8943119808989413E-01   8.8748269270815905E-01   8.8553845597950376E-01   8.8359847855245266E-01
   8.8166275109601755E-01   8.7973126429965232E-01   8.7780400887320686E-01   8.7588097554688460E-01   8.7396215507119501E-01
   8.7204753821691028E-01   8.7013711577502473E-01   8.6823087855670400E-01   8.6632881739324352E-01   8.6443092313602865E-01
   8.6253718665648293E-01   8.6064759884603037E-01   8.5876215061604888E-01   8.5688083289782757E-01   8.5500363664252044E-01
   8.5313055282110928E-01   8.5126157242435230E-01   8.4939668646274569E-01   8.4753588596647866E-01   8.4567916198539339E-01
   8.4382650558893624E-01   8.4197790786611981E-01   8.4013335992547811E-01   8.3829285289502398E-01   8.3645637792220495E-01
   8.3462392617386527E-01   8.3279548883619747E-01   8.3097105711470343E-01   8.2915062223415081E-01   8.2733417543853405E-01
   8.2552170799102675E-01   8.2371321117394392E-01   8.2190867628869868E-01   8.2010809465576040E-01   8.1831145761461144E-01
   8.1651875652371042E-01   8.1472998276044417E-01   8.1294512772108918E-01   8.1116418282077418E-01   8.0938713949343077E-01
   8.0761398919175786E-01   8.0584472338718049E-01   8.0407933356980643E-01   8.0231781124838664E-01   8.0056014795027308E-01
   7.9880633522138134E-01   7.9705636462614582E-01   7.9531022774747984E-01   7.9356791618674027E-01   7.9182942156367941E-01
   7.9009473551640963E-01   7.8836384970136220E-01   7.8663675579324710E-01   7.8491344548501296E-01   7.8319391048780485E-01
   7.8147814253093018E-01   7.7976613336181233E-01   7.7805787474595323E-01   7.7635335846689857E-01   7.7465257632618956E-01
   7.7295552014333002E-01   7.7126218175574512E-01   7.6957255301874206E-01   7.6788662580547062E-01   7.6620439200688328E-01
   7.6452584353170017E-01   7.6285097230636423E-01   7.6117977027500572E-01   7.5951222939940621E-01   7.5784834165895343E-01
   7.5618809905060624E-01   7.5453149358885929E-01   7.5287851730569777E-01   7.5122916225056469E-01   7.4958342049031879E-01
   7.4794128410920091E-01   7.4630274520879136E-01   7.4466779590797239E-01   7.4303642834289552E-01   7.4140863466693674E-01
   7.3978440705066206E-01   7.3816373768179178E-01   7.3654661876515881E-01   7.3493304252267400E-01   7.3332300119328742E-01
   7.3171648703295189E-01   7.3011349231458622E-01   7.2851400932803445E-01   7.2691803038003544E-01   7.2532554779417879E-01
   7.2373655391087144E-01   7.2215104108730255E-01   7.2056900169740223E-01   7.1899042813180858E-01   7.1741531279782900E-01
   7.1584364811940482E-01   7.1427542653707565E-01   7.1271064050793864E-01   7.1114928250561993E-01   7.0959134502022991E-01
   7.0803682055833250E-01   7.0648570164290925E-01   7.0493798081331938E-01   7.0339365062526782E-01   7.0185270365076857E-01
   7.0031513247810606E-01   6.9878092971180428E-01   6.9725008797258614E-01   6.9572259989734431E-01   6.9419845813909842E-01
   6.9267765536696424E-01   6.9116018426611969E-01   6.8964603753776454E-01   6.8813520789908988E-01   6.8662768808324204E-01
   6.8512347083928515E-01   6.8362254893217023E-01   6.8212491514269602E-01   6.8063056226747976E-01   6.7913948311891692E-01
   6.7765167052514874E-01   6.7616711733003076E-01   6.7468581639309311E-01   6.7320776058950993E-01   6.7173294281006413E-01
   6.7026135596111169E-01   6.6879299296455108E-01   6.6732784675778389E-01   6.6586591029368802E-01   6.6440717654057624E-01
   6.6295163848216643E-01   6.6149928911754963E-01   6.6005012146115116E-01   6.5860412854270112E-01   6.5716130340720014E-01
   6.5572163911488390E-01   6.5428512874119271E-01   6.5285176537673573E-01   6.5142154212725989E-01   6.4999445211361406E-01
   6.4857048847171772E-01   6.4714964435252953E-01   6.4573191292201060E-01   6.4431728736109395E-01   6.4290576086565265E-01
   6.4149732664646353E-01   6.4009197792917871E-01   6.3868970795429036E-01   6.3729050997709957E-01   6.3589437726768183E-01
   6.3450130311085651E-01   6.3311128080615608E-01   6.3172430366778953E-01   6.3034036502461266E-01   6.2895945822009858E-01
