DATE: 2024-11-13 UNITS: metal CONTRIBUTOR: Xiaowang Zhou xzhou@sandia.gov, Lucas Hale lucas.hale@nist.gov, and Germain Clavier g.m.g.c.clavier@tue.nl/germain.clavier@gmail.com
 CITATION: X. W. Zhou, R. A. Johnson, H. N. G. Wadley, Phys. Rev. B, 69, 144113(2004)
Generated by create_eam.py
5     Hf Nb Ta Ti Zr          
2000  5.5051283457452173e-02   2000  3.5254525600792630e-03   7.0473796675984470e+00  
   72       178.49000         4.29454      fcc
   0.0000000000000000E+00  -1.8632211949756172E-02  -3.7208854590739193E-02  -5.5731011367920136E-02  -7.4198765726272597E-02
  -9.2612201110767067E-02  -1.1097140096637714E-01  -1.2927644873807331E-01  -1.4752742787082918E-01  -1.6572442180961611E-01
  -1.8386751399940682E-01  -2.0195678788517268E-01  -2.1999232691188864E-01  -2.3797421452452294E-01  -2.5590253416804876E-01
  -2.7377736928743879E-01  -2.9159880332766663E-01  -3.0936691973370190E-01  -3.2708180195051861E-01  -3.4474353342308772E-01
  -3.6235219759638193E-01  -3.7990787791537395E-01  -3.9741065782503515E-01  -4.1486062077033781E-01  -4.3225785019625462E-01
  -4.4960242954775609E-01  -4.6689444226981713E-01  -4.8413397180740736E-01  -5.0132110160550081E-01  -5.1845591510906841E-01
  -5.3553849576308199E-01  -5.5256892701251514E-01  -5.6954729230233925E-01  -5.8647367507752612E-01  -6.0334815878304893E-01
  -6.2017082686388036E-01  -6.3694176276498959E-01  -6.5366104993135110E-01  -6.7032877180793671E-01  -6.8694501183971823E-01
  -7.0350985347166795E-01  -7.2002338014875766E-01  -7.3648567531596054E-01  -7.5289682241824796E-01  -7.6925690490059262E-01
  -7.8556600620796635E-01  -8.0182420978534097E-01  -8.1803159907768919E-01  -8.3418825752998238E-01  -8.5029426858719370E-01
  -8.6634971569429498E-01  -8.8235468229625846E-01  -8.9830925183805554E-01  -9.1421350776465937E-01  -9.3006753352104132E-01
  -9.4587141255217411E-01  -9.6162522830302999E-01  -9.7732906421858079E-01  -9.9298300374379833E-01  -1.0085871303236553E+00
  -1.0241415274031254E+00  -1.0396462784271776E+00  -1.0551014668407852E+00  -1.0705071760889209E+00  -1.0858634896165564E+00
  -1.1011704908686646E+00  -1.1164282632902167E+00  -1.1316368903261860E+00  -1.1467964554215437E+00  -1.1619070420212627E+00
  -1.1769687335703138E+00  -1.1919816135136703E+00  -1.2069457652963056E+00  -1.2218612723631890E+00  -1.2367282181592945E+00
  -1.2515466861295934E+00  -1.2663167597190585E+00  -1.2810385223726617E+00  -1.2957120575353769E+00  -1.3103374486521728E+00
  -1.3249147791680231E+00  -1.3394441325279005E+00  -1.3539255921767772E+00  -1.3683592415596246E+00  -1.3827451641214155E+00
  -1.3970834433071215E+00  -1.4113741625617153E+00  -1.4256174053301682E+00  -1.4398132550574538E+00  -1.4539617951885435E+00
  -1.4680631091684089E+00  -1.4821172804420228E+00  -1.4961243924543570E+00  -1.5100845286503843E+00  -1.5239977724750764E+00
  -1.5378642073734052E+00  -1.5516839167903431E+00  -1.5654569841708625E+00  -1.5791834929599353E+00  -1.5928635266025342E+00
  -1.6064971685436307E+00  -1.6200845022281967E+00  -1.6336256111012049E+00  -1.6471205786076279E+00  -1.6605694881924367E+00
  -1.6739724233006046E+00  -1.6873294673771038E+00  -1.7006407038669051E+00  -1.7139062162149803E+00  -1.7271260878663051E+00
  -1.7403004022658477E+00  -1.7534292428585827E+00  -1.7665126930894808E+00  -1.7795508364035146E+00  -1.7925437562456568E+00
  -1.8054915360608785E+00  -1.8183942592941535E+00  -1.8312520093904525E+00  -1.8440648697947482E+00  -1.8568329239520123E+00
  -1.8695562553072178E+00  -1.8822349473053364E+00  -1.8948690833913409E+00  -1.9074587470102025E+00  -1.9200040216068930E+00
  -1.9325049906263849E+00  -1.9449617375136512E+00  -1.9573743457136652E+00  -1.9697428986713958E+00  -1.9820674798318170E+00
  -1.9943481726399006E+00  -2.0065850605406190E+00  -2.0187782269789443E+00  -2.0309277553998490E+00  -2.0430337292483047E+00
  -2.0550962319692836E+00  -2.0671153470077579E+00  -2.0790911578086995E+00  -2.0910237478170819E+00  -2.1029132004778752E+00
  -2.1147595992360531E+00  -2.1265630275365877E+00  -2.1383235688244504E+00  -2.1500413065446136E+00  -2.1617163241420498E+00
  -2.1733487050617306E+00  -2.1849385327486290E+00  -2.1964858906477160E+00  -2.2079908622039648E+00  -2.2194535308623484E+00
  -2.2308739800678357E+00  -2.2422522932654019E+00  -2.2535885539000171E+00  -2.2648828454166559E+00  -2.2761352512602877E+00
  -2.2873458548758876E+00  -2.2985147397084256E+00  -2.3096419892028743E+00  -2.3207276868042057E+00  -2.3317719159573924E+00
  -2.3427747601074063E+00  -2.3537363026992195E+00  -2.3646566271778049E+00  -2.3755358169881333E+00  -2.3863739555751780E+00
  -2.3971711263839106E+00  -2.4079274128593049E+00  -2.4186428984463300E+00  -2.4293176665899603E+00  -2.4399518007351668E+00
  -2.4505453843269240E+00  -2.4610985008102002E+00  -2.4716112336299707E+00  -2.4820836662312056E+00  -2.4925158820588784E+00
  -2.5029079645579611E+00  -2.5132599971734253E+00  -2.5235720633502439E+00  -2.5338442465333886E+00  -2.5440766301678321E+00
  -2.5542692976985455E+00  -2.5644223325705013E+00  -2.5745358182286724E+00  -2.5846098381180305E+00  -2.5946444756835474E+00
  -2.6046398143701950E+00  -2.6145959376229468E+00  -2.6245129288867739E+00  -2.6343908716066489E+00  -2.6442298492275436E+00
  -2.6540299451944307E+00  -2.6637912429522825E+00  -2.6735138259460700E+00  -2.6831977776207658E+00  -2.6928431814213427E+00
  -2.7024501207927720E+00  -2.7120186791800269E+00  -2.7215489400280788E+00  -2.7310409867818999E+00  -2.7404949028864625E+00
  -2.7499107717867384E+00  -2.7592886769277021E+00  -2.7686287017543219E+00  -2.7779309297115717E+00  -2.7871954442444244E+00
  -2.7964223287978518E+00  -2.8056116668168256E+00  -2.8147635417463182E+00  -2.8238780370313008E+00  -2.8329552361167476E+00
  -2.8419952224476286E+00  -2.8509980794689178E+00  -2.8599638906255875E+00  -2.8688927393626078E+00  -2.8777847091249518E+00
  -2.8866398833575913E+00  -2.8954583455054999E+00  -2.9042401790136481E+00  -2.9129854673270099E+00  -2.9216942938905555E+00
  -2.9303667421492587E+00  -2.9390028955480902E+00  -2.9476028375320227E+00  -2.9561666515460301E+00  -2.9646944210350812E+00
  -2.9731862294441509E+00  -2.9816421602182097E+00  -2.9900622968022303E+00  -2.9984467226411855E+00  -3.0067955211800461E+00
  -3.0151087758637862E+00  -3.0233865701373763E+00  -3.0316289874457896E+00  -3.0398361112339969E+00  -3.0480080249469719E+00
  -3.0561448120296868E+00  -3.0642465559271121E+00  -3.0723133400842211E+00  -3.0803452479459859E+00  -3.0883423629573783E+00
  -3.0963047685633711E+00  -3.1042325482089357E+00  -3.1121257853390443E+00  -3.1199845633986700E+00  -3.1278089658327839E+00
  -3.1355990760863595E+00  -3.1433549776043677E+00  -3.1510767538317808E+00  -3.1587644882135706E+00  -3.1664182641947098E+00
  -3.1740381652201708E+00  -3.1816242747349257E+00  -3.1891766761839468E+00  -3.1966954530122065E+00  -3.2041806886646751E+00
  -3.2116324665863267E+00  -3.2190508702221328E+00  -3.2264359830170664E+00  -3.2337878884160975E+00  -3.2411066698642004E+00
  -3.2483924108063462E+00  -3.2556451946875078E+00  -3.2628651049526560E+00  -3.2700522250467645E+00  -3.2772066384148046E+00
  -3.2843284285017482E+00  -3.2914176787525680E+00  -3.2984744726122379E+00  -3.3054988935257268E+00  -3.3124910249380077E+00
  -3.3194509502940539E+00  -3.3263787530388376E+00  -3.3332745166173297E+00  -3.3401383244745029E+00  -3.3469702600553299E+00
  -3.3537704068047818E+00  -3.3605388481678320E+00  -3.3672756675894520E+00  -3.3739809485146139E+00  -3.3806547743882907E+00
  -3.3872972286554535E+00  -3.3939083947610742E+00  -3.4004883561501260E+00  -3.4070371962675803E+00  -3.4135549985584102E+00
  -3.4200418464675866E+00  -3.4264978234400822E+00  -3.4329230129208694E+00  -3.4393174983549208E+00  -3.4456813631872083E+00
  -3.4520146908627027E+00  -3.4583175648263773E+00  -3.4645900685232047E+00  -3.4708322853981555E+00  -3.4770442988962040E+00
  -3.4832261924623205E+00  -3.4893780495414779E+00  -3.4954999535786486E+00  -3.5015919880188049E+00  -3.5076542363069181E+00
  -3.5136867818879605E+00  -3.5196897082069056E+00  -3.5256630987087241E+00  -3.5316070368383881E+00  -3.5375216060408703E+00
  -3.5434068897611430E+00  -3.5492629714441781E+00  -3.5550899345349478E+00  -3.5608878624784244E+00  -3.5666568387195801E+00
  -3.5723969467033863E+00  -3.5781082698748170E+00  -3.5837908916788423E+00  -3.5894448955604354E+00  -3.5950703649645677E+00
  -3.6006673833362122E+00  -3.6062360341203412E+00  -3.6117764007619257E+00  -3.6172885667059385E+00  -3.6227726153973521E+00
  -3.6282286302811384E+00  -3.6336566948022697E+00  -3.6390568924057187E+00  -3.6444293065364559E+00  -3.6497740206394549E+00
  -3.6550911181596870E+00  -3.6603806825421246E+00  -3.6656427972317398E+00  -3.6708775456735054E+00  -3.6760850113123933E+00
  -3.6812652775933747E+00  -3.6864184279614234E+00  -3.6915445458615106E+00  -3.6966437147386091E+00  -3.7017160180376893E+00
  -3.7067615392037254E+00  -3.7117803616816882E+00  -3.7167725689165505E+00  -3.7217382443532845E+00  -3.7266774714368620E+00
  -3.7315903336122558E+00  -3.7364769143244372E+00  -3.7413372970183780E+00  -3.7461715651390528E+00  -3.7509798021314320E+00
  -3.7557620914404870E+00  -3.7605185165111905E+00  -3.7652491607885152E+00  -3.7699541077174339E+00  -3.7746334407429165E+00
  -3.7792872433099376E+00  -3.7839155988634681E+00  -3.7885185908484802E+00  -3.7930963027099462E+00  -3.7976488178928380E+00
  -3.8021762198421292E+00  -3.8066785920027901E+00  -3.8111560178197936E+00  -3.8156085807381115E+00  -3.8200363642027169E+00
  -3.8244394516585798E+00  -3.8288179265506752E+00  -3.8331718723239736E+00  -3.8375013724234481E+00  -3.8418065102940693E+00
  -3.8460873693808111E+00  -3.8503440331286445E+00  -3.8545765849825431E+00  -3.8587851083874769E+00  -3.8629696867884200E+00
  -3.8671304036303424E+00  -3.8712673423582182E+00  -3.8753805864170192E+00  -3.8794702192517168E+00  -3.8835363243072836E+00
  -3.8875789850286919E+00  -3.8915982848609145E+00  -3.8955943072489236E+00  -3.8995671356376893E+00  -3.9035168534721851E+00
  -3.9074435441973825E+00  -3.9113472912582554E+00  -3.9152281780997740E+00  -3.9190862881669117E+00  -3.9229217049046397E+00
  -3.9267345117579313E+00  -3.9305247921717581E+00  -3.9342926295910918E+00  -3.9380381074609057E+00  -3.9417613092261705E+00
  -3.9454623183318591E+00  -3.9491412182229437E+00  -3.9527980923443971E+00  -3.9564330241411900E+00  -3.9600460970582954E+00
  -3.9636373945406858E+00  -3.9672070000333322E+00  -3.9707549969812077E+00  -3.9742814688292847E+00  -3.9777864990225358E+00
  -3.9812701710059311E+00  -3.9847325682244437E+00  -3.9881737741230463E+00  -3.9915938721467112E+00  -3.9949929457404094E+00
  -3.9983710783491140E+00  -4.0017283534177972E+00  -4.0050648543914313E+00  -4.0083806647149869E+00  -4.0116758678334383E+00
  -4.0149505471917566E+00  -4.0182047862349135E+00  -4.0214386684078827E+00  -4.0246522771556341E+00  -4.0278456959231406E+00
  -4.0310190081553765E+00  -4.0341722972973111E+00  -4.0373056467939188E+00  -4.0404191400901706E+00  -4.0435128606310373E+00
  -4.0465868918614936E+00  -4.0496413172265120E+00  -4.0526762201710618E+00  -4.0556916841401165E+00  -4.0586877925786498E+00
  -4.0616646289316298E+00  -4.0646222766440339E+00  -4.0675608191608301E+00  -4.0704803399269922E+00  -4.0733809223874928E+00
  -4.0762626499873038E+00  -4.0791256061713961E+00  -4.0819698743847432E+00  -4.0847955380723189E+00  -4.0876026806790904E+00
  -4.0903913856500340E+00  -4.0931617364301207E+00  -4.0959138164643232E+00  -4.0986477091976132E+00  -4.1013634980749618E+00
  -4.1040612665413425E+00  -4.1067410980417263E+00  -4.1094030760210876E+00  -4.1120472839243973E+00  -4.1146738051966265E+00
  -4.1172827232827478E+00  -4.1198741216277348E+00  -4.1224480836765576E+00  -4.1250046928741897E+00  -4.1275440326656030E+00
  -4.1300661864957702E+00  -4.1325712378096622E+00  -4.1350592700522517E+00  -4.1375303666685115E+00  -4.1399846111034133E+00
  -4.1424220868019290E+00  -4.1448428772090313E+00  -4.1472470657696912E+00  -4.1496347359288821E+00  -4.1520059711315760E+00
  -4.1543608548227438E+00  -4.1566994704473599E+00  -4.1590219014503944E+00  -4.1613282312768209E+00  -4.1636185433716095E+00
  -4.1658929211797364E+00  -4.1681514481461699E+00  -4.1703942077158835E+00  -4.1726212833338483E+00  -4.1748327584450386E+00
  -4.1770287164944246E+00  -4.1792092409269799E+00  -4.1813744151876744E+00  -4.1835243227214827E+00  -4.1856590469733765E+00
  -4.1877786713883278E+00  -4.1898832794113092E+00  -4.1919729544872917E+00  -4.1940477800612470E+00  -4.1961078395781497E+00
  -4.1981532164829689E+00  -4.2001839942206782E+00  -4.2022002562362513E+00  -4.2042020859746581E+00  -4.2061895668808713E+00
  -4.2081627823998637E+00  -4.2101218159766072E+00  -4.2120667510560752E+00  -4.2139976710832370E+00  -4.2159146595030670E+00
  -4.2178177997605362E+00  -4.2197071753006172E+00  -4.2215828695682820E+00  -4.2234449660085032E+00  -4.2252935480662526E+00
  -4.2271286991865020E+00  -4.2289505028142242E+00  -4.2307590423943919E+00  -4.2325544013719760E+00  -4.2343366631919501E+00
  -4.2361059112992852E+00  -4.2378622291389529E+00  -4.2396057001559253E+00  -4.2413364077951776E+00  -4.2430544355016782E+00
  -4.2447598667204014E+00  -4.2464527848963192E+00  -4.2481332734744024E+00  -4.2498014158996247E+00  -4.2514572956169578E+00
  -4.2531009960713737E+00  -4.2547326007078450E+00  -4.2563521929713426E+00  -4.2579598563068393E+00  -4.2595556741593077E+00
  -4.2611397299737197E+00  -4.2627121071950471E+00  -4.2642728892682635E+00  -4.2658221596383399E+00  -4.2673600017502480E+00
  -4.2688864990489614E+00  -4.2704017349794512E+00  -4.2719057929866890E+00  -4.2733987565156477E+00  -4.2748807090112999E+00
  -4.2763517339186166E+00  -4.2778119146825713E+00  -4.2792613347481350E+00  -4.2807000775602813E+00  -4.2821282265639811E+00
  -4.2835458652042062E+00  -4.2849530769259303E+00  -4.2863499451741243E+00  -4.2877365533937617E+00  -4.2891129850298126E+00
  -4.2904793235272507E+00  -4.2918356523310477E+00  -4.2931820548861754E+00  -4.2945186146376058E+00  -4.2958454150303131E+00
  -4.2971625395092676E+00  -4.2984700715194419E+00  -4.2997680945058079E+00  -4.3010566919133391E+00  -4.3023359471870046E+00
  -4.3036059437717791E+00  -4.3048667651126342E+00  -4.3061184946545428E+00  -4.3073612158424748E+00  -4.3085950121214047E+00
  -4.3098199669363035E+00  -4.3110361637321439E+00  -4.3122436859538977E+00  -4.3134426170465385E+00  -4.3146330404550355E+00
  -4.3158150396243622E+00  -4.3169886979994914E+00  -4.3181540990253948E+00  -4.3193113261470453E+00  -4.3204604628094136E+00
  -4.3216015924574727E+00  -4.3227347985361959E+00  -4.3238601644905534E+00  -4.3249777737655171E+00  -4.3260877098060622E+00
  -4.3271900560571579E+00  -4.3282848959637770E+00  -4.3293723129708921E+00  -4.3304523905234760E+00  -4.3315252120664987E+00
  -4.3325908610449346E+00  -4.3336494209037548E+00  -4.3347009750879320E+00  -4.3357456070424378E+00  -4.3367834002122443E+00
  -4.3378144380423249E+00  -4.3388388039776498E+00  -4.3398565814631933E+00  -4.3408678539439247E+00  -4.3418727048648194E+00
  -4.3428712176708464E+00  -4.3438634758069812E+00  -4.3448495627181938E+00  -4.3458295618494560E+00  -4.3468035566457406E+00
  -4.3477716305520211E+00  -4.3487338670132676E+00  -4.3496903494744545E+00  -4.3506411613805511E+00  -4.3515863861765318E+00
  -4.3525261073073684E+00  -4.3534604082180319E+00  -4.3543893723534950E+00  -4.3553130831587303E+00  -4.3562316240787107E+00
  -4.3571450785584060E+00  -4.3580535300427909E+00  -4.3589570619768372E+00  -4.3598557578055148E+00  -4.3607497009737974E+00
  -4.3616389749266578E+00  -4.3625236631090667E+00  -4.3634038489659979E+00  -4.3642796159424213E+00  -4.3651510474833115E+00
  -4.3660182270336394E+00  -4.3668812380383768E+00  -4.3677401639424973E+00  -4.3685950881909719E+00  -4.3694460942287741E+00
  -4.3702903890090496E+00  -4.3711260869974424E+00  -4.3719526399568966E+00  -4.3727700719735250E+00  -4.3735784071334383E+00
  -4.3743776695227501E+00  -4.3751678832275713E+00  -4.3759490723340129E+00  -4.3767212609281891E+00  -4.3774844730962101E+00
  -4.3782387329241885E+00  -4.3789840644982370E+00  -4.3797204919044654E+00  -4.3804480392289875E+00  -4.3811667305579149E+00
  -4.3818765899773595E+00  -4.3825776415734330E+00  -4.3832699094322480E+00  -4.3839534176399155E+00  -4.3846281902825490E+00
  -4.3852942514462585E+00  -4.3859516252171566E+00  -4.3866003356813552E+00  -4.3872404069249678E+00  -4.3878718630341043E+00
  -4.3884947280948774E+00  -4.3891090261933998E+00  -4.3897147814157833E+00  -4.3903120178481378E+00  -4.3909007595765779E+00
  -4.3914810306872134E+00  -4.3920528552661589E+00  -4.3926162573995233E+00  -4.3931712611734213E+00  -4.3937178906739627E+00
  -4.3942561699872611E+00  -4.3947861231994274E+00  -4.3953077743965734E+00  -4.3958211476648117E+00  -4.3963262670902541E+00
  -4.3968231567590133E+00  -4.3973118407572001E+00  -4.3977923431709263E+00  -4.3982646880863046E+00  -4.3987288995894467E+00
  -4.3991850017664653E+00  -4.3996330187034705E+00  -4.4000729744865765E+00  -4.4005048932018935E+00  -4.4009287989355341E+00
  -4.4013447157736119E+00  -4.4017526678022350E+00  -4.4021526791075187E+00  -4.4025447737755741E+00  -4.4029289758925128E+00
  -4.4033053095444457E+00  -4.4036737988174881E+00  -4.4040344677977474E+00  -4.4043873405713398E+00  -4.4047324412243745E+00
  -4.4050697938429639E+00  -4.4053994225132218E+00  -4.4057213513212581E+00  -4.4060356043531854E+00  -4.4063422056951156E+00
  -4.4066411794331604E+00  -4.4069325496534324E+00  -4.4072163404420444E+00  -4.4074925758851053E+00  -4.4077612800687298E+00
  -4.4080224770790286E+00  -4.4082761910021144E+00  -4.4085224459240999E+00  -4.4087612659310942E+00  -4.4089926751092126E+00
  -4.4092166975445650E+00  -4.4094333573232634E+00  -4.4096426785314202E+00  -4.4098446852551483E+00  -4.4100394015805575E+00
  -4.4102268515937615E+00  -4.4104070593808720E+00  -4.4105800490279998E+00  -4.4107458446212586E+00  -4.4109044702467592E+00
  -4.4110559499906143E+00  -4.4112003079389339E+00  -4.4113375681778333E+00  -4.4114677547934225E+00  -4.4115908918718123E+00
  -4.4117070034991173E+00  -4.4118161137614464E+00  -4.4119182467449152E+00  -4.4120134265356334E+00  -4.4121016772197121E+00
  -4.4121830228832648E+00  -4.4122574876124032E+00  -4.4123250954932400E+00  -4.4123858706118853E+00  -4.4124398370544524E+00
  -4.4124870189070533E+00  -4.4125274402557979E+00  -4.4125611251868015E+00  -4.4125880977861742E+00  -4.4126083821400277E+00
  -4.4126220023344738E+00  -4.4126289824556260E+00  -4.4126293465895952E+00  -4.4126231188224931E+00  -4.4126103232404317E+00
  -4.4125909839295243E+00  -4.4125651249758810E+00  -4.4125327704656145E+00  -4.4124939444848374E+00  -4.4124486711196615E+00
  -4.4123969744561968E+00  -4.4123388785805577E+00  -4.4122744075788560E+00  -4.4122035855372026E+00  -4.4121264365417083E+00
  -4.4120429846784877E+00  -4.4119532540336523E+00  -4.4118572686933124E+00  -4.4117550527435805E+00  -4.4116466302705692E+00
  -4.4115320253603905E+00  -4.4114112620991559E+00  -4.4112843645729773E+00  -4.4111513568679683E+00  -4.4110122630702389E+00
  -4.4108671072658998E+00  -4.4107159135410665E+00  -4.4105587059818481E+00  -4.4103955086743589E+00  -4.4102263457047082E+00
  -4.4100512411590103E+00  -4.4098702191233761E+00  -4.4096833036839183E+00  -4.4094905189267468E+00  -4.4092918889379762E+00
  -4.4090874378037164E+00  -4.4088771896100809E+00  -4.4086611684431807E+00  -4.4084393983891275E+00  -4.4082119035340357E+00
  -4.4079787079640127E+00  -4.4077398357651747E+00  -4.4074953110236317E+00  -4.4072451578254963E+00  -4.4069894002568795E+00
  -4.4067280624038938E+00  -4.4064611683526520E+00  -4.4061887421892649E+00  -4.4059108079998452E+00  -4.4056273898705047E+00
  -4.4053385118873543E+00  -4.4050441981365074E+00  -4.4047444727040750E+00  -4.4044393596761697E+00  -4.4041288831389034E+00
  -4.4038130671783877E+00  -4.4034919358807354E+00  -4.4031655133320564E+00  -4.4028338236184652E+00  -4.4024968908260727E+00
  -4.4021547390409905E+00  -4.4018073923493306E+00  -4.4014548748372047E+00  -4.4010972105907262E+00  -4.4007344236960062E+00
  -4.4003665382391555E+00  -4.3999935783062876E+00  -4.3996155679835134E+00  -4.3992325313569465E+00  -4.3988444925126968E+00
  -4.3984514755368771E+00  -4.3980535045156008E+00  -4.3976506035349772E+00  -4.3972427966811196E+00  -4.3968301080401408E+00
  -4.3964125616981518E+00  -4.3959901817412641E+00  -4.3955629922555906E+00  -4.3951310173272420E+00  -4.3946942810423328E+00
  -4.3942528074869722E+00  -4.3938066207472728E+00  -4.3933557449093481E+00  -4.3929002040593081E+00  -4.3924400222832656E+00
  -4.3919752236673331E+00  -4.3915058322976215E+00  -4.3910318722602444E+00  -4.3905533676413109E+00  -4.3900703425269354E+00
  -4.3895828210032297E+00  -4.3890908271563047E+00  -4.3885943850722722E+00  -4.3880935188372456E+00  -4.3875882525373369E+00
  -4.3870786102586559E+00  -4.3865646160873171E+00  -4.3860462941094305E+00  -4.3855236684111087E+00  -4.3849967630784636E+00
  -4.3844656021976069E+00  -4.3839302098546522E+00  -4.3833906101357085E+00  -4.3828468271268903E+00  -4.3822988849143094E+00
  -4.3817468075840766E+00  -4.3811906192223047E+00  -4.3806303439151044E+00  -4.3800660057485894E+00  -4.3794976288088705E+00
  -4.3684904037760433E+00  -4.3676353918886273E+00  -4.3667798630372090E+00  -4.3659238191679606E+00  -4.3650672622190276E+00
  -4.3642101941205551E+00  -4.3633526167947450E+00  -4.3624945321558837E+00  -4.3616359421103850E+00  -4.3607768485568368E+00
  -4.3599172533860315E+00  -4.3590571584810167E+00  -4.3581965657171189E+00  -4.3573354769620032E+00  -4.3564738940756893E+00
  -4.3556118189106128E+00  -4.3547492533116410E+00  -4.3538861991161317E+00  -4.3530226581539599E+00  -4.3521586322475558E+00
  -4.3512941232119431E+00  -4.3504291328547797E+00  -4.3495636629763901E+00  -4.3486977153698074E+00  -4.3478312918208033E+00
  -4.3469643941079283E+00  -4.3460970240025496E+00  -4.3452291832688825E+00  -4.3443608736640300E+00  -4.3434920969380135E+00
  -4.3426228548338166E+00  -4.3417531490874079E+00  -4.3408829814277858E+00  -4.3400123535770136E+00  -4.3391412672502421E+00
  -4.3382697241557597E+00  -4.3373977259950127E+00  -4.3365252744626508E+00  -4.3356523712465469E+00  -4.3347790180278469E+00
  -4.3339052164809866E+00  -4.3330309682737402E+00  -4.3321562750672387E+00  -4.3312811385160117E+00  -4.3304055602680211E+00
  -4.3295295419646820E+00  -4.3286530852409077E+00  -4.3277761917251318E+00  -4.3268988630393519E+00  -4.3260211007991431E+00
  -4.3251429066137055E+00  -4.3242642820858865E+00  -4.3233852288122190E+00  -4.3225057483829401E+00  -4.3216258423820362E+00
  -4.3207455123872593E+00  -4.3198647599701712E+00  -4.3189835866961577E+00  -4.3181019941244765E+00  -4.3172199838082701E+00
  -4.3163375572946068E+00  -4.3154547161245027E+00  -4.3145714618329549E+00  -4.3136877959489714E+00  -4.3128037199955935E+00
  -4.3119192354899338E+00  -4.3110343439431968E+00  -4.3101490468607109E+00  -4.3092633457419565E+00  -4.3083772420805868E+00
  -4.3074907373644749E+00  -4.3066038330757159E+00  -4.3057165306906731E+00  -4.3048288316799983E+00  -4.3039407375086594E+00
  -4.3030522496359689E+00  -4.3021633695156085E+00  -4.3012740985956563E+00  -4.3003844383186181E+00  -4.2994943901214446E+00
  -4.2986039554355644E+00  -4.2977131356869132E+00  -4.2968219322959467E+00  -4.2959303466776815E+00  -4.2950383802417109E+00
  -4.2941460343922335E+00  -4.2932533105280823E+00  -4.2923602100427392E+00  -4.2914667343243735E+00  -4.2905728847558571E+00
  -4.2896786627147936E+00  -4.2887840695735377E+00  -4.2878891066992351E+00  -4.2869937754538219E+00  -4.2860980771940715E+00
  -4.2852020132716060E+00  -4.2843055850329268E+00  -4.2834087938194330E+00  -4.2825116409674484E+00  -4.2816141278082434E+00
  -4.2807162556680618E+00  -4.2798180258681393E+00  -4.2789194397247297E+00  -4.2780204985491279E+00  -4.2771212036476900E+00
  -4.2762215563218611E+00  -4.2753215578681925E+00  -4.2744212095783682E+00  -4.2735205127392257E+00  -4.2726194686327768E+00
  -4.2717180785362325E+00  -4.2708163437220268E+00  -4.2699142654578299E+00  -4.2690118450065784E+00  -4.2681090836264968E+00
  -4.2672059825711139E+00  -4.2663025430892860E+00  -4.2653987664252204E+00  -4.2644946538184971E+00  -4.2635902065040847E+00
  -4.2626854257123661E+00  -4.2617803126691580E+00  -4.2608748685957325E+00  -4.2599690947088353E+00  -4.2590629922207093E+00
  -4.2581565623391091E+00  -4.2572498062673310E+00  -4.2563427252042239E+00  -4.2554353203442163E+00  -4.2545275928773290E+00
  -4.2536195439892035E+00  -4.2527111748611128E+00  -4.2518024866699902E+00  -4.2508934805884389E+00  -4.2499841577847608E+00
  -4.2490745194229680E+00  -4.2481645666628101E+00  -4.2472543006597849E+00  -4.2463437225651628E+00  -4.2454328335260030E+00
  -4.2445216346851744E+00  -4.2436101271813751E+00  -4.2426983121491446E+00  -4.2417861907188898E+00  -4.2408737640169027E+00
  -4.2399610331653719E+00  -4.2390479992824073E+00  -4.2381346634820583E+00  -4.2372210268743240E+00  -4.2363070905651838E+00
  -4.2353928556566043E+00  -4.2344783232465613E+00  -4.2335634944290570E+00  -4.2326483702941369E+00  -4.2317329519279134E+00
  -4.2308172404125655E+00  -4.2299012368263833E+00  -4.2289849422437582E+00  -4.2280683577352169E+00  -4.2271514843674325E+00
  -4.2262343232032427E+00  -4.2253168753016626E+00  -4.2243991417179121E+00  -4.2234811235034151E+00  -4.2225628217058349E+00
  -4.2216442373690786E+00  -4.2207253715333160E+00  -4.2198062252349962E+00  -4.2188867995068682E+00  -4.2179670953779871E+00
  -4.2170471138737406E+00  -4.2161268560158573E+00  -4.2152063228224277E+00  -4.2142855153079175E+00  -4.2133644344831831E+00
  -4.2124430813554854E+00  -4.2115214569285122E+00  -4.2105995622023862E+00  -4.2096773981736826E+00  -4.2087549658354479E+00
  -4.2078322661772090E+00  -4.2069093001849920E+00  -4.2059860688413391E+00  -4.2050625731253195E+00  -4.2041388140125449E+00
  -4.2032147924751868E+00  -4.2022905094819896E+00  -4.2013659659982840E+00  -4.2004411629860083E+00  -4.1995161014037095E+00
  -4.1985907822065718E+00  -4.1976652063464224E+00  -4.1967393747717496E+00  -4.1958132884277166E+00  -4.1948869482561717E+00
  -4.1939603551956699E+00  -4.1930335101814755E+00  -4.1921064141455924E+00  -4.1911790680167611E+00  -4.1902514727204840E+00
  -4.1893236291790314E+00  -4.1883955383114619E+00  -4.1874672010336322E+00  -4.1865386182582114E+00  -4.1856097908946932E+00
  -4.1846807198494105E+00  -4.1837514060255483E+00  -4.1828218503231582E+00  -4.1818920536391726E+00  -4.1809620168674080E+00
  -4.1800317408985945E+00  -4.1791012266203751E+00  -4.1781704749173274E+00  -4.1772394866709668E+00  -4.1763082627597683E+00
  -4.1753768040591757E+00  -4.1744451114416172E+00  -4.1735131857765069E+00  -4.1725810279302769E+00  -4.1716486387663689E+00
  -4.1707160191452619E+00  -4.1697831699244752E+00  -4.1688500919585865E+00  -4.1679167860992425E+00  -4.1669832531951663E+00
  -4.1660494940921797E+00  -4.1651155096332015E+00  -4.1641813006582744E+00  -4.1632468680045651E+00  -4.1623122125063823E+00
  -4.1613773349951870E+00  -4.1604422362996019E+00  -4.1595069172454275E+00  -4.1585713786556511E+00  -4.1576356213504546E+00
  -4.1566996461472376E+00  -4.1557634538606161E+00  -4.1548270453024392E+00  -4.1538904212818002E+00  -4.1529535826050514E+00
  -4.1520165300758078E+00  -4.1510792644949639E+00  -4.1501417866607024E+00  -4.1492040973685080E+00  -4.1482661974111750E+00
  -4.1473280875788188E+00  -4.1463897686588904E+00  -4.1454512414361835E+00  -4.1445125066928448E+00  -4.1435735652083858E+00
  -4.1426344177596981E+00  -4.1416950651210547E+00  -4.1407555080641307E+00  -4.1398157473580044E+00  -4.1388757837691745E+00
  -4.1379356180615670E+00  -4.1369952509965486E+00  -4.1360546833329375E+00  -4.1351139158270023E+00  -4.1341729492324903E+00
  -4.1332317843006257E+00  -4.1322904217801213E+00  -4.1313488624171928E+00  -4.1304071069555643E+00  -4.1294651561364795E+00
  -4.1285230106987134E+00  -4.1275806713785785E+00  -4.1266381389099402E+00  -4.1256954140242232E+00  -4.1247524974504195E+00
  -4.1238093899150980E+00  -4.1228660921424236E+00  -4.1219226048541522E+00  -4.1209789287696497E+00  -4.1200350646059007E+00
  -4.1190910130775151E+00  -4.1181467748967382E+00  -4.1172023507734625E+00  -4.1162577414152377E+00  -4.1153129475272685E+00
  -4.1143679698124425E+00  -4.1134228089713281E+00  -4.1124774657021801E+00  -4.1115319407009601E+00  -4.1105862346613344E+00
  -4.1096403482746942E+00  -4.1086942822301529E+00  -4.1077480372145656E+00  -4.1068016139125261E+00  -4.1058550130063924E+00
  -4.1049082351762785E+00  -4.1039612811000739E+00  -4.1030141514534453E+00  -4.1020668469098540E+00  -4.1011193681405569E+00
  -4.1001717158146169E+00  -4.0992238905989131E+00  -4.0982758931581502E+00  -4.0973277241548622E+00  -4.0963793842494276E+00
  -4.0954308741000682E+00  -4.0944821943628718E+00  -4.0935333456917835E+00  -4.0925843287386314E+00  -4.0916351441531171E+00
  -4.0906857925828399E+00  -4.0897362746732941E+00  -4.0887865910678824E+00  -4.0878367424079238E+00  -4.0868867293326572E+00
  -4.0859365524792546E+00  -4.0849862124828293E+00  -4.0840357099764377E+00  -4.0830850455910932E+00  -4.0821342199557735E+00
  -4.0811832336974252E+00  -4.0802320874409732E+00  -4.0792807818093300E+00  -4.0783293174234005E+00  -4.0773776949020935E+00
  -4.0764259148623285E+00  -4.0754739779190352E+00  -4.0745218846851756E+00  -4.0735696357717393E+00  -4.0726172317877589E+00
  -4.0716646733403108E+00  -4.0707119610345286E+00  -4.0697590954736054E+00  -4.0688060772588095E+00  -4.0678529069894775E+00
  -4.0668995852630374E+00  -4.0659461126750038E+00  -4.0649924898189935E+00  -4.0640387172867261E+00  -4.0630847956680389E+00
  -4.0621307255508832E+00  -4.0611765075213437E+00  -4.0602221421636333E+00  -4.0592676300601127E+00  -4.0583129717912865E+00
  -4.0573581679358171E+00  -4.0564032190705284E+00  -4.0554481257704156E+00  -4.0544928886086460E+00  -4.0535375081565759E+00
  -4.0525819849837443E+00  -4.0516263196578945E+00  -4.0506705127449703E+00  -4.0497145648091220E+00  -4.0487584764127247E+00
  -4.0478022481163700E+00  -4.0468458804788856E+00  -4.0458893740573290E+00  -4.0449327294070105E+00  -4.0439759470814840E+00
  -4.0430190276325604E+00  -4.0420619716103188E+00  -4.0411047795631010E+00  -4.0401474520375293E+00  -4.0391899895785084E+00
  -4.0382323927292330E+00  -4.0372746620311863E+00  -4.0363167980241643E+00  -4.0353588012462591E+00  -4.0344006722338861E+00
  -4.0334424115217766E+00  -4.0324840196429905E+00  -4.0315254971289196E+00  -4.0305668445092948E+00  -4.0296080623121915E+00
  -4.0286491510640365E+00  -4.0276901112896191E+00  -4.0267309435120850E+00  -4.0257716482529506E+00  -4.0248122260321120E+00
  -4.0238526773678416E+00  -4.0228930027768044E+00  -4.0219332027740533E+00  -4.0209732778730451E+00  -4.0200132285856389E+00
  -4.0190530554221064E+00  -4.0180927588911350E+00  -4.0171323394998346E+00  -4.0161717977537439E+00  -4.0152111341568375E+00
  -4.0142503492115269E+00  -4.0132894434186710E+00  -4.0123284172775779E+00  -4.0113672712860140E+00  -4.0104060059402098E+00
  -4.0094446217348594E+00  -4.0084831191631372E+00  -4.0075214987166898E+00  -4.0065597608856525E+00  -4.0055979061586511E+00
  -4.0046359350228053E+00  -4.0036738479637357E+00  -4.0027116454655722E+00  -4.0017493280109537E+00  -4.0007868960810402E+00
  -3.9998243501555089E+00  -3.9988616907125687E+00  -3.9978989182289624E+00  -3.9969360331799715E+00  -3.9959730360394179E+00
  -3.9950099272796775E+00  -3.9940467073716790E+00  -3.9930833767849068E+00  -3.9921199359874171E+00  -3.9911563854458318E+00
  -3.9901927256253464E+00  -3.9892289569897414E+00  -3.9882650800013781E+00  -3.9873010951212104E+00  -3.9863370028087899E+00
  -3.9853728035222638E+00  -3.9844084977183849E+00  -3.9834440858525224E+00  -3.9824795683786567E+00  -3.9815149457493875E+00
  -3.9805502184159405E+00  -3.9795853868281745E+00  -3.9786204514345802E+00  -3.9776554126822887E+00  -3.9766902710170764E+00
  -3.9757250268833699E+00  -3.9747596807242491E+00  -3.9737942329814522E+00  -3.9728286840953824E+00  -3.9718630345051138E+00
  -3.9708972846483888E+00  -3.9699314349616319E+00  -3.9689654858799481E+00  -3.9679994378371308E+00  -3.9670332912656665E+00
  -3.9660670465967356E+00  -3.9651007042602213E+00  -3.9641342646847133E+00  -3.9631677282975093E+00  -3.9622010955246241E+00
  -3.9612343667907921E+00  -3.9602675425194676E+00  -3.9593006231328385E+00  -3.9583336090518229E+00  -3.9573665006960774E+00
  -3.9563992984839982E+00  -3.9554320028327310E+00  -3.9544646141581681E+00  -3.9534971328749595E+00  -3.9525295593965133E+00
  -3.9515618941350015E+00  -3.9505941375013633E+00  -3.9496262899053121E+00  -3.9486583517553360E+00  -3.9476903234587031E+00
  -3.9467222054214690E+00  -3.9457539980484766E+00  -3.9447857017433634E+00  -3.9438173169085635E+00  -3.9428488439453129E+00
  -3.9418802832536537E+00  -3.9409116352324403E+00  -3.9399429002793358E+00  -3.9389740787908289E+00  -3.9380051711622244E+00
  -3.9370361777876561E+00  -3.9360670990600908E+00  -3.9350979353713242E+00  -3.9341286871119974E+00  -3.9331593546715875E+00
  -3.9321899384384231E+00  -3.9312204387996830E+00  -3.9302508561413965E+00  -3.9292811908484535E+00  -3.9283114433046102E+00
  -3.9273416138924846E+00  -3.9263717029935630E+00  -3.9254017109882127E+00  -3.9244316382556756E+00  -3.9234614851740717E+00
  -3.9224912521204129E+00  -3.9215209394705961E+00  -3.9205505475994125E+00  -3.9195800768805524E+00  -3.9186095276866046E+00
  -3.9176389003890622E+00  -3.9166681953583278E+00  -3.9156974129637159E+00  -3.9147265535734577E+00  -3.9137556175547008E+00
  -3.9127846052735196E+00  -3.9118135170949127E+00  -3.9108423533828081E+00  -3.9098711145000720E+00  -3.9088998008085052E+00
  -3.9079284126688503E+00  -3.9069569504407928E+00  -3.9059854144829722E+00  -3.9050138051529739E+00  -3.9040421228073425E+00
  -3.9030703678015817E+00  -3.9020985404901518E+00  -3.9011266412264907E+00  -3.9001546703629950E+00  -3.8991826282510389E+00
  -3.8982105152409736E+00  -3.8972383316821286E+00  -3.8962660779228186E+00  -3.8952937543103445E+00  -3.8943213611909968E+00
  -3.8933488989100580E+00  -3.8923763678118126E+00  -3.8914037682395404E+00  -3.8904311005355257E+00  -3.8894583650410639E+00
  -3.8884855620964554E+00  -3.8875126920410188E+00  -3.8865397552130880E+00  -3.8855667519500150E+00  -3.8845936825881777E+00
  -3.8836205474629817E+00  -3.8826473469088598E+00  -3.8816740812592805E+00  -3.8807007508467493E+00  -3.8797273560028072E+00
  -3.8787538970580417E+00  -3.8777803743420880E+00  -3.8768067881836266E+00  -3.8758331389103935E+00  -3.8748594268491763E+00
  -3.8738856523258258E+00  -3.8729118156652538E+00  -3.8719379171914348E+00  -3.8709639572274130E+00  -3.8699899360953038E+00
  -3.8690158541162951E+00  -3.8680417116106556E+00  -3.8670675088977293E+00  -3.8660932462959492E+00  -3.8651189241228319E+00
  -3.8641445426949783E+00  -3.8631701023280938E+00  -3.8621956033369687E+00  -3.8612210460354945E+00  -3.8602464307366673E+00
  -3.8592717577525808E+00  -3.8582970273944444E+00  -3.8573222399725711E+00  -3.8563473957963885E+00  -3.8553724951744415E+00
  -3.8543975384143958E+00  -3.8534225258230319E+00  -3.8524474577062624E+00  -3.8514723343691237E+00  -3.8504971561157819E+00
  -3.8495219232495410E+00  -3.8485466360728351E+00  -3.8475712948872407E+00  -3.8465958999934751E+00  -3.8456204516913983E+00
  -3.8446449502800233E+00  -3.8436693960575061E+00  -3.8426937893211597E+00  -3.8417181303674499E+00  -3.8407424194920061E+00
  -3.8397666569896129E+00  -3.8387908431542197E+00  -3.8378149782789452E+00  -3.8368390626560771E+00  -3.8358630965770697E+00
  -3.8348870803325599E+00  -3.8339110142123545E+00  -3.8329348985054441E+00  -3.8319587335000032E+00  -3.8309825194833862E+00
  -3.8300062567421400E+00  -3.8290299455620009E+00  -3.8280535862278979E+00  -3.8270771790239539E+00  -3.8261007242334943E+00
  -3.8251242221390394E+00  -3.8241476730223187E+00  -3.8231710771642646E+00  -3.8221944348450192E+00  -3.8212177463439341E+00
  -3.8202410119395753E+00  -3.8192642319097256E+00  -3.8182874065313852E+00  -3.8173105360807775E+00  -3.8163336208333467E+00
  -3.8153566610637659E+00  -3.8143796570459343E+00  -3.8134026090529844E+00  -3.8124255173572794E+00  -3.8114483822304206E+00
  -3.8104712039432487E+00  -3.8094939827658427E+00  -3.8085167189675264E+00  -3.8075394128168680E+00  -3.8065620645816853E+00
  -3.8055846745290456E+00  -3.8046072429252691E+00  -3.8036297700359305E+00  -3.8026522561258642E+00  -3.8016747014591643E+00
  -3.8006971062991828E+00  -3.7997194709085425E+00  -3.7987417955491281E+00  -3.7977640804820991E+00  -3.7967863259678807E+00
  -3.7958085322661748E+00  -3.7948306996359591E+00  -3.7938528283354911E+00  -3.7928749186223074E+00  -3.7918969707532275E+00
  -3.7909189849843581E+00  -3.7899409615710904E+00  -3.7889629007681092E+00  -3.7879848028293877E+00  -3.7870066680081957E+00
  -3.7860284965570994E+00  -3.7850502887279620E+00  -3.7840720447719494E+00  -3.7830937649395291E+00  -3.7821154494804747E+00
  -3.7811370986438662E+00  -3.7801587126780958E+00  -3.7791802918308663E+00  -3.7782018363491927E+00  -3.7772233464794067E+00
  -3.7762448224671621E+00  -3.7752662645574264E+00  -3.7742876729944945E+00  -3.7733090480219844E+00  -3.7723303898828422E+00
  -3.7713516988193390E+00  -3.7703729750730806E+00  -3.7693942188850058E+00  -3.7684154304953847E+00  -3.7674366101438297E+00
  -3.7664577580692882E+00  -3.7654788745100500E+00  -3.7644999597037510E+00  -3.7635210138873667E+00  -3.7625420372972251E+00
  -3.7615630301690022E+00  -3.7605839927377258E+00  -3.7596049252377730E+00  -3.7586258279028830E+00  -3.7576467009661481E+00
  -3.7566675446600204E+00  -3.7556883592163155E+00  -3.7547091448662102E+00  -3.7537299018402464E+00  -3.7527506303683356E+00
  -3.7517713306797562E+00  -3.7507920030031596E+00  -3.7498126475665692E+00  -3.7488332645973834E+00  -3.7478538543223778E+00
  -3.7468744169677084E+00  -3.7458949527589094E+00  -3.7449154619209000E+00  -3.7439359446779830E+00  -3.7429564012538448E+00
  -3.7419768318715665E+00  -3.7409972367536155E+00  -3.7400176161218508E+00  -3.7390379701975274E+00  -3.7380582992012932E+00
  -3.7370786033531989E+00  -3.7360988828726893E+00  -3.7351191379786135E+00  -3.7341393688892235E+00  -3.7331595758221754E+00
  -3.7321797589945329E+00  -3.7311999186227691E+00  -3.7302200549227660E+00  -3.7292401681098184E+00  -3.7282602583986351E+00
  -3.7272803260033411E+00  -3.7263003711374787E+00  -3.7253203940140098E+00  -3.7243403948453175E+00  -3.7233603738432066E+00
  -3.7223803312189081E+00  -3.7214002671830788E+00  -3.7204201819458036E+00  -3.7194400757165980E+00  -3.7184599487044068E+00
  -3.7174798011176091E+00  -3.7164996331640223E+00  -3.7155194450508957E+00  -3.7145392369849204E+00  -3.7135590091722248E+00
  -3.7125787618183828E+00  -3.7115984951284076E+00  -3.7106182093067615E+00  -3.7096379045573507E+00  -3.7086575810835303E+00
  -3.7076772390881088E+00  -3.7066968787733421E+00  -3.7057165003409418E+00  -3.7047361039920772E+00  -3.7037556899273669E+00
  -3.7027752583468940E+00  -3.7017948094502033E+00  -3.7008143434362943E+00  -3.6998338605036367E+00  -3.6988533608501593E+00
  -3.6978728446732618E+00  -3.6968923121698087E+00  -3.6959117635361367E+00  -3.6949311989680540E+00  -3.6939506186608373E+00
  -3.6929700228092441E+00  -3.6919894116075018E+00  -3.6910087852493199E+00  -3.6900281439278846E+00  -3.6890474878358632E+00
  -3.6880668171654052E+00  -3.6870861321081447E+00  -3.6861054328551988E+00  -3.6851247195971735E+00  -3.6841439925241644E+00
  -3.6831632518257522E+00  -3.6821824976910151E+00  -3.6812017303085183E+00  -3.6802209498663241E+00  -3.6792401565519937E+00
  -3.6782593505525791E+00  -3.6772785320546371E+00  -3.6762977012442204E+00  -3.6753168583068878E+00  -3.6743360034276966E+00
  -3.6733551367912147E+00  -3.6723742585815113E+00  -3.6713933689821641E+00  -3.6704124681762620E+00  -3.6694315563464035E+00
  -3.6684506336746989E+00  -3.6674697003427719E+00  -3.6664887565317605E+00  -3.6655078024223227E+00  -3.6645268381946265E+00
  -3.6635458640283693E+00  -3.6625648801027615E+00  -3.6615838865965378E+00  -3.6606028836879561E+00  -3.6596218715547986E+00
  -3.6586408503743764E+00  -3.6576598203235244E+00  -3.6566787815786115E+00  -3.6556977343155306E+00  -3.6547166787097103E+00
  -3.6537356149361120E+00  -3.6527545431692316E+00  -3.6517734635830990E+00  -3.6507923763512853E+00  -3.6498112816468944E+00
  -3.6488301796425748E+00  -3.6478490705105147E+00  -3.6468679544224458E+00  -3.6458868315496402E+00  -3.6449057020629190E+00
  -3.6439245661326494E+00  -3.6429434239287466E+00  -3.6419622756206707E+00  -3.6409811213774392E+00  -3.6399999613676153E+00
  -3.6390187957593207E+00  -3.6380376247202255E+00  -3.6370564484175625E+00  -3.6360752670181160E+00  -3.6350940806882308E+00
  -3.6341128895938093E+00  -3.6331316939003169E+00  -3.6321504937727838E+00  -3.6311692893757956E+00  -3.6301880808735110E+00
  -3.6292068684296486E+00  -3.6282256522074952E+00  -3.6272444323699102E+00  -3.6262632090793199E+00  -3.6252819824977185E+00
  -3.6243007527866768E+00  -3.6233195201073380E+00  -3.6223382846204175E+00  -3.6213570464862088E+00  -3.6203758058645823E+00
  -3.6193945629149837E+00  -3.6184133177964446E+00  -3.6174320706675718E+00  -3.6164508216865552E+00  -3.6154695710111673E+00
  -3.6144883187987666E+00  -3.6135070652062962E+00  -3.6125258103902862E+00  -3.6115445545068536E+00  -3.6105632977117046E+00
  -3.6095820401601375E+00  -3.6086007820070396E+00  -3.6076195234068917E+00  -3.6066382645137685E+00  -3.6056570054813379E+00
  -3.6046757464628669E+00  -3.6036944876112194E+00  -3.6027132290788533E+00  -3.6017319710178302E+00  -3.6007507135798114E+00
  -3.5997694569160599E+00  -3.5987882011774412E+00  -3.5978069465144245E+00  -3.5968256930770837E+00  -3.5958444410151036E+00
  -3.5948631904777688E+00  -3.5938819416139771E+00  -3.5929006945722373E+00  -3.5919194495006650E+00  -3.5909382065469893E+00
  -3.5899569658585531E+00  -3.5889757275823126E+00  -3.5879944918648405E+00  -3.5870132588523203E+00  -3.5860320286905609E+00
  -3.5850508015249831E+00  -3.5840695775006317E+00  -3.5830883567621683E+00  -3.5821071394538775E+00  -3.5811259257196681E+00
  -3.5801447157030735E+00  -3.5791635095472438E+00  -3.5781823073949655E+00  -3.5772011093886467E+00  -3.5762199156703245E+00
  -3.5752387263816643E+00  -3.5742575416639615E+00  -3.5732763616581451E+00  -3.5722951865047721E+00  -3.5713140163440364E+00
  -3.5703328513157651E+00  -3.5693516915594183E+00  -3.5683705372140948E+00  -3.5673893884185319E+00  -3.5664082453110995E+00
  -3.5654271080298137E+00  -3.5644459767123271E+00  -3.5634648514959348E+00  -3.5624837325175722E+00  -3.5615026199138216E+00
  -3.5605215138209068E+00  -3.5595404143746978E+00  -3.5585593217107108E+00  -3.5575782359641099E+00  -3.5565971572697075E+00
  -3.5556160857619643E+00  -3.5546350215749922E+00  -3.5536539648425522E+00  -3.5526729156980612E+00  -3.5516918742745869E+00
  -3.5507108407048502E+00  -3.5497298151212315E+00  -3.5487487976557603E+00  -3.5477677884401291E+00  -3.5467867876056860E+00
  -3.5458057952834392E+00  -3.5448248116040539E+00  -3.5438438366978597E+00  -3.5428628706948451E+00  -3.5418819137246635E+00
  -3.5409009659166299E+00  -3.5399200273997260E+00  -3.5389390983025986E+00  -3.5379581787535561E+00  -3.5369772688805838E+00
  -3.5359963688113258E+00  -3.5350154786731003E+00  -3.5340345985928958E+00  -3.5330537286973689E+00  -3.5320728691128505E+00
  -3.5310920199653442E+00  -3.5301111813805250E+00  -3.5291303534837453E+00  -3.5281495364000337E+00  -3.5271687302540902E+00
  -3.5261879351702969E+00  -3.5252071512727130E+00  -3.5242263786850758E+00  -3.5232456175308031E+00  -3.5222648679329929E+00
  -3.5212841300144255E+00  -3.5203034038975640E+00  -3.5193226897045546E+00  -3.5183419875572279E+00  -3.5173612975771009E+00
  -3.5163806198853726E+00  -3.5153999546029349E+00  -3.5144193018503627E+00  -3.5134386617479194E+00  -3.5124580344155625E+00
  -3.5114774199729366E+00  -3.5104968185393752E+00  -3.5095162302339094E+00  -3.5085356551752587E+00  -3.5075550934818374E+00
  -3.5065745452717549E+00  -3.5055940106628158E+00  -3.5046134897725221E+00  -3.5036329827180692E+00  -3.5026524896163540E+00
  -3.5016720105839689E+00  -3.5006915457372112E+00  -3.4997110951920725E+00  -3.4987306590642482E+00  -3.4977502374691345E+00
  -3.4967698305218331E+00  -3.4957894383371455E+00  -3.4948090610295823E+00  -3.4938286987133527E+00  -3.4928483515023765E+00
  -3.4918680195102820E+00  -3.4908877028503986E+00  -3.4899074016357701E+00  -3.4889271159791471E+00  -3.4879468459929881E+00
  -3.4869665917894666E+00  -3.4859863534804636E+00  -3.4850061311775749E+00  -3.4840259249921086E+00  -3.4830457350350872E+00
  -3.4820655614172447E+00  -3.4810854042490353E+00  -3.4801052636406258E+00  -3.4791251397019014E+00  -3.4781450325424652E+00
  -3.4771649422716355E+00  -3.4761848689984554E+00  -3.4752048128316835E+00  -3.4742247738797993E+00  -3.4732447522510066E+00
  -3.4722647480532305E+00  -3.4712847613941151E+00  -3.4703047923810342E+00  -3.4693248411210811E+00  -3.4683449077210780E+00
  -3.4673649922875707E+00  -3.4663850949268320E+00  -3.4654052157448603E+00  -3.4644253548473873E+00  -3.4634455123398693E+00
  -3.4624656883274914E+00  -3.4614858829151736E+00  -3.4605060962075616E+00  -3.4595263283090358E+00  -3.4585465793237091E+00
  -3.4575668493554268E+00  -3.4565871385077664E+00  -3.4556074468840441E+00  -3.4546277745873080E+00  -3.4536481217203425E+00
  -3.4526684883856689E+00  -3.4516888746855492E+00  -3.4507092807219775E+00  -3.4497297065966914E+00  -3.4487501524111650E+00
  -3.4477706182666168E+00  -3.4467911042639994E+00  -3.4458116105040140E+00  -3.4448321370871002E+00  -3.4438526841134394E+00
  -3.4428732516829612E+00  -3.4418938398953354E+00  -3.4409144488499770E+00  -3.4399350786460485E+00  -3.4389557293824593E+00
  -3.4379764011578628E+00  -3.4369970940706636E+00  -3.4360178082190096E+00  -3.4350385437008040E+00  -3.4340593006136939E+00
  -3.4330800790550806E+00  -3.4321008791221148E+00  -3.4311217009116999E+00  -3.4301425445204896E+00  -3.4291634100448913E+00
  -3.4281842975810686E+00  -3.4272052072249362E+00  -3.4262261390721633E+00  -3.4252470932181769E+00  -3.4242680697581607E+00
  -3.4232890687870525E+00  -3.4223100903995496E+00  -3.4213311346901043E+00  -3.4203522017529338E+00  -3.4193732916820077E+00
  -3.4183944045710604E+00  -3.4174155405135855E+00  -3.4164366996028384E+00  -3.4154578819318346E+00  -3.4144790875933526E+00
  -3.4135003166799351E+00  -3.4125215692838902E+00  -3.4115428454972858E+00  -3.4105641454119580E+00  -3.4095854691195089E+00
  -3.4086068167113059E+00  -3.4076281882784816E+00  -3.4066495839119391E+00  -3.4056710037023463E+00  -3.4046924477401435E+00
  -3.4037139161155370E+00  -3.4027354089185051E+00  -3.4017569262387943E+00  -3.4007784681659268E+00  -3.3998000347891892E+00
  -3.3988216261976474E+00  -3.3978432424801355E+00  -3.3968648837252640E+00  -3.3958865500214164E+00  -3.3949082414567484E+00
  -3.3939299581191955E+00  -3.3929517000964662E+00  -3.3919734674760456E+00  -3.3909952603451963E+00  -3.3900170787909563E+00
  -3.3890389229001463E+00  -3.3880607927593602E+00  -3.3870826884549770E+00  -3.3861046100731507E+00  -3.3851265576998175E+00
  -3.3841485314206943E+00  -3.3831705313212805E+00  -3.3821925574868574E+00  -3.3812146100024876E+00  -3.3802366889530191E+00
  -3.3792587944230807E+00  -3.3782809264970890E+00  -3.3773030852592427E+00  -3.3763252707935281E+00  -3.3753474831837158E+00
  -3.3743697225133649E+00  -3.3733919888658188E+00  -3.3724142823242120E+00  -3.3714366029714653E+00  -3.3704589508902871E+00
  -3.3694813261631782E+00  -3.3685037288724264E+00  -3.3675261591001115E+00  -3.3665486169281045E+00  -3.3655711024380670E+00
  -3.3645936157114518E+00  -3.3636161568295084E+00  -3.3626387258732726E+00  -3.3616613229235792E+00  -3.3606839480610557E+00
  -3.3597066013661232E+00  -3.3587292829189996E+00  -3.3577519927996979E+00  -3.3567747310880267E+00  -3.3557974978635929E+00
  -3.3548202932057984E+00  -3.3538431171938461E+00  -3.3528659699067340E+00  -3.3518888514232614E+00  -3.3509117618220250E+00
  -3.3499347011814220E+00  -3.3489576695796526E+00  -3.3479806670947121E+00  -3.3470036938044037E+00  -3.3460267497863287E+00
  -3.3450498351178903E+00  -3.3440729498762982E+00  -3.3430960941385623E+00  -3.3421192679814973E+00  -3.3411424714817226E+00
  -3.3401657047156625E+00  -3.3391889677595477E+00  -3.3382122606894118E+00  -3.3372355835810987E+00  -3.3362589365102555E+00
  -3.3352823195523409E+00  -3.3343057327826173E+00  -3.3333291762761563E+00  -3.3323526501078424E+00  -3.3313761543523643E+00
  -3.3303996890842238E+00  -3.3294232543777307E+00  -3.3284468503070079E+00  -3.3274704769459884E+00  -3.3264941343684153E+00
  -3.3255178226478472E+00  -3.3245415418576547E+00  -3.3235652920710197E+00  -3.3225890733609384E+00  -3.3216128858002216E+00
  -3.3206367294614956E+00  -3.3196606044171997E+00  -3.3186845107395917E+00  -3.3177084485007415E+00  -3.3167324177725379E+00
  -3.3157564186266879E+00  -3.3147804511347125E+00  -3.3138045153679530E+00  -3.3128286113975691E+00  -3.3118527392945358E+00
  -3.3108768991296547E+00  -3.3099010909735385E+00  -3.3089253148966251E+00  -3.3079495709691717E+00  -3.3069738592612570E+00
  -3.3059981798427809E+00  -3.3050225327834659E+00  -3.3040469181528556E+00  -3.3030713360203161E+00  -3.3020957864550398E+00
  -3.3011202695260398E+00  -3.3001447853021530E+00  -3.2991693338520447E+00  -3.2981939152442017E+00  -3.2972185295469374E+00
  -3.2962431768283902E+00  -3.2952678571565275E+00  -3.2942925705991417E+00  -3.2933173172238508E+00  -3.2923420970981043E+00
  -3.2913669102891774E+00  -3.2903917568641714E+00  -3.2894166368900226E+00  -3.2884415504334923E+00  -3.2874664975611720E+00
  -3.2864914783394852E+00  -3.2855164928346845E+00  -3.2845415411128540E+00  -3.2835666232399090E+00  -3.2825917392815986E+00
  -3.2816168893035007E+00  -3.2806420733710282E+00  -3.2796672915494285E+00  -3.2786925439037793E+00  -3.2777178304989953E+00
  -3.2767431513998253E+00  -3.2757685066708508E+00  -3.2747938963764889E+00  -3.2738193205809947E+00  -3.2728447793484570E+00
  -3.2718702727428024E+00  -3.2708958008277946E+00  -3.2699213636670326E+00  -3.2689469613239548E+00  -3.2679725938618378E+00
  -3.2669982613437965E+00  -3.2660239638327826E+00  -3.2650497013915913E+00  -3.2640754740828544E+00  -3.2631012819690426E+00
  -3.2621271251124706E+00  -3.2611530035752918E+00  -3.2601789174195028E+00  -3.2592048667069382E+00  -3.2582308514992784E+00
  -3.2572568718580444E+00  -3.2562829278445999E+00  -3.2553090195201535E+00  -3.2543351469457553E+00  -3.2533613101822998E+00
  -3.2523875092905272E+00  -3.2514137443310234E+00  -3.2504400153642141E+00  -3.2494663224503766E+00  -3.2484926656496316E+00
  -3.2475190450219453E+00  -3.2465454606271327E+00  -3.2455719125248526E+00  -3.2445984007746151E+00  -3.2436249254357761E+00
   1.2689325720773848E+01   1.2689325720773848E+01   1.2689325720773848E+01   1.2689325720773848E+01   1.2689325720773848E+01
   1.2689325720773848E+01   1.2689325720773848E+01   1.2689325720773848E+01   1.2689325720773848E+01   1.2689325720773848E+01
   1.2689325720773848E+01   1.2689325720773848E+01   1.2689325720773848E+01   1.2689325720773848E+01   1.2689325720773848E+01
   1.2689325720773848E+01   1.2689325720773848E+01   1.2689325720773848E+01   1.2689325720773848E+01   1.2689325720773848E+01
   1.2689325720773848E+01   1.2689325720773848E+01   1.2689325720773848E+01   1.2689325720773848E+01   1.2689325720773848E+01
   1.2689325720773848E+01   1.2689325720773848E+01   1.2689325720773848E+01   1.2689325720773848E+01   1.2689325720773848E+01
   1.2689325720773848E+01   1.2689325720773848E+01   1.2689325720773848E+01   1.2689325720773848E+01   1.2689325720773848E+01
   1.2689325720773848E+01   1.2689325720773848E+01   1.2689325720773848E+01   1.2689325720773848E+01   1.2689325720773848E+01
   1.2689325720773848E+01   1.2689325720773848E+01   1.2689325720773848E+01   1.2689325720773848E+01   1.2689325720773848E+01
   1.2689325720773848E+01   1.2689325720773848E+01   1.2689325720773848E+01   1.2689325720773848E+01   1.2689325720773848E+01
   1.2689325720773848E+01   1.2689325720773848E+01   1.2689325720773848E+01   1.2689325720773848E+01   1.2689325720773848E+01
   1.2689325720773848E+01   1.2689325720773848E+01   1.2689325720773848E+01   1.2689325720773848E+01   1.2689325720773848E+01
   1.2689325720773848E+01   1.2689325720773848E+01   1.2689325720773848E+01   1.2689325720773848E+01   1.2689325720773848E+01
   1.2689325720773848E+01   1.2689325720773848E+01   1.2689325720773848E+01   1.2689325720773848E+01   1.2689325720773848E+01
   1.2689325720773848E+01   1.2689325720773848E+01   1.2689325720773848E+01   1.2689325720773848E+01   1.2689325720773848E+01
   1.2689325720773848E+01   1.2689325720773848E+01   1.2689325720773848E+01   1.2689325720773848E+01   1.2689325720773848E+01
   1.2689325720773848E+01   1.2689325720773848E+01   1.2689325720773848E+01   1.2689325720773848E+01   1.2689325720773848E+01
   1.2689325720773848E+01   1.2689325720773848E+01   1.2689325720773848E+01   1.2689325720773848E+01   1.2689325720773848E+01
   1.2689325720773848E+01   1.2689325720773848E+01   1.2689325720773848E+01   1.2689325720773848E+01   1.2689325720773848E+01
   1.2689325720773848E+01   1.2689325720773848E+01   1.2689325720773848E+01   1.2689325720773848E+01   1.2689325720773848E+01
   1.2689325720773848E+01   1.2689325720773848E+01   1.2689325720773848E+01   1.2689325720773848E+01   1.2689325720773848E+01
   1.2689325720773848E+01   1.2689325720773848E+01   1.2689325720773848E+01   1.2689325720773848E+01   1.2689325720773848E+01
   1.2689325720773848E+01   1.2689325720773848E+01   1.2689325720773848E+01   1.2689325720773848E+01   1.2689325720773848E+01
   1.2689325720773848E+01   1.2689325720773848E+01   1.2689325720773848E+01   1.2689325720773848E+01   1.2689325720773848E+01
   1.2689325720773848E+01   1.2689325720773848E+01   1.2689325720773848E+01   1.2689325720773848E+01   1.2689325720773848E+01
   1.2689325720773848E+01   1.2689325720773848E+01   1.2689325720773848E+01   1.2689325720773848E+01   1.2689325720773848E+01
   1.2689325720773848E+01   1.2689325720773848E+01   1.2689325720773848E+01   1.2689325720773848E+01   1.2689325720773848E+01
   1.2689325720773848E+01   1.2689325720773848E+01   1.2689325720773848E+01   1.2689325720773848E+01   1.2689325720773848E+01
   1.2689325720773848E+01   1.2689325720773848E+01   1.2709186126601617E+01   1.2822887983331604E+01   1.2936078745333603E+01
   1.3048718991249926E+01   1.3160769362701108E+01   1.3272190607527108E+01   1.3382943623268520E+01   1.3492989500791108E+01
   1.3602289567954230E+01   1.3710805433223422E+01   1.3818499029125881E+01   1.3925332655447697E+01   1.4031269022071168E+01
   1.4136271291351271E+01   1.4240303119930843E+01   1.4343328699895238E+01   1.4445312799168947E+01   1.4546220801058366E+01
   1.4646018742847398E+01   1.4744673353355301E+01   1.4842152089369165E+01   1.4938423170866878E+01   1.5033455614950284E+01
   1.5127219268412199E+01   1.5219684838865353E+01   1.5310823924366019E+01   1.5400609041469924E+01   1.5489013651663129E+01
   1.5576012186116021E+01   1.5661580068713798E+01   1.5745693737322616E+01   1.5828330663256251E+01   1.5909469368913964E+01
   1.5989089443565980E+01   1.6067171557269091E+01   1.6143697472900566E+01   1.6218650056304515E+01   1.6292013284550610E+01
   1.6363772252310749E+01   1.6433913176364737E+01   1.6502423398251722E+01   1.6569291385089116E+01   1.6634506728586022E+01
   1.6698060142283062E+01   1.6759943457054799E+01   1.6820149614916154E+01   1.6878672661177418E+01   1.6935507734997081E+01
   1.6990651058384941E+01   1.7044099923711453E+01   1.7095852679782155E+01   1.7145908716538898E+01   1.7194268448451847E+01
   1.7240933296668480E+01   1.7285905669987581E+01   1.7329188944727630E+01   1.7370787443560229E+01   1.7410706413380343E+01
   1.7448952002285246E+01   1.7485531235734914E+01   1.7520451991966290E+01   1.7553722976733894E+01   1.7585353697448571E+01
   1.7615354436785665E+01   1.7643736225832900E+01   1.7670510816847049E+01   1.7695690655687294E+01   1.7719288853991500E+01
   1.7741319161160032E+01   1.7761795936209925E+01   1.7780734119560105E+01   1.7798149204806361E+01   1.7814057210542540E+01
   1.7828474652282090E+01   1.7841418514531661E+01   1.7852906223066086E+01   1.7862955617451473E+01   1.7871584923860620E+01
   1.7878812728222410E+01   1.7884657949744103E+01   1.7889139814843094E+01   1.7892277831521845E+01   1.7894091764217205E+01
   1.7894601609152964E+01   1.7893827570221617E+01   1.7891790035419117E+01   1.7888509553853865E+01   1.7884006813348861E+01
   1.7878302618653464E+01   1.7871417870279338E+01   1.7863373543972443E+01   1.7854190670831549E+01   1.7843890318080934E+01
   1.7832493570503800E+01   1.7820021512540404E+01   1.7806495211053726E+01   1.7791935698763432E+01   1.7776363958347410E+01
   1.7759800907208874E+01   1.7742267382905375E+01   1.7723784129234801E+01   1.7704371782972476E+01   1.7684050861251873E+01
   1.7662841749580927E+01   1.7640764690484559E+01   1.7617839772763332E+01   1.7594086921357427E+01   1.7569525887804055E+01
   1.7544176241276396E+01   1.7518057360190745E+01   1.7491188424368854E+01   1.7463588407741469E+01   1.7435276071578837E+01
   1.7406269958233771E+01   1.7376588385382369E+01   1.7346249440747453E+01   1.7315270977289561E+01   1.7283670608850212E+01
   1.7251465706232111E+01   1.7218673393700996E+01   1.7185310545893735E+01   1.7151393785117403E+01   1.7116939479024271E+01
   1.7081963738647463E+01   1.7046482416782524E+01   1.7010511106700100E+01   1.6974065141175210E+01   1.6937159591818876E+01
   1.6899809268697929E+01   1.6862028720229294E+01   1.6823832233335235E+01   1.6785233833846252E+01   1.6746247287138843E+01
   1.6706886098995383E+01   1.6667163516673938E+01   1.6627092530176011E+01   1.6586685873700617E+01   1.6545956027273405E+01
   1.6504915218539914E+01   1.6463575424712324E+01   1.6421948374659504E+01   1.6380045551130411E+01   1.6337878193101410E+01
   1.6295457298238077E+01   1.6252793625462889E+01   1.6209897697620026E+01   1.6166779804229289E+01   1.6123450004321107E+01
   1.6079918129345145E+01   1.6036193786145354E+01   1.5992286359994424E+01   1.5948205017681113E+01   1.5903958710644137E+01
   1.5859556178146525E+01   1.5815005950484856E+01   1.5770316352227777E+01   1.5725495505478667E+01   1.5680551333157574E+01
   1.5635491562297698E+01   1.5590323727352063E+01   1.5545055173506064E+01   1.5499693059992211E+01   1.5454244363403010E+01
   1.5408715880998756E+01   1.5363114234006861E+01   1.5317445870909481E+01   1.5271717070716821E+01   1.5225933946223142E+01
   1.5180102447243101E+01   1.5134228363826026E+01   1.5088317329445900E+01   1.5042374824165067E+01   1.4996406177769748E+01
   1.4950416572875639E+01   1.4904411048002018E+01   1.4858394500612869E+01   1.4812371690123674E+01   1.4766347240872696E+01
   1.4720325645055640E+01   1.4674311265622713E+01   1.4628308339137112E+01   1.4582320978594289E+01   1.4536353176201228E+01
   1.4490408806115068E+01   1.4444491627140694E+01   1.4398605285386743E+01   1.4352753316879685E+01   1.4306939150135731E+01
   1.4261166108690293E+01   1.4215437413584828E+01   1.4169756185811019E+01   1.4124125448712206E+01   1.4078548130342053E+01
   1.4033027065780564E+01   1.3987564999407496E+01   1.3942164587133336E+01   1.3896828398588017E+01   1.3851558919267646E+01
   1.3806358552639374E+01   1.3761229622204837E+01   1.3716174373522440E+01   1.3671194976188749E+01   1.3626293525779490E+01
   1.3581472045750468E+01   1.3536732489298828E+01   1.3492076741185132E+01   1.3447506619516652E+01   1.3403023877492414E+01
   1.3358630205110392E+01   1.3314327230837415E+01   1.3270116523242272E+01   1.3225999592592503E+01   1.3181977892415507E+01
   1.3138052821024289E+01   1.3094225723008662E+01   1.3050497890692206E+01   1.3006870565555683E+01   1.2963344939627358E+01
   1.2919922156840924E+01   1.2876603314361393E+01   1.2833389463879680E+01   1.2790281612876354E+01   1.2747280725855136E+01
   1.2704387725546667E+01   1.2661603494083181E+01   1.2618928874144510E+01   1.2576364670076128E+01   1.2533911648979593E+01
   1.2491570541776149E+01   1.2449342044243753E+01   1.2407226818028374E+01   1.2365225491629813E+01   1.2323338661362738E+01
   1.2281566892293382E+01   1.2239910719152444E+01   1.2198370647224660E+01   1.2156947153215620E+01   1.2115640686096228E+01
   1.2074451667925358E+01   1.2033380494651174E+01   1.1992427536891558E+01   1.1951593140694174E+01   1.1910877628276547E+01
   1.1870281298746679E+01   1.1829804428804609E+01   1.1789447273425347E+01   1.1749210066523695E+01   1.1709093021601204E+01
   1.1669096332375926E+01   1.1629220173395126E+01   1.1589464700631526E+01   1.1549830052063383E+01   1.1510316348238872E+01
   1.1470923692825032E+01   1.1431652173141769E+01   1.1392501860681222E+01   1.1353472811612846E+01   1.1314565067274563E+01
   1.1275778654650372E+01   1.1237113586834701E+01   1.1198569863483840E+01   1.1160147471254804E+01   1.1121846384231926E+01
   1.1083666564341472E+01   1.1045607961754635E+01   1.1007670515279127E+01   1.0969854152739726E+01   1.0932158791348058E+01
   1.0894584338061831E+01   1.0857130689933824E+01   1.0819797734450997E+01   1.0782585349863755E+01   1.0745493405505869E+01
   1.0708521762105129E+01   1.0671670272085034E+01   1.0634938779857778E+01   1.0598327122108701E+01   1.0561835128072488E+01
   1.0525462619801303E+01   1.0489209412425103E+01   1.0453075314404293E+01   1.0417060127774956E+01   1.0381163648386929E+01
   1.0345385666134735E+01   1.0309725965181761E+01   1.0274184324177767E+01   1.0238760516469899E+01   1.0203454310307420E+01
   1.0168265469040341E+01   1.0133193751312044E+01   1.0098238911246179E+01   1.0063400698627884E+01   1.0028678859079527E+01
   9.9940731342311668E+00   9.9595832618858005E+00   9.9252089761795972E+00   9.8909500077372119E+00   9.8568060838224199E+00
   9.8227769284840178E+00   9.7888622626973536E+00   9.7550618045013930E+00   9.7213752691316202E+00   9.6878023691487662E+00
   9.6543428145635648E+00   9.6209963129576153E+00   9.5877625696004269E+00   9.5546412875628839E+00   9.5216321678270326E+00
   9.4887349093924911E+00   9.4559492093794599E+00   9.4232747631284681E+00   9.3907112642969537E+00   9.3582584049527533E+00
   9.3259158756646272E+00   9.2936833655898372E+00   9.2615605625589588E+00   9.2295471531578954E+00   9.1976428228072908E+00
   9.1658472558393367E+00   9.1341601355720758E+00   9.1025811443812756E+00   9.0711099637699597E+00   9.0397462744356343E+00
   9.0084897563352886E+00   8.9773400887482691E+00   8.9462969503370431E+00   8.9153600192059219E+00   8.8845289729578489E+00
   8.8538034887492554E+00   8.8231832433430668E+00   8.7926679131599137E+00   8.7622571743276403E+00   8.7319507027290193E+00
   8.7017481740479674E+00   8.6716492638140590E+00   8.6416536474455601E+00   8.6117610002909419E+00   8.5819709976689698E+00
   8.5522833149073598E+00   8.5226976273800776E+00   8.4932136105433766E+00   8.4638309399704550E+00   8.4345492913849558E+00
   8.4053683406932453E+00   8.3762877640155011E+00   8.3473072377157109E+00   8.3184264384305475E+00   8.2896450430971971E+00
   8.2609627289801661E+00   8.2323791736971046E+00   8.2038940552436124E+00   8.1755070520171955E+00   8.1472178428402486E+00
   8.1190261069822096E+00   8.0909315241808244E+00   8.0629337746626408E+00   8.0350325391626640E+00   8.0072274989432604E+00
   7.9795183358123412E+00   7.9519047321407665E+00   7.9243863708791178E+00   7.8969629355737370E+00   7.8696341103821652E+00
   7.8423995800878989E+00   7.8152590301145741E+00   7.7882121465395269E+00   7.7612586161068027E+00   7.7343981262396104E+00
   7.7076303650522169E+00   7.6809550213613500E+00   7.6543717846970845E+00   7.6278803453132440E+00   7.6014803941973428E+00
   7.5751716230800508E+00   7.5489537244442584E+00   7.5228263915336617E+00   7.4967893183610084E+00   7.4708421997158672E+00
   7.4449847311720818E+00   7.4192166090948195E+00   7.3935375306472562E+00   7.3679471937969492E+00   7.3424452973218397E+00
   7.3170315408159512E+00   7.2917056246947602E+00   7.2664672502003036E+00   7.2413161194059361E+00   7.2162519352208632E+00
   7.1912744013943586E+00   7.1663832225197526E+00   7.1415781040381461E+00   7.1168587522418942E+00   7.0922248742778331E+00
   7.0676761781503021E+00   7.0432123727239544E+00   7.0188331677262994E+00   6.9945382737501181E+00   6.9703274022556245E+00
   6.9462002655724575E+00   6.9221565769014957E+00   6.8981960503164723E+00   6.8743184007654552E+00   6.8505233440721129E+00
   6.8268105969368831E+00   6.8031798769379366E+00   6.7796309025320189E+00   6.7561633930551466E+00   6.7327770687231627E+00
   6.7094716506321657E+00   6.6862468607588177E+00   6.6631024219605042E+00   6.6400380579754161E+00   6.6170534934224818E+00
   6.5941484538012247E+00   6.5713226654914791E+00   6.5485758557530396E+00   6.5259077527251952E+00   6.5033180854261614E+00
   6.4808065837524680E+00   6.4583729784781934E+00   6.4360170012541786E+00   6.4137383846071163E+00   6.3915368619385999E+00
   6.3694121675240769E+00   6.3473640365117232E+00   6.3253922049212976E+00   6.3034964096428627E+00   6.2816763884355158E+00
   6.2599318799259915E+00   6.2382626236072598E+00   6.2166683598370591E+00   6.1951488298363397E+00   6.1737037756877262E+00
   6.1523329403338565E+00   6.1310360675757272E+00   6.1098129020709795E+00   6.0886631893321495E+00   6.0675866757248498E+00
   6.0465831084659607E+00   6.0256522356217426E+00   6.0047938061059352E+00   5.9840075696778259E+00   5.9632932769402709E+00
   5.9426506793376950E+00   5.9220795291540664E+00   5.9015795795108543E+00   5.8811505843649154E+00   5.8607922985064143E+00
   5.8405044775566903E+00   5.8202868779660868E+00   5.8001392570118107E+00   5.7800613727957169E+00   5.7600529842420958E+00
   5.7401138510954581E+00   5.7202437339182914E+00   5.7004423940887774E+00   5.6807095937985412E+00   5.6610450960503469E+00
   5.6414486646557940E+00   5.6219200642330209E+00   5.6024590602043576E+00   5.5830654187939937E+00   5.5637389070256429E+00
   5.5444792927201840E+00   5.5252863444932760E+00   5.5061598317530258E+00   5.4870995246975722E+00   5.4681051943127130E+00
   5.4491766123695315E+00   5.4303135514219729E+00   5.4115157848044522E+00   5.3927830866294553E+00   5.3741152317851277E+00
   5.3555119959328508E+00   5.3369731555048379E+00   5.3184984877017127E+00   5.3000877704900811E+00   5.2817407826001270E+00
   5.2634573035231744E+00   5.2452371135092646E+00   5.2270799935647396E+00   5.2089857254498195E+00   5.1909540916761632E+00
   5.1729848755044623E+00   5.1550778609420140E+00   5.1372328327402856E+00   5.1194495763925252E+00   5.1017278781313138E+00
   5.0840675249261604E+00   5.0664683044810941E+00   5.0489300052322514E+00   5.0314524163454530E+00   5.0140353277138203E+00
   4.9966785299553580E+00   4.9793818144105559E+00   4.9621449731400062E+00   4.9449677989219962E+00   4.9278500852501281E+00
   4.9107916263309308E+00   4.8937922170814945E+00   4.8768516531270709E+00   4.8599697307987233E+00   4.8431462471309583E+00
   4.8263809998593468E+00   4.8096737874181938E+00   4.7930244089381713E+00   4.7764326642439663E+00   4.7598983538519573E+00
   4.7434212789678760E+00   4.7270012414844569E+00   4.7106380439791353E+00   4.6943314897117263E+00   4.6780813826220911E+00
   4.6618875273278615E+00   4.6457497291221124E+00   4.6296677939710742E+00   4.6136415285118479E+00   4.5976707400501233E+00
   4.5817552365578846E+00   4.5658948266711636E+00   4.5500893196877561E+00   4.5343385255649684E+00   4.5186422549173741E+00
   4.5030003190145580E+00   4.4874125297788714E+00   4.4718786997832147E+00   4.4563986422488080E+00   4.4409721710429526E+00
   4.4255991006768429E+00   4.4102792463033440E+00   4.3950124237147907E+00   4.3797984493408082E+00   4.3646371402461099E+00
   4.3495283141283183E+00   4.3344717893158009E+00   4.3194673847655016E+00   4.3045149200607664E+00   4.2896142154092098E+00
   4.2747650916405551E+00   4.2599673702044916E+00   4.2452208731685595E+00   4.2305254232160054E+00   4.2158808436436654E+00
   4.2012869583598578E+00   4.1867435918822808E+00   4.1722505693358967E+00   4.1578077164508525E+00   4.1434148595603970E+00
   4.1290718255987828E+00   4.1147784420992215E+00   4.1005345371917947E+00   4.0863399396014017E+00   4.0721944786457147E+00
   4.0580979842331306E+00   4.0440502868607213E+00   4.0300512176122201E+00   4.0161006081559814E+00   4.0021982907429710E+00
   3.9883440982047476E+00   3.9745378639514719E+00   3.9607794219698884E+00   3.9470686068213476E+00   3.9334052536398199E+00
   3.9197891981299082E+00   3.9062202765648912E+00   3.8926983257847465E+00   3.8792231831941932E+00   3.8657946867607458E+00
   3.8524126750127685E+00   3.8390769870375303E+00   3.8257874624792771E+00   3.8125439415373101E+00   3.7993462649640564E+00
   3.7861942740631682E+00   3.7730878106876116E+00   3.7600267172377628E+00   3.7470108366595238E+00   3.7340400124424278E+00
   3.7211140886177683E+00   3.7082329097567150E+00   3.6953963209684519E+00   3.6826041678983157E+00   3.6698562967259476E+00
   3.6571525541634289E+00   3.6444927874534558E+00   3.6318768443674956E+00   3.6193045732039559E+00   3.6067758227863700E+00
   3.5942904424615727E+00   3.5818482820978854E+00   3.5694491920833267E+00   3.5570930233238043E+00   3.5447796272413195E+00
   3.5325088557721891E+00   3.5202805613652646E+00   3.5080945969801505E+00   3.4959508160854549E+00   3.4838490726570055E+00
   3.4717892211761092E+00   3.4597711166277998E+00   3.4477946144990965E+00   3.4358595707772572E+00   3.4239658419480579E+00
   3.4121132849940676E+00   3.4003017573929162E+00   3.3885311171156003E+00   3.3768012226247586E+00   3.3651119328729786E+00
   3.3534631073010979E+00   3.3418546058365228E+00   3.3302862888915277E+00   3.3187580173615943E+00   3.3072696526237269E+00
   3.2958210565347894E+00   3.2844120914298505E+00   3.2730426201205209E+00   3.2617125058933030E+00   3.2504216125079521E+00
   3.2391698041958414E+00   3.2279569456583181E+00   3.2167829020650860E+00   3.2056475390525838E+00   3.1945507227223628E+00
   3.1834923196394866E+00   3.1724721968309200E+00   3.1614902217839291E+00   3.1505462624444931E+00   3.1396401872157167E+00
   3.1287718649562408E+00   3.1179411649786730E+00   3.1071479570480123E+00   3.0963921113800823E+00   3.0856734986399772E+00
   3.0749919899405000E+00   3.0643474568406113E+00   3.0537397713438916E+00   3.0431688058970012E+00   3.0326344333881394E+00
   3.0221365271455229E+00   3.0116749609358635E+00   3.0012496089628424E+00   2.9908603458656056E+00   2.9805070467172561E+00
   2.9701895870233419E+00   2.9599078427203724E+00   2.9496616901743202E+00   2.9394510061791315E+00   2.9292756679552507E+00
   2.9191355531481404E+00   2.9090305398268099E+00   2.8989605064823518E+00   2.8889253320264801E+00   2.8789248957900702E+00
   2.8689590775217124E+00   2.8590277573862672E+00   2.8491308159634188E+00   2.8392681342462409E+00   2.8294395936397727E+00
   2.8196450759595786E+00   2.8098844634303437E+00   2.8001576386844449E+00   2.7904644847605447E+00   2.7808048851021847E+00
   2.7711787235563841E+00   2.7615858843722410E+00   2.7520262521995438E+00   2.7424997120873815E+00   2.7330061494827613E+00
   2.7235454502292349E+00   2.7141175005655214E+00   2.7047221871241414E+00   2.6953593969300504E+00   2.6860290173992918E+00
   2.6767309363376262E+00   2.6674650419391948E+00   2.6582312227851701E+00   2.6490293678424170E+00   2.6398593664621592E+00
   2.6307211083786464E+00   2.6216144837078272E+00   2.6125393829460335E+00   2.6034956969686580E+00   2.5944833170288422E+00
   2.5855021347561760E+00   2.5765520421553858E+00   2.5676329316050359E+00   2.5587446958562459E+00   2.5498872280313889E+00
   2.5410604216228063E+00   2.5322641704915383E+00   2.5234983688660395E+00   2.5147629113409025E+00   2.5060576928756015E+00
   2.4973826087932229E+00   2.4887375547792052E+00   2.4801224268800888E+00   2.4715371215022661E+00   2.4629815354107278E+00
   2.4544555657278342E+00   2.4459591099320681E+00   2.4374920658568056E+00   2.4290543316890885E+00   2.4206458059683995E+00
   2.4122663875854378E+00   2.4039159757809130E+00   2.3955944701443248E+00   2.3873017706127566E+00   2.3790377774696756E+00
   2.3708023913437355E+00   2.3625955132075731E+00   2.3544170443766266E+00   2.3462668865079448E+00   2.3381449415990012E+00
   2.3300511119865250E+00   2.3219853003453186E+00   2.3139474096870862E+00   2.3059373433592780E+00   2.2979550050439173E+00
   2.2900002987564423E+00   2.2820731288445635E+00   2.2741733999871023E+00   2.2663010171928453E+00   2.2584558857994095E+00
   2.2506379114720976E+00   2.2428470002027661E+00   2.2350830583086929E+00   2.2273459924314540E+00   2.2196357095357993E+00
   2.2119521169085323E+00   2.2042951221573981E+00   2.1966646332099700E+00   2.1890605583125451E+00   2.1814828060290385E+00
   2.1739312852398807E+00   2.1664059051409330E+00   2.1589065752423857E+00   2.1514332053676690E+00   2.1439857056523750E+00
   2.1365639865431802E+00   2.1291679587967534E+00   2.1217975334786972E+00   2.1144526219624740E+00   2.1071331359283385E+00
   2.0998389873622774E+00   2.0925700885549507E+00   2.0853263521006373E+00   2.0781076908961835E+00   2.0709140181399563E+00
   2.0637452473307989E+00   2.0566012922669907E+00   2.0494820670452123E+00   2.0423874860595062E+00   2.0353174640002596E+00
   2.0282719158531686E+00   2.0212507568982150E+00   2.0142539027086546E+00   2.0072812691500022E+00   2.0003327723790085E+00
   1.9934083288426654E+00   1.9865078552771940E+00   1.9796312687070454E+00   1.9727784864439031E+00   1.9659494260856873E+00
   1.9591440055155656E+00   1.9523621429009648E+00   1.9456037566925874E+00   1.9388687656234302E+00   1.9321570887078081E+00
   1.9254686452403804E+00   1.9188033547951751E+00   1.9121611372246337E+00   1.9055419126586373E+00   1.8989456015035451E+00
   1.8923721244412446E+00   1.8858214024281985E+00   1.8792933566944823E+00   1.8727879087428501E+00   1.8663049803477847E+00
   1.8598444935545573E+00   1.8534063706782915E+00   1.8469905343030282E+00   1.8405969072807946E+00   1.8342254127306787E+00
   1.8278759740378974E+00   1.8215485148528885E+00   1.8152429590903814E+00   1.8089592309284832E+00   1.8026972548077718E+00
   1.7964569554303893E+00   1.7902382577591240E+00   1.7840410870165224E+00   1.7778653686839820E+00   1.7717110285008579E+00
   1.7655779924635688E+00   1.7594661868247081E+00   1.7533755380921561E+00   1.7473059730281966E+00   1.7412574186486385E+00
   1.7352298022219308E+00   1.7292230512683004E+00   1.7232370935588701E+00   1.7172718571147914E+00   1.7113272702063829E+00
   1.7054032613522694E+00   1.6994997593185128E+00   1.6936166931177656E+00   1.6877539920084124E+00   1.6819115854937199E+00
   1.6760894033209897E+00   1.6702873754807139E+00   1.6645054322057318E+00   1.6587435039703926E+00   1.6530015214897182E+00
   1.6472794157185708E+00   1.6415771178508225E+00   1.6358945593185292E+00   1.6302316717910992E+00   1.6245883871744851E+00
   1.6189646376103526E+00   1.6133603554752671E+00   1.6077754733798852E+00   1.6022099241681438E+00   1.5966636409164445E+00
   1.5911365569328586E+00   1.5856286057563203E+00   1.5801397211558286E+00   1.5746698371296504E+00   1.5692188879045277E+00
   1.5637868079348858E+00   1.5583735319020457E+00   1.5529789947134391E+00   1.5476031315018239E+00   1.5422458776245067E+00
   1.5369071686625644E+00   1.5315869404200655E+00   1.5262851289233079E+00   1.5210016704200420E+00   1.5157365013787023E+00
   1.5104895584876499E+00   1.5052607786544112E+00   1.5000500990049104E+00   1.4948574568827238E+00   1.4896827898483207E+00
   1.4845260356783139E+00   1.4793871323647116E+00   1.4742660181141716E+00   1.4691626313472586E+00   1.4640769106977036E+00
   1.4590087950116655E+00   1.4539582233469965E+00   1.4489251349725087E+00   1.4439094693672447E+00   1.4389111662197460E+00
   1.4339301654273366E+00   1.4289664070953916E+00   1.4240198315366184E+00   1.4190903792703420E+00   1.4141779910217924E+00
   1.4092826077213811E+00   1.4044041705040020E+00   1.3995426207083175E+00   1.3946978998760557E+00   1.3898699497513058E+00
   1.3850587122798190E+00   1.3802641296083091E+00   1.3754861440837578E+00   1.3707246982527210E+00   1.3659797348606384E+00
   1.3612511968511436E+00   1.3565390273653819E+00   1.3518431697413189E+00   1.3471635675130695E+00   1.3425001644102115E+00
   1.3378529043571081E+00   1.3332217314722399E+00   1.3286065900675306E+00   1.3240074246476714E+00   1.3194241799094633E+00
   1.3148568007411445E+00   1.3103052322217321E+00   1.3057694196203600E+00   1.3012493083956203E+00   1.2967448441949090E+00
   1.2922559728537706E+00   1.2877826403952488E+00   1.2833247930292353E+00   1.2788823771518252E+00   1.2744553393446716E+00
   1.2700436263743393E+00   1.2656471851916744E+00   1.2612659629311569E+00   1.2568999069102671E+00   1.2525489646288557E+00
   1.2482130837685121E+00   1.2438922121919294E+00   1.2395862979422836E+00   1.2352952892426072E+00   1.2310191344951658E+00
   1.2267577822808380E+00   1.2225111813584970E+00   1.2182792806643952E+00   1.2140620293115494E+00   1.2098593765891286E+00
   1.2056712719618454E+00   1.2014976650693474E+00   1.1973385057256123E+00   1.1931937439183420E+00   1.1890633298083666E+00
   1.1849472137290400E+00   1.1808453461856436E+00   1.1767576778547923E+00   1.1726841595838442E+00   1.1686247423903011E+00
   1.1645793774612294E+00   1.1605480161526660E+00   1.1565306099890371E+00   1.1525271106625741E+00   1.1485374700327320E+00
   1.1445616401256122E+00   1.1405995731333847E+00   1.1366512214137123E+00   1.1327165374891801E+00   1.1287954740467221E+00
   1.1248879839370547E+00   1.1209940201741049E+00   1.1171135359344539E+00   1.1132464845567667E+00   1.1093928195412313E+00
   1.1055524945490036E+00   1.1017254634016500E+00   1.0979116800805864E+00   1.0941110987265308E+00   1.0903236736389499E+00
   1.0865493592755096E+00   1.0827881102515255E+00   1.0790398813394215E+00   1.0753046274681812E+00   1.0715823037228094E+00
   1.0678728653437899E+00   1.0641762677265485E+00   1.0604924664209163E+00   1.0568214171305954E+00   1.0531630757126236E+00
   1.0495173981768502E+00   1.0458843406854004E+00   1.0422638595521496E+00   1.0386559112422007E+00   1.0350604523713589E+00
   1.0314774397056097E+00   1.0279068301605994E+00   1.0243485808011175E+00   1.0208026488405790E+00   1.0172689916405127E+00
   1.0137475667100446E+00   1.0102383317053907E+00   1.0067412444293451E+00   1.0032562628307751E+00   9.9978334500411092E-01
   9.9632244918884905E-01   9.9287353376904475E-01   9.8943655727281066E-01   9.8601147837182235E-01   9.8259825588082128E-01
   9.7919684875711355E-01   9.7580721610008336E-01   9.7242931715069736E-01   9.6906311129101597E-01   9.6570855804370448E-01
   9.6236561707154600E-01   9.5903424817695737E-01   9.5571441130150447E-01   9.5240606652542203E-01   9.4910917406713224E-01
   9.4582369428276769E-01   9.4254958766569408E-01   9.3928681484603271E-01   9.3603533659019367E-01   9.3279511380039692E-01
   9.2956610751420488E-01   9.2634827890405491E-01   9.2314158927679368E-01   9.1994600007320582E-01   9.1676147286755716E-01
   9.1358796936712872E-01   9.1042545141175812E-01   9.0727388097337902E-01   9.0413322015556552E-01   9.0100343119307524E-01
   8.9788447645139668E-01   8.9477631842629268E-01   8.9167891974335700E-01   8.8859224315755780E-01   8.8551625155279134E-01
   8.8245090794143854E-01   8.7939617546391724E-01   8.7635201738824220E-01   8.7331839710957815E-01   8.7029527814980412E-01
   8.6728262415707580E-01   8.6428039890538177E-01   8.6128856629411532E-01   8.5830709034763641E-01   8.5533593521484030E-01
   8.5237506516872408E-01   8.4942444460596234E-01   8.4648403804647410E-01   8.4355381013299602E-01   8.4063372563066274E-01
   8.3772374942657768E-01   8.3482384652939123E-01   8.3193398206888469E-01   8.2905412129554457E-01   8.2618422958014892E-01
   8.2332427241335204E-01   8.2047421540526400E-01   8.1763402428504173E-01   8.1480366490047773E-01   8.1198310321758371E-01
   8.0917230532018791E-01   8.0637123740952310E-01   8.0357986580382168E-01   8.0079815693790923E-01   7.9802607736280440E-01
   7.9526359374531319E-01   7.9251067286762833E-01   7.8976728162693244E-01   7.8703338703499781E-01   7.8430895621778907E-01
   7.8159395641507201E-01   7.7888835498001308E-01   7.7619211937879284E-01   7.7350521719021315E-01   7.7082761610530415E-01
   7.6815928392693933E-01   7.6550018856944835E-01   7.6285029805822802E-01   7.6020958052936116E-01   7.5757800422923227E-01
   7.5495553751414557E-01   7.5234214884994255E-01   7.4973780681162860E-01   7.4714248008298845E-01   7.4455613745621241E-01
   7.4197874783152318E-01   7.3941028021679878E-01   7.3685070372719919E-01   7.3429998758480075E-01   7.3175810111821804E-01
   7.2922501376224136E-01   7.2670069505746715E-01   7.2418511464992974E-01   7.2167824229073929E-01   7.1918004783571809E-01
   7.1669050124503431E-01   7.1420957258284512E-01   7.1173723201693440E-01   7.0927344981835516E-01   7.0681819636106991E-01
   7.0437144212159819E-01   7.0193315767865849E-01   6.9950331371281393E-01   6.9708188100612356E-01   6.9466883044178762E-01
   6.9226413300379663E-01   6.8986775977658776E-01   6.8747968194469034E-01   6.8509987079238355E-01   6.8272829770335264E-01
   6.8036493416033839E-01   6.7800975174480094E-01   6.7566272213657508E-01   6.7332381711352896E-01   6.7099300855122646E-01
   6.6867026842258792E-01   6.6635556879755431E-01   6.6404888184274857E-01   6.6175017982114592E-01   6.5945943509173532E-01
   6.5717662010918820E-01   6.5490170742353082E-01   6.5263466967980999E-01   6.5037547961776465E-01   6.4812411007150217E-01
   6.4588053396916456E-01   6.4364472433260977E-01   6.4141665427708483E-01   6.3919629701089975E-01   6.3698362583510970E-01
   6.3477861414319292E-01   6.3258123542072697E-01   6.3039146324507545E-01   6.2820927128506732E-01   6.2603463330068021E-01
   6.2386752314272420E-01   6.2170791475253162E-01   6.1955578216163854E-01   6.1741109949147366E-01   6.1527384095305060E-01
   6.1314398084665389E-01   6.1102149356153035E-01   6.0890635357558442E-01   6.0679853545506679E-01   6.0469801385427124E-01
   6.0260476351523085E-01   6.0051875926741038E-01   5.9843997602740751E-01   5.9636838879864906E-01   5.9430397267109158E-01
   5.9224670282091973E-01   5.9019655451025166E-01   5.8815350308683789E-01   5.8611752398376482E-01   5.8408859271916358E-01
   5.8206668489591074E-01   5.8005177620133608E-01   5.7804384240693407E-01   5.7604285936806632E-01   5.7404880302367578E-01
   5.7206164939599702E-01   5.7008137459026487E-01   5.6810795479442988E-01   5.6614136627887279E-01   5.6418158539611507E-01
   5.6222858858053837E-01   5.6028235234809998E-01   5.5834285329605049E-01   5.5641006810265015E-01   5.5448397352689338E-01
   5.5256454640822461E-01   5.5065176366626090E-01   5.4874560230051672E-01   5.4684603939012477E-01   5.4495305209355993E-01
   5.4306661764836817E-01   5.4118671337088853E-01   5.3931331665598259E-01   5.3744640497676377E-01   5.3558595588432234E-01
   5.3373194700745952E-01   5.3188435605241791E-01   5.3004316080261049E-01   5.2820833911835585E-01   5.2637986893661204E-01
   5.2455772827071034E-01   5.2274189521009018E-01   5.2093234792003829E-01   5.1912906464142283E-01   5.1733202369043318E-01
   5.1554120345832055E-01   5.1375658241113553E-01   5.1197813908946976E-01   5.1020585210819980E-01   5.0843970015622686E-01
   5.0667966199622250E-01   5.0492571646437401E-01   5.0317784247012609E-01   5.0143601899593082E-01   4.9970022509699441E-01
   4.9797043990102269E-01   4.9624664260797302E-01   4.9452881248980207E-01   4.9281692889021783E-01   4.9111097122442898E-01
   4.8941091897890121E-01   4.8771675171110618E-01   4.8602844904927667E-01   4.8434599069216427E-01   4.8266935640879166E-01
   4.8099852603820975E-01   4.7933347948925803E-01   4.7767419674031814E-01   4.7602065783907649E-01   4.7437284290228426E-01
   4.7273073211551442E-01   4.7109430573292743E-01   4.6946354407703217E-01   4.6783842753844723E-01   4.6621893657566782E-01
   4.6460505171482885E-01   4.6299675354947101E-01   4.6139402274030589E-01   4.5979684001498589E-01   4.5820518616786998E-01
   4.5661904205979187E-01   4.5503838861783213E-01   4.5346320683508695E-01   4.5189347777043787E-01   4.5032918254832721E-01
   4.4877030235852700E-01   4.4721681845591438E-01   4.4566871216024656E-01   4.4412596485593286E-01   4.4258855799181301E-01
   4.4105647308093382E-01   4.3952969170032335E-01   4.3800819549077186E-01   4.3649196615660968E-01   4.3498098546548658E-01
   4.3347523524815046E-01   4.3197469739823163E-01   4.3047935387202152E-01   4.2898918668825509E-01   4.2750417792789674E-01
   4.2602430973392119E-01   4.2454956431109808E-01   4.2307992392578048E-01   4.2161537090568629E-01   4.2015588763968809E-01
   4.1870145657760044E-01   4.1725206022996525E-01   4.1580768116784333E-01   4.1436830202260344E-01   4.1293390548571052E-01
   4.1150447430851816E-01   4.1007999130206035E-01   4.0866043933684237E-01   4.0724580134263400E-01   4.0583606030826430E-01
   4.0443119928141380E-01   4.0303120136840986E-01   4.0163604973402395E-01   4.0024572760126537E-01   3.9886021825117834E-01
   3.9747950502264157E-01   3.9610357131216323E-01   3.9473240057368153E-01   3.9336597631836467E-01   3.9200428211440796E-01
   3.9064730158683680E-01   3.8929501841730763E-01   3.8794741634390811E-01   3.8660447916096091E-01   3.8526619071882634E-01
   3.8393253492370566E-01   3.8260349573744440E-01   3.8127905717733968E-01   3.7995920331594280E-01   3.7864391828086508E-01
   3.7733318625458712E-01   3.7602699147426283E-01   3.7472531823152766E-01   3.7342815087230818E-01   3.7213547379662848E-01
   3.7084727145842056E-01   3.6956352836533479E-01   3.6828422907854796E-01   3.6700935821257563E-01   3.6573890043508372E-01
   3.6447284046669809E-01   3.6321116308081935E-01   3.6195385310343392E-01   3.6070089541292805E-01   3.5945227493990040E-01
   3.5820797666697818E-01   3.5696798562863019E-01   3.5573228691098152E-01   3.5450086565163152E-01   3.5327370703946664E-01
   3.5205079631447866E-01   3.5083211876758247E-01   3.4961765974043030E-01   3.4840740462523201E-01   3.4720133886457266E-01
   3.4599944795122944E-01   3.4480171742799265E-01   3.4360813288748321E-01   3.4241867997197378E-01   3.4123334437320602E-01
   3.4005211183221468E-01   3.3887496813914525E-01   3.3770189913307502E-01   3.3653289070183651E-01   3.3536792878183680E-01
   3.3420699935787967E-01   3.3305008846298945E-01   3.3189718217823111E-01   3.3074826663253393E-01   3.2960332800251579E-01
   3.2846235251230299E-01   3.2732532643335677E-01   3.2619223608429621E-01   3.2506306783071992E-01   3.2393780808503264E-01
   3.2281644330626791E-01   3.2169895999991349E-01   3.2058534471773359E-01   3.1947558405759630E-01   3.1836966466329675E-01
   3.1726757322438071E-01   3.1616929647597269E-01   3.1507482119859820E-01   3.1398413421800880E-01   3.1289722240500956E-01
   3.1181407267528088E-01   3.1073467198920640E-01   3.0965900735169610E-01   3.0858706581201295E-01   3.0751883446359651E-01
   3.0645430044388788E-01   3.0539345093415676E-01   3.0433627315932371E-01   3.0328275438778446E-01   3.0223288193123782E-01
   3.0118664314450622E-01   3.0014402542536162E-01   2.9910501621435015E-01   2.9806960299461377E-01   2.9703777329171555E-01
   2.9600951467346248E-01   2.9498481474972721E-01   2.9396366117227241E-01   2.9294604163457161E-01   2.9193194387163224E-01
   2.9092135565981514E-01   2.8991426481665877E-01   2.8891065920069714E-01   2.8791052671127998E-01   2.8691385528839497E-01
   2.8592063291248393E-01   2.8493084760426246E-01   2.8394448742453893E-01   2.8296154047402999E-01   2.8198199489317821E-01
   2.8100583886196917E-01   2.8003306059974392E-01   2.7906364836501607E-01   2.7809759045528554E-01   2.7713487520684893E-01
   2.7617549099461458E-01   2.7521942623191215E-01   2.7426666937030364E-01   2.7331720889939154E-01   2.7237103334662882E-01
   2.7142813127712528E-01   2.7048849129345315E-01   2.6955210203545360E-01   2.6861895218003945E-01   2.6768903044099801E-01
   2.6676232556879381E-01   2.6583882635036638E-01   2.6491852160893109E-01   2.6400140020377649E-01   2.6308745103005832E-01
   2.6217666301859610E-01   2.6126902513566558E-01   2.6036452638278917E-01   2.5946315579652679E-01   2.5856490244826319E-01
   2.5766975544399473E-01   2.5677770392411314E-01   2.5588873706318932E-01   2.5500284406975304E-01   2.5412001418607127E-01
   2.5324023668792689E-01   2.5236350088439136E-01   2.5148979611759703E-01   2.5061911176250939E-01   2.4975143722669277E-01
   2.4888676195007706E-01   2.4802507540472102E-01   2.4716636709457207E-01   2.4631062655522457E-01   2.4545784335367671E-01
   2.4460800708808050E-01   2.4376110738749440E-01   2.4291713391162889E-01   2.4207607635059128E-01   2.4123792442462563E-01
   2.4040266788385312E-01   2.3957029650800468E-01   2.3874080010615287E-01   2.3791416851644157E-01   2.3709039160580903E-01
   2.3626945926970983E-01   2.3545136143183279E-01   2.3463608804381400E-01   2.3382362908494730E-01   2.3301397456189141E-01
   2.3220711450836959E-01   2.3140303898487002E-01   2.3060173807833922E-01   2.2980320190186979E-01   2.2900742059438739E-01
   2.2821438432033050E-01   2.2742408326932634E-01   2.2663650765586110E-01   2.2585164771894795E-01   2.2506949372178672E-01
   2.2429003595142030E-01   2.2351326471838587E-01   2.2273917035636034E-01   2.2196774322179924E-01   2.2119897369357319E-01
   2.2043285217259420E-01   2.1966936908143980E-01   2.1890851486396984E-01   2.1815027998493583E-01   2.1739465492958615E-01
   2.1664163020326396E-01   2.1589119633099732E-01   2.1514334385708456E-01   2.1439806334467137E-01   2.1365534537532194E-01
   2.1291518054858077E-01   2.1217755948153039E-01   2.1144247280833861E-01   2.1070991117979868E-01   2.0997986526286389E-01
   2.0925232574017086E-01   2.0852728330955575E-01   2.0780472868356425E-01   2.0708465258894918E-01   2.0636704576616227E-01
   2.0565189896883634E-01   2.0493920296325713E-01   2.0422894852782705E-01   2.0352112645251952E-01   2.0281572753832258E-01
   2.0211274259667328E-01   2.0141216244888177E-01   2.0071397792554541E-01   2.0001817986595077E-01   1.9932475911746794E-01
   1.9863370653493062E-01   1.9794501298000597E-01   1.9725866932055522E-01   1.9657466642997876E-01   1.9589299518655262E-01
   1.9521364647275150E-01   1.9453661117455837E-01   1.9386188018076378E-01   1.9318944438225108E-01   1.9251929467126713E-01
   1.9185142194068253E-01   1.9118581708323604E-01   1.9052247099076577E-01   1.8986137455342608E-01   1.8920251865889107E-01
   1.8854589419154150E-01   1.8789149203163774E-01   1.8723930305447850E-01   1.8658931812954216E-01   1.8594152811961298E-01
   1.8529592387989247E-01   1.8465249625709163E-01   1.8401123608850942E-01   1.8337213420109316E-01   1.8273518141047962E-01
   1.8210036852002218E-01   1.8146768631979771E-01   1.8083712558559523E-01   1.8020867707788693E-01   1.7958233154078040E-01
   1.7895807970095037E-01   1.7833591226655249E-01   1.7771581992611679E-01   1.7709779334742043E-01   1.7648182317634042E-01
   1.7586790003568625E-01   1.7525601452400996E-01   1.7464615721439528E-01   1.7403831865322644E-01   1.7343248935893174E-01
   1.7282865982070772E-01   1.7222682049721902E-01   1.7162696181527451E-01   1.7102907416848137E-01   1.7043314791587452E-01
   1.6983917338052101E-01   1.6924714084810188E-01   1.6865704056546729E-01   1.6806886273916727E-01   1.6748259753395625E-01
   1.6689823507127305E-01   1.6631576542769275E-01   1.6573517863335263E-01   1.6515646467035297E-01   1.6457961347112696E-01
   1.6400461491678603E-01   1.6343145883543655E-01   1.6286013500046703E-01   1.6229063312880823E-01   1.6172294287916414E-01
   1.6115705385021215E-01   1.6059295557877631E-01   1.6003063753796939E-01   1.5947008913530375E-01   1.5891129971077447E-01
   1.5835425853490986E-01   1.5779895480679171E-01   1.5724537765204413E-01   1.5669351612079246E-01   1.5614335918558811E-01
   1.5559489573930332E-01   1.5504811459299442E-01   1.5450300447373114E-01   1.5395955402239472E-01   1.5341775179144421E-01
   1.5287758624264797E-01   1.5233904574478518E-01   1.5180211857131323E-01   1.5126679289800093E-01   1.5073305680053195E-01
   1.5020089825207317E-01   1.4967030512081006E-01   1.4914126516745096E-01   1.4861376604269685E-01   1.4808779528467961E-01
   1.4756334031636720E-01   1.4704038844293732E-01   1.4651892684911799E-01   1.4599894259649679E-01   1.4548042262079941E-01
   1.4496335372913563E-01   1.4444772259721503E-01   1.4393351576653374E-01   1.4342071964152889E-01   1.4290932048670596E-01
   1.4239930442373686E-01   1.4189065742852924E-01   1.4138336532826956E-01   1.4087741379843985E-01   1.4037278835980746E-01
   1.3986947437539210E-01   1.3936745704740811E-01   1.3886672141418457E-01   1.3836725234706349E-01   1.3786903454727992E-01
   1.3737205254282070E-01   1.3687629068526755E-01   1.3638173314662544E-01   1.3588836391613418E-01   1.3539616679707042E-01
   1.3490512540353866E-01   1.3441522315725249E-01   1.3392644328431169E-01   1.3343876881197436E-01   1.3295218256542682E-01
   1.3246666716455607E-01   1.3198220502072494E-01   1.3149877833355267E-01   1.3101636908770722E-01   1.3053495904970816E-01
   1.3005452976474627E-01   1.2957506255352155E-01   1.2909653850910599E-01   1.2861893849383085E-01   1.2814224313620609E-01
   1.2766643282787488E-01   1.2719148772060657E-01   1.2671738772333441E-01   1.2624411249924292E-01   1.2577164146290690E-01
   1.2529995377749262E-01   1.2482902835202235E-01   1.2435884383870893E-01   1.2388937863036882E-01   1.2342061085791721E-01
   1.2295251838795229E-01   1.2248507882043731E-01   1.2201826948648506E-01   1.2155206744625444E-01   1.2108644948696499E-01
   1.2062139212103937E-01   1.2015687158437993E-01   1.1969286383478964E-01   1.1922934455054711E-01   1.1876628912914179E-01
   1.1830367268618237E-01   1.1784147005448783E-01   1.1737965578336909E-01   1.1691820413811534E-01   1.1645708909969402E-01
   1.1599628436467595E-01   1.1553576334539889E-01   1.1507549917038050E-01   1.1461546468499333E-01   1.1415563245241524E-01
   1.1369597475486914E-01   1.1323646359516398E-01   1.1277707069855276E-01   1.1231776751492267E-01   1.1185852522132864E-01
   1.1139931472489062E-01   1.1094010666606628E-01   1.1048087142231668E-01   1.1002157911218147E-01   1.0956219959977959E-01
   1.0910270249975336E-01   1.0864305718267235E-01   1.0818323278091613E-01   1.0772319819505227E-01   1.0726292210072935E-01
   1.0680237295610273E-01   1.0634151900981209E-01   1.0588032830952993E-01   1.0541876871110022E-01   1.0495680788828651E-01
   1.0449441334314938E-01   1.0403155241707203E-01   1.0356819230245556E-01   1.0310430005510143E-01   1.0263984260730266E-01
   1.0217478678166285E-01   1.0170909930566147E-01   1.0124274682698882E-01   1.0077569592966357E-01   1.0030791315095722E-01
   9.9839364999143393E-02   9.9370017972086486E-02   9.8899838576691088E-02   9.8428793349230367E-02   9.7956848876563418E-02
   9.7483971818266540E-02   9.7010128929686926E-02   9.6535287085933258E-02   9.6059413306821689E-02   9.5582474782783713E-02
   9.5104438901747509E-02   9.4625273277007232E-02   9.4144945776082137E-02   9.3663424550576371E-02   9.3180678067043124E-02
   9.2696675138856571E-02   9.2211384959093146E-02   9.1724777134421509E-02   9.1236821719998779E-02   9.0747489255367561E-02
   9.0256750801346639E-02   8.9764577977905852E-02   8.9270943003011693E-02   8.8775818732428971E-02   8.8279178700459718E-02
   8.7780997161598262E-02   8.7281249133077471E-02   8.6779910438278388E-02   8.6276957750971675E-02   8.5772368640355590E-02
   8.5266121616852195E-02   8.4758196178618489E-02   8.4248572858725224E-02   8.3737233272956166E-02   8.3224160168166764E-02
   8.2709337471148225E-02   8.2192750337933815E-02   8.1674385203473948E-02   8.1154229831613314E-02   8.0632273365293550E-02
   8.0108506376893152E-02   7.9582920918628619E-02   7.9055510572919763E-02   7.8526270502624396E-02   7.7995197501049010E-02
   7.7462290041626122E-02   7.6927548327150458E-02   7.6390974338468060E-02   7.5852571882494946E-02   7.5312346639449759E-02
   7.4770306209175963E-02   7.4226460156426047E-02   7.3680820054977988E-02   7.3133399530450574E-02   7.2584214301681868E-02
   7.2033282220532388E-02   7.1480623309973193E-02   7.0926259800316679E-02   7.0370216163447269E-02   6.9812519144908464E-02
   6.9253197793701926E-02   6.8692283489654463E-02   6.8129809968210650E-02   6.7565813342508010E-02   6.7000332122595652E-02
   6.6433407231657679E-02   6.5865082019107332E-02   6.5295402270420286E-02   6.4724416213578842E-02   6.4152174522009345E-02
   6.3578730313888693E-02   6.3004139147715438E-02   6.2428459014041690E-02   6.1851750323263684E-02   6.1274075889388366E-02
   6.0695500909696859E-02   6.0116092940226788E-02   5.9535921867023972E-02   5.8955059873105516E-02   5.8373581401096310E-02
   5.7791563111517008E-02   5.7209083836702299E-02   5.6626224530346804E-02   5.6043068212694502E-02   5.5459699911387494E-02
   5.4876206598015349E-02   5.4292677120413912E-02   5.3709202130778178E-02   5.3125874009667583E-02   5.2542786785996144E-02
   5.1960036053114049E-02   5.1377718881101375E-02   5.0795933725408166E-02   5.0214780331989194E-02   4.9634359639094704E-02
   4.9054773675891769E-02   4.8476125458101815E-02   4.7898518880857797E-02   4.7322058608984308E-02   4.6746849964927777E-02
   4.6172998814568447E-02   4.5600611451148881E-02   4.5029794477574409E-02   4.4460654687342553E-02   4.3893298944357687E-02
   4.3327834061911187E-02   4.2764366681093374E-02   4.2203003148915605E-02   4.1643849396429004E-02   4.1087010817115563E-02
   4.0532592145834469E-02   3.9980697338611038E-02   3.9431429453541021E-02   3.8884890533091687E-02   3.8341181488070954E-02
   3.7800401983532593E-02   3.7262650326879157E-02   3.6728023358416614E-02   3.6196616344607503E-02   3.5668522874258729E-02
   3.5143834757871716E-02   3.4622641930370436E-02   3.4105032357412156E-02   3.3591091945472447E-02   3.3080904455883818E-02
   3.2574551422993196E-02   3.2072112076589353E-02   3.1573663268737250E-02   3.1079279405140946E-02   3.0589032381140541E-02
   3.0102991522438123E-02   2.9621223530622198E-02   2.9143792433555669E-02   2.8670759540672188E-02   2.8202183403204871E-02
   2.7738119779366344E-02   2.7278621604478991E-02   2.6823738966033742E-02   2.6373519083655657E-02   2.5928006293926335E-02
   2.5487242040005957E-02   2.5051264865989395E-02   2.4620110415909200E-02   2.4193811437291296E-02   2.3772397789163055E-02
   2.3355896454392466E-02   2.2944331556237013E-02   2.2537724378967280E-02   2.2136093392423475E-02   2.1739454280355695E-02
   2.1347819972392289E-02   2.0961200679474747E-02   2.0579603932592765E-02   2.0203034624648841E-02   1.9831495055278252E-02
   1.9464984978447706E-02   1.9103501652654047E-02   1.8747039893542750E-02   1.8395592128765882E-02   1.8049148454898929E-02
   1.7707696696236713E-02   1.7371222465289993E-02   1.7039709224806052E-02   1.6713138351139176E-02   1.6391489198799843E-02
   1.6074739166013759E-02   1.5762863761129394E-02   1.5455836669709651E-02   1.5153629822155970E-02   1.4856213461714035E-02
   1.4563556212712670E-02   1.4275625148898973E-02   1.3992385861735332E-02   1.3713802528525856E-02   1.3439837980254778E-02
   1.3170453769016327E-02   1.2905610234925641E-02   1.2645266572409062E-02   1.2389380895772592E-02   1.2137910303956691E-02
   1.1890810944394014E-02   1.1648038075887095E-02   1.1409546130434127E-02   1.1175288773934455E-02   1.0945218965711845E-02
   1.0719289016799367E-02   1.0497450646935219E-02   1.0279655040224343E-02   1.0065852899425973E-02   9.8559944988322896E-03
   9.6500297357084465E-03   9.4479081802688030E-03   9.2495791241689277E-03   9.0549916274972227E-03   8.8640945642541498E-03
   8.6768366663111229E-03   8.4931665658447477E-03   8.3130328362457651E-03   8.1363840315053278E-03   7.9631687240844483E-03
