DATE: 2024-11-13 UNITS: metal CONTRIBUTOR: Xiaowang Zhou xzhou@sandia.gov, Lucas Hale lucas.hale@nist.gov, and Germain Clavier g.m.g.c.clavier@tue.nl/germain.clavier@gmail.com
 CITATION: X. W. Zhou, R. A. Johnson, H. N. G. Wadley, Phys. Rev. B, 69, 144113(2004)
Generated by create_eam.py
2     Ta Cu                   
2000  5.0025012506253123e-02   2000  3.1224614315240166e-03   6.2418004016165094e+00  
   73       180.94790         3.94766      fcc
   0.0000000000000000E+00  -2.5408477637836935E-02  -5.0733481816281678E-02  -7.5976151065411113E-02  -1.0113662391531442E-01
  -1.2621503889607499E-01  -1.5121153453777536E-01  -1.7612624937050159E-01  -2.0095932192433574E-01  -2.2571089072936212E-01
  -2.5038109431566768E-01  -2.7497007121333450E-01  -2.9947795995244642E-01  -3.2390489906308861E-01  -3.4825102707534450E-01
  -3.7251648251929703E-01  -3.9670140392503495E-01  -4.2080592982263720E-01  -4.4483019874219165E-01  -4.6877434921377859E-01
  -4.9263851976748585E-01  -5.1642284893339596E-01  -5.4012747524159366E-01  -5.6375253722216145E-01  -5.8729817340518720E-01
  -6.1076452232074940E-01  -6.3415172249893903E-01  -6.5745991246983371E-01  -6.8068923076352172E-01  -7.0383981591008693E-01
  -7.2691180643961140E-01  -7.4990534088217986E-01  -7.7282055776787928E-01  -7.9565759562678906E-01  -8.1841659298899705E-01
  -8.4109768838458754E-01  -8.6370102034364304E-01  -8.8622672739624742E-01  -9.0867494807248539E-01  -9.3104582090244037E-01
  -9.5333948441619976E-01  -9.7555607714384385E-01  -9.9769573761545871E-01  -1.0197586043611282E+00  -1.0417448159109362E+00
  -1.0636545107949660E+00  -1.0854878275433051E+00  -1.1072449046860338E+00  -1.1289258807532390E+00  -1.1505308942750014E+00
  -1.1720600837814095E+00  -1.1935135878025442E+00  -1.2148915448684909E+00  -1.2361940935093338E+00  -1.2574213722551582E+00
  -1.2785735196360455E+00  -1.2996506741820815E+00  -1.3206529744233508E+00  -1.3415805588899370E+00  -1.3624335661119247E+00
  -1.3832121346193973E+00  -1.4039164029424378E+00  -1.4245465096111336E+00  -1.4451025931555654E+00  -1.4655847921058194E+00
  -1.4859932449919815E+00  -1.5063280903441321E+00  -1.5265894666923554E+00  -1.5467775125667402E+00  -1.5668923664973655E+00
  -1.5869341670143187E+00  -1.6069030526476826E+00  -1.6267991619275413E+00  -1.6466226333839793E+00  -1.6663736055470801E+00
  -1.6860522169469303E+00  -1.7056586061136105E+00  -1.7251929115772064E+00  -1.7446552718678028E+00  -1.7640458255154838E+00
  -1.7833647110503321E+00  -1.8026120670024355E+00  -1.8217880319018720E+00  -1.8408927442787308E+00  -1.8599263426630950E+00
  -1.8788889655850483E+00  -1.8977807515746745E+00  -1.9166018391620594E+00  -1.9353523668772836E+00  -1.9540324732504346E+00
  -1.9726422968115962E+00  -1.9911819760908505E+00  -2.0096516496182852E+00  -2.0280514559239800E+00  -2.0463815335380211E+00
  -2.0646420209904957E+00  -2.0828330568114826E+00  -2.1009547795310701E+00  -2.1190073276793391E+00  -2.1369908397863764E+00
  -2.1549054543822646E+00  -2.1727513099970897E+00  -2.1905285451609342E+00  -2.2082372984038816E+00  -2.2258777082560179E+00
  -2.2434499132474266E+00  -2.2609540519081905E+00  -2.2783902627683963E+00  -2.2957586843581277E+00  -2.3130594552074655E+00
  -2.3302927138464966E+00  -2.3474585988053076E+00  -2.3645572486139770E+00  -2.3815888018025944E+00  -2.3985533969012396E+00
  -2.4154511724399983E+00  -2.4322822669489557E+00  -2.4490468189581969E+00  -2.4657449669978018E+00  -2.4823768495978591E+00
  -2.4989426052884500E+00  -2.5154423725996589E+00  -2.5318762900615721E+00  -2.5482444962042727E+00  -2.5645471295578428E+00
  -2.5807843286523706E+00  -2.5969562320179369E+00  -2.6130629781846260E+00  -2.6291047056825243E+00  -2.6450815530417131E+00
  -2.6609936587922793E+00  -2.6768411614643060E+00  -2.6926241995878764E+00  -2.7083429116930748E+00  -2.7239974363099884E+00
  -2.7395879119686972E+00  -2.7551144771992879E+00  -2.7705772705318430E+00  -2.7859764304964476E+00  -2.8013120956231861E+00
  -2.8165844044421426E+00  -2.8317934954834021E+00  -2.8469395072770456E+00  -2.8620225783531601E+00  -2.8770428472418290E+00
  -2.8920004524731362E+00  -2.9068955325771677E+00  -2.9217282260840047E+00  -2.9364986715237320E+00  -2.9512070074264352E+00
  -2.9658533723221985E+00  -2.9804379047411040E+00  -2.9949607432132384E+00  -3.0094220262686830E+00  -3.0238218924375238E+00
  -3.0381604802498456E+00  -3.0524379282357321E+00  -3.0666543749252666E+00  -3.0808099588485329E+00  -3.0949048185356167E+00
  -3.1089390925166001E+00  -3.1229129193215703E+00  -3.1368264374806105E+00  -3.1506797855238009E+00  -3.1644731019812316E+00
  -3.1782065253829823E+00  -3.1918801942591388E+00  -3.2054942471397876E+00  -3.2190488225550080E+00  -3.2325440590348871E+00
  -3.2459800951095099E+00  -3.2593570693089591E+00  -3.2726751201633171E+00  -3.2859343862026718E+00  -3.2991350059571056E+00
  -3.3122771179567017E+00  -3.3253608607315459E+00  -3.3383863728117218E+00  -3.3513537927273132E+00  -3.3642632590084052E+00
  -3.3771149101850808E+00  -3.3899088847874235E+00  -3.4026453213455197E+00  -3.4153243583894524E+00  -3.4279461344493050E+00
  -3.4405107880551635E+00  -3.4530184577371097E+00  -3.4654692820252295E+00  -3.4778633994496073E+00  -3.4902009485403260E+00
  -3.5024820678274708E+00  -3.5147068958411247E+00  -3.5268755711113724E+00  -3.5389882321682986E+00  -3.5510450175419868E+00
  -3.5630460657625216E+00  -3.5749915153599874E+00  -3.5868815048644671E+00  -3.5987161728060459E+00  -3.6104956577148068E+00
  -3.6222200981208372E+00  -3.6338896325542183E+00  -3.6455043995450334E+00  -3.6570645376233690E+00  -3.6685701853193087E+00
  -3.6800214811629357E+00  -3.6914185636843357E+00  -3.7027615714135909E+00  -3.7140506428807862E+00  -3.7252859166160075E+00
  -3.7364675311493376E+00  -3.7475956250108595E+00  -3.7586703367306589E+00  -3.7696918048388199E+00  -3.7806601678654248E+00
  -3.7915755643405609E+00  -3.8024381327943111E+00  -3.8132480117567575E+00  -3.8240053397579872E+00  -3.8347102553280825E+00
  -3.8453628969971270E+00  -3.8559634032952079E+00  -3.8665119127524070E+00  -3.8770085638988077E+00  -3.8874534952644968E+00
  -3.8978468453795561E+00  -3.9081887527740706E+00  -3.9184793559781248E+00  -3.9287187935218033E+00  -3.9389072039351878E+00
  -3.9490447257483656E+00  -3.9591314974914189E+00  -3.9691676576944324E+00  -3.9791533448874912E+00  -3.9890886976006779E+00
  -3.9989738543640767E+00  -4.0088089537077725E+00  -4.0185941341618499E+00  -4.0283295342563923E+00  -4.0380152925214832E+00
  -4.0476515474872086E+00  -4.0572384376836510E+00  -4.0667761016408956E+00  -4.0762646778890250E+00  -4.0857043049581261E+00
  -4.0950951213782805E+00  -4.1044372656795733E+00  -4.1137308763920890E+00  -4.1229760920459109E+00  -4.1321730511711241E+00
  -4.1413218922978130E+00  -4.1504227539560601E+00  -4.1594757746759505E+00  -4.1684810929875677E+00  -4.1774388474209996E+00
  -4.1863491765063241E+00  -4.1952122187736300E+00  -4.2040281127529999E+00  -4.2127969969745180E+00  -4.2215190099682678E+00
  -4.2301942902643352E+00  -4.2388229763928038E+00  -4.2474052068837560E+00  -4.2559411202672779E+00  -4.2644308550734538E+00
  -4.2728745498323653E+00  -4.2812723430740993E+00  -4.2896243733287402E+00  -4.2979307791263679E+00  -4.3061916989970728E+00
  -4.3144072714709338E+00  -4.3225776350780380E+00  -4.3307029283484697E+00  -4.3387832898123104E+00  -4.3468188579996454E+00
  -4.3548097714405607E+00  -4.3627561686651397E+00  -4.3706581882034641E+00  -4.3785159685856208E+00  -4.3863296483416940E+00
  -4.3940993660017655E+00  -4.4018252600959213E+00  -4.4095074691542457E+00  -4.4171461317068212E+00  -4.4247413862837348E+00
  -4.4322933714150681E+00  -4.4398022256309053E+00  -4.4472680874613326E+00  -4.4546910954364325E+00  -4.4620713880862883E+00
  -4.4694091039409862E+00  -4.4767043815306105E+00  -4.4839573593852435E+00  -4.4911681760349698E+00  -4.4983369700098752E+00
  -4.5054638798400424E+00  -4.5125490440555556E+00  -4.5195926011865000E+00  -4.5265946897629572E+00  -4.5335554483150151E+00
  -4.5404750153727544E+00  -4.5473535294662613E+00  -4.5541911291256199E+00  -4.5609879528809136E+00  -4.5677441392622260E+00
  -4.5744598267996430E+00  -4.5811351540232472E+00  -4.5877702594631229E+00  -4.5943652816493561E+00  -4.6009203591120293E+00
  -4.6074356303812261E+00  -4.6139112339870323E+00  -4.6203473084595315E+00  -4.6267439923288061E+00  -4.6331014241249431E+00
  -4.6394197423780259E+00  -4.6456990856181370E+00  -4.6519395923753617E+00  -4.6581414011797841E+00  -4.6643046505614887E+00
  -4.6704294790505596E+00  -4.6765160251770794E+00  -4.6825644274711342E+00  -4.6885748244628083E+00  -4.6945473546821850E+00
  -4.7004821566593478E+00  -4.7063793689243818E+00  -4.7122391300073705E+00  -4.7180615784383981E+00  -4.7238468527475499E+00
  -4.7295950914649110E+00  -4.7353064331205612E+00  -4.7409810162445876E+00  -4.7466189793670752E+00  -4.7522204610181067E+00
  -4.7577855997277654E+00  -4.7633145340261382E+00  -4.7688074024433069E+00  -4.7742643435093575E+00  -4.7796854957543724E+00
  -4.7850709977084360E+00  -4.7904209879016335E+00  -4.7957356048640474E+00  -4.8010149871257637E+00  -4.8062592732168659E+00
  -4.8114686016674382E+00  -4.8166431110075631E+00  -4.8217829397673286E+00  -4.8268882264768163E+00  -4.8319591096661085E+00
  -4.8369957278652933E+00  -4.8419982196044522E+00  -4.8469667234136704E+00  -4.8519013778230313E+00  -4.8568023213626210E+00
  -4.8616696925625202E+00  -4.8665036299528168E+00  -4.8713042720635924E+00  -4.8760717574249313E+00  -4.8808062245669195E+00
  -4.8855078120196405E+00  -4.8901766583131767E+00  -4.8948129019776134E+00  -4.8994166815430358E+00  -4.9039881355395263E+00
  -4.9085274024971710E+00  -4.9130346209460525E+00  -4.9175099294162541E+00  -4.9219534664378628E+00  -4.9263653705409611E+00
  -4.9307457802556316E+00  -4.9350948341119620E+00  -4.9394126706400350E+00  -4.9436994283699329E+00  -4.9479552458317420E+00
  -4.9521802615555455E+00  -4.9563746140714278E+00  -4.9605384419094731E+00  -4.9646718835997659E+00  -4.9687750776723894E+00
  -4.9728481626574288E+00  -4.9768912770849676E+00  -4.9809045594850900E+00  -4.9848881483878804E+00  -4.9888421823234230E+00
  -4.9927667998218013E+00  -4.9966621394131012E+00  -5.0005283396274054E+00  -5.0043655389947972E+00  -5.0081738760453627E+00
  -5.0119534893091853E+00  -5.0157045173163475E+00  -5.0194270985969371E+00  -5.0231213716810350E+00  -5.0267874750987271E+00
  -5.0304255473800970E+00  -5.0340357270552287E+00  -5.0376181526542076E+00  -5.0411729627071136E+00  -5.0447002957440370E+00
  -5.0482002902950578E+00  -5.0516730848902620E+00  -5.0551188180597331E+00  -5.0585376283335552E+00  -5.0619296542418111E+00
  -5.0652950343145884E+00  -5.0686339070819670E+00  -5.0719464110740349E+00  -5.0752326848208744E+00  -5.0784928668525700E+00
  -5.0817270956992058E+00  -5.0849355098908653E+00  -5.0881182479576337E+00  -5.0912754484295952E+00  -5.0944072498368334E+00
  -5.0975137907094306E+00  -5.1005952095774747E+00  -5.1036516449710483E+00  -5.1066832354202338E+00  -5.1096901194551183E+00
  -5.1126724356057842E+00  -5.1156303224023167E+00  -5.1185639183747975E+00  -5.1214733620533144E+00  -5.1243587919679481E+00
  -5.1272203466487847E+00  -5.1300581646259085E+00  -5.1328723844294020E+00  -5.1356631445893521E+00  -5.1384305836358397E+00
  -5.1411748400989516E+00  -5.1438960525087714E+00  -5.1465943593953822E+00  -5.1492698992888686E+00  -5.1519228107193147E+00
  -5.1545532322168057E+00  -5.1571613023114242E+00  -5.1597471595332545E+00  -5.1623109424123834E+00  -5.1648527894788909E+00
  -5.1673728392628639E+00  -5.1698712302943868E+00  -5.1723481011035419E+00  -5.1748035902204155E+00  -5.1772378361750899E+00
  -5.1796509774976505E+00  -5.1820431527181796E+00  -5.1844145003667634E+00  -5.1867651589734844E+00  -5.1890952670684287E+00
  -5.1914049631816797E+00  -5.1936943858433215E+00  -5.1959636735834369E+00  -5.1982129649321118E+00  -5.2004423984194288E+00
  -5.2026521125754748E+00  -5.2048422459303314E+00  -5.2070129370140821E+00  -5.2091643243568146E+00  -5.2112965464886107E+00
  -5.2134097419395546E+00  -5.2155040492397298E+00  -5.2175796069192222E+00  -5.2196365535081144E+00  -5.2216750275364916E+00
  -5.2236951675344381E+00  -5.2256971120320372E+00  -5.2276809995593725E+00  -5.2296469686465299E+00  -5.2315951578235929E+00
  -5.2335257056206448E+00  -5.2354387505677717E+00  -5.2373344311950554E+00  -5.2392128860325808E+00  -5.2410742536104333E+00
  -5.2429186724586962E+00  -5.2447462811074530E+00  -5.2465572180867888E+00  -5.2483516219267869E+00  -5.2501296311575327E+00
  -5.2518913843091095E+00  -5.2536370199116016E+00  -5.2553666764950924E+00  -5.2570804925896688E+00  -5.2587786067254116E+00
  -5.2604611574324061E+00  -5.2621282832407363E+00  -5.2637801226804886E+00  -5.2654168142817435E+00  -5.2670384965745880E+00
  -5.2686453080891038E+00  -5.2702373873553787E+00  -5.2718148729034935E+00  -5.2733779032635333E+00  -5.2749266169655824E+00
  -5.2764611525397251E+00  -5.2779816485160458E+00  -5.2794882434246277E+00  -5.2809810757955562E+00  -5.2824602841589154E+00
  -5.2839260070447871E+00  -5.2853783829832590E+00  -5.2868175505044119E+00  -5.2882436481383328E+00  -5.2896568144151050E+00
  -5.2910571878648112E+00  -5.2924449070175363E+00  -5.2938201104033658E+00  -5.2951829365523828E+00  -5.2965335239946700E+00
  -5.2978720112603153E+00  -5.2991985368793992E+00  -5.3005132393820071E+00  -5.3018162572982250E+00  -5.3031077291581337E+00
  -5.3043877934918182E+00  -5.3056565888293665E+00  -5.3069142537008576E+00  -5.3081609266363783E+00  -5.3093967461660121E+00
  -5.3106218508198442E+00  -5.3118363791279561E+00  -5.3130404696204359E+00  -5.3142342608273649E+00  -5.3154178912788268E+00
  -5.3165914995049084E+00  -5.3177552240356913E+00  -5.3189092034012608E+00  -5.3200535761317020E+00  -5.3211884807570975E+00
  -5.3223140558075315E+00  -5.3234304398130892E+00  -5.3245377713038540E+00  -5.3256361888099102E+00  -5.3267258308613421E+00
  -5.3278052765577657E+00  -5.3288737665308510E+00  -5.3299309319989270E+00  -5.3309767688609906E+00  -5.3320112730160343E+00
  -5.3330344403630550E+00  -5.3340462668010451E+00  -5.3350467482289998E+00  -5.3360358805459143E+00  -5.3370136596507827E+00
  -5.3379800814426002E+00  -5.3389351418203601E+00  -5.3398788366830576E+00  -5.3408111619296861E+00  -5.3417321134592424E+00
  -5.3426416871707199E+00  -5.3435398789631128E+00  -5.3444266847354154E+00  -5.3453021003866246E+00  -5.3461661218157319E+00
  -5.3470187449217326E+00  -5.3478599656036216E+00  -5.3486897797603943E+00  -5.3495081832910456E+00  -5.3503151720945663E+00
  -5.3511107420699560E+00  -5.3518948891162053E+00  -5.3526676091323120E+00  -5.3534288980172677E+00  -5.3541787516700676E+00
  -5.3549171659897077E+00  -5.3556441368751813E+00  -5.3563596602254835E+00  -5.3570637319396077E+00  -5.3577563479165509E+00
  -5.3584375040553054E+00  -5.3591071962548664E+00  -5.3597654204142291E+00  -5.3604121724323868E+00  -5.3610474482083355E+00
  -5.3616712436410676E+00  -5.3622835546295802E+00  -5.3628843770728656E+00  -5.3634737068699208E+00  -5.3640515399197382E+00
  -5.3646178721213120E+00  -5.3651726993736384E+00  -5.3657160175757115E+00  -5.3662478226265264E+00  -5.3667681104250766E+00
  -5.3672768768703563E+00  -5.3677741178613614E+00  -5.3682598292970853E+00  -5.3687340070765233E+00  -5.3691966470986685E+00
  -5.3696477452625180E+00  -5.3700872974670641E+00  -5.3705152996113030E+00  -5.3709317475942280E+00  -5.3713366373148341E+00
  -5.3717299646721157E+00  -5.3721117255650679E+00  -5.3724819158926840E+00  -5.3728405315539591E+00  -5.3731875684478894E+00
  -5.3735230224734671E+00  -5.3738468895296876E+00  -5.3741591655155450E+00  -5.3744598463300362E+00  -5.3747489278721519E+00
  -5.3750264060408899E+00  -5.3752922767352418E+00  -5.3755465358542054E+00  -5.3757891792967731E+00  -5.3760202029619402E+00
  -5.3762396027487016E+00  -5.3764473745560499E+00  -5.3766435142829820E+00  -5.3768280178284904E+00  -5.3770008810915719E+00
  -5.3771620999712200E+00  -5.3773116703664288E+00  -5.3774495881761926E+00  -5.3775758492995074E+00  -5.3776904496353657E+00
  -5.3777933850827644E+00  -5.3778846515406959E+00  -5.3779642449081555E+00  -5.3780321610841382E+00  -5.3780883959676391E+00
  -5.3781329454576507E+00  -5.3781658054531691E+00  -5.3781869718531885E+00  -5.3781964405567040E+00  -5.3781942074627080E+00
  -5.3781802684701985E+00  -5.3781546194781669E+00  -5.3781172563856092E+00  -5.3780681750915207E+00  -5.3780073714948937E+00
  -5.3779348414947243E+00  -5.3778505809900068E+00  -5.3777545858797362E+00  -5.3776468520629059E+00  -5.3775273754385111E+00
  -5.3773961519055478E+00  -5.3772531773630075E+00  -5.3770984477098862E+00  -5.3769319588451792E+00  -5.3767537066678806E+00
  -5.3765636870769846E+00  -5.3763618959714847E+00  -5.3761483292503778E+00  -5.3759229828126580E+00  -5.3756858525573179E+00
  -5.3754369343833535E+00  -5.3751762241897589E+00  -5.3749037178755295E+00  -5.3746194113396593E+00  -5.3743233004811417E+00
  -5.3740153811989728E+00  -5.3736956493921468E+00  -5.3733641009596580E+00  -5.3730207318005014E+00  -5.3726655378136705E+00
  -5.3722985148981603E+00  -5.3719196589529661E+00  -5.3715289658770811E+00  -5.3711264315695013E+00  -5.3707120519292211E+00
  -5.3702858228552337E+00  -5.3698477402465343E+00  -5.3693978000021190E+00  -5.3689359980209792E+00  -5.3684623302021119E+00
  -5.3679767924445114E+00  -5.3674793806471710E+00  -5.3669700907090867E+00  -5.3664489185292519E+00  -5.3659158600066608E+00
  -5.3653709110403094E+00  -5.3648140675291920E+00  -5.3642453253723028E+00  -5.3636646804686361E+00  -5.3630721287171861E+00
  -5.3624676660169479E+00  -5.3618512882669167E+00  -5.3612229913660849E+00  -5.3605827712134504E+00  -5.3599306237080047E+00
  -5.3592665447487438E+00  -5.3585905302346610E+00  -5.3579025760647534E+00  -5.3572026781380124E+00  -5.3564908323534350E+00
  -5.3557670346100146E+00  -5.3550312808067453E+00  -5.3542835668426223E+00  -5.3535238886166407E+00  -5.3527522420277949E+00
  -5.3519686229750789E+00  -5.3511730273574862E+00  -5.3503654510740137E+00  -5.3495458900236539E+00  -5.3487143401054018E+00
  -5.3478707972182526E+00  -5.3470152572612015E+00  -5.3461477161332409E+00  -5.3452681697333677E+00  -5.3443766139605744E+00
  -5.3434730447138579E+00  -5.3425574578922088E+00  -5.3416298493946259E+00  -5.3406902151201008E+00  -5.3397385509676312E+00
  -5.3387748528362069E+00  -5.3377991166248275E+00  -5.3368113382324847E+00  -5.3358115135581725E+00  -5.3347996385008871E+00
  -5.3337757089596218E+00  -5.3327397208333736E+00  -5.3316916700211339E+00  -5.3306315524218988E+00  -5.3295593639346626E+00
  -5.3284751004584203E+00  -5.3273787578921654E+00  -5.3262703321348939E+00  -5.3167667377105410E+00  -5.3153750777222699E+00
  -5.3139756572843773E+00  -5.3125684913579434E+00  -5.3111535948552531E+00  -5.3097309826400210E+00  -5.3083006695276174E+00
  -5.3068626702852875E+00  -5.3054169996323761E+00  -5.3039636722405445E+00  -5.3025027027339897E+00  -5.3010341056896637E+00
  -5.2995578956374860E+00  -5.2980740870605647E+00  -5.2965826943953980E+00  -5.2950837320321007E+00  -5.2935772143146052E+00
  -5.2920631555408724E+00  -5.2905415699631071E+00  -5.2890124717879532E+00  -5.2874758751767130E+00  -5.2859317942455419E+00
  -5.2843802430656552E+00  -5.2828212356635333E+00  -5.2812547860211190E+00  -5.2796809080760196E+00  -5.2780996157217039E+00
  -5.2765109228077041E+00  -5.2749148431398085E+00  -5.2733113904802540E+00  -5.2717005785479314E+00  -5.2700824210185671E+00
  -5.2684569315249226E+00  -5.2668241236569795E+00  -5.2651840109621348E+00  -5.2635366069453884E+00  -5.2618819250695266E+00
  -5.2602199787553134E+00  -5.2585507813816781E+00  -5.2568743462858887E+00  -5.2551906867637523E+00  -5.2534998160697812E+00
  -5.2518017474173844E+00  -5.2500964939790444E+00  -5.2483840688864953E+00  -5.2466644852309079E+00  -5.2449377560630550E+00
  -5.2432038943935000E+00  -5.2414629131927626E+00  -5.2397148253915002E+00  -5.2379596438806786E+00  -5.2361973815117411E+00
  -5.2344280510967875E+00  -5.2326516654087323E+00  -5.2308682371814887E+00  -5.2290777791101286E+00  -5.2272803038510505E+00
  -5.2254758240221486E+00  -5.2236643522029729E+00  -5.2218459009349028E+00  -5.2200204827213064E+00  -5.2181881100277039E+00
  -5.2163487952819247E+00  -5.2145025508742773E+00  -5.2126493891577059E+00  -5.2107893224479449E+00  -5.2089223630236896E+00
  -5.2070485231267361E+00  -5.2051678149621567E+00  -5.2032802506984419E+00  -5.2013858424676620E+00  -5.1994846023656223E+00
  -5.1975765424520084E+00  -5.1956616747505517E+00  -5.1937400112491652E+00  -5.1918115639001137E+00  -5.1898763446201412E+00
  -5.1879343652906424E+00  -5.1859856377577929E+00  -5.1840301738327081E+00  -5.1820679852915870E+00  -5.1800990838758540E+00
  -5.1781234812923138E+00  -5.1761411892132827E+00  -5.1741522192767464E+00  -5.1721565830864886E+00  -5.1701542922122457E+00
  -5.1681453581898396E+00  -5.1661297925213221E+00  -5.1641076066751168E+00  -5.1620788120861496E+00  -5.1600434201559970E+00
  -5.1580014422530196E+00  -5.1559528897124967E+00  -5.1538977738367677E+00  -5.1518361058953577E+00  -5.1497678971251277E+00
  -5.1476931587303936E+00  -5.1456119018830675E+00  -5.1435241377227872E+00  -5.1414298773570524E+00  -5.1393291318613477E+00
  -5.1372219122792817E+00  -5.1351082296227117E+00  -5.1329880948718758E+00  -5.1308615189755153E+00  -5.1287285128510112E+00
  -5.1265890873845050E+00  -5.1244432534310267E+00  -5.1222910218146209E+00  -5.1201324033284727E+00  -5.1179674087350318E+00
  -5.1157960487661320E+00  -5.1136183341231201E+00  -5.1114342754769782E+00  -5.1092438834684408E+00  -5.1070471687081200E+00
  -5.1048441417766242E+00  -5.1026348132246806E+00  -5.1004191935732512E+00  -5.0981972933136532E+00  -5.0959691229076762E+00
  -5.0937346927877041E+00  -5.0914940133568232E+00  -5.0892470949889468E+00  -5.0869939480289279E+00  -5.0847345827926747E+00
  -5.0824690095672604E+00  -5.0801972386110466E+00  -5.0779192801537913E+00  -5.0756351443967578E+00  -5.0733448415128324E+00
  -5.0710483816466354E+00  -5.0687457749146327E+00  -5.0664370314052425E+00  -5.0641221611789478E+00  -5.0618011742684068E+00
  -5.0594740806785596E+00  -5.0571408903867372E+00  -5.0548016133427707E+00  -5.0524562594690980E+00  -5.0501048386608645E+00
  -5.0477473607860404E+00  -5.0453838356855174E+00  -5.0430142731732168E+00  -5.0406386830361942E+00  -5.0382570750347426E+00
  -5.0358694589024955E+00  -5.0334758443465342E+00  -5.0310762410474821E+00  -5.0286706586596130E+00  -5.0262591068109526E+00
  -5.0238415951033772E+00  -5.0214181331127090E+00  -5.0189887303888296E+00  -5.0165533964557651E+00  -5.0141121408117968E+00
  -5.0116649729295482E+00  -5.0092119022560926E+00  -5.0067529382130456E+00  -5.0042880901966624E+00  -5.0018173675779387E+00
  -4.9993407797026972E+00  -4.9968583358916954E+00  -4.9943700454407116E+00  -4.9918759176206384E+00  -4.9893759616775899E+00
  -4.9868701868329772E+00  -4.9843586022836188E+00  -4.9818412172018167E+00  -4.9793180407354649E+00  -4.9767890820081293E+00
  -4.9742543501191454E+00  -4.9717138541437045E+00  -4.9691676031329557E+00  -4.9666156061140754E+00  -4.9640578720903781E+00
  -4.9614944100413920E+00  -4.9589252289229560E+00  -4.9563503376673026E+00  -4.9537697451831457E+00  -4.9511834603557743E+00
  -4.9485914920471323E+00  -4.9459938490959097E+00  -4.9433905403176261E+00  -4.9407815745047206E+00  -4.9381669604266323E+00
  -4.9355467068298875E+00  -4.9329208224381889E+00  -4.9302893159524883E+00  -4.9276521960510813E+00  -4.9250094713896893E+00
  -4.9223611506015343E+00  -4.9197072422974353E+00  -4.9170477550658713E+00  -4.9143826974730889E+00  -4.9117120780631565E+00
  -4.9090359053580652E+00  -4.9063541878577990E+00  -4.9036669340404222E+00  -4.9009741523621519E+00  -4.8982758512574458E+00
  -4.8955720391390738E+00  -4.8928627243981984E+00  -4.8901479154044578E+00  -4.8874276205060401E+00  -4.8847018480297635E+00
  -4.8819706062811452E+00  -4.8792339035444954E+00  -4.8764917480829739E+00  -4.8737441481386803E+00  -4.8709911119327272E+00
  -4.8682326476653124E+00  -4.8654687635157963E+00  -4.8626994676427726E+00  -4.8599247681841522E+00  -4.8571446732572294E+00
  -4.8543591909587578E+00  -4.8515683293650218E+00  -4.8487720965319161E+00  -4.8459705004950102E+00  -4.8431635492696294E+00
  -4.8403512508509188E+00  -4.8375336132139184E+00  -4.8347106443136374E+00  -4.8318823520851195E+00  -4.8290487444435222E+00
  -4.8262098292841760E+00  -4.8233656144826638E+00  -4.8205161078948882E+00  -4.8176613173571390E+00  -4.8148012506861644E+00
  -4.8119359156792374E+00  -4.8090653201142279E+00  -4.8061894717496694E+00  -4.8033083783248243E+00  -4.8004220475597590E+00
  -4.7975304871554014E+00  -4.7946337047936138E+00  -4.7917317081372612E+00  -4.7888245048302700E+00  -4.7859121024977060E+00
  -4.7829945087458272E+00  -4.7800717311621597E+00  -4.7771437773155547E+00  -4.7742106547562599E+00  -4.7712723710159848E+00
  -4.7683289336079548E+00  -4.7653803500269882E+00  -4.7624266277495515E+00  -4.7594677742338281E+00  -4.7565037969197750E+00
  -4.7535347032291932E+00  -4.7505605005657854E+00  -4.7475811963152177E+00  -4.7445967978451886E+00  -4.7416073125054838E+00
  -4.7386127476280375E+00  -4.7356131105269990E+00  -4.7326084084987876E+00  -4.7295986488221606E+00  -4.7265838387582670E+00
  -4.7235639855507108E+00  -4.7205390964256102E+00  -4.7175091785916567E+00  -4.7144742392401771E+00  -4.7114342855451881E+00
  -4.7083893246634601E+00  -4.7053393637345744E+00  -4.7022844098809760E+00  -4.6992244702080397E+00  -4.6961595518041257E+00
  -4.6930896617406335E+00  -4.6900148070720622E+00  -4.6869349948360677E+00  -4.6838502320535182E+00  -4.6807605257285552E+00
  -4.6776658828486397E+00  -4.6745663103846198E+00  -4.6714618152907770E+00  -4.6683524045048932E+00  -4.6652380849482924E+00
  -4.6621188635259063E+00  -4.6589947471263251E+00  -4.6558657426218497E+00  -4.6527318568685541E+00  -4.6495930967063277E+00
  -4.6464494689589433E+00  -4.6433009804340974E+00  -4.6401476379234730E+00  -4.6369894482027876E+00  -4.6338264180318491E+00
  -4.6306585541546088E+00  -4.6274858632992109E+00  -4.6243083521780486E+00  -4.6211260274878114E+00  -4.6179388959095435E+00
  -4.6147469641086873E+00  -4.6115502387351457E+00  -4.6083487264233236E+00  -4.6051424337921798E+00  -4.6019313674452853E+00
  -4.5987155339708670E+00  -4.5954949399418572E+00  -4.5922695919159526E+00  -4.5890394964356522E+00  -4.5858046600283169E+00
  -4.5825650892062129E+00  -4.5793207904665643E+00  -4.5760717702916009E+00  -4.5728180351486083E+00  -4.5695595914899734E+00
  -4.5662964457532373E+00  -4.5630286043611372E+00  -4.5597560737216671E+00  -4.5564788602281094E+00  -4.5531969702590898E+00
  -4.5499104101786321E+00  -4.5466191863361933E+00  -4.5433233050667177E+00  -4.5400227726906817E+00  -4.5367175955141423E+00
  -4.5334077798287788E+00  -4.5300933319119467E+00  -4.5267742580267161E+00  -4.5234505644219247E+00  -4.5201222573322148E+00
  -4.5167893429780879E+00  -4.5134518275659454E+00  -4.5101097172881328E+00  -4.5067630183229888E+00  -4.5034117368348845E+00
  -4.5000558789742735E+00  -4.4966954508777315E+00  -4.4933304586680052E+00  -4.4899609084540515E+00  -4.4865868063310881E+00
  -4.4832081583806254E+00  -4.4798249706705260E+00  -4.4764372492550342E+00  -4.4730450001748236E+00  -4.4696482294570474E+00
  -4.4662469431153671E+00  -4.4628411471500069E+00  -4.4594308475477895E+00  -4.4560160502821846E+00  -4.4525967613133437E+00
  -4.4491729865881471E+00  -4.4457447320402448E+00  -4.4423120035900938E+00  -4.4388748071450079E+00  -4.4354331485991914E+00
  -4.4319870338337806E+00  -4.4285364687168940E+00  -4.4250814591036596E+00  -4.4216220108362627E+00  -4.4181581297439889E+00
  -4.4146898216432584E+00  -4.4112170923376706E+00  -4.4077399476180386E+00  -4.4042583932624337E+00  -4.4007724350362301E+00
  -4.3972820786921263E+00  -4.3937873299702064E+00  -4.3902881945979653E+00  -4.3867846782903497E+00  -4.3832767867497999E+00
  -4.3797645256662889E+00  -4.3762479007173551E+00  -4.3727269175681496E+00  -4.3692015818714651E+00  -4.3656718992677810E+00
  -4.3621378753852964E+00  -4.3585995158399742E+00  -4.3550568262355691E+00  -4.3515098121636751E+00  -4.3479584792037560E+00
  -4.3444028329231843E+00  -4.3408428788772815E+00  -4.3372786226093494E+00  -4.3337100696507092E+00  -4.3301372255207413E+00
  -4.3265600957269168E+00  -4.3229786857648360E+00  -4.3193930011182644E+00  -4.3158030472591697E+00  -4.3122088296477541E+00
  -4.3086103537324973E+00  -4.3050076249501821E+00  -4.3014006487259371E+00  -4.2977894304732702E+00  -4.2941739755941022E+00
  -4.2905542894788065E+00  -4.2869303775062368E+00  -4.2833022450437674E+00  -4.2796698974473264E+00  -4.2760333400614288E+00
  -4.2723925782192103E+00  -4.2687476172424663E+00  -4.2650984624416832E+00  -4.2614451191160674E+00  -4.2577875925535853E+00
  -4.2541258880310009E+00  -4.2504600108138932E+00  -4.2467899661567108E+00  -4.2431157593027855E+00  -4.2394373954843818E+00
  -4.2357548799227178E+00  -4.2320682178280036E+00  -4.2283774143994766E+00  -4.2246824748254266E+00  -4.2209834042832366E+00
  -4.2172802079394067E+00  -4.2135728909495942E+00  -4.2098614584586445E+00  -4.2061459156006160E+00  -4.2024262674988204E+00
  -4.1987025192658480E+00  -4.1949746760036088E+00  -4.1912427428033512E+00  -4.1875067247457061E+00  -4.1837666269007050E+00
  -4.1800224543278244E+00  -4.1762742120760068E+00  -4.1725219051837001E+00  -4.1687655386788780E+00  -4.1650051175790850E+00
  -4.1612406468914482E+00  -4.1574721316127263E+00  -4.1536995767293305E+00  -4.1499229872173533E+00  -4.1461423680426019E+00
  -4.1423577241606315E+00  -4.1385690605167689E+00  -4.1347763820461427E+00  -4.1309796936737193E+00  -4.1271790003143272E+00
  -4.1233743068726874E+00  -4.1195656182434393E+00  -4.1157529393111814E+00  -4.1119362749504846E+00  -4.1081156300259369E+00
  -4.1042910093921563E+00  -4.1004624178938371E+00  -4.0966298603657592E+00  -4.0927933416328361E+00  -4.0889528665101302E+00
  -4.0851084398028847E+00  -4.0812600663065535E+00  -4.0774077508068300E+00  -4.0735514980796674E+00  -4.0696913128913206E+00
  -4.0658271999983597E+00  -4.0619591641477077E+00  -4.0580872100766641E+00  -4.0542113425129305E+00  -4.0503315661746448E+00
  -4.0464478857703989E+00  -4.0425603059992774E+00  -4.0386688315508730E+00  -4.0347734671053246E+00  -4.0308742173333316E+00
  -4.0269710868961939E+00  -4.0230640804458311E+00  -4.0191532026248105E+00  -4.0152384580663716E+00  -4.0113198513944583E+00
  -4.0073973872237421E+00  -4.0034710701596437E+00  -3.9995409047983670E+00  -3.9956068957269180E+00  -3.9916690475231409E+00
  -3.9877273647557301E+00  -3.9837818519842694E+00  -3.9798325137592463E+00  -3.9758793546220859E+00  -3.9719223791051741E+00
  -3.9679615917318811E+00  -3.9639969970165851E+00  -3.9600285994647089E+00  -3.9560564035727221E+00  -3.9520804138281971E+00
  -3.9481006347098035E+00  -3.9441170706873567E+00  -3.9401297262218278E+00  -3.9361386057653722E+00  -3.9321437137613597E+00
  -3.9281450546443910E+00  -3.9241426328403279E+00  -3.9201364527663145E+00  -3.9161265188308025E+00  -3.9121128354335739E+00
  -3.9080954069657690E+00  -3.9040742378099069E+00  -3.9000493323399095E+00  -3.8960206949211247E+00  -3.8919883299103550E+00
  -3.8879522416558747E+00  -3.8839124344974585E+00  -3.8798689127663981E+00  -3.8758216807855392E+00  -3.8717707428692840E+00
  -3.8677161033236400E+00  -3.8636577664462162E+00  -3.8595957365262703E+00  -3.8555300178447114E+00  -3.8514606146741386E+00
  -3.8473875312788546E+00  -3.8433107719148953E+00  -3.8392303408300421E+00  -3.8351462422638547E+00  -3.8310584804476902E+00
  -3.8269670596047218E+00  -3.8228719839499670E+00  -3.8187732576903062E+00  -3.8146708850245066E+00  -3.8105648701432409E+00
  -3.8064552172291162E+00  -3.8023419304566848E+00  -3.7982250139924831E+00  -3.7941044719950336E+00  -3.7899803086148816E+00
  -3.7858525279946060E+00  -3.7817211342688557E+00  -3.7775861315643517E+00  -3.7734475239999248E+00  -3.7693053156865259E+00
  -3.7651595107272557E+00  -3.7610101132173819E+00  -3.7568571272443583E+00  -3.7527005568878482E+00  -3.7485404062197465E+00
  -3.7443766793042008E+00  -3.7402093801976237E+00  -3.7360385129487317E+00  -3.7318640815985451E+00  -3.7276860901804212E+00
  -3.7235045427200735E+00  -3.7193194432355883E+00  -3.7151307957374473E+00  -3.7109386042285517E+00  -3.7067428727042318E+00
  -3.7025436051522798E+00  -3.6983408055529616E+00  -3.6941344778790390E+00  -3.6899246260957899E+00  -3.6857112541610322E+00
  -3.6814943660251345E+00  -3.6772739656310423E+00  -3.6730500569142981E+00  -3.6688226438030567E+00  -3.6645917302181132E+00
  -3.6603573200729094E+00  -3.6561194172735645E+00  -3.6518780257188901E+00  -3.6476331493004102E+00  -3.6433847919023790E+00
  -3.6391329574018023E+00  -3.6348776496684536E+00  -3.6306188725648978E+00  -3.6263566299465055E+00  -3.6220909256614728E+00
  -3.6178217635508454E+00  -3.6135491474485271E+00  -3.6092730811813092E+00  -3.6049935685688816E+00  -3.6007106134238578E+00
  -3.5964242195517846E+00  -3.5921343907511694E+00  -3.5878411308134939E+00  -3.5835444435232366E+00  -3.5792443326578809E+00
  -3.5749408019879465E+00  -3.5706338552770003E+00  -3.5663234962816741E+00  -3.5620097287516841E+00  -3.5576925564298514E+00
  -3.5533719830521142E+00  -3.5490480123475523E+00  -3.5447206480383975E+00  -3.5403898938400591E+00  -3.5360557534611341E+00
  -3.5317182306034329E+00  -3.5273773289619856E+00  -3.5230330522250766E+00  -3.5186854040742399E+00  -3.5143343881842957E+00
  -3.5099800082233594E+00  -3.5056222678528584E+00  -3.5012611707275498E+00  -3.4968967204955437E+00  -3.4925289207983066E+00
  -3.4881577752706940E+00  -3.4837832875409553E+00  -3.4794054612307588E+00  -3.4750242999552059E+00  -3.4706398073228413E+00
  -3.4662519869356845E+00  -3.4618608423892314E+00  -3.4574663772724801E+00  -3.4530685951679430E+00  -3.4486674996516680E+00
  -3.4442630942932486E+00  -3.4398553826558458E+00  -3.4354443682962015E+00  -3.4310300547646571E+00  -3.4266124456051648E+00
  -3.4221915443553135E+00  -3.4177673545463314E+00  -3.4133398797031189E+00  -3.4089091233442432E+00  -3.4044750889819775E+00
  -3.4000377801222990E+00  -3.3955972002649162E+00  -3.3911533529032738E+00  -3.3867062415245823E+00  -3.3822558696098213E+00
  -3.3778022406337636E+00  -3.3733453580649830E+00  -3.3688852253658768E+00  -3.3644218459926791E+00  -3.3599552233954753E+00
  -3.3554853610182178E+00  -3.3510122622987453E+00  -3.3465359306687867E+00  -3.3420563695539931E+00  -3.3375735823739383E+00
  -3.3330875725421434E+00  -3.3285983434660849E+00  -3.3241058985472174E+00  -3.3196102411809800E+00  -3.3151113747568233E+00
  -3.3106093026582046E+00  -3.3061040282626277E+00  -3.3015955549416360E+00  -3.2970838860608449E+00  -3.2925690249799375E+00
  -3.2880509750527005E+00  -3.2835297396270189E+00  -3.2790053220449065E+00  -3.2744777256425124E+00  -3.2699469537501344E+00
  -3.2654130096922378E+00  -3.2608758967874683E+00  -3.2563356183486674E+00  -3.2517921776828813E+00  -3.2472455780913823E+00
  -3.2426958228696821E+00  -3.2381429153075385E+00  -3.2335868586889798E+00  -3.2290276562923097E+00  -3.2244653113901314E+00
  -3.2198998272493484E+00  -3.2153312071311970E+00  -3.2107594542912357E+00  -3.2061845719793869E+00  -3.2016065634399213E+00
  -3.1970254319115017E+00  -3.1924411806271711E+00  -3.1878538128143830E+00  -3.1832633316950041E+00  -3.1786697404853408E+00
  -3.1740730423961372E+00  -3.1694732406326014E+00  -3.1648703383944103E+00  -3.1602643388757330E+00  -3.1556552452652293E+00
  -3.1510430607460806E+00  -3.1464277884959864E+00  -3.1418094316871925E+00  -3.1371879934864930E+00  -3.1325634770552484E+00
  -3.1279358855494004E+00  -3.1233052221194821E+00  -3.1186714899106276E+00  -3.1140346920625945E+00  -3.1093948317097677E+00
  -3.1047519119811815E+00  -3.1001059360005194E+00  -3.0954569068861439E+00  -3.0908048277510929E+00  -3.0861497017031003E+00
  -3.0814915318446130E+00  -3.0768303212727952E+00  -3.0721660730795461E+00  -3.0674987903515114E+00  -3.0628284761700928E+00
  -3.0581551336114674E+00  -3.0534787657465934E+00  -3.0487993756412277E+00  -3.0441169663559333E+00  -3.0394315409460990E+00
  -3.0347431024619396E+00  -3.0300516539485240E+00  -3.0253571984457737E+00  -3.0206597389884822E+00  -3.0159592786063274E+00
  -3.0112558203238797E+00  -3.0065493671606176E+00  -3.0018399221309404E+00  -2.9971274882441721E+00  -2.9924120685045872E+00
  -2.9876936659114124E+00  -2.9829722834588419E+00  -2.9782479241360451E+00  -2.9735205909271887E+00  -2.9687902868114384E+00
  -2.9640570147629752E+00  -2.9593207777510027E+00  -2.9545815787397722E+00  -2.9498394206885723E+00  -2.9450943065517632E+00
  -2.9403462392787727E+00  -2.9355952218141095E+00  -2.9308412570973905E+00  -2.9260843480633283E+00  -2.9213244976417601E+00
  -2.9165617087576523E+00  -2.9117959843311172E+00  -2.9070273272774125E+00  -2.9022557405069689E+00  -2.8974812269253842E+00
  -2.8927037894334542E+00  -2.8879234309271644E+00  -2.8831401542977133E+00  -2.8783539624315195E+00  -2.8735648582102393E+00
  -2.8687728445107590E+00  -2.8639779242052339E+00  -2.8591801001610748E+00  -2.8543793752409732E+00  -2.8495757523029046E+00
  -2.8447692342001476E+00  -2.8399598237812853E+00  -2.8351475238902228E+00  -2.8303323373661948E+00  -2.8255142670437805E+00
  -2.8206933157529068E+00  -2.8158694863188680E+00  -2.8110427815623291E+00  -2.8062132042993433E+00  -2.8013807573413536E+00
  -2.7965454434952166E+00  -2.7917072655631974E+00  -2.7868662263429931E+00  -2.7820223286277344E+00  -2.7771755752060048E+00
  -2.7723259688618391E+00  -2.7674735123747514E+00  -2.7626182085197253E+00  -2.7577600600672398E+00  -2.7528990697832683E+00
  -2.7480352404293029E+00  -2.7431685747623469E+00  -2.7382990755349423E+00  -2.7334267454951648E+00  -2.7285515873866495E+00
  -2.7236736039485860E+00  -2.7187927979157380E+00  -2.7139091720184489E+00  -2.7090227289826601E+00  -2.7041334715299037E+00
  -2.6992414023773366E+00  -2.6943465242377251E+00  -2.6894488398194762E+00  -2.6845483518266313E+00  -2.6796450629588886E+00
  -2.6747389759116054E+00  -2.6698300933758121E+00  -2.6649184180382126E+00  -2.6600039525812131E+00  -2.6550866996829114E+00
  -2.6501666620171198E+00  -2.6452438422533651E+00  -2.6403182430569130E+00  -2.6353898670887572E+00  -2.6304587170056495E+00
  -2.6255247954600920E+00  -2.6205881051003637E+00  -2.6156486485705122E+00  -2.6107064285103769E+00  -2.6057614475555932E+00
  -2.6008137083376002E+00  -2.5958632134836539E+00  -2.5909099656168335E+00  -2.5859539673560534E+00  -2.5809952213160745E+00
  -2.5760337301075005E+00  -2.5710694963368086E+00  -2.5661025226063354E+00  -2.5611328115143079E+00  -2.5561603656548377E+00
  -2.5511851876179374E+00  -2.5462072799895221E+00  -2.5412266453514327E+00  -2.5362432862814241E+00  -2.5312572053531999E+00
  -2.5262684051363968E+00  -2.5212768881966121E+00  -2.5162826570953976E+00  -2.5112857143902838E+00  -2.5062860626347780E+00
  -2.5012837043783738E+00  -2.4962786421665673E+00  -2.4912708785408579E+00  -2.4862604160387609E+00  -2.4812472571938211E+00
  -2.4762314045356062E+00  -2.4712128605897306E+00  -2.4661916278778664E+00  -2.4611677089177313E+00  -2.4561411062231246E+00
  -2.4511118223039108E+00  -2.4460798596660460E+00  -2.4410452208115787E+00  -2.4360079082386621E+00  -2.4309679244415534E+00
  -2.4259252719106379E+00  -2.4208799531324225E+00  -2.4158319705895552E+00  -2.4107813267608256E+00  -2.4057280241211796E+00
  -2.4006720651417184E+00  -2.3956134522897239E+00  -2.3905521880286478E+00  -2.3854882748181350E+00  -2.3804217151140179E+00
  -2.3753525113683414E+00  -2.3702806660293532E+00  -2.3652061815415317E+00  -2.3601290603455718E+00  -2.3550493048784134E+00
  -2.3499669175732376E+00  -2.3448819008594826E+00  -2.3397942571628385E+00  -2.3347039889052748E+00  -2.3296110985050298E+00
  -2.3245155883766349E+00  -2.3194174609309033E+00  -2.3143167185749660E+00  -2.3092133637122449E+00  -2.3041073987424951E+00
  -2.2989988260617866E+00  -2.2938876480625252E+00  -2.2887738671334601E+00  -2.2836574856596918E+00  -2.2785385060226671E+00
  -2.2734169306002086E+00  -2.2682927617665025E+00  -2.2631660018921269E+00  -2.2580366533440333E+00  -2.2529047184855808E+00
  -2.2477701996765282E+00  -2.2426330992730414E+00  -2.2374934196277128E+00  -2.2323511630895552E+00  -2.2272063320040165E+00
  -2.2220589287129959E+00  -2.2169089555548243E+00  -2.2117564148643050E+00  -2.2066013089727003E+00  -2.2014436402077466E+00
  -2.1962834108936562E+00  -2.1911206233511327E+00  -2.1859552798973696E+00  -2.1807873828460691E+00  -2.1756169345074374E+00
  -2.1704439371882049E+00  -2.1652683931916141E+00  -2.1600903048174538E+00  -2.1549096743620408E+00  -2.1497265041182434E+00
  -2.1445407963754826E+00  -2.1393525534197413E+00  -2.1341617775335724E+00  -2.1289684709961030E+00  -2.1237726360830371E+00
  -2.1185742750666807E+00  -2.1133733902159264E+00  -2.1081699837962824E+00  -2.1029640580698548E+00  -2.0977556152953798E+00
  -2.0925446577282134E+00  -2.0873311876203502E+00  -2.0821152072204199E+00  -2.0768967187736997E+00  -2.0716757245221245E+00
  -2.0664522267042904E+00  -2.0612262275554531E+00  -2.0559977293075571E+00  -2.0507667341892186E+00  -2.0455332444257506E+00
  -2.0402972622391542E+00  -2.0350587898481414E+00  -2.0298178294681275E+00  -2.0245743833112484E+00  -2.0193284535863665E+00
  -2.0140800424990672E+00  -2.0088291522516779E+00  -2.0035757850432705E+00  -1.9983199430696676E+00  -1.9930616285234466E+00
  -1.9878008435939527E+00  -1.9825375904672979E+00  -1.9772718713263793E+00  -1.9720036883508718E+00  -1.9667330437172463E+00
  -1.9614599395987653E+00  -1.9561843781655053E+00  -1.9509063615843449E+00  -1.9456258920189866E+00  -1.9403429716299523E+00
  -1.9350576025745967E+00  -1.9297697870071160E+00  -1.9244795270785442E+00  -1.9191868249367705E+00  -1.9138916827265386E+00
  -1.9085941025894524E+00  -1.9032940866639960E+00  -1.8979916370855225E+00  -1.8926867559862628E+00  -1.8873794454953476E+00
  -1.8820697077387993E+00  -1.8767575448395399E+00  -1.8714429589174024E+00  -1.8661259520891329E+00  -1.8608065264684022E+00
  -1.8554846841657977E+00  -1.8501604272888608E+00  -1.8448337579420477E+00  -1.8395046782267832E+00  -1.8341731902414280E+00
  -1.8288392960813142E+00  -1.8235029978387280E+00  -1.8181642976029337E+00  -1.8128231974601683E+00  -1.8074796994936595E+00
  -1.8021338057836136E+00  -1.7967855184072439E+00  -1.7914348394387538E+00  -1.7860817709493688E+00  -1.7807263150073138E+00
  -1.7753684736778448E+00  -1.7700082490232372E+00  -1.7646456431028013E+00  -1.7592806579728857E+00  -1.7539132956868857E+00
  -1.7485435582952342E+00  -1.7431714478454416E+00  -1.7377969663820589E+00  -1.7324201159467205E+00  -1.7270408985781232E+00
  -1.7216593163120548E+00  -1.7162753711813783E+00  -1.7108890652160589E+00  -1.7055004004431507E+00  -1.7001093788868118E+00
  -1.6947160025683143E+00  -1.6893202735060413E+00  -1.6839221937154996E+00  -1.6785217652093221E+00  -1.6731189899972676E+00
  -1.6677138700862446E+00  -1.6623064074802931E+00  -1.6568966041806124E+00  -1.6514844621855529E+00  -1.6460699834906252E+00
  -1.6406531700885068E+00  -1.6352340239690528E+00  -1.6298125471192848E+00  -1.6243887415234206E+00  -1.6189626091628595E+00
  -1.6135341520161990E+00  -1.6081033720592350E+00  -1.6026702712649703E+00  -1.5972348516036172E+00  -1.5917971150426116E+00
  -1.5863570635466020E+00  -1.5809146990774781E+00  -1.5754700235943471E+00  -1.5700230390535714E+00  -1.5645737474087467E+00
  -1.5591221506107225E+00  -1.5536682506076078E+00  -1.5482120493447671E+00  -1.5427535487648329E+00  -1.5372927508077112E+00
  -1.5318296574105845E+00  -1.5263642705079172E+00  -1.5208965920314577E+00  -1.5154266239102629E+00  -1.5099543680706671E+00
  -1.5044798264363228E+00  -1.4990030009281912E+00  -1.4935238934645432E+00  -1.4880425059609721E+00  -1.4825588403303940E+00
  -1.4770728984830599E+00  -1.4715846823265524E+00  -1.4660941937657999E+00  -1.4606014347030698E+00  -1.4551064070379891E+00
  -1.4496091126675343E+00  -1.4441095534860477E+00  -1.4386077313852375E+00  -1.4331036482541861E+00  -1.4275973059793481E+00
  -1.4220887064445655E+00  -1.4165778515310641E+00  -1.4110647431174652E+00  -1.4055493830797854E+00  -1.4000317732914489E+00
  -1.3945119156232793E+00  -1.3889898119435193E+00  -1.3834654641178301E+00  -1.3779388740092910E+00  -1.3724100434784134E+00
  -1.3668789743831411E+00  -1.3613456685788525E+00  -1.3558101279183732E+00  -1.3502723542519746E+00  -1.3447323494273848E+00
  -1.3391901152897785E+00  -1.3336456536818067E+00  -1.3280989664435809E+00  -1.3225500554126868E+00  -1.3169989224241851E+00
  -1.3114455693106242E+00  -1.3058899979020300E+00  -1.3003322100259334E+00  -1.2947722075073513E+00  -1.2892099921688098E+00
  -1.2836455658303318E+00  -1.2780789303094657E+00  -1.2725100874212609E+00  -1.2669390389783015E+00  -1.2613657867906836E+00
  -1.2557903326660489E+00  -1.2502126784095564E+00  -1.2446328258239239E+00  -1.2390507767093970E+00  -1.2334665328637813E+00
  -1.2278800960824368E+00  -1.2222914681582719E+00  -1.2167006508817695E+00  -1.2111076460409755E+00  -1.2055124554215082E+00
  -1.1999150808065668E+00  -1.1943155239769256E+00  -1.1887137867109536E+00  -1.1831098707846055E+00  -1.1775037779714337E+00
  -1.1718955100425898E+00  -1.1662850687668351E+00  -1.1606724559105299E+00  -1.1550576732376632E+00  -1.1494407225098282E+00
  -1.1438216054862478E+00  -1.1382003239237797E+00  -1.1325768795768982E+00  -1.1269512741977246E+00  -1.1213235095360223E+00
  -1.1156935873391933E+00  -1.1100615093522972E+00  -1.1044272773180401E+00  -1.0987908929767964E+00  -1.0931523580665934E+00
  -1.0875116743231381E+00  -1.0818688434797974E+00  -1.0762238672676243E+00  -1.0705767474153489E+00  -1.0649274856493844E+00
  -1.0592760836938364E+00  -1.0536225432705104E+00  -1.0479668660988974E+00  -1.0423090538961999E+00  -1.0366491083773279E+00
  -1.0309870312548977E+00  -1.0253228242392467E+00  -1.0196564890384279E+00  -1.0139880273582225E+00  -1.0083174409021360E+00
  -1.0026447313714104E+00  -9.9696990046502010E-01  -9.9129294987968675E-01  -9.8561388130987748E-01  -9.7993269644779801E-01
  -9.7424939698342428E-01  -9.6856398460447812E-01  -9.6287646099645363E-01  -9.5718682784259546E-01  -9.5149508682393735E-01
  -9.4580123961927409E-01  -9.4010528790519288E-01  -9.3440723335604747E-01  -9.2870707764399363E-01  -9.2300482243896875E-01
  -9.1730046940871024E-01  -9.1159402021875646E-01  -9.0588547653244611E-01  -9.0017484001092540E-01  -8.9446211231315520E-01
  -8.8874729509590611E-01  -8.8303039001378214E-01  -8.7731139871919228E-01  -8.7159032286239146E-01  -8.6586716409145315E-01
  -8.6014192405229528E-01  -8.5441460438867278E-01  -8.4868520674218362E-01  -8.4295373275227237E-01  -8.3722018405624421E-01
  -8.3148456228924994E-01  -8.2574686908430339E-01  -8.2000710607228688E-01  -8.1426527488194334E-01  -8.0852137713989047E-01
  -8.0277541447062217E-01  -7.9702738849651489E-01  -7.9127730083781933E-01  -7.8552515311268412E-01  -7.7977094693714455E-01
  -7.7401468392512585E-01  -7.6825636568845757E-01  -7.6249599383687527E-01  -7.5673356997801344E-01  -7.5096909571742176E-01
  -7.4520257265856438E-01  -7.3943400240282120E-01  -7.3366338654949459E-01  -7.2789072669581445E-01  -7.2211602443693479E-01
  -7.1633928136594949E-01  -7.1056049907388696E-01  -7.0477967914971695E-01  -6.9899682318035061E-01  -6.9321193275065085E-01
  -6.8742500944342766E-01  -6.8163605483945755E-01  -6.7584507051746212E-01  -6.7005205805413903E-01  -6.6425701902414058E-01
  -6.5845995500010401E-01  -6.5266086755262653E-01  -6.4685975825029152E-01  -6.4105662865966118E-01  -6.3525148034528800E-01
  -6.2944431486970409E-01  -6.2363513379343960E-01  -6.1782393867502206E-01  -6.1201073107097959E-01  -6.0619551253583093E-01
  -6.0037828462212495E-01  -5.9455904888039945E-01  -5.8873780685921673E-01  -5.8291456010515541E-01  -5.7708931016281706E-01
  -5.7126205857482126E-01  -5.6543280688182740E-01  -5.5960155662251454E-01  -5.5376830933360732E-01  -5.4793306654986296E-01
  -5.4209582980408288E-01  -5.3625660062711877E-01  -5.3041538054786663E-01  -5.2457217109327481E-01  -5.1872697378835608E-01
  -5.1287979015617258E-01  -5.0703062171785862E-01  -5.0117946999260865E-01  -4.9532633649769886E-01  -4.8947122274846167E-01
  -4.8361413025832795E-01  -4.7775506053878664E-01  -4.7189401509943207E-01  -4.6603099544793142E-01  -4.6016600309005384E-01
  -4.5429903952965017E-01  -4.4843010626867980E-01  -4.4255920480720029E-01  -4.3668633664337358E-01  -4.3081150327346673E-01
  -4.2493470619186596E-01  -4.1905594689106102E-01  -4.1317522686167202E-01  -4.0729254759242489E-01  -4.0140791057018826E-01
  -3.9552131727994633E-01  -3.8963276920482109E-01  -3.8374226782606247E-01  -3.7784981462306633E-01  -3.7195541107336388E-01
  -3.6605905865263183E-01  -3.6016075883469956E-01  -3.5426051309154283E-01  -3.4835832289329083E-01  -3.4245418970823183E-01
  -3.3654811500282084E-01  -3.3064010024166612E-01  -3.2473014688754842E-01  -3.1881825640142791E-01  -3.1290443024242010E-01
  -3.0698866986783335E-01  -3.0107097673314942E-01  -2.9515135229203660E-01  -2.8922979799634341E-01  -2.8330631529611477E-01
  -2.7738090563958867E-01  -2.7145357047319485E-01  -2.6552431124156234E-01  -2.5959312938753132E-01  -2.5366002635213297E-01
  -2.4772500357462368E-01  -2.4178806249245713E-01  -2.3584920454131361E-01  -2.2990843115508441E-01  -2.2396574376587908E-01
  -2.1802114380404156E-01  -2.1207463269813684E-01  -2.0612621187496188E-01  -2.0017588275954820E-01  -1.9422364677516193E-01
  -1.8826950534330922E-01  -1.8231345988374101E-01  -1.7635551181445208E-01  -1.7039566255169070E-01  -1.6443391350994757E-01
  -1.5847026610197859E-01  -1.5250472173879540E-01  -1.4653728182966361E-01  -1.4056794778212092E-01  -1.3459672100197045E-01
  -1.2862360289328090E-01  -1.2264859485840089E-01  -1.1667169829795425E-01  -1.1069291461083484E-01  -1.0471224519422924E-01
  -9.8729691443606729E-02  -9.2745254752720843E-02  -8.6758936513618684E-02  -8.0770738116640844E-02  -7.4780660950424155E-02
  -6.8788706401903127E-02  -6.2794875856325746E-02  -5.6799170697228681E-02  -5.0801592306472687E-02  -4.4802142064215983E-02
  -3.8800821348949736E-02  -3.2797631537458273E-02  -2.6792574004867478E-02  -2.0785650124613201E-02  -1.4776861268465112E-02
  -8.7662088065161986E-03  -2.7536941071968188E-03   3.2606814627407959E-03   9.2769165381856311E-03   1.5295009755706362E-02
   2.1314959753522711E-02   2.7336765171503005E-02   3.3360424651171651E-02   3.9385936835700193E-02   4.5413300369905020E-02
   5.1442513900254901E-02   5.7473576074835865E-02   6.3506485543398286E-02   6.9541240957308598E-02   7.5577840969573512E-02
   8.1616284234818037E-02   8.7656569409313087E-02   9.3698695150933792E-02   9.9742660119180496E-02   1.0578846297518013E-01
   1.1183610238166104E-01   1.1788557700298069E-01   1.2393688550508751E-01   1.2999002655555195E-01   1.3604499882354140E-01
   9.2774702653081576E+01   9.2774702653081576E+01   9.2774702653081576E+01   9.2774702653081576E+01   9.2774702653081576E+01
   9.2774702653081576E+01   9.2774702653081576E+01   9.2774702653081576E+01   9.2774702653081576E+01   9.2774702653081576E+01
   9.2774702653081576E+01   9.2774702653081576E+01   9.2774702653081576E+01   9.2774702653081576E+01   9.2774702653081576E+01
   9.2774702653081576E+01   9.2774702653081576E+01   9.2774702653081576E+01   9.2774702653081576E+01   9.2774702653081576E+01
   9.2774702653081576E+01   9.2774702653081576E+01   9.2774702653081576E+01   9.2774702653081576E+01   9.2774702653081576E+01
   9.2774702653081576E+01   9.2774702653081576E+01   9.2774702653081576E+01   9.2774702653081576E+01   9.2774702653081576E+01
   9.2774702653081576E+01   9.2774702653081576E+01   9.2774702653081576E+01   9.2774702653081576E+01   9.2774702653081576E+01
   9.2774702653081576E+01   9.2774702653081576E+01   9.2774702653081576E+01   9.2774702653081576E+01   9.2774702653081576E+01
   9.2774702653081576E+01   9.2774702653081576E+01   9.2774702653081576E+01   9.2774702653081576E+01   9.2774702653081576E+01
   9.2774702653081576E+01   9.2774702653081576E+01   9.2774702653081576E+01   9.2774702653081576E+01   9.2774702653081576E+01
   9.2774702653081576E+01   9.2774702653081576E+01   9.2774702653081576E+01   9.2774702653081576E+01   9.2774702653081576E+01
   9.2774702653081576E+01   9.2774702653081576E+01   9.2774702653081576E+01   9.2774702653081576E+01   9.2774702653081576E+01
   9.2774702653081576E+01   9.2774702653081576E+01   9.2774702653081576E+01   9.2774702653081576E+01   9.2774702653081576E+01
   9.2774702653081576E+01   9.2774702653081576E+01   9.2774702653081576E+01   9.2774702653081576E+01   9.2774702653081576E+01
   9.2774702653081576E+01   9.2774702653081576E+01   9.2774702653081576E+01   9.2774702653081576E+01   9.2774702653081576E+01
   9.2774702653081576E+01   9.2774702653081576E+01   9.2774702653081576E+01   9.2774702653081576E+01   9.2774702653081576E+01
   9.2774702653081576E+01   9.2774702653081576E+01   9.2774702653081576E+01   9.2774702653081576E+01   9.2774702653081576E+01
   9.2774702653081576E+01   9.2774702653081576E+01   9.2774702653081576E+01   9.2774702653081576E+01   9.2774702653081576E+01
   9.2774702653081576E+01   9.2774702653081576E+01   9.2774702653081576E+01   9.2774702653081576E+01   9.2774702653081576E+01
   9.2774702653081576E+01   9.2774702653081576E+01   9.2774702653081576E+01   9.2774702653081576E+01   9.2774702653081576E+01
   9.2774702653081576E+01   9.2774702653081576E+01   9.2774702653081576E+01   9.2774702653081576E+01   9.2774702653081576E+01
   9.2774702653081576E+01   9.2774702653081576E+01   9.2774702653081576E+01   9.2774702653081576E+01   9.2774702653081576E+01
   9.2774702653081576E+01   9.2774702653081576E+01   9.2774702653081576E+01   9.2774702653081576E+01   9.2774702653081576E+01
   9.2774702653081576E+01   9.2774702653081576E+01   9.2774702653081576E+01   9.2774702653081576E+01   9.2774702653081576E+01
   9.2774702653081576E+01   9.2774702653081576E+01   9.2774702653081576E+01   9.2774702653081576E+01   9.2774702653081576E+01
   9.2774702653081576E+01   9.2774702653081576E+01   9.2774702653081576E+01   9.2774702653081576E+01   9.2774702653081576E+01
   9.2774702653081576E+01   9.2774702653081576E+01   9.2774702653081576E+01   9.2774702653081576E+01   9.2774702653081576E+01
   9.2774702653081576E+01   9.2774702653081576E+01   9.2774702653081576E+01   9.2774702653081576E+01   9.2774702653081576E+01
   9.2774702653081576E+01   9.2774702653081576E+01   9.2774702653081576E+01   9.2774702653081576E+01   9.2774702653081576E+01
   9.2774702653081576E+01   9.2774702653081576E+01   9.2774702653081576E+01   9.2774702653081576E+01   9.2774702653081576E+01
   9.2774702653081576E+01   9.2774702653081576E+01   9.2774702653081576E+01   9.2774702653081576E+01   9.2774702653081576E+01
   9.2774702653081576E+01   9.2774702653081576E+01   9.2774702653081576E+01   9.2774702653081576E+01   9.2774702653081576E+01
   9.2774702653081576E+01   9.2401351797817114E+01   9.1974029123637564E+01   9.1548682661540553E+01   9.1125303272263338E+01
   9.0703881858808941E+01   9.0284409366250685E+01   8.9866876781537684E+01   8.9451275133301067E+01   8.9037595491661349E+01
   8.8625828968036501E+01   8.8215966714950795E+01   8.7807999925845081E+01   8.7401919834887195E+01   8.6997717716783882E+01
   8.6595384886593081E+01   8.6194912699537483E+01   8.5796292550818720E+01   8.5399515875432556E+01   8.5004574147984684E+01
   8.4611458882507705E+01   8.4220161632278703E+01   8.3830673989637788E+01   8.3442987585807629E+01   8.3057094090713079E+01
   8.2672985212802814E+01   8.2290652698870957E+01   8.1910088333879528E+01   8.1531283940782274E+01   8.1154231380348762E+01
   8.0778922550989392E+01   8.0405349388581740E+01   8.0033503866296783E+01   7.9663377994426881E+01   7.9294963820213624E+01
   7.8928253427677546E+01   7.8563238937447366E+01   7.8199912506591289E+01   7.7838266328448100E+01   7.7478292632459585E+01
   7.7119983684003572E+01   7.6763331784227645E+01   7.6408329269883893E+01   7.6054968513163971E+01   7.5703241921535493E+01
   7.5353141937578769E+01   7.5004661038824437E+01   7.4657791737591779E+01   7.4312526580827921E+01   7.3968858149947565E+01
   7.3626779060673755E+01   7.3286281962879158E+01   7.2947359540428039E+01   7.2610004511019127E+01   7.2274209626029275E+01
   7.1939967670357362E+01   7.1607271462269694E+01   7.1276113853245405E+01   7.0946487727822884E+01   7.0618386003447085E+01
   7.0291801630317053E+01   6.9966727591234729E+01   6.9643156901453935E+01   6.9321082608530432E+01   6.9000497792172581E+01
   6.8681395564092554E+01   6.8363769067858286E+01   6.8047611478746305E+01   6.7732916003594852E+01   6.7419675880658247E+01
   6.7107884379461396E+01   6.6797534800655129E+01   6.6488620475872381E+01   6.6181134767584794E+01   6.5875071068960366E+01
   6.5570422803721044E+01   6.5267183426001793E+01   6.4965346420209784E+01   6.4664905300884499E+01   6.4365853612558311E+01
   6.4068184929617757E+01   6.3771892856165451E+01   6.3476971025882747E+01   6.3183413101892945E+01   6.2891212776625117E+01
   6.2600363771678467E+01   6.2310859837687588E+01   6.2022694754188088E+01   6.1735862329482941E+01   6.1450356400509563E+01
   6.1166170832707195E+01   6.0883299519885206E+01   6.0601736384091922E+01   6.0321475375484034E+01   6.0042510472196412E+01
   5.9764835680212947E+01   5.9488445033237674E+01   5.9213332592566587E+01   5.8939492446960053E+01   5.8666918712515738E+01
   5.8395605532542163E+01   5.8125547077432984E+01   5.7856737544541687E+01   5.7589171158056871E+01   5.7322842168878147E+01
   5.7057744854492597E+01   5.6793873518851946E+01   5.6531222492249974E+01   5.6269786131200824E+01   5.6009558818317736E+01
   5.5750534962192255E+01   5.5492708997274235E+01   5.5236075383752180E+01   5.4980628607434120E+01   5.4726363179629288E+01
   5.4473273637030054E+01   5.4221354541594764E+01   5.3970600480430541E+01   5.3721006065677280E+01   5.3472565934391667E+01
   5.3225274748432163E+01   5.2979127194344180E+01   5.2734117983245874E+01   5.2490241850714575E+01   5.2247493556673668E+01
   5.2005867885279990E+01   5.1765359644811731E+01   5.1525963667556951E+01   5.1287674809702445E+01   5.1050487951223332E+01
   5.0814397995772929E+01   5.0579399870573390E+01   5.0345488526306518E+01   5.0112658937005406E+01   4.9880906099946493E+01
   4.9650225035541908E+01   4.9420610787232611E+01   4.9192058421381866E+01   4.8964563027169092E+01   4.8738119716484626E+01
   4.8512723623824463E+01   4.8288369906185793E+01   4.8065053742962910E+01   4.7842770335843674E+01   4.7621514908706438E+01
   4.7401282707517332E+01   4.7182069000228161E+01   4.6963869076674762E+01   4.6746678248475710E+01   4.6530491848931781E+01
   4.6315305232925411E+01   4.6101113776821023E+01   4.5887912878365697E+01   4.5675697956590284E+01   4.5464464451710967E+01
   4.5254207825031202E+01   4.5044923558844339E+01   4.4836607156336392E+01   4.4629254141489582E+01   4.4422860058986103E+01
   4.4217420474112295E+01   4.4012930972663483E+01   4.3809387160849049E+01   4.3606784665198184E+01   4.3405119132465622E+01
   4.3204386229538351E+01   4.3004581643342441E+01   4.2805701080750367E+01   4.2607740268488719E+01   4.2410694953046502E+01
   4.2214560900583550E+01   4.2019333896839754E+01   4.1825009747044362E+01   4.1631584275826022E+01   4.1439053327122856E+01
   4.1247412764093276E+01   4.1056658469027148E+01   4.0866786343257139E+01   4.0677792307070874E+01   4.0489672299623116E+01
   4.0302422278848539E+01   4.0116038221374907E+01   3.9930516122436728E+01   3.9745851995788925E+01   3.9562041873621460E+01
   3.9379081806473920E+01   3.9196967863150775E+01   3.9015696130636812E+01   3.8835262714013098E+01   3.8655663736373256E+01
   3.8476895338740185E+01   3.8298953679983228E+01   3.8121834936735503E+01   3.7945535303311829E+01   3.7770050991626889E+01
   3.7595378231113969E+01   3.7421513268643793E+01   3.7248452368443942E+01   3.7076191812018628E+01   3.6904727898068707E+01
   3.6734056942412252E+01   3.6564175277905299E+01   3.6395079254363104E+01   3.6226765238481704E+01   3.6059229613759804E+01
   3.5892468780421211E+01   3.5726479155337309E+01   3.5561257171950167E+01   3.5396799280195886E+01   3.5233101946428341E+01
   3.5070161653343199E+01   3.4907974899902442E+01   3.4746538201259028E+01   3.4585848088682077E+01   3.4425901109482332E+01
   3.4266693826937988E+01   3.4108222820220803E+01   3.3950484684322625E+01   3.3793476029982266E+01   3.3637193483612563E+01
   3.3481633687228076E+01   3.3326793298372706E+01   3.3172668990048081E+01   3.3019257450641952E+01   3.2866555383857090E+01
   3.2714559508640455E+01   3.2563266559112662E+01   3.2412673284497828E+01   3.2262776449053732E+01   3.2113572832002298E+01
   3.1965059227460383E+01   3.1817232444370855E+01   3.1670089306434075E+01   3.1523626652039674E+01   3.1377841334198536E+01
   3.1232730220475233E+01   3.1088290192920724E+01   3.0944518148005319E+01   3.0801410996552107E+01   3.0658965663670415E+01
   3.0517179088689861E+01   3.0376048225094500E+01   3.0235570040457493E+01   3.0095741516375810E+01   2.9956559648405495E+01
   2.9818021445997008E+01   2.9680123932431037E+01   2.9542864144754454E+01   2.9406239133716834E+01   2.9270245963706870E+01
   2.9134881712689396E+01   2.9000143472142639E+01   2.8866028346995659E+01   2.8732533455566159E+01   2.8599655929498585E+01
   2.8467392913702476E+01   2.8335741566291119E+01   2.8204699058520557E+01   2.8074262574728674E+01   2.7944429312274803E+01
   2.7815196481479422E+01   2.7686561305564336E+01   2.7558521020592909E+01   2.7431072875410699E+01   2.7304214131586356E+01
   2.7177942063352791E+01   2.7052253957548565E+01   2.6927147113559684E+01   2.6802618843261460E+01   2.6678666470960810E+01
   2.6555287333338789E+01   2.6432478779393325E+01   2.6310238170382263E+01   2.6188562879766639E+01   2.6067450293154309E+01
   2.5946897808243762E+01   2.5826902834768145E+01   2.5707462794439685E+01   2.5588575120894234E+01   2.5470237259636100E+01
   2.5352446667983312E+01   2.5235200815012796E+01   2.5118497181506093E+01   2.5002333259895217E+01   2.4886706554208811E+01
   2.4771614580018390E+01   2.4657054864385145E+01   2.4543024945806653E+01   2.4429522374164048E+01   2.4316544710669397E+01
   2.4204089527813277E+01   2.4092154409312592E+01   2.3980736950058660E+01   2.3869834756065600E+01   2.3759445444418830E+01
   2.3649566643223849E+01   2.3540195991555361E+01   2.3431331139406456E+01   2.3322969747638151E+01   2.3215109487929130E+01
   2.3107748042725756E+01   2.3000883105192187E+01   2.2894512379160865E+01   2.2788633579083218E+01   2.2683244429980444E+01
   2.2578342667394722E+01   2.2473926037340526E+01   2.2369992296256200E+01   2.2266539210955724E+01   2.2163564558580777E+01
   2.2061066126552927E+01   2.1959041712526133E+01   2.1857489124339370E+01   2.1756406179969613E+01   2.1655790707484851E+01
   2.1555640544997512E+01   2.1455953540617937E+01   2.1356727552408191E+01   2.1257960448336007E+01   2.1159650106229016E+01
   2.1061794413729107E+01   2.0964391268247056E+01   2.0867438576917369E+01   2.0770934256553268E+01   2.0674876233601999E+01
   2.0579262444100173E+01   2.0484090833629544E+01   2.0389359357272774E+01   2.0295065979569507E+01   2.0201208674472696E+01
   2.0107785425304979E+01   2.0014794224715438E+01   1.9922233074636388E+01   1.9830099986240505E+01   1.9738392979898055E+01
   1.9647110085134365E+01   1.9556249340587517E+01   1.9465808793966158E+01   1.9375786502007568E+01   1.9286180530435932E+01
   1.9196988953920755E+01   1.9108209856035476E+01   1.9019841329216330E+01   1.8931881474721344E+01   1.8844328402589490E+01
   1.8757180231600206E+01   1.8670435089232825E+01   1.8584091111626414E+01   1.8498146443539749E+01   1.8412599238311412E+01
   1.8327447657820120E+01   1.8242689872445201E+01   1.8158324061027372E+01   1.8074348410829522E+01   1.7990761117497769E+01
   1.7907560385022755E+01   1.7824744425700978E+01   1.7742311460096424E+01   1.7660259717002337E+01   1.7578587433403150E+01
   1.7497292854436569E+01   1.7416374233355924E+01   1.7335829831492635E+01   1.7255657918218780E+01   1.7175856770910013E+01
   1.7096424674908466E+01   1.7017359923485973E+01   1.6938660817807321E+01   1.6860325666893836E+01   1.6782352787586984E+01
   1.6704740504512209E+01   1.6627487150043002E+01   1.6550591064264985E+01   1.6474050594940291E+01   1.6397864097472041E+01
   1.6322029934869043E+01   1.6246546477710577E+01   1.6171412104111393E+01   1.6096625199686901E+01   1.6022184157518424E+01
   1.5948087378118704E+01   1.5874333269397551E+01   1.5800920246627603E+01   1.5727846732410265E+01   1.5655111156641873E+01
   1.5582711956479903E+01   1.5510647576309392E+01   1.5438916467709561E+01   1.5367517089420511E+01   1.5296447907310082E+01
   1.5225707394340954E+01   1.5155294030537785E+01   1.5085206302954555E+01   1.5015442705642077E+01   1.4946001739615642E+01
   1.4876881912822791E+01   1.4808081740111254E+01   1.4739599743197077E+01   1.4671434450632811E+01   1.4603584397775931E+01
   1.4536048126757327E+01   1.4468824186450043E+01   1.4401911132438018E+01   1.4335307526985103E+01   1.4269011939004184E+01
   1.4203022944026349E+01   1.4137339124170394E+01   1.4071959068112260E+01   1.4006881371054773E+01   1.3942104634697422E+01
   1.3877627467206318E+01   1.3813448483184331E+01   1.3749566303641258E+01   1.3685979555964224E+01   1.3622686873888217E+01
   1.3559686897466678E+01   1.3496978273042311E+01   1.3434559653218010E+01   1.3372429696827860E+01   1.3310587068908372E+01
   1.3249030440669779E+01   1.3187758489467466E+01   1.3126769898773579E+01   1.3066063358148732E+01   1.3005637563213835E+01
   1.2945491215622075E+01   1.2885623023031025E+01   1.2826031699074873E+01   1.2766715963336775E+01   1.2707674541321348E+01
   1.2648906164427297E+01   1.2590409569920125E+01   1.2532183500905035E+01   1.2474226706299927E+01   1.2416537940808462E+01
   1.2359115964893371E+01   1.2301959544749780E+01   1.2245067452278716E+01   1.2188438465060711E+01   1.2132071366329559E+01
   1.2075964944946120E+01   1.2020117995372363E+01   1.1964529317645413E+01   1.1909197717351788E+01   1.1854122005601726E+01
   1.1799300999003648E+01   1.1744733519638745E+01   1.1690418395035616E+01   1.1636354458145140E+01   1.1582540547315361E+01
   1.1528975506266535E+01   1.1475658184066289E+01   1.1422587435104887E+01   1.1369762119070623E+01   1.1317181100925310E+01
   1.1264843250879887E+01   1.1212747444370164E+01   1.1160892562032640E+01   1.1109277489680453E+01   1.1057901118279458E+01
   1.1006762343924363E+01   1.0955860067815044E+01   1.0905193196232904E+01   1.0854760640517421E+01   1.0804561317042680E+01
   1.0754594147194171E+01   1.0704858057345559E+01   1.0655351978835625E+01   1.0606074847945315E+01   1.0557025605874877E+01
   1.0508203198721116E+01   1.0459606577454736E+01   1.0411234697897800E+01   1.0363086520701325E+01   1.0315161011322909E+01
   1.0267457140004508E+01   1.0219973881750336E+01   1.0172710216304822E+01   1.0125665128130660E+01   1.0078837606387063E+01
   1.0032226644907958E+01   9.9858312421804101E+00   9.9396504013231137E+00   9.8936831300649271E+00   9.8479284407236118E+00
   9.8023853501845402E+00   9.7570528798796285E+00   9.7119300557662793E+00   9.6670159083064444E+00   9.6223094724458349E+00
   9.5778097875931394E+00   9.5335158975993899E+00   9.4894268507374449E+00   9.4455416996814936E+00   9.4018595014867437E+00
   9.3583793175691223E+00   9.3151002136851275E+00   9.2720212599117708E+00   9.2291415306265350E+00   9.1864601044875513E+00
   9.1439760644137564E+00   9.1016884975651990E+00   9.0595964953234240E+00   9.0176991532719448E+00   8.9759955711768225E+00
   8.9344848529672944E+00   8.8931661067165351E+00   8.8520384446224831E+00   8.8111009829887657E+00   8.7703528422056962E+00
   8.7297931467314083E+00   8.6894210250729795E+00   8.6492356097677590E+00   8.6092360373646883E+00   8.5694214484057589E+00
   8.5297909874075515E+00   8.4903438028428262E+00   8.4510790471222510E+00   8.4119958765761549E+00   8.3730934514364144E+00
   8.3343709358184057E+00   8.2958274977030246E+00   8.2574623089188215E+00   8.2192745451242022E+00   8.1812633857896824E+00
   8.1434280141802837E+00   8.1057676173379622E+00   8.0682813860641396E+00   8.0309685149022947E+00   7.9938282021206781E+00
   7.9568596496950663E+00   7.9200620632915939E+00   7.8834346522496883E+00   7.8469766295650816E+00   7.8106872118728861E+00
   7.7745656194307324E+00   7.7386110761020603E+00   7.7028228093393727E+00   7.6672000501676596E+00   7.6317420331678569E+00
   7.5964479964604035E+00   7.5613171816888327E+00   7.5263488340034863E+00   7.4915422020452960E+00   7.4568965379295955E+00
   7.4224110972300510E+00   7.3880851389626665E+00   7.3539179255698368E+00   7.3199087229044864E+00   7.2860568002142907E+00
   7.2523614301259398E+00   7.2188218886295159E+00   7.1854374550629103E+00   7.1522074120963168E+00   7.1191310457168173E+00
   7.0862076452130083E+00   7.0534365031597233E+00   7.0208169154027971E+00   6.9883481810439418E+00   6.9560296024256321E+00
   6.9238604851161316E+00   6.8918401378945155E+00   6.8599678727358295E+00   6.8282430047962537E+00   6.7966648523983810E+00
   6.7652327370165324E+00   6.7339459832621751E+00   6.7028039188693542E+00   6.6718058746802340E+00   6.6409511846307101E+00
   6.6102391857360354E+00   6.5796692180765648E+00   6.5492406247835318E+00   6.5189527520249211E+00   6.4888049489913673E+00
   6.4587965678821462E+00   6.4289269638912199E+00   6.3991954951933385E+00   6.3696015229302159E+00   6.3401444111967615E+00
   6.3108235270273809E+00   6.2816382403823248E+00   6.2525879241341222E+00   6.2236719540540353E+00   6.1948897087986339E+00
   6.1662405698963667E+00   6.1377239217342385E+00   6.1093391515445230E+00   6.0810856493915688E+00   6.0529628081585987E+00
   6.0249700235346371E+00   5.9971066940014657E+00   5.9693722208206275E+00   5.9417660080205099E+00   5.9142874623834620E+00
   5.8869359934330170E+00   5.8597110134210926E+00   5.8326119373153169E+00   5.8056381827863888E+00   5.7787891701954823E+00
   5.7520643225817167E+00   5.7254630656496870E+00   5.6989848277570418E+00   5.6726290399021062E+00   5.6463951357115834E+00
   5.6202825514282848E+00   5.5942907258989454E+00   5.5684191005620418E+00   5.5426671194357215E+00   5.5170342291057457E+00
   5.4915198787134853E+00   5.4661235199440004E+00   5.4408446070141272E+00   5.4156825966606528E+00   5.3906369481285310E+00
   5.3657071231591278E+00   5.3408925859785379E+00   5.3161928032859631E+00   5.2916072442421038E+00   5.2671353804576206E+00
   5.2427766859816547E+00   5.2185306372903879E+00   5.1943967132756272E+00   5.1703743952334751E+00   5.1464631668530316E+00
   5.1226625142051319E+00   5.0989719257311368E+00   5.0753908922318054E+00   5.0519189068561356E+00   5.0285554650903297E+00
   5.0053000647467556E+00   4.9821522059529766E+00   4.9591113911408211E+00   4.9361771250354769E+00   4.9133489146446676E+00
   4.8906262692478348E+00   4.8680087003853876E+00   4.8454957218479775E+00   4.8230868496658363E+00   4.8007816020981267E+00
   4.7785794996223805E+00   4.7564800649239123E+00   4.7344828228853411E+00   4.7125873005761054E+00   4.6907930272420373E+00
   4.6690995342949764E+00   4.6475063553024158E+00   4.6260130259772057E+00   4.6046190841672576E+00   4.5833240698453199E+00
   4.5621275250987923E+00   4.5410289941195430E+00   4.5200280231938033E+00   4.4991241606920713E+00   4.4783169570590724E+00
   4.4576059648037250E+00   4.4369907384891745E+00   4.4164708347228370E+00   4.3960458121465047E+00   4.3757152314264385E+00
   4.3554786552435614E+00   4.3353356482836078E+00   4.3152857772273654E+00   4.2953286107409250E+00   4.2754637194659617E+00
   4.2556906760100501E+00   4.2360090549370080E+00   4.2164184327572709E+00   4.1969183879183065E+00   4.1775085007950326E+00
   4.1581883536802895E+00   4.1389575307753290E+00   4.1198156181803292E+00   4.1007622038849547E+00   4.0817968777589027E+00
   4.0629192315425247E+00   4.0441288588374364E+00   4.0254253550971697E+00   4.0068083176178488E+00   3.9882773455288829E+00
   3.9698320397836988E+00   3.9514720031504660E+00   3.9331968402028714E+00   3.9150061573109163E+00   3.8968995626317082E+00
   3.8788766661003011E+00   3.8609370794205518E+00   3.8430804160559706E+00   3.8253062912206257E+00   3.8076143218700418E+00
   3.7900041266921245E+00   3.7724753260981116E+00   3.7550275422135142E+00   3.7376603988691106E+00   3.7203735215919176E+00
   3.7031665375961995E+00   3.6860390757744930E+00   3.6689907666886281E+00   3.6520212425607803E+00   3.6351301372645208E+00
   3.6183170863158831E+00   3.6015817268644468E+00   3.5849236976844145E+00   3.5683426391657167E+00   3.5518381933051146E+00
   3.5354100036973093E+00   3.5190577155260740E+00   3.5027809755553627E+00   3.4865794321204531E+00   3.4704527351190819E+00
   3.4544005360025825E+00   3.4384224877670273E+00   3.4225182449443863E+00   3.4066874635936557E+00   3.3909298012920202E+00
   3.3752449171259977E+00   3.3596324716825920E+00   3.3440921270404287E+00   3.3286235467609062E+00   3.3132263958793460E+00
   3.2979003408961036E+00   3.2826450497677242E+00   3.2674601918980573E+00   3.2523454381293728E+00   3.2373004607334810E+00
   3.2223249334028279E+00   3.2074185312415855E+00   3.1925809307567414E+00   3.1778118098491603E+00   3.1631108478046479E+00
   3.1484777252849887E+00   3.1339121243189849E+00   3.1194137282934649E+00   3.1049822219442751E+00   3.0906172913472743E+00
   3.0763186239092750E+00   3.0620859083590033E+00   3.0479188347380144E+00   3.0338170943915816E+00   3.0197803799595886E+00
   3.0058083853673678E+00   2.9919008058165315E+00   2.9780573377757733E+00   2.9642776789716403E+00   2.9505615283792723E+00
   2.9369085862131303E+00   2.9233185539176607E+00   2.9097911341579565E+00   2.8963260308103744E+00   2.8829229489531154E+00
   2.8695815948567667E+00   2.8563016759748283E+00   2.8430829009341583E+00   2.8299249795254191E+00   2.8168276226934714E+00
   2.8037905425277074E+00   2.7908134522523604E+00   2.7778960662167629E+00   2.7650380998855653E+00   2.7522392698288813E+00
   2.7394992937124205E+00   2.7268178902875375E+00   2.7141947793812520E+00   2.7016296818861987E+00   2.6891223197505409E+00
   2.6766724159678015E+00   2.6642796945666580E+00   2.6519438806006672E+00   2.6396647001379372E+00   2.6274418802507205E+00
   2.6152751490049684E+00   2.6031642354497859E+00   2.5911088696068569E+00   2.5791087824597669E+00   2.5671637059432726E+00
   2.5552733729325019E+00   2.5434375172320651E+00   2.5316558735651151E+00   2.5199281775622935E+00   2.5082541657506345E+00
   2.4966335755423708E+00   2.4850661452236533E+00   2.4735516139432017E+00   2.4620897217008499E+00   2.4506802093360305E+00
   2.4393228185161364E+00   2.4280172917248217E+00   2.4167633722501889E+00   2.4055608041729064E+00   2.3944093323541904E+00
   2.3833087024237347E+00   2.3722586607675011E+00   2.3612589545154363E+00   2.3503093315290684E+00   2.3394095403890063E+00
   2.3285593303823324E+00   2.3177584514898779E+00   2.3070066543734038E+00   2.2963036903626457E+00   2.2856493114422713E+00
   2.2750432702386996E+00   2.2644853200068131E+00   2.2539752146165504E+00   2.2435127085393800E+00   2.2330975568346325E+00
   2.2227295151357329E+00   2.2124083396362950E+00   2.2021337870760802E+00   2.1919056147268363E+00   2.1817235803780002E+00
   2.1715874423222750E+00   2.1614969593410498E+00   2.1514518906897107E+00   2.1414519960827905E+00   2.1314970356789931E+00
   2.1215867700660662E+00   2.1117209602455356E+00   2.1018993676172997E+00   2.0921217539640593E+00   2.0823878814356216E+00
   2.0726975125330394E+00   2.0630504100926168E+00   2.0534463372697349E+00   2.0438850575225600E+00   2.0343663345955636E+00
   2.0248899325029117E+00   2.0154556155116921E+00   2.0060631481249702E+00   1.9967122950647098E+00   1.9874028212545150E+00
   1.9781344918022299E+00   1.9689070719823583E+00   1.9597203272183381E+00   1.9505740230646509E+00   1.9414679251887683E+00
   1.9324017993529343E+00   1.9233754113957970E+00   1.9143885272138566E+00   1.9054409127427767E+00   1.8965323339385236E+00
   1.8876625567583374E+00   1.8788313471415554E+00   1.8700384709902691E+00   1.8612836941498303E+00   1.8525667823891885E+00
   1.8438875013810814E+00   1.8352456166820703E+00   1.8266408937124214E+00   1.8180730977358341E+00   1.8095419938390338E+00
   1.8010473469111961E+00   1.7925889216232516E+00   1.7841664824070380E+00   1.7757797934343171E+00   1.7674286185956654E+00
   1.7591127214792237E+00   1.7508318653493316E+00   1.7425858131250442E+00   1.7343743273585190E+00   1.7261971702133070E+00
   1.7180541034425336E+00   1.7099448883669797E+00   1.7018692858530793E+00   1.6938270562908155E+00   1.6858179595715568E+00
   1.6778417550658111E+00   1.6698982016009274E+00   1.6619870574387354E+00   1.6541080802531476E+00   1.6462610271077338E+00
   1.6384456544332542E+00   1.6306617180051990E+00   1.6229089729213237E+00   1.6151871735791858E+00   1.6074960736537200E+00
   1.5998354260748506E+00   1.5922049830051443E+00   1.5846044958175483E+00   1.5770337150732006E+00   1.5694923904993505E+00
   1.5619802709673902E+00   1.5544971044710258E+00   1.5470426381046123E+00   1.5396166180416482E+00   1.5322187895134867E+00
   1.5248488967882539E+00   1.5175066831500152E+00   1.5101918908782139E+00   1.5029042612273880E+00   1.4956435344072201E+00
   1.4884094495629336E+00   1.4812017447560519E+00   1.4740201569455740E+00   1.4668644219695859E+00   1.4597342745273343E+00
   1.4526294481618169E+00   1.4455496752428914E+00   1.4384946869509772E+00   1.4314642132613613E+00   1.4244579829291588E+00
   1.4174757234749655E+00   1.4105171611712555E+00   1.4035820210295402E+00   1.3966700267883774E+00   1.3897809009022353E+00
   1.3829143645312956E+00   1.3760701375322149E+00   1.3692479384499245E+00   1.3624474845105161E+00   1.3556684916152471E+00
   1.3489106743357620E+00   1.3421737459105618E+00   1.3354574182427941E+00   1.3287614018994245E+00   1.3220854061118650E+00
   1.3154291387781083E+00   1.3087923064664611E+00   1.3021746144209319E+00   1.2955757665683563E+00   1.2889954655273324E+00
   1.2824334126190482E+00   1.2758893078800764E+00   1.2693628500772218E+00   1.2628537367245196E+00   1.2563616641024404E+00
   1.2498863272794225E+00   1.2434274201358086E+00   1.2369846353902827E+00   1.2305576646288954E+00   1.2241461983367858E+00
   1.2177499259326985E+00   1.2113685358063857E+00   1.2050017153590080E+00   1.1986491510466368E+00   1.1923105284269637E+00
   1.1859855322093176E+00   1.1796738463081147E+00   1.1733751538998394E+00   1.1670891374836776E+00   1.1608154789458991E+00
   1.1545538596281282E+00   1.1483039603996006E+00   1.1420654617335202E+00   1.1358380437876505E+00   1.1296213864892353E+00
   1.1234151696243821E+00   1.1172190729320144E+00   1.1110327762025214E+00   1.1048559593812006E+00   1.0986883026766290E+00
   1.0925294866740669E+00   1.0863791924540041E+00   1.0802371017159627E+00   1.0741028969076671E+00   1.0679762613596711E+00
   1.0618568794255674E+00   1.0557444366278634E+00   1.0496386198096128E+00   1.0435391172919124E+00   1.0374456190373305E+00
   1.0313578168193660E+00   1.0252754043979868E+00   1.0191980777013452E+00   1.0131255350137078E+00   1.0070574771696683E+00
   1.0009936077546790E+00   9.9493363331194029E-01   9.8887726355568206E-01   9.8282421159083644E-01   9.7677419413912892E-01
   9.7072693177156488E-01   9.6468214914730832E-01   9.5863957525890386E-01   9.5259894368381259E-01   9.4655999284220438E-01
   9.4052246626090941E-01   9.3448611284346661E-01   9.2845068714614409E-01   9.2241594965981044E-01   9.1638166709751345E-01
   9.1034761268760944E-01   9.0431356647224281E-01   8.9827931561099628E-01   8.9224465468946768E-01   8.8620938603253607E-01
   8.8017332002204329E-01   8.7413627541860139E-01   8.6809807968719810E-01   8.6205856932627178E-01   8.5601759019988299E-01
   8.4997499787257746E-01   8.4393065794654243E-01   8.3788444640058868E-01   8.3183624993050509E-01   8.2578596629026146E-01
   8.1973350463355432E-01   8.1367878585512809E-01   8.0762174293129252E-01   8.0156232125902260E-01   7.9550047899301524E-01
   7.8943618738001831E-01   7.8336943108976809E-01   7.7730020854179771E-01   7.7122853222738952E-01   7.6515442902590425E-01
   7.5907794051468880E-01   7.5299912327177076E-01   7.4691804917050220E-01   7.4083480566529025E-01   7.3474949606757134E-01
   7.2866223981112843E-01   7.2257317270585875E-01   7.1648244717909215E-01   7.1039023250352162E-01   7.0429671501084334E-01
   6.9820209829016200E-01   6.9210660337023233E-01   6.8601046888460648E-01   6.7991395121875831E-01   6.7381732463827237E-01
   6.6772088139716690E-01   6.6162493182548221E-01   6.5552980439524089E-01   6.4943584576391444E-01   6.4334342079458240E-01
   6.3725291255197136E-01   6.3116472227359055E-01   6.2507926931524904E-01   6.1899699107024453E-01   6.1291834286157876E-01
   6.0684379780659403E-01   6.0077384665348021E-01   5.9470899758916618E-01   5.8864977601813884E-01   5.8259672431184506E-01
   5.7655040152835380E-01   5.7051138310204841E-01   5.6448026050319455E-01   5.5845764086728567E-01   5.5244414659417829E-01
   5.4644041491708750E-01   5.4044709744159414E-01   5.3446485965493384E-01   5.2849438040588503E-01   5.2253635135569110E-01
   5.1659147640053560E-01   5.1066047106616430E-01   5.0474406187537080E-01   4.9884298568912622E-01   4.9295798902223392E-01
   4.8708982733448114E-01   4.8123926429835379E-01   4.7540707104444124E-01   4.6959402538578521E-01   4.6380091102246518E-01
   4.5802851672782480E-01   4.5227763551778372E-01   4.4654906380479548E-01   4.4084360053803923E-01   4.3516204633150291E-01
   4.2950520258169606E-01   4.2387387057675080E-01   4.1826885059873131E-01   4.1269094102100723E-01   4.0714093740258850E-01
   4.0161963158131714E-01   3.9612781076787557E-01   3.9066625664254323E-01   3.8523574445665903E-01   3.7983704214074249E-01
   3.7447090942121519E-01   3.6913809694765498E-01   3.6383934543247126E-01   3.5857538480490170E-01   3.5334693338113637E-01
   3.4815469705238766E-01   3.4299936849263074E-01   3.3788162638771374E-01   3.3280213468743874E-01   3.2776154188219042E-01
   3.2276048030557380E-01   3.1779956546446425E-01   3.1287939539778464E-01   3.0800055006523325E-01   3.0316359076709920E-01
   2.9836905959618948E-01   2.9361747892282219E-01   2.8890935091370740E-01   2.8424515708545772E-01   2.7962535789334092E-01
   2.7505039235581380E-01   2.7052067771523980E-01   2.6603660913509236E-01   2.6159855943386012E-01   2.5720687885573568E-01
   2.5286189487808464E-01   2.4856391205558320E-01   2.4431321190081579E-01   2.4011005280101394E-01   2.3595466997054881E-01
   2.3184727543867145E-01   2.2778805807192412E-01   2.2377718363055737E-01   2.1981479485820810E-01   2.1590101160402472E-01
   2.1203593097633874E-01   2.0821962752694881E-01   2.0445215346498100E-01   2.0073353889927589E-01   1.9706379210817204E-01
   1.9344289983553062E-01   1.8987082761178778E-01   1.8634752009881372E-01   1.8287290145730128E-01   1.7944687573540063E-01
   1.7606932727729269E-01   1.7274012115037890E-01   1.6945910358976321E-01   1.6622610245868308E-01   1.6304092772357018E-01
   1.5990337194240342E-01   1.5681321076503987E-01   1.5377020344422135E-01   1.5077409335595882E-01   1.4782460852804372E-01
   1.4492146217541954E-01   1.4206435324122474E-01   1.3925296694229239E-01   1.3648697531796453E-01   1.3376603778110954E-01
   1.3108980167023193E-01   1.2845790280166264E-01   1.2586996602078929E-01   1.2332560575139602E-01   1.2082442654216412E-01
   1.1836602360946689E-01   1.1594998337563329E-01   1.1357588400187120E-01   1.1124329591512432E-01   1.0895178232815662E-01
   1.0670089975220733E-01   1.0449019850161576E-01   1.0231922318984538E-01   1.0018751321639234E-01   9.8094603244092263E-02
   9.6040023666408264E-02   9.4023301064290077E-02   9.2043958652261212E-02   9.0101516713430280E-02   8.8195493023133939E-02
   8.6325403261000411E-02   8.4490761411209370E-02   8.2691080150807061E-02   8.0925871225927315E-02   7.9194645815826109E-02
   7.7496914884668242E-02   7.5832189521011284E-02   7.4199981264990861E-02   7.2599802423207238E-02   7.1031166371367513E-02
   6.9493587844731683E-02   6.7986583216452942E-02   6.6509670763922654E-02   6.5062370923228571E-02   6.3644206531885877E-02
   6.2254703059979370E-02   6.0893388829907476E-02   5.9559795224899077E-02   5.8253456886507772E-02   5.6973911901297698E-02
   5.5720701976928855E-02   5.4493372607881126E-02   5.3291473231048304E-02   5.2114557371443611E-02   5.0962182778270283E-02
   4.9833911551606672E-02   4.8729310259966740E-02   4.7647950048991861E-02   4.6589406741545387E-02   4.5553260929465919E-02
   4.4539098057248754E-02   4.3546508497925587E-02   4.2575087621397702E-02   4.1624435855499478E-02   4.0694158740043035E-02
   3.9783866974116310E-02   3.8893176456884310E-02   3.8021708322152410E-02   3.7169088966947761E-02   3.6334950074359787E-02
   3.5518928630891719E-02   3.4720666938559748E-02   3.3939812621977879E-02   3.3176018630658673E-02   3.2428943236755992E-02
   3.1698250028475428E-02   3.0983607899360964E-02   3.0284691033677851E-02   2.9601178888089736E-02   2.8932756169833214E-02
   2.8279112811586769E-02   2.7639943943216283E-02   2.7014949860588281E-02   2.6403835991621178E-02   2.5806312859751615E-02
   2.5222096044979960E-02   2.4650906142655041E-02   2.4092468720155059E-02   2.3546514271612709E-02   2.3012778170829955E-02
   2.2491000622518884E-02   2.1980926612006152E-02   2.1482305853525056E-02   2.0994892737220064E-02   2.0518446274984132E-02
   2.0052730045236861E-02   1.9597512136757981E-02   1.9152565091673662E-02   1.8717665847700508E-02   1.8292595679737088E-02
   1.7877140140895139E-02   1.7471089003057799E-02   1.7074236197043142E-02   1.6686379752453896E-02   1.6307321737285847E-02
   1.5936868197364468E-02   1.5574829095677836E-02   1.5221018251666234E-02   1.4875253280531110E-02   1.4537355532615459E-02
   1.4207150032912726E-02   1.3884465420750667E-02   1.3569133889698310E-02   1.3260991127741258E-02   1.2959876257763427E-02
   1.2665631778377510E-02   1.2378103505136745E-02   1.2097140512163993E-02   1.1822595074228460E-02   1.1554322609298498E-02
   1.1292181621598453E-02   1.1036033645193450E-02   1.0785743188125521E-02   1.0541177677120905E-02   1.0302207402889649E-02
   1.0068705466032654E-02   9.8405477235730468E-03   9.6176127361268984E-03   9.3997817157237522E-03   9.1869384742909628E-03
   8.9789693728096632E-03   8.7757632711518846E-03   8.5772114786071846E-03   8.3832077051030750E-03   8.1936480131269956E-03
   8.0084307703517897E-03   7.8274566029695979E-03   7.6506283497359108E-03   7.4778510167249485E-03   7.3090317327978195E-03
   7.1440797057827597E-03   6.9829061793671415E-03   6.8254243906989975E-03   6.6715495286973322E-03   6.5211986930670445E-03
   6.3742908540159746E-03   6.2307468126707941E-03   6.0904891621861171E-03   5.9534422495438749E-03   5.8195321380362626E-03
   5.6886865704279714E-03   5.5608349327913526E-03   5.4359082190082470E-03   5.3138389959324871E-03   5.1945613692059361E-03
   5.0780109497214091E-03   4.9641248207249085E-03   4.8528415055502008E-03   4.7441009359779750E-03   4.6378444212114862E-03
   4.5340146174616984E-03   4.4325554981326475E-03   4.3334123246002478E-03   4.2365316175751924E-03   4.1418611290421382E-03
   4.0493498147671286E-03   3.9589478073638962E-03   3.8706063899117123E-03   3.7842779701152320E-03   3.6999160549985874E-03
   3.6174752261248638E-03   3.5369111153323507E-03   3.4581803809793374E-03   3.3812406846887222E-03   3.3060506685841278E-03
   3.2325699330087920E-03   3.1607590147193897E-03   3.0905793655458206E-03   3.0219933315089520E-03   2.9549641323883464E-03
   2.8894558417311119E-03   2.8254333672945893E-03   2.7628624319141599E-03   2.7017095547884977E-03   2.6419420331746223E-03
   2.5835279244844013E-03   2.5264360287753206E-03   2.4706358716275897E-03   2.4160976874002230E-03   2.3627924028584804E-03
   2.3106916211655245E-03   2.2597676062309736E-03   2.2099932674090363E-03   2.1613421445395888E-03   2.1137883933247006E-03
   2.0673067710343363E-03   2.0218726225340266E-03   1.9774618666280569E-03   1.9340509827118148E-03   1.8916169977264085E-03
   1.8501374734097866E-03   1.8095904938376047E-03   1.7699546532480982E-03   1.7312090441447849E-03   1.6933332456710289E-03
   1.6563073122507954E-03   1.6201117624897599E-03   1.5847275683312670E-03   1.5501361444614453E-03   1.5163193379583717E-03
   1.4832594181796535E-03   1.4509390668833704E-03   1.4193413685773691E-03   1.3884498010915823E-03   1.3582482263688322E-03
   1.3287208814689617E-03   1.2998523697817061E-03   1.2716276524437533E-03   1.2440320399552042E-03   1.2170511839911934E-03
   1.1906710694041787E-03   1.1648780064126743E-03   1.1396586229721556E-03   1.1149998573241173E-03   1.0908889507192157E-03
   1.0673134403104724E-03   1.0442611522128770E-03   1.0217201947253299E-03   9.9967895171150685E-04   9.7812607613579250E-04
   9.5705048375082432E-04   9.3644134693325349E-04   9.1628808866411405E-04   8.9658037665072820E-04   8.7730811758665204E-04
   8.5846145154664928E-04   8.4003074651350408E-04   8.2200659303360087E-04   8.0437979899835254E-04   7.8714138454851065E-04
   7.7028257709853460E-04   7.5379480647818459E-04   7.3766970018866848E-04   7.2189907877065007E-04   7.0647495128145510E-04
   6.9138951087905883E-04   6.7663513051018065E-04   6.6220435870023445E-04   6.4808991544260271E-04   6.3428468818496511E-04
   6.2078172791045841E-04   6.0757424531131721E-04   5.9465560705294213E-04   5.8201933212619636E-04   5.6965908828589327E-04
   5.5756868857340699E-04   5.4574208792146730E-04   5.3417337983918266E-04   5.2285679317535909E-04   5.1178668895836710E-04
   5.0095755731061086E-04   4.9036401443597799E-04   4.8000079967843270E-04   4.6986277265011379E-04   4.5994491042733210E-04
   4.5024230481275832E-04   4.4075015966235246E-04   4.3146378827540332E-04   4.2237861084622072E-04   4.1349015197605232E-04
   4.0479403824371726E-04   3.9628599583363736E-04   3.8796184821986022E-04   3.7981751390476701E-04   3.7184900421114114E-04
   3.6405242112636069E-04   3.5642395519746027E-04   3.4895988347583229E-04   3.4165656751044816E-04   3.3451045138835974E-04
   3.2751805982144777E-04   3.2067599627824407E-04   3.1398094115978471E-04   3.0742965001847358E-04   3.0101895181886516E-04
   2.9474574723945061E-04   2.8860700701439527E-04   2.8259977031433876E-04   2.7672114316528194E-04   2.7096829690468493E-04
   2.6533846667388156E-04   2.5982894994592577E-04   2.5443710508807224E-04   2.4916034995801814E-04   2.4399616053312435E-04
   2.3894206957185212E-04   2.3399566530659660E-04   2.2915459016723290E-04   2.2441653953458163E-04   2.1977926052314071E-04
   2.1524055079234113E-04   2.1079825738566651E-04   2.0645027559699049E-04   2.0219454786344796E-04   1.9802906268424236E-04
   1.9395185356475402E-04   1.8996099798535918E-04   1.8605461639435887E-04   1.8223087122445992E-04   1.7848796593224344E-04
   1.7482414406006151E-04   1.7123768831986028E-04   1.6772691969836815E-04   1.6429019658318448E-04   1.6092591390923862E-04
   1.5763250232514930E-04   1.5440842737902668E-04   1.5125218872322134E-04   1.4816231933761193E-04   1.4513738477095817E-04
   1.4217598239990874E-04   1.3927674070524448E-04   1.3643831856494402E-04   1.3365940456367873E-04   1.3093871631833745E-04
   1.2827499981922264E-04   1.2566702878652364E-04   1.2311360404171698E-04   1.2061355289355100E-04   1.1816572853824375E-04
   1.1576900947359062E-04   1.1342229892662137E-04   1.1112452429451640E-04   1.0887463659844593E-04   1.0667160995003660E-04
   1.0451444103017631E-04   1.0240214857984709E-04   1.0033377290272041E-04   9.8308375379227588E-05   9.6325037991841047E-05
   9.4382862861295264E-05   9.2480971793498871E-05   9.0618505836881691E-05   8.8794624849926660E-05   8.7008507078661834E-05
   8.5259348743857961E-05   8.3546363637725430E-05   8.1868782729870037E-05   8.0225853782297477E-05   7.8616840973260831E-05
   7.7041024529727042E-05   7.5497700368280460E-05   7.3986179744249127E-05   7.2505788908868243E-05   7.1055868774298178E-05
   6.9635774586299893E-05   6.8244875604402927E-05   6.6882554789378054E-05   6.5548208497856868E-05   6.4241246183919682E-05
   6.2961090107494012E-05   6.1707175049410118E-05   6.0478948032945197E-05   5.9275868051720948E-05   5.8097405803790496E-05
   5.6943043431785593E-05   5.5812274268970836E-05   5.4704602591072964E-05   5.3619543373754170E-05   5.2556622055589408E-05
   5.1515374306428189E-05   5.0495345801011161E-05   4.9496091997721759E-05   4.8517177922351165E-05   4.7558177956763537E-05
   4.6618675632346619E-05   4.5698263428133774E-05   4.4796542573496646E-05   4.3913122855294512E-05   4.3047622429380928E-05
   4.2199667636370390E-05   4.1368892821557680E-05   4.0554940158904834E-05   3.9757459478990817E-05   3.8976108100842907E-05
   3.8210550667551917E-05   3.7460458985587598E-05   3.6725511867731372E-05   3.6005394979536855E-05   3.5299800689243703E-05
   3.4608427921059093E-05   3.3930982011735840E-05   3.3267174570365642E-05   3.2616723341315787E-05   3.1979352070240027E-05
   3.1354790373086584E-05   3.0742773608042275E-05   3.0143042750337608E-05   2.9555344269854944E-05   2.8979430011469193E-05
   2.8415057078061327E-05   2.7861987716145381E-05   2.7319989204044510E-05   2.6788833742562093E-05   2.6268298348089177E-05
   2.5758164748091877E-05   2.5258219278926262E-05   2.4768252785926066E-05   2.4288060525712797E-05   2.3817442070675289E-05
   2.3356201215573152E-05   2.2904145886211717E-05   2.2461088050143244E-05   2.2026843629349933E-05   2.1601232414859421E-05
   2.1184077983254300E-05   2.0775207615027058E-05   2.0374452214743931E-05   1.9981646232972429E-05   1.9596627589934302E-05
   1.9219237600846269E-05   1.8849320902906975E-05   1.8486725383896100E-05   1.8131302112347285E-05   1.7782905269260321E-05
   1.7441392081317094E-05   1.7106622755567311E-05   1.6778460415552534E-05   1.6456771038832875E-05   1.6141423395888492E-05
   1.5832288990361775E-05   1.5529242000611387E-05   1.5232159222549727E-05   1.4940920013732018E-05   1.4655406238672494E-05
   1.4375502215356784E-05   1.4101094662926014E-05   1.3832072650505406E-05   1.3568327547151260E-05   1.3309752972892331E-05
   1.3056244750840177E-05   1.2807700860345242E-05   1.2564021391174087E-05   1.2325108498687012E-05   1.2090866359991434E-05
   1.1861201131050305E-05   1.1636020904725088E-05   1.1415235669730174E-05   1.1198757270481162E-05   1.0986499367814292E-05
   1.0778377400560338E-05   1.0574308547951673E-05   1.0374211692844983E-05   1.0178007385742125E-05   9.9856178095897114E-06
   9.7969667453416646E-06   9.6119795382671607E-06   9.4305830649870928E-06   9.2527057012238308E-06   9.0782772902471722E-06
   8.9072291120027204E-06   8.7394938529055528E-06   8.5750055762866046E-06   8.4136996934755633E-06   8.2555129355069111E-06
   8.1003833254360110E-06   7.9482501512501211E-06   7.7990539393631598E-06   7.6527364286795466E-06   7.5092405452158893E-06
   7.3685103772676426E-06   7.2304911511085983E-06   7.0951292072119690E-06   6.9623719769811585E-06   6.8321679599793818E-06
   6.7044667016465091E-06   6.5792187714935645E-06   6.4563757417632009E-06   6.3358901665464691E-06   6.2177155613463422E-06
   6.1018063830770128E-06   5.9881180104908558E-06   5.8766067250222621E-06   5.7672296920405781E-06   5.6599449425021224E-06
   5.5547113549930011E-06   5.4514886381545732E-06   5.3502373134823084E-06   5.2509186984907250E-06   5.1534948902360729E-06
   5.0579287491887853E-06   4.9641838834485496E-06   4.8722246332940962E-06   4.7820160560607576E-06   4.6935239113382406E-06
   4.6067146464823373E-06   4.5215553824330178E-06   4.4380138998325845E-06   4.3560586254377160E-06   4.2756586188181830E-06
   4.1967835593370339E-06   4.1194037334052305E-06   4.0434900220054480E-06   3.9690138884789294E-06   3.8959473665696707E-06
   3.8242630487205495E-06   3.7539340746157988E-06   3.6849341199646586E-06   3.6172373855207078E-06   3.5508185863322527E-06
   3.4856529412184140E-06   3.4217161624660394E-06   3.3589844457431191E-06   3.2974344602234736E-06   3.2370433389185975E-06
   3.1777886692118999E-06   3.1196484835913742E-06   3.0626012505760169E-06   3.0066258658320013E-06   2.9517016434748003E-06
   2.8978083075526964E-06   2.8449259837084566E-06   2.7930351910148108E-06   2.7421168339802381E-06   2.6921521947216164E-06
   2.6431229252996534E-06   2.5950110402142608E-06   2.5477989090558040E-06   2.5014692493095137E-06   2.4560051193093075E-06
   2.4113899113380409E-06   2.3676073448712263E-06   2.3246414599607292E-06   2.2824766107560068E-06   2.2410974591594084E-06
   2.2004889686132139E-06   2.1606363980151913E-06   2.1215252957601116E-06   2.0831414939047041E-06   2.0454711024530404E-06
   2.0085005037602601E-06   1.9722163470517356E-06   1.9366055430554130E-06   1.9016552587450392E-06   1.8673529121915969E-06
   1.8336861675210731E-06   1.8006429299759507E-06   1.7682113410784702E-06   1.7363797738933491E-06   1.7051368283880683E-06
   1.6744713268884223E-06   1.6443723096274444E-06   1.6148290303858587E-06   1.5858309522218288E-06   1.5573677432884777E-06
   1.5294292727370523E-06   1.5020056067040324E-06   1.4750870043805375E-06   1.4486639141620355E-06   1.4227269698769870E-06
   1.3972669870924477E-06   1.3722749594953223E-06   1.3477420553474383E-06   1.3236596140129932E-06   1.3000191425569526E-06
   1.2768123124126814E-06   1.2540309561176394E-06   1.2316670641154783E-06   1.2097127816232722E-06   1.1881604055625734E-06
   1.1670023815527725E-06   1.1462313009657105E-06   1.1258398980400125E-06   1.1058210470541397E-06   1.0861677595567445E-06
   1.0668731816532139E-06   1.0479305913473052E-06   1.0293333959365448E-06   1.0110751294604927E-06   9.9314945020059189E-07
   9.7555013823060366E-07   9.5827109301665125E-07   9.4130633106569300E-07   9.2464998362155040E-07   9.0829629440741105E-07
   8.9223961741396622E-07   8.7647441473206255E-07   8.6099525442914462E-07   8.4579680846842127E-07   8.3087385066994109E-07
   8.1622125471276354E-07   8.0183399217723895E-07   7.8770713062673643E-07   7.7383583172786586E-07   7.6021534940846547E-07
   7.4684102805261573E-07   7.3370830073179676E-07   7.2081268747160382E-07   7.0814979355312367E-07   6.9571530784841860E-07
   6.8350500118929072E-07   6.7151472476869700E-07   6.5974040857418675E-07   6.4817805985259035E-07   6.3682376160546391E-07
   6.2567367111450805E-07   6.1472401849649525E-07   6.0397110528698139E-07   5.9341130305226345E-07   5.8304105202904488E-07
   5.7285685979113952E-07   5.6285529994278440E-07   5.5303301083791711E-07   5.4338669432492721E-07   5.3391311451640074E-07
   5.2460909658326994E-07   5.1547152557293512E-07   5.0649734525082757E-07   4.9768355696498819E-07   4.8902721853313476E-07
   4.8052544315178435E-07   4.7217539832702176E-07   4.6397430482638767E-07   4.5591943565156330E-07   4.4800811503132110E-07
   4.4023771743443511E-07   4.3260566660206256E-07   4.2510943459923778E-07   4.1774654088511818E-07   4.1051455140153092E-07
   4.0341107767953983E-07   3.9643377596357456E-07   3.8958034635285991E-07   3.8284853195971976E-07   3.7623611808444742E-07
   3.6974093140643284E-07   3.6336083919115344E-07   3.5709374851278874E-07   3.5093760549206398E-07   3.4489039454909166E-07
   3.3895013767084895E-07   3.3311489369302140E-07   3.2738275759594634E-07   3.2175185981431455E-07   3.1622036556042565E-07
   3.1078647416066326E-07   3.0544841840495248E-07   3.0020446390895544E-07   2.9505290848871212E-07   2.8999208154749711E-07
   2.8502034347466410E-07   2.8013608505620234E-07   2.7533772689679961E-07   2.7062371885316182E-07   2.6599253947839342E-07
   2.6144269547717159E-07   2.5697272117155385E-07   2.5258117797715006E-07   2.4826665388950834E-07   2.4402776298046449E-07
   2.3986314490427729E-07   2.3577146441336885E-07   2.3175141088343919E-07   2.2780169784781804E-07   2.2392106254081965E-07
   2.2010826544997012E-07   2.1636208987689223E-07   2.1268134150669187E-07   2.0906484798569163E-07   2.0551145850730843E-07
